~o
<STREAMINFO> 1 39
<VECSIZE> 39<NULLD><MFCC_D_A_0><DIAGC>
~h "N"
<BEGINHMM>
<NUMSTATES> 5
<STATE> 2
<MEAN> 39
 1.642721e+00 3.040507e+00 -2.026195e+00 -3.253259e+00 -7.011672e+00 -8.529779e+00 -3.773943e+00 -6.010864e+00 -4.233463e+00 -3.496083e+00 -3.050429e+00 -3.463775e+00 6.657285e+01 1.921349e-01 1.280903e+00 5.329859e-01 3.660436e-01 3.823768e-01 8.980447e-02 5.695610e-02 -6.454393e-02 -1.050360e+00 -4.830351e-01 -6.167686e-02 1.569695e-01 -9.651658e-01 -8.219189e-02 -3.481905e-01 -1.949864e-01 -1.812598e-01 -2.072988e-01 -8.281247e-02 1.496609e-01 9.227325e-02 2.519284e-01 1.914067e-01 5.243164e-02 -8.883477e-02 3.374497e-01
<VARIANCE> 39
 9.186543e+00 3.923458e+01 2.767591e+01 4.059513e+01 4.135441e+01 5.721905e+01 5.299128e+01 6.899286e+01 4.510313e+01 6.229243e+01 5.519249e+01 5.604435e+01 2.402363e+01 3.564803e-01 9.071898e-01 1.271927e+00 1.722199e+00 2.083540e+00 2.921381e+00 2.737566e+00 3.463342e+00 3.328805e+00 3.447358e+00 2.897420e+00 2.378212e+00 3.986642e-01 7.829563e-02 1.304199e-01 2.119000e-01 2.906922e-01 3.684151e-01 4.667538e-01 4.313124e-01 4.987769e-01 5.442325e-01 5.408328e-01 4.798098e-01 3.964455e-01 7.214575e-02
<GCONST> 1.107001e+02
<STATE> 3
<MEAN> 39
 1.554407e+00 6.093752e+00 -1.172118e+00 -2.514905e+00 -7.151232e+00 -8.532487e+00 -2.449156e+00 -4.867211e+00 -6.243807e+00 -4.575064e+00 -1.845121e+00 -2.881691e+00 6.462906e+01 -1.691628e-01 -5.390422e-02 -1.981901e-01 -4.489078e-01 2.339577e-02 3.173665e-01 1.129275e-01 -2.967808e-02 4.295524e-01 1.826360e-01 -1.942994e-01 -7.220603e-02 1.382439e-01 -9.815096e-02 -5.079159e-01 -2.863808e-01 -2.456213e-01 -6.991968e-02 1.707381e-01 3.941760e-02 -8.950363e-02 5.244941e-01 2.944362e-01 -7.273950e-02 -1.625067e-01 3.808553e-01
<VARIANCE> 39
 8.741296e+00 3.397120e+01 2.148064e+01 3.708481e+01 3.966209e+01 5.113524e+01 4.358534e+01 5.257187e+01 4.354671e+01 5.244955e+01 4.635119e+01 5.215149e+01 2.281555e+01 3.358790e-01 9.337872e-01 1.209522e+00 1.594636e+00 1.802846e+00 2.520646e+00 2.083650e+00 2.722988e+00 3.025713e+00 2.699448e+00 2.743552e+00 1.947922e+00 4.268948e-01 6.951177e-02 1.652192e-01 2.549750e-01 3.134995e-01 4.159124e-01 5.486502e-01 4.897628e-01 6.371738e-01 6.052669e-01 5.732962e-01 5.973367e-01 4.944311e-01 6.815618e-02
<GCONST> 1.091271e+02
<STATE> 4
<MEAN> 39
 9.966776e-01 5.196679e-01 -5.249133e+00 -5.957850e+00 -7.076580e+00 -4.359201e+00 -1.164065e+00 -5.721606e+00 -3.763428e-01 -2.319680e+00 -5.147516e+00 -6.038027e+00 6.843987e+01 -1.010242e-01 -8.386593e-01 -7.722852e-01 -4.411492e-01 1.150913e-01 6.288260e-01 4.080125e-01 -3.615121e-02 7.174922e-01 6.552148e-01 -2.276499e-01 -6.605957e-01 4.557067e-01 6.675594e-03 -1.282413e-02 8.346632e-03 7.440153e-02 -2.170889e-02 -5.814428e-02 6.031758e-02 4.578352e-02 -1.377054e-01 3.712118e-02 1.268299e-01 -3.058853e-02 -3.990354e-02
<VARIANCE> 39
 8.893876e+00 5.111339e+01 4.660988e+01 5.609011e+01 6.294394e+01 8.525260e+01 6.309015e+01 8.638101e+01 7.541490e+01 8.221856e+01 7.578935e+01 6.314359e+01 2.734383e+01 3.115017e-01 1.497095e+00 1.648128e+00 1.729588e+00 2.157696e+00 2.726361e+00 2.394335e+00 2.856310e+00 3.760177e+00 2.815124e+00 3.329098e+00 2.805024e+00 5.808640e-01 4.922739e-02 2.124469e-01 2.138608e-01 2.363846e-01 3.187112e-01 4.345016e-01 4.423821e-01 4.616457e-01 5.157594e-01 4.746654e-01 4.474744e-01 4.335113e-01 7.248620e-02
<GCONST> 1.146182e+02
<TRANSP> 5
 0.000000e+00 1.000000e+00 0.000000e+00 0.000000e+00 0.000000e+00
 0.000000e+00 5.303897e-01 4.696104e-01 0.000000e+00 0.000000e+00
 0.000000e+00 0.000000e+00 5.790621e-01 4.209379e-01 0.000000e+00
 0.000000e+00 0.000000e+00 0.000000e+00 6.988841e-01 3.011159e-01
 0.000000e+00 0.000000e+00 0.000000e+00 0.000000e+00 0.000000e+00
<ENDHMM>
~h "a"
<BEGINHMM>
<NUMSTATES> 5
<STATE> 2
<MEAN> 39
 1.033235e+00 -2.783740e+00 -8.570207e+00 -8.902356e+00 -9.847218e+00 -6.052483e+00 -9.806935e-01 -5.683080e+00 -9.412877e-01 8.056605e-01 -4.740204e-01 -3.658620e+00 7.118327e+01 1.455143e-01 -4.238500e-01 -4.091085e-01 -4.368182e-02 1.730373e-01 2.951315e-01 -2.255568e-02 1.965234e-01 5.565726e-01 7.002374e-01 -8.959003e-03 -3.512143e-01 -7.024840e-03 -1.818083e-01 3.191927e-01 3.685662e-01 3.375476e-01 2.062173e-01 -6.577504e-02 -1.402961e-01 3.531010e-02 -1.809759e-01 -2.717365e-01 -5.222803e-02 1.290424e-01 -4.064732e-01
<VARIANCE> 39
 1.752716e+01 5.150148e+01 4.291737e+01 5.626968e+01 6.403260e+01 8.781532e+01 6.860515e+01 7.323834e+01 6.294779e+01 6.730644e+01 6.916004e+01 8.171603e+01 3.359283e+01 1.228285e+00 1.942509e+00 2.353231e+00 3.166797e+00 3.304522e+00 4.302313e+00 4.288041e+00 3.874741e+00 4.332987e+00 4.335340e+00 4.017097e+00 4.006101e+00 1.315740e+00 2.739104e-01 3.332151e-01 3.823189e-01 4.325630e-01 6.463336e-01 7.040901e-01 6.839800e-01 7.279917e-01 7.727900e-01 8.372599e-01 7.902604e-01 8.109773e-01 2.156861e-01
<GCONST> 1.301707e+02
<STATE> 3
<MEAN> 39
 1.318442e+00 -3.037784e+00 -8.975771e+00 -8.897757e+00 -9.421898e+00 -5.520240e+00 -1.216110e+00 -5.716513e+00 -4.471378e-01 1.436969e+00 -8.005650e-01 -4.303974e+00 7.084315e+01 -4.283599e-02 3.634772e-01 3.771569e-01 5.715740e-01 4.206395e-01 -5.909152e-02 -3.558484e-01 1.469693e-01 7.483468e-02 1.073530e-01 -3.221437e-02 3.554763e-02 -7.473657e-01 -1.686464e-01 3.274825e-01 3.508732e-01 2.883146e-01 1.452491e-01 -7.531157e-02 -9.217089e-02 4.845860e-04 -2.255101e-01 -3.067519e-01 -3.782822e-03 1.791677e-01 -3.603175e-01
<VARIANCE> 39
 1.668712e+01 5.283497e+01 4.086726e+01 5.601049e+01 6.033159e+01 7.781601e+01 6.902224e+01 7.004955e+01 6.611914e+01 6.734089e+01 6.787280e+01 8.200146e+01 3.465565e+01 9.842180e-01 1.829788e+00 2.108825e+00 2.797898e+00 2.913831e+00 3.693135e+00 3.738644e+00 3.337651e+00 3.532273e+00 3.657219e+00 3.355418e+00 3.295323e+00 1.228618e+00 1.840138e-01 3.002205e-01 3.345359e-01 3.831232e-01 5.506748e-01 6.280785e-01 6.263956e-01 6.440616e-01 7.436688e-01 7.460542e-01 6.833615e-01 6.961791e-01 2.134918e-01
<GCONST> 1.263386e+02
<STATE> 4
<MEAN> 39
 5.192084e-01 -9.756924e-01 -7.545143e+00 -7.217882e+00 -7.520046e+00 -5.196754e+00 -2.263391e+00 -4.957411e+00 -5.443913e-01 1.274886e+00 -8.859187e-01 -4.359548e+00 6.724515e+01 -4.651993e-01 5.878583e-01 6.410374e-01 7.684247e-01 5.176067e-01 -3.812768e-03 -2.054472e-01 2.846173e-01 -1.158309e-01 -2.007838e-01 1.045542e-01 3.336374e-01 -1.175235e+00 -1.251115e-01 -2.285742e-02 4.633676e-02 -3.470594e-02 -4.836676e-02 -4.391067e-03 7.793272e-02 2.533958e-03 -4.751394e-02 -1.329263e-01 1.566771e-03 7.749198e-02 5.239600e-02
<VARIANCE> 39
 1.847993e+01 4.430420e+01 3.846469e+01 4.927381e+01 5.251595e+01 6.524518e+01 5.834954e+01 6.039689e+01 5.529522e+01 5.932281e+01 6.530246e+01 7.104283e+01 4.090456e+01 8.956379e-01 1.558167e+00 1.805478e+00 2.121022e+00 2.499533e+00 2.723802e+00 2.928354e+00 3.001915e+00 3.037730e+00 3.163062e+00 2.892195e+00 2.865051e+00 1.299108e+00 1.389127e-01 2.593854e-01 3.015113e-01 3.787751e-01 4.682376e-01 4.993325e-01 5.439286e-01 5.405641e-01 5.764011e-01 5.755898e-01 5.395133e-01 5.279393e-01 2.629403e-01
<GCONST> 1.210293e+02
<TRANSP> 5
 0.000000e+00 1.000000e+00 0.000000e+00 0.000000e+00 0.000000e+00
 0.000000e+00 2.420703e-01 7.579297e-01 0.000000e+00 0.000000e+00
 0.000000e+00 0.000000e+00 2.466076e-01 7.533924e-01 0.000000e+00
 0.000000e+00 0.000000e+00 0.000000e+00 5.192410e-01 4.807589e-01
 0.000000e+00 0.000000e+00 0.000000e+00 0.000000e+00 0.000000e+00
<ENDHMM>
~h "e"
<BEGINHMM>
<NUMSTATES> 5
<STATE> 2
<MEAN> 39
 -1.699836e+00 -2.495476e-01 -1.096525e-01 2.555548e+00 -1.094155e+01 -1.467669e+01 -7.302998e+00 -5.218975e+00 -1.384691e+00 -2.803372e+00 -2.400559e-01 -2.065121e-01 6.785525e+01 -1.851717e-01 -2.092607e-03 3.280357e-01 3.098133e-01 -1.871490e-02 -2.194911e-01 -6.743787e-02 2.374688e-01 7.762481e-02 -8.203550e-02 7.447191e-02 3.876572e-01 -3.537627e-01 -4.181496e-02 2.945386e-02 -2.867180e-01 -2.417149e-01 3.344962e-01 3.214511e-01 1.480379e-01 -6.409986e-02 -1.069875e-01 1.480521e-01 5.704510e-02 -1.281654e-01 -8.811801e-02
<VARIANCE> 39
 2.293399e+01 3.287089e+01 4.359237e+01 4.377231e+01 7.907211e+01 7.300146e+01 4.624733e+01 5.110721e+01 5.214058e+01 5.273359e+01 4.239410e+01 4.746523e+01 3.639394e+01 1.197580e+00 1.833815e+00 1.975719e+00 1.995279e+00 4.542593e+00 4.774796e+00 2.803466e+00 2.751964e+00 3.334186e+00 3.860563e+00 2.946193e+00 2.810534e+00 2.977271e+00 2.298812e-01 3.440446e-01 3.343158e-01 4.317602e-01 7.940251e-01 7.861311e-01 5.801095e-01 5.224709e-01 6.552876e-01 5.676093e-01 5.358937e-01 5.990685e-01 4.038349e-01
<GCONST> 1.252744e+02
<STATE> 3
<MEAN> 39
 -1.560469e+00 -4.956388e-01 -6.435520e-01 2.750467e+00 -1.037600e+01 -1.442778e+01 -7.321315e+00 -5.187219e+00 -1.044561e+00 -2.309288e+00 -2.033194e-01 -5.930007e-03 6.763699e+01 -1.478081e-01 2.478536e-01 -1.197454e-01 -1.335566e-01 6.322687e-01 5.502282e-01 2.503808e-01 -4.125691e-02 -3.293180e-01 1.333483e-02 1.635016e-01 -1.513317e-02 -4.850469e-01 3.367597e-02 9.551205e-02 -2.299390e-01 -2.117889e-01 2.640024e-01 3.498356e-01 1.175747e-01 -1.126673e-01 -1.609536e-01 2.242728e-02 3.185778e-02 -1.824816e-01 -1.878990e-02
<VARIANCE> 39
 2.403779e+01 3.271381e+01 4.483433e+01 4.527059e+01 8.440382e+01 7.403917e+01 4.840873e+01 5.523695e+01 5.000240e+01 5.194284e+01 4.517485e+01 4.930086e+01 4.120165e+01 9.366764e-01 1.529976e+00 1.963420e+00 1.824047e+00 3.602329e+00 3.448525e+00 2.422357e+00 2.784559e+00 3.058590e+00 3.140926e+00 2.736737e+00 2.550130e+00 1.407018e+00 1.792617e-01 3.432708e-01 4.018467e-01 3.581094e-01 7.388316e-01 6.329944e-01 5.382808e-01 5.470166e-01 6.456116e-01 6.130997e-01 5.305623e-01 5.379244e-01 5.032585e-01
<GCONST> 1.229151e+02
<STATE> 4
<MEAN> 39
 -1.759468e+00 1.468311e-01 7.163270e-01 1.813056e+00 -1.124993e+01 -1.385891e+01 -6.325037e+00 -5.514762e+00 -3.164217e+00 -3.284533e+00 1.175144e+00 -4.273884e-01 6.728873e+01 -1.308928e-01 3.770364e-01 -2.901345e-01 -2.200665e-01 8.861321e-01 8.239042e-01 3.006542e-01 -1.095387e-01 -2.722932e-01 -2.299728e-02 1.180008e-02 -1.700836e-01 -5.476307e-01 3.515289e-02 -1.070996e-02 -1.334002e-01 -9.960401e-02 3.527528e-02 6.148857e-02 2.160665e-03 -1.204931e-02 5.643281e-02 -1.112331e-02 -6.129383e-02 -3.210843e-02 7.756843e-02
<VARIANCE> 39
 2.151467e+01 3.039454e+01 4.879406e+01 4.148647e+01 1.010073e+02 6.971912e+01 4.496452e+01 4.831078e+01 4.258625e+01 5.695338e+01 4.983158e+01 4.412329e+01 3.702710e+01 7.415674e-01 1.261424e+00 1.658468e+00 1.555500e+00 2.735902e+00 2.353155e+00 2.152108e+00 2.340143e+00 2.771012e+00 2.709681e+00 2.717256e+00 2.309744e+00 1.166477e+00 1.686219e-01 2.443395e-01 3.009739e-01 2.930726e-01 5.873185e-01 4.551043e-01 3.927566e-01 4.309643e-01 4.793591e-01 5.100936e-01 4.739626e-01 4.293833e-01 2.939509e-01
<GCONST> 1.168462e+02
<TRANSP> 5
 0.000000e+00 1.000000e+00 0.000000e+00 0.000000e+00 0.000000e+00
 0.000000e+00 3.186719e-01 6.813281e-01 0.000000e+00 0.000000e+00
 0.000000e+00 0.000000e+00 2.443991e-01 7.556010e-01 0.000000e+00
 0.000000e+00 0.000000e+00 0.000000e+00 6.091949e-01 3.908051e-01
 0.000000e+00 0.000000e+00 0.000000e+00 0.000000e+00 0.000000e+00
<ENDHMM>
~h "f"
<BEGINHMM>
<NUMSTATES> 5
<STATE> 2
<MEAN> 39
 -1.670659e+01 -1.512520e+00 -8.928774e+00 -4.977565e-01 -2.884091e+00 -3.034887e+00 5.961828e-01 -1.188691e+00 2.681289e+00 -3.820075e-01 1.473938e+00 -1.203824e-01 6.661354e+01 2.026521e+00 -1.389088e-01 -8.677061e-02 -1.283625e+00 -5.849314e-01 4.128319e-02 4.710124e-01 1.234956e-01 -6.182222e-01 -3.360804e-01 -4.285945e-01 -3.304227e-01 2.149462e-01 1.096556e+00 1.973254e-01 1.045893e-02 -5.064784e-01 -5.039880e-01 -8.547212e-02 5.399828e-02 -1.374645e-01 -4.365598e-01 -1.140379e-01 -9.272032e-02 -1.414911e-01 1.684241e-01
<VARIANCE> 39
 2.547006e+01 2.642179e+01 3.144786e+01 3.217786e+01 3.519268e+01 3.493795e+01 3.406631e+01 3.008847e+01 3.019256e+01 2.719857e+01 2.584383e+01 2.590071e+01 2.013641e+01 6.011777e+00 1.879416e+00 1.924387e+00 3.195268e+00 2.931326e+00 2.617698e+00 2.423721e+00 2.908589e+00 2.893596e+00 2.737358e+00 2.339186e+00 2.346067e+00 1.107455e+00 4.220715e-01 3.407111e-01 3.733304e-01 4.358352e-01 4.882914e-01 4.719395e-01 5.008314e-01 6.071164e-01 4.871324e-01 5.418828e-01 4.676360e-01 4.642560e-01 2.290605e-01
<GCONST> 1.167344e+02
<STATE> 3
<MEAN> 39
 -3.020820e+00 1.695805e+00 -8.143151e+00 -8.245283e+00 -8.099462e+00 -3.570382e+00 2.390271e+00 -1.465633e+00 -3.083577e+00 -3.145054e+00 -1.400030e+00 -2.032915e+00 6.737157e+01 4.584306e+00 -6.654054e-02 -7.016686e-01 -2.834674e+00 -2.421722e+00 -3.735790e-01 8.921825e-01 -3.543952e-01 -2.069455e+00 -4.207410e-01 -1.896289e-01 -6.090589e-01 1.494616e+00 -6.760930e-01 -6.552974e-01 -2.274227e-01 3.198790e-01 1.820683e-01 1.128355e-01 -5.710698e-02 -1.172449e-01 2.290129e-01 3.745361e-01 3.025914e-01 -6.522119e-02 3.062826e-01
<VARIANCE> 39
 4.194626e+01 2.458697e+01 3.598890e+01 5.524598e+01 4.429182e+01 4.558187e+01 4.281149e+01 4.119474e+01 2.836617e+01 3.445537e+01 3.178118e+01 4.144149e+01 2.427457e+01 3.031832e+00 3.294499e+00 4.098074e+00 4.280002e+00 4.115808e+00 4.086352e+00 4.287028e+00 5.996637e+00 3.436337e+00 3.976671e+00 3.437898e+00 4.028459e+00 1.342537e+00 6.308757e-01 3.848171e-01 3.159283e-01 5.540801e-01 6.072954e-01 5.485948e-01 4.861194e-01 4.526206e-01 5.375858e-01 5.499184e-01 4.297461e-01 4.759572e-01 2.360806e-01
<GCONST> 1.253059e+02
<STATE> 4
<MEAN> 39
 2.154074e+00 -3.727458e+00 -1.192769e+01 -1.296167e+01 -1.150429e+01 -2.983364e+00 4.618484e+00 -2.855461e+00 -5.132265e+00 -1.816680e+00 -4.235591e-01 -3.492032e+00 7.276443e+01 1.398921e+00 -1.750385e+00 -5.947826e-01 -8.386714e-01 -5.202510e-01 4.643785e-01 4.052585e-01 -5.086271e-01 -4.246012e-01 5.395543e-01 3.064624e-02 -7.984896e-01 1.301530e+00 -1.194444e+00 -4.345239e-02 3.341723e-01 9.584927e-01 8.438809e-01 1.427131e-01 -3.951066e-01 1.536227e-02 6.178519e-01 2.687862e-01 -5.218904e-02 5.186601e-02 -4.738873e-01
<VARIANCE> 39
 2.326145e+01 3.953959e+01 5.297134e+01 5.795043e+01 4.234058e+01 6.412493e+01 5.397663e+01 6.580708e+01 3.816221e+01 4.789473e+01 4.446064e+01 6.470242e+01 2.620129e+01 3.182554e+00 2.684659e+00 2.772593e+00 2.809077e+00 3.996894e+00 3.402224e+00 3.168835e+00 3.225715e+00 3.689783e+00 3.929304e+00 3.070946e+00 3.022843e+00 1.553306e+00 4.745206e-01 4.456002e-01 3.289488e-01 5.441360e-01 5.710888e-01 6.265323e-01 6.045608e-01 7.960932e-01 5.183216e-01 5.682200e-01 5.377486e-01 5.848696e-01 1.670902e-01
<GCONST> 1.266269e+02
<TRANSP> 5
 0.000000e+00 1.000000e+00 0.000000e+00 0.000000e+00 0.000000e+00
 0.000000e+00 7.214715e-01 2.785284e-01 0.000000e+00 0.000000e+00
 0.000000e+00 0.000000e+00 3.433616e-01 6.566384e-01 0.000000e+00
 0.000000e+00 0.000000e+00 0.000000e+00 4.762682e-01 5.237318e-01
 0.000000e+00 0.000000e+00 0.000000e+00 0.000000e+00 0.000000e+00
<ENDHMM>
~h "h"
<BEGINHMM>
<NUMSTATES> 5
<STATE> 2
<MEAN> 39
 -4.971661e+00 -1.232002e+00 -6.118292e+00 -7.680976e+00 -4.381674e+00 -1.422909e+00 5.010506e+00 -3.978142e-01 5.194652e-02 -8.896289e-01 -2.382820e+00 -2.551292e+00 6.723358e+01 3.830845e-01 5.077774e-01 5.398431e-01 -2.512284e-03 -6.912868e-01 -7.280089e-01 -9.169362e-02 -2.038713e-01 -4.559630e-01 -4.654481e-01 -3.692850e-01 -3.165009e-01 4.865049e-01 3.117703e-01 2.231520e-01 7.140967e-02 -9.086142e-02 -4.159666e-01 -3.242349e-01 -2.503141e-01 -2.951102e-01 -2.549926e-01 -1.029106e-01 8.837483e-02 7.673077e-02 8.440758e-02
<VARIANCE> 39
 2.814014e+01 6.785749e+01 4.609563e+01 6.408778e+01 6.306851e+01 6.606721e+01 5.385897e+01 5.545130e+01 5.076838e+01 4.712470e+01 5.276042e+01 5.313114e+01 3.453887e+01 2.797213e+00 2.887546e+00 2.705278e+00 3.159920e+00 4.407227e+00 3.998804e+00 3.495066e+00 3.866951e+00 3.571005e+00 3.078179e+00 3.429068e+00 3.272769e+00 1.510657e+00 2.840258e-01 4.429448e-01 3.227536e-01 4.360510e-01 5.812086e-01 6.157891e-01 6.163282e-01 6.668711e-01 6.468583e-01 5.644993e-01 6.674226e-01 6.066819e-01 1.539125e-01
<GCONST> 1.280223e+02
<STATE> 3
<MEAN> 39
 -1.894739e+00 8.171963e-01 -2.694361e+00 -5.654358e+00 -8.653146e+00 -7.224604e+00 2.804761e+00 -1.399717e+00 -1.917734e+00 -2.884133e+00 -3.772378e+00 -3.922330e+00 7.029081e+01 7.188100e-01 6.439583e-01 6.922824e-01 -2.940288e-01 -1.724071e+00 -1.224591e+00 -6.878254e-01 -9.659332e-01 -9.065171e-01 -4.379785e-01 5.076502e-01 3.671736e-01 4.783854e-01 -6.482717e-02 -1.678746e-01 -1.705176e-01 -1.366387e-01 -2.509810e-02 1.246395e-01 -1.068641e-01 -2.606519e-01 -1.386702e-04 1.423405e-01 2.750884e-01 1.249456e-01 -8.723000e-02
<VARIANCE> 39
 2.492376e+01 5.815441e+01 6.259846e+01 7.672077e+01 6.871140e+01 6.655708e+01 5.447223e+01 6.249956e+01 5.591624e+01 5.521760e+01 5.268496e+01 5.322984e+01 3.220819e+01 1.820302e+00 2.036212e+00 2.898611e+00 3.003715e+00 3.227716e+00 3.379400e+00 3.344205e+00 3.602484e+00 3.580683e+00 2.998415e+00 3.409923e+00 3.030015e+00 1.624477e+00 2.956860e-01 4.141901e-01 2.581641e-01 3.651434e-01 5.929005e-01 5.822893e-01 5.539473e-01 6.936460e-01 6.601987e-01 5.067955e-01 5.864162e-01 5.227996e-01 1.466334e-01
<GCONST> 1.263083e+02
<STATE> 4
<MEAN> 39
 -1.320305e+00 2.230576e+00 -3.320858e-01 -6.076185e+00 -1.212938e+01 -9.272037e+00 2.048196e+00 -4.966649e+00 -3.775512e+00 -3.330692e+00 -1.739265e+00 -2.962978e+00 7.096383e+01 3.134077e-01 3.117985e-01 3.391249e-01 -1.852600e-01 -9.891862e-01 -5.460491e-01 -5.901896e-01 -9.796673e-01 -6.709213e-01 -2.052772e-01 5.541810e-01 2.739394e-01 1.101264e-01 -7.567677e-02 -1.431648e-01 -1.245419e-01 9.994097e-02 2.168433e-01 1.124934e-01 -1.045971e-02 5.023696e-02 9.315847e-02 4.205047e-02 1.519480e-02 -2.904154e-02 -7.467933e-02
<VARIANCE> 39
 2.600635e+01 5.485915e+01 7.280197e+01 8.737810e+01 7.463688e+01 6.684639e+01 6.696223e+01 6.904001e+01 6.232154e+01 6.026824e+01 4.763507e+01 5.481667e+01 3.588196e+01 6.274723e-01 1.673165e+00 1.803625e+00 1.724368e+00 2.449506e+00 2.393726e+00 2.432177e+00 2.902325e+00 2.768427e+00 2.330100e+00 2.679843e+00 2.268957e+00 7.119762e-01 1.571734e-01 2.136789e-01 2.066477e-01 3.045333e-01 4.602444e-01 3.955654e-01 4.428593e-01 4.456508e-01 4.259175e-01 4.058274e-01 5.066048e-01 3.903260e-01 1.052147e-01
<GCONST> 1.174536e+02
<TRANSP> 5
 0.000000e+00 1.000000e+00 0.000000e+00 0.000000e+00 0.000000e+00
 0.000000e+00 6.396255e-01 3.603745e-01 0.000000e+00 0.000000e+00
 0.000000e+00 0.000000e+00 2.785451e-01 7.214550e-01 0.000000e+00
 0.000000e+00 0.000000e+00 0.000000e+00 5.423849e-01 4.576151e-01
 0.000000e+00 0.000000e+00 0.000000e+00 0.000000e+00 0.000000e+00
<ENDHMM>
~h "i"
<BEGINHMM>
<NUMSTATES> 5
<STATE> 2
<MEAN> 39
 -3.418013e+00 2.219006e+00 5.872703e+00 3.789119e+00 -1.256661e+01 -1.445726e+01 -4.265263e+00 -7.007987e+00 -4.900926e+00 -7.895993e+00 -9.115338e-01 -2.141795e+00 6.846143e+01 1.511479e-02 3.861657e-01 1.071824e+00 6.197492e-01 -1.091496e+00 -8.755177e-01 4.265713e-01 -1.045675e-01 -9.800339e-01 -9.502640e-01 6.200057e-01 3.947048e-01 1.940491e-02 -5.514885e-02 4.077318e-02 -4.017714e-01 -2.639030e-01 4.421838e-01 5.273368e-01 1.203966e-01 5.887679e-02 1.179238e-01 4.335249e-01 6.087486e-02 -8.671623e-02 -2.529905e-01
<VARIANCE> 39
 2.098895e+01 3.696146e+01 4.800469e+01 5.270279e+01 7.425170e+01 6.260271e+01 5.828705e+01 6.499761e+01 6.823586e+01 5.412246e+01 4.764807e+01 4.628680e+01 2.437992e+01 1.540057e+00 1.797512e+00 2.781950e+00 2.039635e+00 3.903200e+00 4.363090e+00 3.672200e+00 3.989068e+00 3.638225e+00 3.449234e+00 3.437236e+00 2.911859e+00 1.319039e+00 3.389435e-01 3.361054e-01 4.021537e-01 4.279576e-01 8.409591e-01 8.348261e-01 7.195657e-01 7.382649e-01 8.515013e-01 7.150182e-01 6.746770e-01 6.326231e-01 1.877157e-01
<GCONST> 1.274026e+02
<STATE> 3
<MEAN> 39
 -3.487810e+00 3.114375e+00 7.414665e+00 4.349167e+00 -1.440119e+01 -1.514867e+01 -2.805135e+00 -8.112260e+00 -7.120305e+00 -8.912566e+00 6.936019e-01 -2.266277e+00 6.803391e+01 1.073094e-01 4.089903e-01 -1.110965e-01 9.576998e-02 3.490559e-01 2.843972e-01 -6.251689e-03 4.258358e-02 -1.755752e-01 1.035175e-01 2.172376e-01 5.549409e-02 -5.488234e-01 -2.566900e-02 -6.032845e-02 -4.928169e-01 -2.682741e-01 5.755357e-01 4.923620e-01 -1.424441e-01 1.416448e-01 3.471736e-01 3.967595e-01 -1.854687e-01 -5.975785e-02 -2.046219e-01
<VARIANCE> 39
 1.708040e+01 3.265317e+01 4.304279e+01 5.359147e+01 7.131934e+01 5.719696e+01 5.225354e+01 6.416371e+01 6.410651e+01 5.496187e+01 4.647948e+01 4.877578e+01 2.163441e+01 9.687361e-01 1.362137e+00 2.612997e+00 1.678699e+00 3.492941e+00 3.778987e+00 3.137674e+00 3.070458e+00 3.272879e+00 3.010820e+00 2.459548e+00 2.497005e+00 1.173413e+00 1.864139e-01 2.411602e-01 3.044333e-01 3.608108e-01 5.227135e-01 6.464601e-01 5.834790e-01 6.331683e-01 6.314894e-01 5.928851e-01 5.528816e-01 5.216205e-01 1.297030e-01
<GCONST> 1.203479e+02
<STATE> 4
<MEAN> 39
 -3.245066e+00 4.815683e+00 5.641870e+00 3.736485e+00 -1.068121e+01 -1.222399e+01 -3.597681e+00 -7.527407e+00 -6.952934e+00 -6.997072e+00 3.896400e-01 -2.285246e+00 6.535654e+01 -3.376379e-02 1.160615e-01 -7.589643e-01 -4.498008e-01 9.155356e-01 8.881844e-01 -4.519520e-02 3.229830e-01 2.798171e-01 5.020892e-01 -8.038379e-02 1.023077e-01 -6.488394e-01 -5.293635e-02 -1.297709e-01 -1.265991e-01 -1.347751e-01 -1.848578e-03 6.637073e-02 4.392814e-02 3.243145e-02 1.068441e-01 6.149590e-02 -5.272133e-02 3.489569e-03 7.442728e-02
<VARIANCE> 39
 2.107835e+01 2.887525e+01 3.943607e+01 4.279232e+01 6.834312e+01 5.381378e+01 4.551003e+01 5.209335e+01 5.196014e+01 4.202635e+01 4.081371e+01 3.825978e+01 2.686333e+01 8.670335e-01 1.224798e+00 1.874166e+00 1.680815e+00 2.717248e+00 3.182402e+00 2.413882e+00 2.815516e+00 3.119592e+00 2.599866e+00 2.233799e+00 2.156441e+00 8.921232e-01 1.128398e-01 1.817901e-01 2.841391e-01 2.759368e-01 4.701069e-01 5.274554e-01 4.656910e-01 4.852308e-01 4.908405e-01 4.436345e-01 4.215988e-01 4.337756e-01 1.569097e-01
<GCONST> 1.142760e+02
<TRANSP> 5
 0.000000e+00 1.000000e+00 0.000000e+00 0.000000e+00 0.000000e+00
 0.000000e+00 3.607666e-01 6.392334e-01 0.000000e+00 0.000000e+00
 0.000000e+00 0.000000e+00 4.139896e-01 5.860103e-01 0.000000e+00
 0.000000e+00 0.000000e+00 0.000000e+00 6.793666e-01 3.206334e-01
 0.000000e+00 0.000000e+00 0.000000e+00 0.000000e+00 0.000000e+00
<ENDHMM>
~h "k"
<BEGINHMM>
<NUMSTATES> 5
<STATE> 2
<MEAN> 39
 -1.038025e+01 -2.163073e+00 -5.181213e+00 -5.737633e+00 -3.585054e+00 -2.716864e+00 -1.910705e+00 -2.899961e+00 1.384830e+00 -4.952589e-01 2.223198e+00 -3.072200e-01 6.498324e+01 3.334560e-01 -7.887287e-02 2.927562e-01 -4.076789e-01 -4.467288e-01 -1.785103e-01 3.455935e-02 -5.801227e-01 -4.407224e-01 -8.652534e-02 -3.640310e-01 -6.550777e-01 1.117559e+00 5.929812e-01 3.393352e-01 3.436806e-01 1.626934e-01 -4.026958e-01 -4.179123e-01 -7.079798e-02 -1.645227e-01 -3.228147e-01 -1.400399e-01 -1.755053e-01 -1.345841e-01 4.265683e-02
<VARIANCE> 39
 3.199063e+01 4.566970e+01 6.932624e+01 6.130234e+01 6.630254e+01 5.954189e+01 5.137129e+01 4.409829e+01 4.753041e+01 4.634517e+01 4.205286e+01 4.107687e+01 4.817558e+01 4.425718e+00 4.186623e+00 5.062845e+00 4.413856e+00 4.870595e+00 5.011592e+00 4.348765e+00 4.302800e+00 4.659991e+00 4.235117e+00 4.178767e+00 3.605873e+00 3.169812e+00 5.408701e-01 7.404485e-01 7.697102e-01 8.013182e-01 1.012387e+00 9.155999e-01 8.502616e-01 8.177664e-01 8.077112e-01 7.753450e-01 7.604475e-01 6.957474e-01 7.580774e-01
<GCONST> 1.381315e+02
<STATE> 3
<MEAN> 39
 -4.272005e+00 8.449017e-01 -3.607928e+00 -6.523829e+00 -5.918134e+00 -5.342494e+00 -2.842382e+00 -5.373663e+00 -2.192622e+00 -2.108980e+00 -8.780601e-01 -4.012907e+00 6.805671e+01 2.686481e+00 8.972366e-01 9.039037e-01 9.081937e-03 -2.110670e+00 -1.760484e+00 -9.915297e-02 -8.728281e-01 -1.375739e+00 -3.738773e-01 -8.640131e-01 -7.861683e-01 9.548531e-01 -8.070935e-02 -3.009011e-01 -2.926735e-01 -3.073741e-02 -2.205155e-01 -8.492506e-02 3.122916e-02 8.923483e-02 2.159434e-01 1.258571e-01 2.794139e-01 3.219125e-01 -1.994627e-02
<VARIANCE> 39
 3.839578e+01 4.977350e+01 7.435974e+01 5.525463e+01 5.920720e+01 6.355626e+01 5.309086e+01 5.141355e+01 4.691655e+01 5.483499e+01 5.182993e+01 4.912285e+01 3.238037e+01 2.618731e+00 3.598996e+00 3.815842e+00 4.372987e+00 4.583755e+00 5.564053e+00 5.632384e+00 5.829110e+00 5.165182e+00 5.522704e+00 4.546075e+00 4.504567e+00 1.166265e+00 5.199131e-01 4.684095e-01 5.173645e-01 5.477023e-01 7.473143e-01 8.650132e-01 7.174769e-01 7.625295e-01 7.184863e-01 7.211313e-01 7.290431e-01 6.044837e-01 2.691537e-01
<GCONST> 1.346807e+02
<STATE> 4
<MEAN> 39
 -5.842416e-01 2.094425e-01 -3.774225e+00 -7.596943e+00 -1.041822e+01 -8.334694e+00 -2.974038e+00 -6.275861e+00 -3.143089e+00 -1.793468e+00 -7.161188e-01 -3.890088e+00 7.054801e+01 1.605021e+00 -1.180116e-01 7.454102e-02 -1.793849e-01 -1.829472e+00 -1.197010e+00 6.151719e-02 -4.535366e-01 -4.814937e-01 6.994472e-02 -6.155922e-02 -7.883845e-02 9.026839e-01 -6.668617e-01 -3.022320e-01 -2.755512e-01 1.135514e-01 4.316486e-01 3.795524e-01 5.353793e-02 2.127261e-01 3.848859e-01 1.245227e-01 2.907770e-01 2.845199e-01 -2.567398e-01
<VARIANCE> 39
 2.870974e+01 6.486597e+01 9.161179e+01 6.601382e+01 6.604859e+01 7.720905e+01 5.565851e+01 6.404221e+01 5.933318e+01 6.740512e+01 5.409704e+01 6.128127e+01 3.581356e+01 2.231279e+00 3.111303e+00 3.081985e+00 3.630474e+00 4.116847e+00 5.409719e+00 4.809951e+00 4.423733e+00 4.694948e+00 4.087367e+00 3.947112e+00 3.755255e+00 1.109414e+00 3.693409e-01 4.662965e-01 4.937275e-01 5.529061e-01 6.974081e-01 7.540743e-01 7.494232e-01 8.716402e-01 7.823758e-01 8.339024e-01 7.169451e-01 6.381698e-01 1.973102e-01
<GCONST> 1.339185e+02
<TRANSP> 5
 0.000000e+00 1.000000e+00 0.000000e+00 0.000000e+00 0.000000e+00
 0.000000e+00 6.827007e-01 3.172993e-01 0.000000e+00 0.000000e+00
 0.000000e+00 0.000000e+00 2.147637e-01 7.852363e-01 0.000000e+00
 0.000000e+00 0.000000e+00 0.000000e+00 2.255849e-01 7.744152e-01
 0.000000e+00 0.000000e+00 0.000000e+00 0.000000e+00 0.000000e+00
<ENDHMM>
~h "m"
<BEGINHMM>
<NUMSTATES> 5
<STATE> 2
<MEAN> 39
 1.670292e+00 7.193097e+00 -3.284179e-01 -5.295867e-01 -4.689710e+00 -4.592838e+00 -1.291258e+00 -7.457763e+00 -1.079664e+01 -1.108317e+01 -4.639832e+00 -1.943146e+00 6.438190e+01 4.854688e-01 -4.534440e-01 -1.231506e+00 -1.383883e+00 -9.633330e-01 1.001632e-01 5.628071e-01 -7.830731e-02 4.972976e-01 4.801954e-01 -7.967396e-03 5.396390e-02 8.533830e-01 -3.279997e-03 -4.377519e-01 -5.554797e-01 -5.573187e-01 -3.344750e-01 1.005037e-01 2.070396e-01 9.867774e-02 6.266159e-01 7.614524e-01 2.217363e-01 -1.264496e-01 2.835034e-01
<VARIANCE> 39
 8.667064e+00 2.958179e+01 3.139707e+01 3.929756e+01 4.781034e+01 4.365484e+01 5.296159e+01 5.208589e+01 4.280070e+01 5.091504e+01 4.374184e+01 4.045307e+01 2.135445e+01 6.379426e-01 1.223292e+00 2.389569e+00 3.393538e+00 2.700757e+00 2.253700e+00 2.745536e+00 2.823922e+00 3.651640e+00 4.462546e+00 2.877021e+00 2.406722e+00 7.794576e-01 1.054400e-01 2.286877e-01 3.294320e-01 4.898873e-01 4.652826e-01 4.579511e-01 5.800341e-01 5.827716e-01 6.521867e-01 7.041890e-01 6.822453e-01 5.911765e-01 1.235144e-01
<GCONST> 1.163530e+02
<STATE> 3
<MEAN> 39
 3.638894e+00 3.920941e+00 -8.067739e+00 -9.669013e+00 -1.086053e+01 -4.599266e+00 2.077093e+00 -6.041033e+00 -5.705960e+00 -5.050708e+00 -3.377945e+00 -1.901259e+00 6.860892e+01 3.292154e-01 -1.925278e+00 -2.595446e+00 -2.752846e+00 -1.288327e+00 1.065574e+00 1.550758e+00 3.381795e-02 1.766679e+00 2.537801e+00 4.861179e-01 -5.995888e-01 1.643128e+00 -2.668509e-01 -2.073351e-01 4.475374e-01 6.537926e-01 5.254319e-01 1.523501e-01 -2.152053e-01 -7.037731e-02 -8.322069e-02 -3.655998e-02 -3.663711e-02 -2.446103e-01 -1.324904e-01
<VARIANCE> 39
 8.152174e+00 3.877472e+01 3.601452e+01 4.699492e+01 4.688345e+01 4.803521e+01 6.099599e+01 6.048244e+01 3.988016e+01 4.999427e+01 4.289883e+01 4.337725e+01 2.104510e+01 6.347008e-01 2.127589e+00 2.292874e+00 4.167249e+00 4.681913e+00 4.738693e+00 4.885362e+00 5.316532e+00 5.429542e+00 5.444288e+00 5.967773e+00 5.145969e+00 9.870018e-01 8.646520e-02 2.156242e-01 3.615594e-01 5.667841e-01 5.460624e-01 6.151668e-01 6.890934e-01 6.157327e-01 7.825205e-01 7.117677e-01 6.570656e-01 4.835078e-01 1.206442e-01
<GCONST> 1.233228e+02
<STATE> 4
<MEAN> 39
 2.948227e+00 -1.582235e+00 -1.112415e+01 -1.188794e+01 -1.028181e+01 -7.815269e-01 3.859590e+00 -7.860221e+00 -3.507104e+00 -1.420904e+00 -3.326571e+00 -5.100579e+00 7.167313e+01 -2.977220e-01 -1.572328e+00 -6.356541e-01 -3.530959e-01 1.174912e-01 5.794049e-01 1.159404e-01 -8.123574e-02 1.155171e+00 1.370031e+00 1.176038e-01 -9.223484e-01 8.679556e-01 -1.538198e-01 4.514835e-01 8.157886e-01 8.672547e-01 3.283377e-01 -4.878728e-01 -6.161066e-01 1.358060e-01 -3.376781e-01 -6.167521e-01 -7.526705e-02 1.795999e-01 -4.654141e-01
<VARIANCE> 39
 9.566869e+00 5.388440e+01 3.476051e+01 4.867572e+01 5.498056e+01 6.623177e+01 7.318723e+01 8.390063e+01 5.610859e+01 6.418048e+01 6.254657e+01 6.457216e+01 2.489824e+01 5.510296e-01 1.785653e+00 1.826447e+00 2.754858e+00 3.147357e+00 4.400227e+00 3.845606e+00 4.119704e+00 5.524725e+00 4.755918e+00 4.695467e+00 3.760677e+00 8.076392e-01 9.956987e-02 2.961493e-01 3.563578e-01 5.154725e-01 6.163864e-01 7.011735e-01 7.453766e-01 7.672107e-01 7.468861e-01 7.727000e-01 8.097628e-01 7.101795e-01 1.257234e-01
<GCONST> 1.251103e+02
<TRANSP> 5
 0.000000e+00 1.000000e+00 0.000000e+00 0.000000e+00 0.000000e+00
 0.000000e+00 6.887918e-01 3.112083e-01 0.000000e+00 0.000000e+00
 0.000000e+00 0.000000e+00 3.431624e-01 6.568376e-01 0.000000e+00
 0.000000e+00 0.000000e+00 0.000000e+00 3.933428e-01 6.066572e-01
 0.000000e+00 0.000000e+00 0.000000e+00 0.000000e+00 0.000000e+00
<ENDHMM>
~h "n"
<BEGINHMM>
<NUMSTATES> 5
<STATE> 2
<MEAN> 39
 2.541192e+00 2.613626e+00 -3.502793e+00 -1.647139e+00 -7.215241e+00 -7.174469e+00 -5.357186e+00 -8.645622e+00 -6.164053e+00 -3.995928e+00 -3.169377e+00 -4.756856e+00 6.660782e+01 -8.533071e-02 1.382800e+00 1.453691e+00 1.205122e+00 1.260586e+00 -3.508477e-01 -1.330948e+00 -2.930524e-01 -1.173744e+00 -6.846632e-01 1.415019e-01 -3.064132e-01 -1.214298e+00 -1.051593e-01 -1.381890e-01 -1.710511e-01 -3.757274e-01 -2.648064e-01 -4.255126e-02 2.796997e-01 2.241223e-01 1.844222e-01 4.825258e-02 1.830417e-02 2.109142e-02 2.364697e-01
<VARIANCE> 39
 9.671428e+00 3.513329e+01 3.855794e+01 4.690352e+01 4.679644e+01 4.898814e+01 5.127497e+01 4.816721e+01 5.339735e+01 5.646889e+01 4.417988e+01 4.987369e+01 2.317965e+01 4.629150e-01 1.687384e+00 2.230489e+00 2.330662e+00 2.961839e+00 3.196643e+00 3.697518e+00 3.567661e+00 3.730155e+00 3.437042e+00 3.317569e+00 3.905940e+00 6.091038e-01 6.836338e-02 2.718060e-01 2.923401e-01 2.529246e-01 4.489491e-01 4.279393e-01 5.027847e-01 5.197926e-01 6.515712e-01 6.039146e-01 4.778768e-01 5.622522e-01 1.101404e-01
<GCONST> 1.162189e+02
<STATE> 3
<MEAN> 39
 1.933608e+00 6.078255e+00 -7.269168e-02 1.846142e-01 -5.129784e+00 -8.587997e+00 -6.885903e+00 -7.740834e+00 -7.455719e+00 -5.110825e+00 -2.070761e+00 -4.708987e+00 6.454913e+01 -8.743513e-02 2.169809e-02 -2.369897e-02 9.454424e-02 2.244118e-01 -2.327041e-01 -2.759267e-01 -5.712352e-02 7.700509e-02 1.375255e-01 1.615420e-01 -6.563535e-02 -1.466586e-02 3.462555e-02 -5.537482e-01 -6.139537e-01 -3.520012e-01 -4.126226e-01 8.594253e-02 4.176474e-01 6.985731e-02 4.240529e-01 3.431867e-01 -7.412592e-02 7.996002e-02 4.396303e-01
<VARIANCE> 39
 8.596972e+00 2.723976e+01 2.576834e+01 3.507964e+01 3.696138e+01 3.684877e+01 5.302597e+01 4.597596e+01 4.601654e+01 4.550955e+01 3.558757e+01 4.764491e+01 1.911456e+01 2.709680e-01 1.259211e+00 1.847838e+00 1.502718e+00 1.824006e+00 1.701258e+00 2.144554e+00 2.146372e+00 2.293824e+00 2.452624e+00 1.940952e+00 1.951822e+00 4.595435e-01 6.233175e-02 2.256142e-01 3.341732e-01 3.379844e-01 5.043067e-01 4.231661e-01 6.347958e-01 6.426407e-01 6.002761e-01 6.143379e-01 5.373612e-01 5.714842e-01 7.643109e-02
<GCONST> 1.082399e+02
<STATE> 4
<MEAN> 39
 1.504777e+00 9.309844e-01 -4.457565e+00 -1.342109e+00 -7.380116e+00 -8.909530e+00 -5.709039e+00 -8.157597e+00 -4.211759e+00 -2.154122e+00 -2.803561e+00 -5.664890e+00 6.810957e+01 -7.354063e-02 -1.398869e+00 -1.748130e+00 -1.220983e+00 -1.157245e+00 3.837715e-01 1.572995e+00 5.557803e-01 1.291828e+00 1.050877e+00 -3.270518e-01 3.224558e-02 1.241950e+00 -3.474142e-02 1.746707e-01 3.823470e-02 -2.734365e-01 -2.460499e-01 1.204963e-01 3.679081e-01 2.899999e-01 4.625118e-02 -1.163460e-01 -8.439263e-02 3.130312e-02 -4.166257e-02
<VARIANCE> 39
 1.268893e+01 4.382146e+01 4.897783e+01 4.461079e+01 6.295296e+01 4.753725e+01 5.502646e+01 5.724442e+01 6.553908e+01 7.227833e+01 5.703160e+01 5.480858e+01 3.047286e+01 5.707814e-01 2.031513e+00 3.130574e+00 3.155171e+00 3.904468e+00 3.680996e+00 5.191349e+00 5.135275e+00 5.357399e+00 5.315919e+00 4.493985e+00 4.462494e+00 6.633680e-01 6.285233e-02 4.373657e-01 5.973293e-01 4.961549e-01 7.361907e-01 6.034373e-01 9.008508e-01 7.150485e-01 8.969837e-01 7.721704e-01 7.572040e-01 6.005588e-01 2.109895e-01
<GCONST> 1.272253e+02
<TRANSP> 5
 0.000000e+00 1.000000e+00 0.000000e+00 0.000000e+00 0.000000e+00
 0.000000e+00 4.603240e-01 5.396760e-01 0.000000e+00 0.000000e+00
 0.000000e+00 0.000000e+00 6.839521e-01 3.160479e-01 0.000000e+00
 0.000000e+00 0.000000e+00 0.000000e+00 6.316310e-01 3.683690e-01
 0.000000e+00 0.000000e+00 0.000000e+00 0.000000e+00 0.000000e+00
<ENDHMM>
~h "o"
<BEGINHMM>
<NUMSTATES> 5
<STATE> 2
<MEAN> 39
 3.306016e+00 4.985409e+00 -8.177387e+00 -1.196689e+01 -1.502049e+01 -7.628379e+00 1.532717e+00 -4.782372e+00 -4.346061e+00 -2.752134e+00 -2.202737e+00 -1.275111e+00 6.788228e+01 2.740465e-01 4.485285e-01 -1.144580e-01 -7.251377e-01 -9.895263e-01 1.709874e-01 1.077183e+00 4.197155e-01 -1.404696e-01 -2.475849e-01 -3.357618e-01 1.948508e-01 -1.301695e-01 -2.690272e-01 -1.352748e-01 2.490373e-01 4.908277e-01 6.150946e-01 1.855281e-01 -1.482399e-01 -6.679264e-02 -3.002323e-04 -4.131699e-04 3.624453e-02 -1.558716e-01 -1.785497e-01
<VARIANCE> 39
 1.066713e+01 4.454007e+01 3.048996e+01 4.139720e+01 6.199642e+01 5.362780e+01 5.774201e+01 5.687221e+01 5.943245e+01 4.946219e+01 5.418409e+01 5.037904e+01 2.567413e+01 6.760464e-01 1.529301e+00 1.575006e+00 3.294843e+00 3.807326e+00 3.112053e+00 4.169754e+00 3.369825e+00 3.491059e+00 3.267224e+00 3.438526e+00 2.722766e+00 7.535431e-01 1.589293e-01 2.652048e-01 3.788394e-01 3.880635e-01 6.514409e-01 6.191941e-01 6.687372e-01 6.350423e-01 7.930411e-01 6.615698e-01 6.775196e-01 6.406518e-01 1.108752e-01
<GCONST> 1.209865e+02
<STATE> 3
<MEAN> 39
 3.434450e+00 5.570144e+00 -7.983167e+00 -1.220704e+01 -1.505568e+01 -6.361357e+00 3.722693e+00 -4.008945e+00 -5.137942e+00 -3.301484e+00 -2.349835e+00 -1.273459e+00 6.709312e+01 -2.172115e-01 -3.586864e-02 2.639403e-01 6.303392e-01 8.138268e-01 3.718235e-01 9.624516e-02 -1.113948e-01 -2.213879e-01 -8.864485e-02 2.498536e-01 3.971053e-02 -3.963716e-01 -2.452346e-01 -2.001572e-01 1.874323e-01 5.332884e-01 6.766130e-01 6.216217e-02 -4.495603e-01 -1.776611e-01 1.046442e-01 1.151569e-01 1.110439e-01 -9.690012e-02 -1.237445e-01
<VARIANCE> 39
 1.078271e+01 3.896027e+01 2.725735e+01 4.097514e+01 5.361485e+01 4.893086e+01 5.942917e+01 5.720496e+01 5.141415e+01 5.246679e+01 5.639036e+01 4.925427e+01 2.501307e+01 6.288284e-01 1.611598e+00 1.776051e+00 2.886120e+00 3.710344e+00 3.240771e+00 3.564307e+00 3.618036e+00 3.734252e+00 3.187843e+00 3.517709e+00 3.011106e+00 7.659824e-01 1.164549e-01 1.958444e-01 2.614644e-01 3.440185e-01 4.929813e-01 5.130011e-01 5.858304e-01 5.271360e-01 6.177526e-01 6.003190e-01 6.593379e-01 5.528231e-01 8.496857e-02
<GCONST> 1.178447e+02
<STATE> 4
<MEAN> 39
 1.911306e+00 5.135334e+00 -6.628385e+00 -8.647411e+00 -1.046556e+01 -5.011729e+00 2.500097e+00 -4.208189e+00 -4.848321e+00 -2.824876e+00 -8.257090e-01 -1.289640e+00 6.523739e+01 -7.112147e-01 -4.173500e-01 5.455111e-01 1.333109e+00 1.678591e+00 3.521478e-01 -7.341220e-01 -3.015191e-01 2.001453e-01 2.763001e-01 2.207482e-01 -1.536172e-01 -6.178608e-01 -9.738028e-02 -7.910647e-02 6.605400e-02 9.695372e-02 -1.088046e-02 -1.358536e-01 -2.057876e-01 -9.795951e-03 1.201492e-01 3.413329e-02 -1.083082e-01 -6.514732e-02 2.213673e-02
<VARIANCE> 39
 1.388694e+01 3.712724e+01 3.044922e+01 4.047903e+01 4.965391e+01 4.688227e+01 5.527181e+01 5.932951e+01 4.774732e+01 5.021183e+01 5.075484e+01 4.766451e+01 3.502876e+01 8.585918e-01 1.430343e+00 1.803028e+00 3.045126e+00 3.576105e+00 3.381159e+00 3.877863e+00 3.422051e+00 3.398313e+00 3.125024e+00 3.112993e+00 2.973993e+00 7.895872e-01 1.264427e-01 2.514186e-01 3.386491e-01 3.809301e-01 6.107752e-01 4.999033e-01 5.303040e-01 5.781434e-01 5.988989e-01 6.021065e-01 6.511150e-01 5.799664e-01 1.383942e-01
<GCONST> 1.195188e+02
<TRANSP> 5
 0.000000e+00 1.000000e+00 0.000000e+00 0.000000e+00 0.000000e+00
 0.000000e+00 4.401382e-01 5.598618e-01 0.000000e+00 0.000000e+00
 0.000000e+00 0.000000e+00 4.061029e-01 5.938970e-01 0.000000e+00
 0.000000e+00 0.000000e+00 0.000000e+00 4.426758e-01 5.573242e-01
 0.000000e+00 0.000000e+00 0.000000e+00 0.000000e+00 0.000000e+00
<ENDHMM>
~h "p"
<BEGINHMM>
<NUMSTATES> 5
<STATE> 2
<MEAN> 39
 -6.602090e+00 -3.814706e-02 -6.172820e+00 -6.430696e+00 -3.925483e+00 -1.823306e+00 1.222934e+00 -5.241209e-01 3.972017e-01 -5.909071e-01 4.196340e-02 -8.867702e-01 6.221059e+01 3.372989e-01 -4.201036e-01 -5.551558e-01 -9.227819e-01 -5.867785e-01 -1.114906e-01 4.642091e-01 -2.960481e-01 -4.507698e-01 -4.210929e-01 -4.144111e-01 -2.442513e-01 1.471675e+00 3.557410e-01 1.698176e-01 -2.122067e-03 -1.335863e-01 -2.729244e-01 -3.774596e-02 -2.372380e-02 -1.506938e-01 -2.749863e-01 -9.471767e-02 -6.114534e-02 -6.002458e-02 1.542900e-01
<VARIANCE> 39
 2.406336e+01 3.788908e+01 2.620119e+01 4.137346e+01 3.185861e+01 5.261011e+01 3.685601e+01 3.553173e+01 2.637779e+01 3.117908e+01 3.103047e+01 2.956920e+01 5.510397e+01 4.632078e+00 4.163538e+00 2.263063e+00 4.341861e+00 5.112408e+00 5.073432e+00 4.315925e+00 4.343781e+00 3.689040e+00 3.738146e+00 3.414847e+00 3.050640e+00 4.597319e+00 5.782875e-01 8.120503e-01 4.563644e-01 6.291836e-01 7.367013e-01 9.258071e-01 7.626392e-01 7.616645e-01 5.803114e-01 7.212946e-01 5.951781e-01 5.135756e-01 8.867193e-01
<GCONST> 1.304440e+02
<STATE> 3
<MEAN> 39
 -1.223172e+00 -1.074226e+00 -8.563406e+00 -1.277313e+01 -9.463601e+00 -1.898565e+00 5.002930e+00 -3.016908e+00 -3.902538e+00 -3.027680e+00 -3.236471e+00 -2.457274e+00 7.016587e+01 1.551806e+00 1.822342e-01 -2.760492e-01 -9.073687e-01 -1.389980e+00 -3.378456e-01 -2.791820e-01 -8.678734e-01 -1.044132e+00 -4.009974e-01 -5.198035e-02 -1.855853e-01 1.218731e+00 -1.893741e-01 -1.202029e-02 1.849727e-01 3.859618e-01 1.239496e-01 -1.483756e-01 -4.454494e-01 -6.279166e-02 3.303687e-01 2.741633e-01 3.245836e-01 1.162940e-01 -3.378177e-01
<VARIANCE> 39
 3.577122e+01 5.146306e+01 2.723201e+01 5.923399e+01 7.693421e+01 6.345766e+01 8.366521e+01 4.804719e+01 4.655194e+01 5.702055e+01 3.726276e+01 4.563531e+01 3.326810e+01 3.174607e+00 5.737664e+00 2.256410e+00 3.248816e+00 4.943516e+00 4.062462e+00 4.505605e+00 4.121258e+00 4.032609e+00 4.554279e+00 3.641306e+00 3.585462e+00 1.870020e+00 8.009327e-01 1.046868e+00 3.938570e-01 5.947871e-01 9.939762e-01 6.702653e-01 8.478603e-01 7.516624e-01 8.077151e-01 7.970898e-01 6.349529e-01 6.785488e-01 3.728575e-01
<GCONST> 1.343690e+02
<STATE> 4
<MEAN> 39
 5.690906e-01 -2.168111e+00 -8.726426e+00 -1.373040e+01 -1.234094e+01 -3.564556e+00 1.971184e+00 -2.908554e+00 -2.756200e+00 -3.537191e+00 -2.354838e+00 -3.078488e+00 7.273605e+01 6.352333e-01 3.204385e-01 1.809005e-01 1.718961e-02 -6.650033e-01 -4.573741e-01 -6.916944e-01 -6.417948e-01 5.088903e-03 3.013537e-01 9.189509e-04 -2.513416e-01 1.935593e-01 -1.949086e-01 7.613498e-02 1.436923e-01 2.674692e-01 1.590707e-01 -1.393491e-01 -1.952690e-01 3.945450e-02 2.617258e-01 1.472478e-01 4.924705e-03 -2.277741e-02 -2.543325e-01
<VARIANCE> 39
 2.209284e+01 6.847655e+01 3.583578e+01 5.583266e+01 9.085965e+01 8.747383e+01 8.028451e+01 8.192506e+01 7.473837e+01 5.384901e+01 4.011198e+01 5.512280e+01 3.990331e+01 1.956605e+00 4.010636e+00 1.300040e+00 2.304109e+00 3.378722e+00 2.766049e+00 4.144032e+00 3.476443e+00 4.497730e+00 3.885649e+00 2.998858e+00 3.004959e+00 1.166346e+00 3.185593e-01 4.978006e-01 2.492952e-01 4.469215e-01 6.217723e-01 5.184346e-01 7.204691e-01 5.931898e-01 7.007236e-01 5.803154e-01 6.119602e-01 4.793265e-01 1.754671e-01
<GCONST> 1.274485e+02
<TRANSP> 5
 0.000000e+00 1.000000e+00 0.000000e+00 0.000000e+00 0.000000e+00
 0.000000e+00 7.674958e-01 2.325042e-01 0.000000e+00 0.000000e+00
 0.000000e+00 0.000000e+00 4.637679e-01 5.362321e-01 0.000000e+00
 0.000000e+00 0.000000e+00 0.000000e+00 5.237396e-01 4.762605e-01
 0.000000e+00 0.000000e+00 0.000000e+00 0.000000e+00 0.000000e+00
<ENDHMM>
~h "r"
<BEGINHMM>
<NUMSTATES> 5
<STATE> 2
<MEAN> 39
 2.018423e+00 -4.246463e-01 -5.593623e+00 -4.085968e-01 -6.999332e+00 -1.031787e+01 -5.887359e+00 -9.120691e+00 -3.928882e+00 5.039257e-02 2.209202e-01 -2.935228e+00 6.809535e+01 -1.146202e-01 1.109550e-01 4.953418e-01 1.146304e+00 3.064694e-01 -2.895752e-01 -8.222814e-01 -2.187416e-01 7.740455e-02 -2.646874e-01 -2.030425e-01 -4.789551e-02 -4.262490e-01 -7.290719e-02 -2.331823e-02 -2.600722e-02 -3.971320e-01 -5.322002e-01 1.140716e-01 3.933571e-01 2.411661e-01 1.947773e-02 -2.825463e-01 -8.235236e-02 1.011818e-01 2.108925e-01
<VARIANCE> 39
 1.385919e+01 4.126221e+01 5.362034e+01 4.817090e+01 6.058099e+01 5.772421e+01 5.219512e+01 5.506469e+01 5.353801e+01 5.660831e+01 4.551951e+01 5.559219e+01 2.640863e+01 1.329583e+00 1.953430e+00 3.169663e+00 4.049639e+00 5.890934e+00 4.797662e+00 4.417871e+00 3.938612e+00 4.875784e+00 4.612987e+00 4.229842e+00 4.081431e+00 1.395493e+00 2.281753e-01 3.364703e-01 4.823192e-01 4.796390e-01 1.140504e+00 8.750438e-01 8.033093e-01 7.644606e-01 8.244336e-01 8.522001e-01 7.663568e-01 7.741126e-01 2.611825e-01
<GCONST> 1.303941e+02
<STATE> 3
<MEAN> 39
 1.523445e+00 -1.172011e-01 -4.731608e+00 9.029437e-01 -7.392674e+00 -1.069371e+01 -6.408440e+00 -8.589918e+00 -3.376879e+00 -9.437169e-01 -2.152106e-01 -2.771157e+00 6.769866e+01 -2.106284e-01 1.616241e-02 3.777369e-01 2.146720e-01 -7.864921e-01 -1.551910e-01 1.624635e-02 1.610852e-01 -4.250285e-02 -7.609731e-01 -9.629328e-02 3.934380e-01 7.101956e-02 -1.025678e-02 -1.540780e-02 -5.223598e-02 -4.418356e-01 -4.405208e-01 6.791751e-02 4.241706e-01 1.634329e-01 -8.080445e-02 -1.581559e-01 8.545721e-02 1.292259e-01 1.870446e-01
<VARIANCE> 39
 1.385285e+01 4.021556e+01 5.627544e+01 4.859018e+01 6.291381e+01 5.935586e+01 4.942080e+01 5.045341e+01 5.203931e+01 5.553654e+01 4.527510e+01 4.674866e+01 2.625051e+01 1.375341e+00 1.844391e+00 3.483526e+00 3.429869e+00 5.207793e+00 4.851768e+00 3.651022e+00 3.359393e+00 4.301109e+00 4.918490e+00 3.902107e+00 4.061430e+00 1.143179e+00 2.019254e-01 3.609224e-01 4.346019e-01 4.458780e-01 1.096821e+00 8.424925e-01 7.012134e-01 7.195405e-01 8.438061e-01 8.113713e-01 7.844268e-01 7.082218e-01 2.674387e-01
<GCONST> 1.286425e+02
<STATE> 4
<MEAN> 39
 1.275283e+00 -4.378494e-01 -4.324587e+00 4.139123e-01 -9.701405e+00 -1.148186e+01 -5.818220e+00 -7.888245e+00 -3.447577e+00 -2.803970e+00 -4.709487e-02 -1.738245e+00 6.852039e+01 -1.513584e-01 1.453683e-01 3.308786e-01 -2.747431e-01 -9.620360e-01 -1.383235e-02 5.079626e-01 3.099092e-01 -2.407182e-01 -7.841167e-01 6.220894e-02 4.462392e-01 9.420615e-02 5.146472e-03 7.718926e-02 -2.445720e-02 -2.111789e-01 1.489197e-02 1.067183e-01 2.008743e-01 4.529213e-02 -5.912660e-02 8.909154e-02 5.075298e-02 -6.455234e-02 -2.706783e-02
<VARIANCE> 39
 1.569160e+01 4.146566e+01 6.034522e+01 5.479034e+01 6.543972e+01 6.949421e+01 5.515726e+01 5.371486e+01 5.778771e+01 6.043946e+01 4.673044e+01 4.858571e+01 2.500916e+01 1.160401e+00 1.842995e+00 3.079942e+00 2.861464e+00 4.664486e+00 4.329546e+00 3.504362e+00 3.184439e+00 4.142322e+00 4.845840e+00 3.665040e+00 4.018044e+00 1.124976e+00 1.821665e-01 2.688028e-01 3.940530e-01 3.828187e-01 8.617867e-01 7.236594e-01 6.265138e-01 6.216552e-01 7.193739e-01 6.953559e-01 7.232605e-01 6.345770e-01 1.795912e-01
<GCONST> 1.264296e+02
<TRANSP> 5
 0.000000e+00 1.000000e+00 0.000000e+00 0.000000e+00 0.000000e+00
 0.000000e+00 2.760959e-01 7.239040e-01 0.000000e+00 0.000000e+00
 0.000000e+00 0.000000e+00 1.977013e-01 8.022987e-01 0.000000e+00
 0.000000e+00 0.000000e+00 0.000000e+00 2.777847e-01 7.222152e-01
 0.000000e+00 0.000000e+00 0.000000e+00 0.000000e+00 0.000000e+00
<ENDHMM>
~h "t"
<BEGINHMM>
<NUMSTATES> 5
<STATE> 2
<MEAN> 39
 -1.183624e+01 -6.036907e-01 -3.548246e+00 -5.396274e+00 -3.370700e+00 -4.601598e+00 -1.587545e+00 -1.443776e+00 1.719482e+00 -7.034858e-01 9.025570e-01 -3.074700e-01 6.573240e+01 9.076202e-02 -2.742459e-01 2.817956e-01 -1.826809e-01 -3.561814e-01 -5.569915e-01 -1.832264e-01 -4.285601e-01 -1.637169e-01 -3.393770e-01 -3.746493e-01 -4.114153e-01 1.242212e+00 6.316698e-01 1.920519e-01 3.281271e-02 6.810956e-02 -2.452130e-01 -1.448369e-01 -1.545674e-01 -3.054264e-01 -2.675661e-01 -7.739206e-02 -1.375460e-01 -1.868065e-01 -2.034131e-02
<VARIANCE> 39
 6.556975e+01 3.782269e+01 4.258324e+01 3.674255e+01 3.866027e+01 5.376856e+01 4.206744e+01 3.882364e+01 3.712812e+01 3.835880e+01 3.696289e+01 3.893547e+01 6.160116e+01 6.972132e+00 3.311049e+00 3.449399e+00 4.293158e+00 3.823580e+00 4.508744e+00 3.842045e+00 4.085147e+00 4.303993e+00 3.993612e+00 3.741608e+00 4.117596e+00 5.323425e+00 1.060637e+00 6.585959e-01 5.177554e-01 7.000691e-01 7.695587e-01 9.002082e-01 7.751242e-01 7.373880e-01 7.982758e-01 7.735196e-01 7.088016e-01 7.831920e-01 1.116060e+00
<GCONST> 1.359655e+02
<STATE> 3
<MEAN> 39
 -6.131729e+00 3.570423e-02 -2.000411e+00 -5.502509e+00 -6.273089e+00 -7.953601e+00 -3.717136e+00 -5.252492e+00 -1.301220e+00 -2.471117e+00 -2.232569e+00 -3.677815e+00 7.028126e+01 2.943927e+00 7.804829e-01 1.177255e-01 3.308775e-02 -1.619902e+00 -1.021613e+00 -6.084388e-01 -1.498964e+00 -1.416185e+00 -5.297797e-01 -5.615056e-01 -7.288657e-01 5.169007e-01 -7.922125e-02 -5.622406e-02 -2.040055e-01 -7.662463e-03 -1.147544e-02 2.028252e-01 1.211004e-01 1.525277e-01 6.202739e-02 1.187208e-01 3.392838e-01 3.595312e-01 -4.348096e-01
<VARIANCE> 39
 5.271417e+01 3.481036e+01 6.645013e+01 6.012043e+01 5.120082e+01 6.355497e+01 4.986254e+01 4.578687e+01 5.054638e+01 5.669701e+01 4.734214e+01 5.294501e+01 2.964761e+01 4.196226e+00 3.319886e+00 3.360831e+00 5.312651e+00 6.027104e+00 6.228147e+00 4.903452e+00 5.082101e+00 5.085460e+00 5.483600e+00 4.185294e+00 5.513960e+00 2.743514e+00 7.880234e-01 5.242103e-01 6.117378e-01 6.686066e-01 8.413430e-01 8.605297e-01 7.392771e-01 6.928528e-01 7.724483e-01 8.314094e-01 7.700248e-01 7.713837e-01 6.447750e-01
<GCONST> 1.381434e+02
<STATE> 4
<MEAN> 39
 -1.882911e+00 3.164331e-01 -3.270156e+00 -7.313969e+00 -9.744033e+00 -9.006488e+00 -3.916739e+00 -6.941038e+00 -2.949525e+00 -2.575466e+00 -1.894158e+00 -3.617385e+00 7.132730e+01 1.762766e+00 1.553066e-01 -2.744572e-01 -1.330714e-01 -1.146207e+00 -3.524701e-01 -1.152576e-01 -7.385494e-01 -7.462823e-01 -1.514000e-01 1.679485e-01 2.329720e-02 1.320739e-01 -6.727028e-01 -2.194926e-01 -7.247335e-02 1.226596e-01 4.721131e-01 3.569700e-01 1.576317e-01 3.688112e-01 3.163252e-01 1.272504e-01 2.519066e-01 3.052034e-01 -3.347614e-01
<VARIANCE> 39
 3.590224e+01 3.975973e+01 7.751638e+01 8.273969e+01 6.944988e+01 7.913802e+01 5.734863e+01 5.491020e+01 5.583571e+01 7.316898e+01 5.087021e+01 6.484860e+01 2.868503e+01 3.442337e+00 2.824221e+00 2.379243e+00 3.343438e+00 4.931376e+00 5.063642e+00 3.978753e+00 4.036425e+00 4.000666e+00 4.268833e+00 3.804943e+00 4.141196e+00 2.194238e+00 5.093989e-01 4.404442e-01 5.890003e-01 7.197458e-01 8.660361e-01 8.189010e-01 7.414635e-01 7.159700e-01 7.455382e-01 8.220038e-01 6.704298e-01 8.040952e-01 3.335554e-01
<GCONST> 1.353346e+02
<TRANSP> 5
 0.000000e+00 1.000000e+00 0.000000e+00 0.000000e+00 0.000000e+00
 0.000000e+00 6.895271e-01 3.104729e-01 0.000000e+00 0.000000e+00
 0.000000e+00 0.000000e+00 1.749303e-01 8.250697e-01 0.000000e+00
 0.000000e+00 0.000000e+00 0.000000e+00 2.338232e-01 7.661768e-01
 0.000000e+00 0.000000e+00 0.000000e+00 0.000000e+00 0.000000e+00
<ENDHMM>
~h "u"
<BEGINHMM>
<NUMSTATES> 5
<STATE> 2
<MEAN> 39
 2.411844e-01 4.990853e+00 -2.940737e+00 -4.977659e-01 -7.598915e+00 -9.927482e+00 -7.134796e+00 -1.171512e+01 -7.888461e+00 -6.160210e+00 -5.640203e-01 -1.288968e+00 6.692373e+01 6.545089e-01 2.847169e-01 -7.455088e-03 -2.938623e-01 -1.308976e+00 -2.981119e-01 -3.541340e-02 -7.231748e-01 -4.800354e-01 1.667724e-01 5.773758e-01 2.445585e-01 2.291272e-01 -2.854037e-01 -2.308685e-01 8.023478e-03 -5.191211e-02 1.236357e-01 2.199785e-01 2.648956e-01 3.727458e-01 3.432026e-01 2.483317e-01 8.685094e-02 8.113407e-02 -1.329769e-01
<VARIANCE> 39
 2.778000e+01 3.861637e+01 3.513495e+01 6.088712e+01 6.407412e+01 5.891723e+01 5.583418e+01 5.351678e+01 5.920284e+01 5.834894e+01 5.167646e+01 4.791573e+01 2.298939e+01 2.002131e+00 2.643368e+00 2.674823e+00 4.875576e+00 4.145913e+00 4.161600e+00 5.104756e+00 4.627546e+00 4.974567e+00 3.963537e+00 4.185785e+00 3.811167e+00 9.279663e-01 4.503998e-01 5.451174e-01 3.373690e-01 6.220012e-01 8.765113e-01 8.548401e-01 1.033946e+00 9.361212e-01 9.208187e-01 8.325984e-01 8.488191e-01 8.424664e-01 1.669293e-01
<GCONST> 1.319016e+02
<STATE> 3
<MEAN> 39
 1.214026e+00 5.057460e+00 -3.047198e+00 -1.292863e+00 -1.059361e+01 -9.880070e+00 -6.188519e+00 -1.248662e+01 -8.732193e+00 -5.323044e+00 6.444179e-01 -6.992125e-01 6.696886e+01 1.233940e-01 -8.125930e-02 1.210431e-01 -4.154830e-01 -8.175319e-01 2.037193e-01 3.662607e-01 6.864950e-02 1.805127e-01 4.830013e-01 4.121995e-01 3.929308e-01 1.844753e-03 -3.142404e-01 -2.579892e-01 3.237572e-02 2.821590e-02 4.725797e-01 2.058267e-01 5.933759e-02 3.825990e-01 3.827691e-01 1.908126e-01 -3.489103e-02 -7.259211e-02 -1.015914e-01
<VARIANCE> 39
 2.304058e+01 3.684310e+01 3.965489e+01 5.545036e+01 5.723934e+01 5.810467e+01 5.713497e+01 4.877523e+01 6.263735e+01 5.882067e+01 4.785844e+01 4.401636e+01 2.424767e+01 1.075170e+00 1.531319e+00 2.246390e+00 3.744851e+00 3.215512e+00 3.542183e+00 3.794215e+00 3.242478e+00 3.544454e+00 3.825897e+00 3.638710e+00 3.461977e+00 8.405405e-01 2.480455e-01 2.819245e-01 2.782995e-01 4.843558e-01 6.066259e-01 6.210343e-01 7.086816e-01 6.174060e-01 7.402754e-01 7.379525e-01 6.786381e-01 6.034601e-01 1.275727e-01
<GCONST> 1.237263e+02
<STATE> 4
<MEAN> 39
 1.489651e+00 4.658235e+00 -3.210542e+00 -3.316425e+00 -1.199063e+01 -9.398963e+00 -5.988668e+00 -1.196758e+01 -8.069229e+00 -4.055088e+00 1.437465e+00 7.672459e-03 6.731430e+01 -1.917759e-01 -3.696157e-01 -4.243203e-03 -3.869902e-01 1.499809e-01 3.952317e-01 3.442376e-01 5.733159e-01 5.957736e-01 6.723495e-01 2.981863e-01 -5.009891e-02 -7.729044e-02 -1.201881e-01 -1.095910e-01 1.361275e-03 9.412510e-02 3.275466e-01 6.012723e-02 2.520376e-02 1.883326e-01 1.117612e-01 5.207036e-02 -7.470924e-02 -1.365866e-01 -8.200309e-02
<VARIANCE> 39
 1.796944e+01 3.626141e+01 4.186576e+01 6.868515e+01 6.012437e+01 5.507171e+01 7.521774e+01 4.778070e+01 5.933458e+01 6.942281e+01 4.911712e+01 4.942849e+01 2.616719e+01 5.846415e-01 1.297997e+00 1.600086e+00 2.286741e+00 3.057834e+00 2.656762e+00 2.766761e+00 2.475951e+00 3.045742e+00 3.748474e+00 3.114467e+00 2.744793e+00 8.438569e-01 1.016026e-01 1.553040e-01 2.142963e-01 2.924072e-01 3.932341e-01 3.919556e-01 4.854586e-01 4.490352e-01 5.489157e-01 5.667557e-01 5.852005e-01 5.335733e-01 7.989967e-02
<GCONST> 1.160759e+02
<TRANSP> 5
 0.000000e+00 1.000000e+00 0.000000e+00 0.000000e+00 0.000000e+00
 0.000000e+00 2.678038e-01 7.321963e-01 0.000000e+00 0.000000e+00
 0.000000e+00 0.000000e+00 2.139805e-01 7.860195e-01 0.000000e+00
 0.000000e+00 0.000000e+00 0.000000e+00 6.103616e-01 3.896383e-01
 0.000000e+00 0.000000e+00 0.000000e+00 0.000000e+00 0.000000e+00
<ENDHMM>
~h "w"
<BEGINHMM>
<NUMSTATES> 5
<STATE> 2
<MEAN> 39
 4.653550e+00 6.673100e+00 -5.724344e+00 -1.321676e+01 -1.785510e+01 -7.309953e+00 2.535492e+00 -3.250463e+00 -3.453400e+00 -3.025714e+00 -3.345432e+00 -9.348998e-01 6.642599e+01 1.243545e-02 -1.292751e+00 -1.227155e+00 -1.396052e+00 -3.368292e-01 1.151963e+00 1.676530e+00 1.809109e-01 -4.945781e-01 3.215860e-02 3.808434e-01 7.754449e-01 1.021320e+00 -2.492560e-01 -3.613806e-01 4.583137e-02 4.890308e-01 6.903331e-01 2.519633e-01 -2.400459e-01 -2.743912e-01 -8.414283e-02 9.651012e-02 3.004930e-01 -9.400412e-03 4.457061e-02
<VARIANCE> 39
 9.252890e+00 3.679459e+01 3.440676e+01 6.265068e+01 6.769640e+01 4.734339e+01 6.535629e+01 5.998568e+01 4.365171e+01 4.821726e+01 4.568158e+01 3.894778e+01 2.386124e+01 8.567281e-01 3.174120e+00 1.843921e+00 2.802637e+00 5.082432e+00 4.216392e+00 4.354517e+00 4.635692e+00 3.826560e+00 3.545412e+00 3.937000e+00 3.511814e+00 1.440574e+00 1.108492e-01 3.605748e-01 3.136384e-01 5.311648e-01 8.775044e-01 8.645988e-01 1.005255e+00 7.539814e-01 8.008482e-01 7.102003e-01 6.866128e-01 7.073208e-01 1.757339e-01
<GCONST> 1.255593e+02
<STATE> 3
<MEAN> 39
 3.497334e+00 1.716584e+00 -8.990386e+00 -1.379324e+01 -1.402342e+01 -2.399955e+00 5.393563e+00 -5.541719e+00 -6.135233e+00 -3.247290e+00 4.732044e-01 1.557076e+00 6.933774e+01 -5.415996e-01 -1.679841e+00 -7.277215e-01 4.779945e-01 1.705315e+00 1.053068e+00 -3.567961e-01 -9.765891e-01 9.398543e-02 9.877619e-01 1.222402e+00 -2.835775e-01 7.946131e-01 -1.702396e-01 1.879250e-01 4.173439e-01 6.763203e-01 2.327027e-01 -6.281783e-01 -7.617798e-01 9.919024e-02 5.313383e-01 1.943658e-01 -3.453580e-01 -5.484909e-01 -2.423938e-01
<VARIANCE> 39
 1.189605e+01 4.732167e+01 4.085154e+01 8.212837e+01 5.929792e+01 4.606734e+01 8.245472e+01 8.585887e+01 4.323524e+01 5.286908e+01 5.710016e+01 5.168394e+01 3.104419e+01 6.884468e-01 2.088062e+00 1.205904e+00 2.389444e+00 3.104494e+00 4.224738e+00 4.495387e+00 3.592721e+00 3.886129e+00 4.171534e+00 3.740367e+00 3.815483e+00 8.961817e-01 1.216495e-01 3.344953e-01 2.679313e-01 3.672315e-01 5.495015e-01 6.775252e-01 7.902218e-01 8.073305e-01 7.330317e-01 6.796383e-01 7.886393e-01 6.736341e-01 1.763663e-01
<GCONST> 1.241549e+02
<STATE> 4
<MEAN> 39
 2.651268e+00 -1.437321e-01 -9.731779e+00 -1.290674e+01 -1.101979e+01 -1.759163e+00 3.042122e+00 -6.250428e+00 -5.175757e+00 -8.705867e-01 8.661479e-01 -1.982867e+00 6.975500e+01 -5.655431e-01 -8.809147e-01 -7.917318e-02 9.522285e-01 1.248971e+00 -1.241837e-01 -8.599425e-01 -1.407282e-01 8.031265e-01 7.556241e-01 -5.569666e-02 -7.892364e-01 2.165442e-01 -4.005243e-02 2.786244e-01 2.890016e-01 2.341934e-01 -1.966759e-01 -4.490312e-01 -1.594541e-01 2.908832e-01 1.822302e-01 -1.809742e-01 -3.563392e-01 -6.382029e-02 -2.281881e-01
<VARIANCE> 39
 1.311634e+01 5.111698e+01 4.069658e+01 8.242772e+01 5.512499e+01 5.142467e+01 7.876203e+01 8.086392e+01 4.697860e+01 5.824453e+01 5.772863e+01 6.729522e+01 3.004834e+01 6.737702e-01 1.358100e+00 1.126682e+00 2.181413e+00 2.813451e+00 4.197134e+00 3.731455e+00 2.793341e+00 3.305030e+00 3.495133e+00 3.169240e+00 3.484982e+00 6.729176e-01 8.688685e-02 2.557583e-01 2.556728e-01 2.905366e-01 4.301003e-01 5.044276e-01 6.304576e-01 6.028471e-01 5.495180e-01 6.131067e-01 6.743168e-01 5.563577e-01 1.164132e-01
<GCONST> 1.195492e+02
<TRANSP> 5
 0.000000e+00 1.000000e+00 0.000000e+00 0.000000e+00 0.000000e+00
 0.000000e+00 6.064769e-01 3.935231e-01 0.000000e+00 0.000000e+00
 0.000000e+00 0.000000e+00 2.884593e-01 7.115406e-01 0.000000e+00
 0.000000e+00 0.000000e+00 0.000000e+00 4.341533e-01 5.658466e-01
 0.000000e+00 0.000000e+00 0.000000e+00 0.000000e+00 0.000000e+00
<ENDHMM>
~h "aa"
<BEGINHMM>
<NUMSTATES> 5
<STATE> 2
<MEAN> 39
 2.280157e+00 -6.225151e+00 -1.327486e+01 -1.521011e+01 -8.198638e+00 3.329309e+00 7.141593e+00 -5.850065e+00 -5.532816e+00 -3.947859e-01 -4.140779e+00 -5.690105e+00 7.379449e+01 -9.293199e-02 -4.312156e-01 -1.318907e-01 2.742471e-01 4.673828e-01 1.663781e-01 -1.833485e-01 -1.387817e-01 1.776358e-01 2.239984e-01 -1.599684e-01 -3.662548e-01 7.554776e-02 -1.750366e-02 2.402218e-01 1.212922e-01 1.426684e-01 -6.733035e-02 -2.903850e-01 -1.964842e-01 1.285398e-01 1.432256e-01 -4.613301e-02 1.412448e-02 6.931948e-02 -1.405973e-01
<VARIANCE> 39
 1.353664e+01 4.342535e+01 2.440720e+01 3.409980e+01 5.520960e+01 4.367395e+01 4.901186e+01 8.411398e+01 4.731796e+01 5.360119e+01 6.301781e+01 6.401837e+01 2.380575e+01 2.257540e-01 6.067164e-01 4.930683e-01 8.268397e-01 1.269880e+00 1.385429e+00 1.553365e+00 1.719682e+00 1.690675e+00 1.547548e+00 1.816653e+00 1.722643e+00 1.928177e-01 7.309025e-02 1.199533e-01 1.226015e-01 1.705555e-01 2.311890e-01 2.704473e-01 3.081641e-01 3.291350e-01 3.237239e-01 3.076773e-01 3.128394e-01 3.262893e-01 4.196014e-02
<GCONST> 9.789532e+01
<STATE> 3
<MEAN> 39
 2.242921e+00 -6.387747e+00 -1.265578e+01 -1.147026e+01 -5.972169e+00 1.131338e+00 3.485427e+00 -5.563988e+00 -9.136571e-01 -1.245795e-01 -5.322917e+00 -8.411448e+00 7.285529e+01 -1.188274e-01 3.242688e-01 3.524763e-01 6.987320e-01 -5.633935e-02 -1.027284e+00 -6.725259e-01 4.431418e-01 6.560059e-01 1.388820e-01 -1.382377e-01 -1.537285e-01 -2.822937e-01 -3.476005e-02 2.412754e-01 2.102226e-01 1.170728e-01 -1.234583e-01 -2.138740e-01 -1.186929e-01 6.797606e-03 -2.814885e-02 -2.809961e-02 1.372585e-01 2.017471e-01 -1.405489e-01
<VARIANCE> 39
 1.026299e+01 4.312556e+01 2.929663e+01 4.258976e+01 5.276332e+01 6.464631e+01 5.547131e+01 8.355470e+01 6.168361e+01 6.421356e+01 7.700656e+01 7.592598e+01 2.279788e+01 2.617761e-01 6.028215e-01 7.291707e-01 1.051908e+00 1.497031e+00 1.780213e+00 1.932768e+00 2.059960e+00 2.084337e+00 1.844438e+00 2.317074e+00 1.956089e+00 2.048298e-01 4.289506e-02 1.141108e-01 1.243069e-01 1.652278e-01 2.304021e-01 2.628219e-01 3.035449e-01 3.586956e-01 3.490225e-01 3.356622e-01 3.467140e-01 3.765796e-01 4.209554e-02
<GCONST> 1.015074e+02
<STATE> 4
<MEAN> 39
 3.828937e-01 -3.401876e+00 -9.636585e+00 -8.220803e+00 -6.042741e+00 -3.515944e+00 1.060865e+00 -2.804917e+00 2.559420e-01 1.315240e+00 -3.387251e+00 -6.160225e+00 6.912260e+01 -5.128238e-01 9.431044e-01 1.063571e+00 1.157923e+00 -4.655200e-02 -8.070272e-01 -6.480697e-01 3.286620e-01 2.610769e-01 -2.202614e-01 5.140349e-01 7.023962e-01 -1.211187e+00 -9.711359e-02 5.268605e-02 1.247010e-01 3.301463e-02 3.141417e-02 1.659076e-01 1.247424e-01 -8.608357e-02 -2.508663e-01 -1.562426e-01 1.365757e-01 1.271252e-01 -1.175603e-01
<VARIANCE> 39
 1.400504e+01 4.413014e+01 3.637503e+01 4.704854e+01 4.659432e+01 6.766831e+01 5.753812e+01 6.552863e+01 5.543650e+01 5.802341e+01 6.457064e+01 6.306511e+01 4.834584e+01 8.318242e-01 1.302787e+00 1.658080e+00 1.838015e+00 2.739403e+00 3.468257e+00 3.374062e+00 3.445618e+00 3.203611e+00 3.104637e+00 3.079002e+00 3.108667e+00 9.226382e-01 1.035783e-01 2.295990e-01 2.576172e-01 2.684883e-01 3.852766e-01 5.201635e-01 5.670375e-01 5.385272e-01 5.448312e-01 5.178036e-01 5.404766e-01 5.367184e-01 1.727019e-01
<GCONST> 1.190181e+02
<TRANSP> 5
 0.000000e+00 1.000000e+00 0.000000e+00 0.000000e+00 0.000000e+00
 0.000000e+00 7.808191e-01 2.191809e-01 0.000000e+00 0.000000e+00
 0.000000e+00 0.000000e+00 7.060608e-01 2.939392e-01 0.000000e+00
 0.000000e+00 0.000000e+00 0.000000e+00 6.965275e-01 3.034725e-01
 0.000000e+00 0.000000e+00 0.000000e+00 0.000000e+00 0.000000e+00
<ENDHMM>
~h "ae"
<BEGINHMM>
<NUMSTATES> 5
<STATE> 2
<MEAN> 39
 2.283152e+00 -7.001752e+00 -1.273323e+01 -1.161684e+01 -8.333150e+00 -1.000402e+00 3.303510e+00 -4.441362e+00 -2.078270e+00 1.193705e+00 -2.061962e+00 -6.977977e+00 7.358717e+01 -2.068211e-01 -4.102677e-01 2.312899e-01 2.708387e-01 1.744857e-01 -4.705846e-01 -7.133768e-01 3.077148e-01 9.597293e-01 2.321293e-01 -6.622462e-01 -6.558464e-01 1.666716e-01 -5.483970e-02 1.471415e-01 2.058969e-01 2.441917e-01 -3.526656e-02 -3.795098e-01 -1.797364e-01 1.191010e-01 1.085357e-01 -1.257936e-01 -1.781546e-02 1.835471e-01 -1.116866e-01
<VARIANCE> 39
 1.369218e+01 4.318552e+01 2.735253e+01 3.793623e+01 5.175854e+01 7.157978e+01 4.630864e+01 6.931956e+01 7.003645e+01 6.101051e+01 6.380376e+01 5.901793e+01 2.549963e+01 3.350153e-01 6.251941e-01 9.400540e-01 1.672656e+00 1.868098e+00 3.328764e+00 2.578849e+00 2.763545e+00 2.407886e+00 2.325322e+00 2.641299e+00 2.319183e+00 2.516129e-01 6.050348e-02 1.187628e-01 1.521555e-01 2.005189e-01 3.110724e-01 3.811033e-01 4.116349e-01 3.913701e-01 4.171023e-01 4.079759e-01 4.191162e-01 4.401020e-01 4.764711e-02
<GCONST> 1.070752e+02
<STATE> 3
<MEAN> 39
 6.757011e-01 -8.932787e+00 -9.577936e+00 -6.060030e+00 -9.778865e+00 -9.701018e+00 -2.618937e+00 -2.638388e-01 5.783899e+00 1.444559e+00 -6.093507e+00 -8.083689e+00 7.362547e+01 -2.607639e-01 6.444809e-01 1.178793e+00 1.227674e+00 -7.440230e-01 -2.030625e+00 -8.330983e-01 4.434107e-01 4.656698e-01 -6.525003e-01 2.021869e-01 1.074378e+00 -4.981844e-01 -2.280575e-02 2.852151e-01 1.946692e-01 -1.321141e-02 -7.004955e-03 2.643802e-01 1.956096e-01 -2.917165e-01 -5.419074e-01 -1.394136e-01 3.440554e-01 3.059550e-01 -2.146811e-01
<VARIANCE> 39
 1.264642e+01 3.213012e+01 3.307833e+01 3.935054e+01 5.419047e+01 6.543044e+01 5.037222e+01 6.708870e+01 5.355616e+01 6.620972e+01 6.442643e+01 6.282944e+01 2.562374e+01 5.649912e-01 7.507917e-01 1.276940e+00 1.446978e+00 2.100824e+00 2.589997e+00 2.908596e+00 3.125353e+00 3.442476e+00 2.631943e+00 3.125827e+00 2.579143e+00 3.370991e-01 6.259654e-02 1.352139e-01 1.958179e-01 2.548078e-01 3.549932e-01 4.388571e-01 4.738559e-01 4.242384e-01 4.852884e-01 5.106975e-01 4.913881e-01 4.943596e-01 6.098744e-02
<GCONST> 1.108986e+02
<STATE> 4
<MEAN> 39
 -1.773487e+00 -3.281079e+00 -3.124876e+00 -2.144062e+00 -1.180703e+01 -1.455107e+01 -2.740676e+00 -1.384273e-01 2.325634e+00 -1.111466e+00 -2.982932e+00 -3.175230e+00 6.883600e+01 -3.732488e-01 8.086826e-01 7.895161e-01 5.693957e-01 6.539347e-02 -1.089703e-01 -3.031864e-02 -2.044274e-01 -5.009156e-01 -2.836933e-01 4.176781e-01 5.032038e-01 -9.638673e-01 -1.218098e-03 -2.706315e-02 -1.790238e-01 -1.298739e-01 1.750868e-01 3.258840e-01 9.622268e-02 -2.417387e-02 -1.649977e-02 9.774645e-02 -3.633033e-04 -1.316533e-01 -7.345473e-02
<VARIANCE> 39
 1.814914e+01 3.594736e+01 4.790811e+01 3.951486e+01 6.165631e+01 6.219851e+01 6.559618e+01 6.046518e+01 6.207441e+01 5.743684e+01 5.309585e+01 6.115718e+01 3.809711e+01 4.279668e-01 8.630176e-01 1.304650e+00 1.296634e+00 1.853996e+00 2.304485e+00 2.012604e+00 2.145846e+00 2.355885e+00 2.269732e+00 2.585464e+00 2.424450e+00 4.626186e-01 5.178603e-02 1.298738e-01 1.899135e-01 2.161629e-01 2.664131e-01 3.507352e-01 3.377567e-01 3.877161e-01 4.133525e-01 3.919389e-01 4.478997e-01 4.556670e-01 5.962643e-02
<GCONST> 1.085051e+02
<TRANSP> 5
 0.000000e+00 1.000000e+00 0.000000e+00 0.000000e+00 0.000000e+00
 0.000000e+00 8.181810e-01 1.818190e-01 0.000000e+00 0.000000e+00
 0.000000e+00 0.000000e+00 6.343362e-01 3.656637e-01 0.000000e+00
 0.000000e+00 0.000000e+00 0.000000e+00 7.639561e-01 2.360439e-01
 0.000000e+00 0.000000e+00 0.000000e+00 0.000000e+00 0.000000e+00
<ENDHMM>
~h "ai"
<BEGINHMM>
<NUMSTATES> 5
<STATE> 2
<MEAN> 39
 7.883151e-01 -6.574994e+00 -9.450595e+00 -7.776181e+00 -8.321872e+00 -7.516956e+00 -3.750136e+00 -5.998135e+00 2.911057e+00 3.649817e+00 -2.876657e+00 -6.858293e+00 7.464643e+01 -5.578588e-01 -5.328696e-01 1.506154e+00 2.017575e+00 -4.665264e-01 -2.915838e+00 -1.717698e+00 1.264167e+00 1.934699e+00 -6.426620e-01 -1.250604e+00 -1.705125e-02 1.693159e-01 -6.107690e-02 5.626940e-01 5.762913e-01 5.636666e-02 -4.997839e-01 -2.051958e-01 4.174602e-01 2.085173e-01 -7.011142e-01 -8.748192e-01 6.101636e-02 7.134564e-01 -3.265254e-01
<VARIANCE> 39
 1.282725e+01 4.599421e+01 4.422821e+01 6.106056e+01 4.703588e+01 8.842650e+01 5.737933e+01 8.162638e+01 5.709212e+01 8.541843e+01 7.567577e+01 8.000336e+01 2.256763e+01 5.064048e-01 1.349162e+00 2.176464e+00 2.374568e+00 2.492901e+00 4.093832e+00 4.357014e+00 3.803533e+00 4.142081e+00 4.915327e+00 3.571941e+00 4.038445e+00 4.573605e-01 1.035860e-01 2.294793e-01 3.565115e-01 4.603650e-01 4.534086e-01 8.645343e-01 8.134829e-01 8.695421e-01 9.742504e-01 1.027075e+00 1.071348e+00 6.777552e-01 8.366023e-02
<GCONST> 1.247236e+02
<STATE> 3
<MEAN> 39
 -7.894394e-01 -5.456706e+00 -3.090973e+00 -2.775343e+00 -1.290716e+01 -1.634571e+01 -5.812429e+00 -3.203450e+00 3.630514e+00 -2.513821e+00 -3.626129e+00 -2.238817e+00 7.410773e+01 -5.333222e-01 8.030558e-01 2.095751e+00 1.212694e+00 -1.342816e+00 -1.533574e+00 4.094458e-02 -7.771210e-02 -1.208891e+00 -1.377957e+00 7.417774e-01 1.287563e+00 -4.471902e-01 6.187152e-02 3.108852e-01 -1.595837e-01 -3.105241e-01 2.091036e-01 7.792942e-01 3.381460e-01 -5.253087e-01 -6.002918e-01 2.608126e-01 3.592771e-01 -1.846773e-01 -2.200914e-01
<VARIANCE> 39
 1.405138e+01 4.150731e+01 6.111719e+01 6.586338e+01 6.190720e+01 7.350696e+01 6.176843e+01 6.402867e+01 6.184742e+01 7.305875e+01 6.047344e+01 7.115604e+01 1.911529e+01 3.664924e-01 9.588204e-01 1.869682e+00 1.519341e+00 2.304065e+00 2.905787e+00 2.845065e+00 4.177171e+00 3.921652e+00 4.250482e+00 4.807013e+00 2.840244e+00 3.677534e-01 6.663512e-02 1.563279e-01 2.551467e-01 2.915584e-01 3.929757e-01 6.060053e-01 5.634420e-01 6.136115e-01 6.995381e-01 7.224364e-01 7.215043e-01 6.105915e-01 5.715201e-02
<GCONST> 1.175634e+02
<STATE> 4
<MEAN> 39
 -2.713037e+00 1.374519e-01 3.769661e+00 -2.475509e-01 -1.456192e+01 -1.698549e+01 -5.152574e+00 -6.873682e+00 -3.347877e+00 -5.184542e+00 -1.272948e+00 -1.542761e+00 7.016103e+01 -2.364013e-01 6.565827e-01 3.411417e-01 3.352827e-01 5.286768e-01 5.455574e-01 1.697174e-01 -1.522145e-01 -3.245359e-01 1.144395e-01 -7.795946e-02 -2.452403e-01 -8.603281e-01 5.378141e-02 -9.463008e-02 -3.419051e-01 -1.488247e-01 3.406572e-01 2.967732e-01 -4.606658e-02 1.472953e-01 2.490426e-01 2.738191e-01 -3.728891e-02 -1.126311e-01 -8.487123e-02
<VARIANCE> 39
 1.542212e+01 4.778827e+01 6.590258e+01 5.922968e+01 6.489639e+01 6.251982e+01 5.750111e+01 6.704558e+01 7.300585e+01 6.281596e+01 5.742546e+01 5.678674e+01 2.681538e+01 4.144175e-01 1.074612e+00 1.890722e+00 1.432936e+00 2.391488e+00 2.367531e+00 2.144041e+00 2.761703e+00 3.293377e+00 2.771986e+00 2.791040e+00 2.329384e+00 6.746174e-01 6.237789e-02 1.412524e-01 2.256558e-01 2.188544e-01 3.529113e-01 3.861911e-01 4.230610e-01 4.610316e-01 5.065023e-01 4.910968e-01 5.609350e-01 4.294429e-01 6.812153e-02
<GCONST> 1.134457e+02
<TRANSP> 5
 0.000000e+00 1.000000e+00 0.000000e+00 0.000000e+00 0.000000e+00
 0.000000e+00 6.067779e-01 3.932222e-01 0.000000e+00 0.000000e+00
 0.000000e+00 0.000000e+00 5.797275e-01 4.202725e-01 0.000000e+00
 0.000000e+00 0.000000e+00 0.000000e+00 7.699897e-01 2.300102e-01
 0.000000e+00 0.000000e+00 0.000000e+00 0.000000e+00 0.000000e+00
<ENDHMM>
~h "ao"
<BEGINHMM>
<NUMSTATES> 5
<STATE> 2
<MEAN> 39
 2.203233e+00 -5.073016e+00 -1.190762e+01 -1.881043e+01 -1.250279e+01 3.499631e+00 7.246899e+00 -4.722447e+00 -4.541305e+00 -5.942030e+00 -3.687497e+00 -3.954703e+00 7.523322e+01 1.195432e-01 2.345539e-01 5.464915e-02 -2.900432e-01 -5.087255e-01 -1.246378e-01 1.233381e-01 5.501935e-02 1.410155e-01 1.745003e-02 -5.534519e-02 1.343079e-01 -2.334035e-01 -1.058748e-02 1.663796e-01 6.891458e-02 3.235325e-02 -1.996475e-02 -1.523841e-01 -6.137384e-02 -1.528468e-03 3.072677e-02 2.660099e-02 -6.700231e-02 -1.230747e-02 -1.091661e-01
<VARIANCE> 39
 1.088155e+01 3.014766e+01 3.371843e+01 2.574640e+01 6.860595e+01 6.926730e+01 4.444635e+01 1.197168e+02 5.744026e+01 6.741775e+01 4.378749e+01 5.181813e+01 1.319118e+01 3.065447e-01 8.395797e-01 4.819687e-01 7.534611e-01 1.103215e+00 1.367117e+00 1.391666e+00 1.801076e+00 1.762874e+00 1.573962e+00 1.699597e+00 1.548652e+00 4.166618e-01 6.023035e-02 8.878438e-02 9.257367e-02 1.379543e-01 2.079484e-01 2.851384e-01 2.473200e-01 2.799411e-01 3.469514e-01 2.837141e-01 2.939475e-01 2.512001e-01 3.976823e-02
<GCONST> 9.668712e+01
<STATE> 3
<MEAN> 39
 4.381329e+00 2.946057e+00 -7.901833e+00 -2.158062e+01 -1.963430e+01 -8.390042e-02 6.709088e+00 -2.705353e+00 -1.594607e+00 -3.383538e+00 -6.060712e+00 -2.591934e+00 6.942650e+01 -2.856119e-02 8.743476e-01 3.582729e-01 2.279668e-01 -3.725304e-01 -8.080767e-01 -4.784173e-01 2.229775e-01 1.272637e-01 5.736917e-02 -1.469914e-01 -1.303656e-01 -6.252372e-01 -5.482893e-02 -1.589763e-02 1.345903e-02 1.386835e-01 1.289295e-01 -2.023554e-02 -7.316269e-02 -9.207781e-04 3.791079e-03 -3.390346e-02 4.634225e-02 -1.034987e-02 -2.963931e-02
<VARIANCE> 39
 7.021979e+00 2.727205e+01 4.696185e+01 2.102790e+01 7.219035e+01 5.872353e+01 4.221136e+01 6.822679e+01 6.891173e+01 6.186010e+01 4.036724e+01 4.614233e+01 1.634601e+01 1.159356e-01 5.199119e-01 5.320177e-01 6.868699e-01 9.494935e-01 1.242995e+00 1.200716e+00 1.405336e+00 1.525139e+00 1.244894e+00 1.290351e+00 1.393861e+00 1.756968e-01 2.404213e-02 7.442272e-02 8.766358e-02 1.013301e-01 1.629552e-01 2.012730e-01 1.873933e-01 2.194381e-01 2.398009e-01 2.115836e-01 2.232875e-01 2.263061e-01 1.659901e-02
<GCONST> 8.746609e+01
<STATE> 4
<MEAN> 39
 -8.685006e-01 7.117492e+00 -4.746729e+00 -1.179262e+01 -1.300255e+01 -6.126745e+00 1.090491e+00 4.360475e-01 -8.385988e-01 -2.510106e+00 -4.235785e+00 -3.176834e+00 6.099254e+01 -6.583141e-01 -2.122011e-01 2.121979e-01 9.521451e-01 1.039024e+00 1.734174e-01 -2.666367e-01 1.420360e-01 2.041877e-01 1.507313e-01 3.181430e-01 2.565995e-01 -6.876140e-01 -2.650347e-02 -1.042175e-01 -2.711740e-02 -1.105347e-02 4.463983e-02 8.746795e-02 5.443262e-02 -5.398600e-03 1.881602e-02 4.590838e-02 5.768105e-02 6.165116e-02 3.667970e-02
<VARIANCE> 39
 1.558906e+01 2.691981e+01 2.565566e+01 3.502517e+01 6.528570e+01 3.745163e+01 4.308557e+01 3.369884e+01 3.986274e+01 5.108542e+01 3.168973e+01 3.557454e+01 3.196156e+01 3.135595e-01 6.223243e-01 6.870489e-01 1.163493e+00 1.445301e+00 1.646620e+00 1.566936e+00 1.850837e+00 2.153026e+00 1.999685e+00 1.867004e+00 1.924076e+00 2.440554e-01 4.363862e-02 8.864661e-02 1.046216e-01 1.721182e-01 2.171065e-01 2.495897e-01 2.508197e-01 3.193870e-01 3.939742e-01 3.619673e-01 3.100844e-01 3.493148e-01 2.239551e-02
<GCONST> 9.613232e+01
<TRANSP> 5
 0.000000e+00 1.000000e+00 0.000000e+00 0.000000e+00 0.000000e+00
 0.000000e+00 8.898280e-01 1.101719e-01 0.000000e+00 0.000000e+00
 0.000000e+00 0.000000e+00 8.872985e-01 1.127015e-01 0.000000e+00
 0.000000e+00 0.000000e+00 0.000000e+00 9.215961e-01 7.840383e-02
 0.000000e+00 0.000000e+00 0.000000e+00 0.000000e+00 0.000000e+00
<ENDHMM>
~h "au"
<BEGINHMM>
<NUMSTATES> 5
<STATE> 2
<MEAN> 39
 1.762254e+00 -5.392096e+00 -1.024459e+01 -1.019236e+01 -1.067086e+01 -7.075873e+00 -3.200912e+00 -5.195624e+00 4.370218e-01 2.631737e+00 2.341431e-01 -6.498143e+00 7.429229e+01 5.951245e-02 4.623255e-01 2.078718e-01 4.061289e-01 -4.670457e-01 -5.523880e-01 -6.534278e-01 -6.443106e-01 7.021022e-02 -1.701534e-02 5.917134e-01 3.787292e-01 -2.918082e-01 -1.009936e-01 3.919671e-01 2.118658e-01 2.161067e-01 2.022657e-01 -6.561641e-03 -1.415818e-01 -2.250367e-01 -2.721082e-01 -3.577104e-01 -2.029363e-02 2.058502e-01 -2.901391e-01
<VARIANCE> 39
 1.032412e+01 3.162009e+01 2.579474e+01 4.516283e+01 4.371357e+01 5.662532e+01 6.343729e+01 5.376438e+01 6.248521e+01 7.328483e+01 6.493893e+01 8.158795e+01 2.130920e+01 3.422936e-01 1.158310e+00 8.447838e-01 1.290096e+00 1.478027e+00 2.618837e+00 2.594372e+00 3.281543e+00 3.087614e+00 2.641695e+00 2.392942e+00 2.146858e+00 4.319515e-01 1.286192e-01 1.460348e-01 1.838293e-01 2.284811e-01 3.001057e-01 4.412661e-01 4.822724e-01 4.852724e-01 5.680563e-01 5.255340e-01 4.674349e-01 4.461344e-01 6.372501e-02
<GCONST> 1.099416e+02
<STATE> 3
<MEAN> 39
 2.686952e+00 5.430226e-01 -7.761287e+00 -7.555961e+00 -1.187121e+01 -8.526266e+00 -5.704679e+00 -1.055233e+01 -1.996237e+00 3.362072e-01 2.433530e+00 -2.415085e+00 7.072310e+01 9.186483e-02 1.314824e+00 6.710376e-01 6.444005e-01 1.167186e-01 -1.332935e-01 -2.305342e-01 -5.837231e-01 -9.919378e-01 -1.180436e+00 -1.602974e-01 5.975224e-01 -9.093915e-01 -3.220144e-02 2.779011e-02 9.671274e-02 4.125514e-02 1.876378e-01 1.376336e-01 1.104836e-01 2.712052e-01 -5.707987e-02 -9.932797e-02 -2.047917e-01 -1.354336e-01 -1.094636e-01
<VARIANCE> 39
 8.285860e+00 3.535478e+01 2.606866e+01 5.107339e+01 4.566547e+01 7.367290e+01 7.554082e+01 7.441043e+01 8.858327e+01 7.644592e+01 6.231607e+01 7.658323e+01 1.854094e+01 2.310610e-01 7.342176e-01 7.633363e-01 1.329057e+00 1.520131e+00 2.469910e+00 2.287449e+00 3.068890e+00 2.909319e+00 3.351732e+00 3.066440e+00 2.689932e+00 3.216102e-01 4.157643e-02 1.112406e-01 1.257397e-01 2.178261e-01 2.773225e-01 3.879500e-01 4.047374e-01 5.253446e-01 5.704959e-01 5.270203e-01 4.848788e-01 4.685735e-01 3.570452e-02
<GCONST> 1.075150e+02
<STATE> 4
<MEAN> 39
 1.068758e+00 7.256585e+00 -2.718573e+00 -2.767793e+00 -7.851227e+00 -7.759169e+00 -5.643980e+00 -1.015010e+01 -6.096456e+00 -5.410845e+00 -6.724923e-01 -1.460974e+00 6.436217e+01 -3.319059e-01 3.759062e-01 5.086752e-01 5.279351e-01 6.490842e-01 2.656659e-01 2.115171e-01 4.183950e-01 -1.532423e-01 -4.570563e-01 -4.176020e-01 -1.070877e-01 -7.780588e-01 -5.711796e-02 -1.732181e-01 -8.614168e-02 -7.178531e-02 3.712235e-02 6.044980e-02 5.994270e-02 8.243400e-02 1.304361e-01 1.613629e-01 6.331144e-02 1.800520e-02 5.334362e-02
<VARIANCE> 39
 1.124902e+01 3.556143e+01 2.475209e+01 4.084989e+01 4.216138e+01 5.277514e+01 6.070004e+01 5.255581e+01 6.396616e+01 5.793287e+01 4.422554e+01 4.578391e+01 3.357339e+01 3.267606e-01 8.822348e-01 8.125913e-01 1.133303e+00 1.496347e+00 1.777801e+00 1.959728e+00 2.351502e+00 2.440785e+00 2.544582e+00 2.075649e+00 2.193916e+00 3.222095e-01 4.267264e-02 9.961803e-02 1.272198e-01 1.743715e-01 2.490934e-01 2.771215e-01 3.027597e-01 3.874830e-01 3.734143e-01 4.038843e-01 3.322338e-01 3.524014e-01 3.183620e-02
<GCONST> 1.015284e+02
<TRANSP> 5
 0.000000e+00 1.000000e+00 0.000000e+00 0.000000e+00 0.000000e+00
 0.000000e+00 7.162917e-01 2.837083e-01 0.000000e+00 0.000000e+00
 0.000000e+00 0.000000e+00 7.410630e-01 2.589369e-01 0.000000e+00
 0.000000e+00 0.000000e+00 0.000000e+00 8.358933e-01 1.641068e-01
 0.000000e+00 0.000000e+00 0.000000e+00 0.000000e+00 0.000000e+00
<ENDHMM>
~h "ee"
<BEGINHMM>
<NUMSTATES> 5
<STATE> 2
<MEAN> 39
 -3.807454e+00 -7.476360e-01 6.733668e+00 -2.990037e+00 -2.143285e+01 -1.987716e+01 -5.034275e+00 -9.673894e+00 -7.962265e+00 -6.076782e+00 2.365920e+00 -1.283831e+00 7.533436e+01 3.157353e-03 -8.194987e-02 -3.944375e-02 -4.083285e-02 1.303537e-03 -2.118481e-02 2.695638e-02 8.842126e-02 9.689205e-02 -2.785408e-02 2.987881e-02 2.842053e-03 -9.837943e-02 -8.309083e-03 4.330067e-02 -2.957297e-02 1.857988e-02 8.371507e-02 5.186440e-02 2.556781e-02 3.769352e-02 2.705460e-02 -2.039398e-02 -5.232967e-02 -2.471017e-02 -6.486256e-02
<VARIANCE> 39
 8.729396e+00 2.323636e+01 4.427009e+01 5.292475e+01 4.807180e+01 5.539011e+01 3.864150e+01 5.138692e+01 3.082503e+01 4.777303e+01 6.388485e+01 8.774012e+01 9.203067e+00 1.024746e-01 3.466854e-01 3.761176e-01 5.104204e-01 7.287700e-01 7.679142e-01 8.118259e-01 8.791212e-01 8.305012e-01 8.898297e-01 1.006515e+00 9.513862e-01 1.355032e-01 2.502672e-02 6.074746e-02 7.113054e-02 9.434620e-02 1.627788e-01 1.668145e-01 1.678138e-01 1.717654e-01 1.697256e-01 1.735003e-01 1.929079e-01 1.766401e-01 2.521670e-02
<GCONST> 8.089502e+01
<STATE> 3
<MEAN> 39
 -2.712688e+00 -6.786794e-01 5.496317e+00 -1.531200e+00 -2.082922e+01 -1.887620e+01 -5.431352e+00 -6.945833e+00 -3.845850e+00 -8.284946e+00 -1.197450e+00 -1.165093e+00 7.232525e+01 2.089813e-01 5.213941e-01 -3.532500e-01 2.212176e-01 6.636072e-01 2.872175e-01 9.918505e-02 2.073175e-01 2.383125e-01 -2.708100e-01 -5.301623e-01 -3.964165e-01 -8.635588e-01 -2.262512e-02 1.264799e-01 -1.273532e-02 8.241107e-02 2.705932e-01 8.345953e-02 5.397480e-03 4.600794e-02 -1.205960e-01 5.860779e-02 -5.354716e-02 -5.432724e-02 -1.466392e-01
<VARIANCE> 39
 9.486653e+00 2.253704e+01 4.221787e+01 4.783766e+01 7.723103e+01 5.922703e+01 3.472284e+01 4.835534e+01 5.717698e+01 6.036404e+01 5.893844e+01 5.916365e+01 1.262499e+01 3.299084e-01 7.781934e-01 7.708563e-01 1.437866e+00 2.019374e+00 1.470870e+00 2.149569e+00 1.476427e+00 2.218308e+00 2.774945e+00 2.773432e+00 2.442015e+00 3.551852e-01 5.404146e-02 1.427925e-01 1.300002e-01 2.320171e-01 3.053197e-01 2.513246e-01 3.703096e-01 2.733535e-01 3.981238e-01 5.013969e-01 4.392610e-01 3.987656e-01 6.738996e-02
<GCONST> 1.037540e+02
<STATE> 4
<MEAN> 39
 -4.567511e+00 1.846833e+00 3.187480e+00 -3.833338e-01 -1.187898e+01 -1.461380e+01 -2.647035e+00 -4.237221e+00 -4.925282e+00 -5.820566e+00 -1.531370e+00 -8.293241e-01 6.430560e+01 -2.535970e-01 9.537461e-02 -4.652629e-01 1.718422e-01 1.205601e+00 9.420137e-01 2.267996e-01 4.944797e-01 3.114544e-01 3.234759e-01 -2.723452e-02 2.270354e-01 -1.008601e+00 -2.210053e-02 -8.109349e-02 -4.059629e-02 -3.477192e-02 -6.432828e-03 2.959704e-02 -3.727460e-02 3.822575e-03 3.080478e-02 5.249245e-02 1.161512e-01 4.518564e-02 6.073469e-02
<VARIANCE> 39
 1.487985e+01 2.788349e+01 2.710313e+01 2.994075e+01 4.730055e+01 6.991306e+01 4.291280e+01 4.596835e+01 4.952970e+01 6.391719e+01 5.113008e+01 6.060159e+01 2.578769e+01 3.276859e-01 8.005944e-01 7.689673e-01 1.049055e+00 1.588773e+00 1.869668e+00 1.803791e+00 2.199476e+00 2.655802e+00 2.292370e+00 2.416527e+00 2.368034e+00 5.450032e-01 4.192179e-02 1.266307e-01 1.218264e-01 1.706264e-01 2.269724e-01 2.863382e-01 2.988486e-01 3.912721e-01 5.261744e-01 3.910058e-01 4.489016e-01 4.576270e-01 5.160888e-02
<GCONST> 1.031820e+02
<TRANSP> 5
 0.000000e+00 1.000000e+00 0.000000e+00 0.000000e+00 0.000000e+00
 0.000000e+00 9.303263e-01 6.967366e-02 0.000000e+00 0.000000e+00
 0.000000e+00 0.000000e+00 7.709584e-01 2.290417e-01 0.000000e+00
 0.000000e+00 0.000000e+00 0.000000e+00 8.489143e-01 1.510857e-01
 0.000000e+00 0.000000e+00 0.000000e+00 0.000000e+00 0.000000e+00
<ENDHMM>
~h "ei"
<BEGINHMM>
<NUMSTATES> 5
<STATE> 2
<MEAN> 39
 -2.741532e+00 -5.098866e+00 1.158885e+00 -4.721382e+00 -1.844599e+01 -1.933589e+01 -4.373730e+00 -9.429654e-01 -2.013175e+00 -7.569772e+00 2.852522e-01 -2.811737e+00 7.602531e+01 -1.059277e-01 4.785588e-01 7.706859e-01 2.586084e-01 -4.567320e-01 -1.793237e-01 -8.152790e-03 -7.529690e-01 -7.340155e-01 -6.798986e-02 5.387340e-01 1.887029e-01 -3.169695e-01 -2.300083e-03 1.471032e-01 2.632450e-02 9.649750e-02 1.039705e-01 1.036970e-01 1.832489e-02 -1.454470e-01 -9.003377e-02 -1.759233e-03 -9.355836e-02 -9.001083e-02 -1.224130e-01
<VARIANCE> 39
 8.534148e+00 2.730725e+01 4.689503e+01 4.995964e+01 5.187396e+01 7.165311e+01 4.659346e+01 5.583630e+01 6.001104e+01 6.604424e+01 5.430201e+01 6.859040e+01 9.983720e+00 1.648744e-01 5.473005e-01 6.709874e-01 8.038594e-01 1.056165e+00 1.129388e+00 1.302256e+00 1.908170e+00 1.332276e+00 1.844599e+00 1.487012e+00 1.704166e+00 2.413678e-01 3.388358e-02 8.518042e-02 1.137536e-01 1.442022e-01 1.619153e-01 1.911311e-01 2.481328e-01 2.779184e-01 2.229634e-01 2.713500e-01 2.501023e-01 2.720133e-01 3.512181e-02
<GCONST> 9.330248e+01
<STATE> 3
<MEAN> 39
 -3.791297e+00 3.135153e+00 9.719817e+00 -6.788973e-01 -1.918727e+01 -1.620886e+01 -2.707945e+00 -1.085124e+01 -9.124710e+00 -5.047975e+00 9.236779e-01 -2.683650e+00 7.054919e+01 -1.631605e-01 8.058498e-01 4.304605e-01 2.871013e-01 4.928644e-01 6.994299e-01 1.918507e-01 -4.449812e-01 -3.523854e-01 -6.338511e-02 -4.125917e-01 -4.049754e-01 -7.576190e-01 -7.430557e-03 -4.110578e-02 -1.046202e-01 -2.204562e-02 1.580349e-01 4.521987e-02 -4.288376e-03 1.490338e-01 1.090794e-01 -2.375702e-02 -2.721856e-02 5.023538e-02 -3.653035e-02
<VARIANCE> 39
 9.254374e+00 2.227191e+01 3.947221e+01 5.149747e+01 5.175340e+01 7.621854e+01 3.022426e+01 4.455769e+01 4.749831e+01 6.493164e+01 4.732105e+01 5.688044e+01 1.251012e+01 1.465414e-01 4.266082e-01 6.665059e-01 8.914803e-01 9.897349e-01 1.174786e+00 1.085159e+00 1.449982e+00 1.165150e+00 1.310317e+00 1.325271e+00 1.420313e+00 1.877682e-01 2.571704e-02 5.533190e-02 1.038537e-01 1.471492e-01 1.776631e-01 2.106116e-01 2.028522e-01 2.451139e-01 1.928151e-01 2.376243e-01 2.179423e-01 2.436107e-01 1.588599e-02
<GCONST> 8.807684e+01
<STATE> 4
<MEAN> 39
 -6.375753e+00 6.012360e+00 7.549795e+00 2.085679e+00 -9.808621e+00 -8.216162e+00 -9.540879e-01 -8.513024e+00 -7.436496e+00 -5.970702e+00 -2.095869e+00 -3.054945e+00 6.234918e+01 -2.972804e-01 -2.454787e-01 -7.204748e-01 8.431722e-02 1.114825e+00 8.053857e-01 2.137891e-01 5.879444e-01 3.269011e-01 2.963764e-01 1.436093e-02 2.879678e-01 -8.454860e-01 -2.465112e-02 -1.208726e-01 -8.973176e-02 -6.734473e-02 -3.360468e-02 -3.812814e-03 4.226103e-02 1.054520e-01 8.655126e-02 1.045469e-01 7.404771e-02 3.216559e-02 3.061451e-02
<VARIANCE> 39
 1.060013e+01 2.986243e+01 5.099763e+01 2.589637e+01 6.480365e+01 4.805299e+01 3.863017e+01 4.762716e+01 4.143612e+01 4.578476e+01 3.144545e+01 4.357670e+01 2.468719e+01 2.732965e-01 7.173774e-01 9.756019e-01 1.004539e+00 1.835500e+00 1.533185e+00 1.739819e+00 2.438987e+00 1.893231e+00 2.122480e+00 1.928559e+00 1.885290e+00 3.510352e-01 4.742781e-02 1.150312e-01 1.480259e-01 1.452148e-01 3.022501e-01 2.724399e-01 3.317639e-01 4.035462e-01 3.048434e-01 3.457092e-01 3.289444e-01 3.358167e-01 3.798598e-02
<GCONST> 9.934183e+01
<TRANSP> 5
 0.000000e+00 1.000000e+00 0.000000e+00 0.000000e+00 0.000000e+00
 0.000000e+00 8.877283e-01 1.122717e-01 0.000000e+00 0.000000e+00
 0.000000e+00 0.000000e+00 8.812707e-01 1.187292e-01 0.000000e+00
 0.000000e+00 0.000000e+00 0.000000e+00 9.018836e-01 9.811641e-02
 0.000000e+00 0.000000e+00 0.000000e+00 0.000000e+00 0.000000e+00
<ENDHMM>
~h "ii"
<BEGINHMM>
<NUMSTATES> 5
<STATE> 2
<MEAN> 39
 -5.391956e+00 7.948715e-01 8.378598e+00 1.598339e+00 -1.965433e+01 -1.637414e+01 -4.268270e+00 -1.252702e+01 -8.520514e+00 -1.133741e+01 -1.178017e+00 -4.380247e+00 7.227700e+01 1.063426e+00 -2.614540e-01 -8.059905e-01 1.282401e-01 -1.094207e-02 -8.809373e-02 -4.402379e-01 -7.453228e-02 5.550639e-02 1.531930e-01 2.406800e-02 2.036837e-01 -3.566644e-01 -3.268605e-01 1.054210e-01 -3.217033e-01 -2.861938e-01 8.781930e-01 6.937305e-01 1.542924e-01 3.723221e-01 1.295407e-01 2.721272e-01 -5.810536e-02 1.205637e-01 -3.127825e-01
<VARIANCE> 39
 1.109538e+01 3.384729e+01 4.145265e+01 5.714376e+01 6.197491e+01 5.327370e+01 4.850249e+01 5.249340e+01 4.594596e+01 4.667408e+01 4.379569e+01 6.761255e+01 1.973904e+01 1.159665e+00 1.055280e+00 2.226066e+00 1.655386e+00 4.380695e+00 3.417352e+00 2.822843e+00 3.006638e+00 2.241884e+00 2.501443e+00 2.434267e+00 2.313179e+00 6.906268e-01 2.559043e-01 2.879288e-01 3.895206e-01 4.294125e-01 5.894700e-01 7.445084e-01 6.629922e-01 6.776564e-01 6.357761e-01 5.556158e-01 4.693078e-01 5.145836e-01 9.501850e-02
<GCONST> 1.185649e+02
<STATE> 3
<MEAN> 39
 -1.202945e+00 2.916090e+00 4.030083e+00 4.961812e-02 -1.153670e+01 -1.149611e+01 -6.255409e+00 -1.021940e+01 -9.228097e+00 -9.107787e+00 -2.087577e+00 -3.984669e+00 6.752340e+01 6.312981e-01 8.877417e-01 -6.416179e-01 -8.518665e-01 1.796823e+00 1.717343e+00 3.783804e-01 1.094834e-01 -9.050162e-01 9.117678e-02 -1.357796e-01 2.174369e-01 -1.109525e+00 -3.097785e-01 -1.421438e-02 2.283212e-01 4.665363e-02 -2.474165e-01 -2.377523e-02 4.439045e-01 -3.260194e-02 -4.294455e-02 -1.641405e-01 1.026493e-02 1.413310e-02 1.420054e-01
<VARIANCE> 39
 1.448254e+01 3.145166e+01 4.868127e+01 4.490689e+01 4.956372e+01 6.386067e+01 4.467266e+01 4.814794e+01 4.341740e+01 4.466508e+01 3.560389e+01 4.631496e+01 2.924229e+01 5.774120e-01 9.871517e-01 1.577329e+00 1.957076e+00 2.859178e+00 2.758600e+00 3.381167e+00 2.547904e+00 2.539463e+00 2.896087e+00 2.334355e+00 1.964404e+00 7.257064e-01 9.433046e-02 1.927850e-01 2.643885e-01 2.970593e-01 4.125554e-01 4.694588e-01 3.909806e-01 4.523472e-01 4.546127e-01 4.359433e-01 4.186957e-01 3.841343e-01 1.169961e-01
<GCONST> 1.120403e+02
<STATE> 4
<MEAN> 39
 -5.399419e+00 7.329185e+00 9.787352e+00 -3.996319e-01 -1.007795e+01 -1.045650e+01 -2.083324e+00 -1.174798e+01 -9.787392e+00 -6.639661e+00 -3.217673e+00 -4.538694e+00 6.667573e+01 -4.514884e-02 -1.832582e-03 -3.704321e-01 9.964642e-02 4.789642e-01 3.701064e-01 2.069013e-01 2.772720e-01 1.829628e-01 3.700104e-02 -6.074306e-02 1.235617e-01 -4.656542e-01 -1.791268e-02 -9.109820e-02 -7.857795e-02 -2.044230e-02 -4.072407e-02 -1.052861e-02 5.066895e-03 4.523757e-02 8.395156e-02 5.194030e-02 1.635445e-02 1.455181e-02 3.887165e-02
<VARIANCE> 39
 1.999307e+01 2.712630e+01 6.283658e+01 4.740034e+01 5.360148e+01 5.805691e+01 4.473231e+01 4.814478e+01 3.707798e+01 3.711461e+01 3.715003e+01 4.993607e+01 3.277755e+01 2.237307e-01 5.574019e-01 7.445797e-01 7.720950e-01 1.071929e+00 1.128765e+00 1.298617e+00 1.354020e+00 1.489474e+00 1.440983e+00 1.603640e+00 1.452450e+00 2.431753e-01 3.541192e-02 9.159021e-02 1.100533e-01 1.341689e-01 2.079503e-01 2.035633e-01 2.409696e-01 2.312829e-01 2.788965e-01 2.655783e-01 3.040203e-01 2.623483e-01 5.100210e-02
<GCONST> 9.414415e+01
<TRANSP> 5
 0.000000e+00 1.000000e+00 0.000000e+00 0.000000e+00 0.000000e+00
 0.000000e+00 7.161394e-01 2.838606e-01 0.000000e+00 0.000000e+00
 0.000000e+00 0.000000e+00 5.264117e-01 4.735883e-01 0.000000e+00
 0.000000e+00 0.000000e+00 0.000000e+00 8.878576e-01 1.121424e-01
 0.000000e+00 0.000000e+00 0.000000e+00 0.000000e+00 0.000000e+00
<ENDHMM>
~h "oe"
<BEGINHMM>
<NUMSTATES> 5
<STATE> 2
<MEAN> 39
 2.085600e+00 -7.416885e-01 -7.391641e+00 -1.242402e+01 -1.366204e+01 -9.588173e+00 -6.833609e+00 -1.285569e+01 -4.396907e+00 -4.215472e-01 1.933958e+00 1.067013e+00 7.370206e+01 -5.023298e-01 -1.315444e+00 3.893743e-01 1.826750e+00 8.802084e-01 -1.527528e+00 -1.788304e+00 1.307895e-01 1.344299e+00 7.227325e-01 2.226079e-01 -4.655034e-01 4.757034e-01 -1.409001e-01 1.255457e-01 3.759236e-01 2.982826e-01 -1.182855e-01 -3.396329e-01 1.273219e-01 4.957010e-01 1.560130e-01 -3.378051e-01 -3.741095e-01 -5.639150e-02 -1.661522e-01
<VARIANCE> 39
 1.153092e+01 3.769317e+01 4.396381e+01 5.888893e+01 6.020975e+01 6.089456e+01 7.034120e+01 5.943243e+01 7.469534e+01 7.541209e+01 6.661634e+01 6.780859e+01 1.500657e+01 3.267879e-01 1.194152e+00 1.970874e+00 2.656620e+00 3.127884e+00 4.508162e+00 4.332035e+00 5.355428e+00 5.202808e+00 5.291195e+00 6.026104e+00 4.859662e+00 4.383326e-01 8.773543e-02 2.409734e-01 1.895519e-01 4.887278e-01 7.422725e-01 7.131504e-01 1.226234e+00 8.373932e-01 1.286193e+00 1.249109e+00 9.681876e-01 1.201180e+00 6.638733e-02
<GCONST> 1.253566e+02
<STATE> 3
<MEAN> 39
 -1.041553e+00 -4.052081e+00 -3.091708e-01 -1.775825e+00 -1.388734e+01 -2.072759e+01 -1.075862e+01 -5.789765e+00 1.539337e-01 -4.249765e+00 -1.587852e+00 4.210232e-01 7.310616e+01 -4.264666e-01 6.216159e-01 1.084717e+00 7.841442e-01 -1.397182e-01 -6.366586e-01 7.065375e-01 9.789224e-01 -6.339877e-01 -1.129673e+00 -1.998615e-02 5.622505e-01 -9.610625e-01 2.669152e-02 2.679061e-01 -3.086073e-01 -3.138459e-01 2.427146e-01 6.283431e-01 1.471587e-01 -3.895651e-01 -1.926751e-01 4.084363e-01 3.838947e-01 -5.797875e-02 -2.737243e-01
<VARIANCE> 39
 1.203074e+01 2.501991e+01 5.478719e+01 5.130165e+01 5.325701e+01 5.328958e+01 4.213319e+01 4.340361e+01 4.646045e+01 7.138325e+01 6.207079e+01 4.087533e+01 1.743101e+01 4.334790e-01 1.012405e+00 1.616183e+00 1.668465e+00 2.605609e+00 3.411429e+00 2.926953e+00 3.440884e+00 2.941707e+00 3.268279e+00 3.408837e+00 2.711798e+00 1.169151e+00 7.858369e-02 1.570910e-01 2.436398e-01 2.918849e-01 3.853000e-01 5.037724e-01 5.356782e-01 5.324134e-01 6.763725e-01 5.846282e-01 5.249833e-01 4.773482e-01 9.181724e-02
<GCONST> 1.142663e+02
<STATE> 4
<MEAN> 39
 -4.296547e+00 1.364336e+00 1.322761e+00 2.589343e-01 -1.002354e+01 -1.576028e+01 -4.958266e+00 -3.689323e+00 -2.367568e+00 -3.830424e+00 8.480036e-01 9.196931e-01 6.436052e+01 -5.058473e-01 2.352076e-01 -1.338418e-01 1.323341e-01 6.408563e-01 1.029346e+00 4.997194e-01 1.824488e-01 1.339969e-01 3.423133e-01 1.110605e-01 9.176376e-02 -9.878342e-01 -2.271968e-02 -1.305243e-01 -6.659894e-02 -6.462607e-02 3.802916e-02 7.434148e-02 -2.896666e-02 2.884851e-02 7.744934e-02 2.193404e-02 -6.539724e-02 -4.792757e-03 1.239084e-01
<VARIANCE> 39
 1.571239e+01 2.299368e+01 3.143179e+01 3.288324e+01 4.845902e+01 5.361740e+01 5.393763e+01 4.944239e+01 4.324905e+01 4.898731e+01 3.745855e+01 3.716236e+01 3.983566e+01 3.675327e-01 8.075591e-01 9.473323e-01 9.955648e-01 1.638858e+00 2.123494e+00 1.664141e+00 1.789447e+00 1.933387e+00 2.077776e+00 2.064158e+00 1.807181e+00 6.641839e-01 6.074464e-02 1.270471e-01 1.545546e-01 1.724529e-01 2.769718e-01 2.994447e-01 2.904145e-01 3.458188e-01 3.510197e-01 3.593417e-01 3.649753e-01 3.686159e-01 1.028468e-01
<GCONST> 1.025757e+02
<TRANSP> 5
 0.000000e+00 1.000000e+00 0.000000e+00 0.000000e+00 0.000000e+00
 0.000000e+00 8.405904e-01 1.594096e-01 0.000000e+00 0.000000e+00
 0.000000e+00 0.000000e+00 7.981467e-01 2.018533e-01 0.000000e+00
 0.000000e+00 0.000000e+00 0.000000e+00 8.975361e-01 1.024639e-01
 0.000000e+00 0.000000e+00 0.000000e+00 0.000000e+00 0.000000e+00
<ENDHMM>
~h "oi"
<BEGINHMM>
<NUMSTATES> 5
<STATE> 2
<MEAN> 39
 2.781132e+00 1.333374e+00 -6.572178e+00 -1.171582e+01 -1.342841e+01 -8.459385e+00 -7.523283e+00 -1.396577e+01 -5.188654e+00 -3.303517e+00 1.601588e+00 2.206967e+00 7.219563e+01 -6.098585e-01 -1.040469e+00 7.183387e-01 2.415995e+00 8.804773e-01 -1.688918e+00 -1.573054e+00 -9.550865e-02 6.928321e-01 3.827837e-02 3.769875e-01 -6.591998e-01 2.642769e-01 -1.587946e-01 1.116548e-01 4.531995e-01 3.822773e-01 -1.747135e-01 -3.970452e-01 2.491969e-01 5.228964e-01 1.884326e-02 -4.427338e-01 -3.557350e-01 -1.324612e-01 -1.505352e-01
<VARIANCE> 39
 1.301703e+01 3.506621e+01 3.910268e+01 8.445914e+01 6.345528e+01 7.507476e+01 8.073070e+01 6.010542e+01 6.849676e+01 6.808578e+01 6.800356e+01 7.310165e+01 1.396521e+01 3.814934e-01 1.165961e+00 2.924290e+00 4.282969e+00 4.034673e+00 6.942103e+00 5.469435e+00 6.668668e+00 5.908393e+00 7.396179e+00 8.213256e+00 5.631941e+00 4.839138e-01 8.997589e-02 2.386091e-01 2.982107e-01 8.398089e-01 1.044085e+00 1.199252e+00 1.498892e+00 1.022605e+00 1.476345e+00 1.302418e+00 1.407674e+00 1.409746e+00 6.670351e-02
<GCONST> 1.320450e+02
<STATE> 3
<MEAN> 39
 -2.112765e+00 -6.694188e-01 3.566329e+00 2.591879e+00 -1.264923e+01 -1.910372e+01 -8.772801e+00 -9.423898e+00 -5.382713e+00 -9.883092e+00 -7.728347e-01 -1.005202e+00 7.145532e+01 -4.809009e-01 5.559105e-01 7.267768e-01 3.848540e-01 1.845908e-01 5.529383e-01 1.209294e+00 3.541085e-01 -7.797730e-01 -3.841212e-01 2.104178e-01 3.603349e-02 -7.208313e-01 6.898379e-02 1.466420e-01 -4.504273e-01 -5.526235e-01 2.412501e-01 7.022411e-01 1.038093e-01 -2.958589e-01 1.779553e-02 4.773593e-01 1.714946e-01 -8.242642e-03 -9.980716e-02
<VARIANCE> 39
 1.229527e+01 2.638499e+01 5.762499e+01 5.298959e+01 8.748114e+01 7.343623e+01 4.486324e+01 4.795465e+01 7.157621e+01 5.940362e+01 6.786153e+01 6.992220e+01 1.690478e+01 4.660733e-01 1.118984e+00 4.382861e+00 3.165804e+00 5.149094e+00 5.798766e+00 3.903116e+00 3.332656e+00 4.208685e+00 5.501073e+00 3.693414e+00 3.206813e+00 3.095107e-01 5.984289e-02 2.122817e-01 2.743108e-01 4.393026e-01 7.525272e-01 8.081514e-01 8.664405e-01 7.407666e-01 8.347759e-01 8.739538e-01 7.556446e-01 6.358606e-01 3.895243e-02
<GCONST> 1.222384e+02
<STATE> 4
<MEAN> 39
 -4.278767e+00 3.727149e+00 5.066136e+00 1.555047e+00 -1.037110e+01 -1.249234e+01 -2.796071e+00 -9.085543e+00 -6.705573e+00 -6.854213e+00 -6.032926e-01 -2.208112e+00 6.448927e+01 -4.114024e-01 1.156825e-01 -2.436567e-01 -1.508413e-01 8.482540e-01 1.004844e+00 3.797384e-01 3.987583e-01 2.928147e-01 4.330389e-01 -1.405413e-01 1.299456e-01 -8.247297e-01 1.800743e-02 -1.147724e-01 -1.412064e-01 -3.150614e-02 5.785178e-02 -1.037366e-02 -8.764991e-02 1.019442e-01 1.355585e-01 4.029613e-02 6.299578e-03 3.170416e-02 3.137127e-02
<VARIANCE> 39
 1.495996e+01 2.236335e+01 3.881318e+01 3.244324e+01 5.863929e+01 5.534296e+01 4.560094e+01 4.951267e+01 3.719299e+01 4.839907e+01 3.154027e+01 4.421668e+01 2.433833e+01 3.003530e-01 1.084677e+00 1.493243e+00 1.296688e+00 1.944885e+00 1.994173e+00 2.271227e+00 2.766170e+00 2.118417e+00 1.873679e+00 1.829975e+00 2.361488e+00 3.345739e-01 5.937352e-02 1.445761e-01 1.939121e-01 1.768565e-01 3.208918e-01 3.585986e-01 3.856082e-01 4.479967e-01 3.479140e-01 3.771561e-01 3.295919e-01 4.131602e-01 3.565457e-02
<GCONST> 1.034358e+02
<TRANSP> 5
 0.000000e+00 1.000000e+00 0.000000e+00 0.000000e+00 0.000000e+00
 0.000000e+00 8.541451e-01 1.458549e-01 0.000000e+00 0.000000e+00
 0.000000e+00 0.000000e+00 8.178655e-01 1.821345e-01 0.000000e+00
 0.000000e+00 0.000000e+00 0.000000e+00 8.887093e-01 1.112906e-01
 0.000000e+00 0.000000e+00 0.000000e+00 0.000000e+00 0.000000e+00
<ENDHMM>
~h "oo"
<BEGINHMM>
<NUMSTATES> 5
<STATE> 2
<MEAN> 39
 4.012424e+00 1.152773e+01 -1.280498e+00 -1.426032e+01 -2.090660e+01 -1.280164e+01 -5.075318e+00 -6.171052e+00 -4.674593e-01 3.611994e-02 -4.349801e+00 -3.818993e+00 6.607096e+01 1.807379e-01 -6.285309e-02 -9.095955e-02 -1.662534e-01 -4.922814e-01 5.130399e-02 4.841099e-01 1.461644e-02 -1.857867e-01 -8.343586e-02 -2.623007e-02 2.464607e-02 5.858871e-02 -2.593805e-01 -2.941701e-01 -2.814499e-01 1.652173e-01 4.873469e-01 2.800367e-01 2.544042e-01 1.438560e-01 -1.345217e-01 -1.552807e-01 1.838670e-01 2.449416e-01 -5.604086e-02
<VARIANCE> 39
 8.548364e+00 2.679210e+01 2.957542e+01 3.286323e+01 4.062529e+01 3.739455e+01 4.596022e+01 5.215140e+01 4.109923e+01 6.013604e+01 3.590267e+01 3.826974e+01 1.635743e+01 5.018445e-01 8.733664e-01 9.315299e-01 1.076112e+00 2.546530e+00 1.610177e+00 2.514503e+00 2.082596e+00 2.127732e+00 2.178885e+00 2.034436e+00 1.781285e+00 3.994717e-01 1.529817e-01 2.687963e-01 2.510157e-01 2.391293e-01 4.997019e-01 3.675662e-01 4.402819e-01 4.022338e-01 4.769103e-01 3.957788e-01 4.946493e-01 4.353118e-01 4.824392e-02
<GCONST> 1.054148e+02
<STATE> 3
<MEAN> 39
 4.322134e+00 8.237685e+00 -5.222836e+00 -1.379500e+01 -1.953791e+01 -8.590885e+00 2.644444e+00 -5.348107e+00 -6.253138e+00 -6.646819e+00 -4.551275e+00 -2.521210e+00 6.719401e+01 1.063296e-01 -1.343976e+00 -1.345896e+00 1.189231e+00 2.011348e+00 5.634609e-01 4.347464e-01 -7.784468e-01 -2.133071e+00 -5.471064e-01 1.563072e+00 1.902386e+00 2.605550e-01 -1.402915e-01 -2.090828e-01 -5.468098e-02 6.950201e-01 1.139679e+00 -5.234750e-02 -9.548140e-01 -3.766392e-01 2.671372e-01 5.329519e-01 4.564442e-01 1.875779e-02 -1.466189e-01
<VARIANCE> 39
 9.040647e+00 3.007130e+01 2.509187e+01 4.236150e+01 5.546721e+01 4.679525e+01 5.047827e+01 4.977621e+01 5.804993e+01 5.798247e+01 4.198382e+01 4.981862e+01 2.039831e+01 3.236881e-01 1.112364e+00 1.219298e+00 2.127038e+00 4.147758e+00 3.080898e+00 4.533457e+00 3.382699e+00 3.976141e+00 4.388100e+00 4.033315e+00 3.266693e+00 4.176969e-01 1.005888e-01 1.935457e-01 2.197754e-01 3.236526e-01 7.374740e-01 6.847885e-01 8.142568e-01 6.968563e-01 8.386510e-01 6.755882e-01 6.980149e-01 8.618514e-01 6.715889e-02
<GCONST> 1.168895e+02
<STATE> 4
<MEAN> 39
 4.027375e+00 4.942709e+00 -8.411091e+00 -8.274019e+00 -9.566927e+00 -7.994090e+00 -2.298367e+00 -9.141881e+00 -8.896447e+00 -4.344015e+00 2.091898e+00 2.182881e+00 6.688134e+01 -4.432728e-01 -1.170766e+00 -3.118640e-01 2.584005e+00 3.467513e+00 -1.225379e-01 -2.244584e+00 -1.140065e+00 5.277189e-01 1.592638e+00 1.098677e+00 -3.067600e-01 -2.305759e-01 -2.198808e-01 1.395788e-01 5.271112e-01 1.703766e-01 -4.170636e-01 -3.912869e-01 -2.422724e-01 2.287956e-01 7.684676e-01 3.079475e-01 -5.841868e-01 -8.010005e-01 -4.007515e-02
<VARIANCE> 39
 1.287461e+01 3.096328e+01 2.971614e+01 4.864852e+01 7.826428e+01 5.611255e+01 5.587518e+01 5.015286e+01 6.446876e+01 5.659133e+01 4.731787e+01 4.613448e+01 2.600143e+01 7.740175e-01 1.170542e+00 1.734323e+00 2.201925e+00 5.938689e+00 4.928638e+00 4.570395e+00 4.173245e+00 4.044347e+00 3.405036e+00 3.769834e+00 4.343467e+00 5.491229e-01 1.186960e-01 2.093368e-01 2.730550e-01 4.026678e-01 1.322994e+00 7.932410e-01 8.209788e-01 5.969596e-01 9.060242e-01 7.592693e-01 7.563180e-01 7.473968e-01 1.232410e-01
<GCONST> 1.231950e+02
<TRANSP> 5
 0.000000e+00 1.000000e+00 0.000000e+00 0.000000e+00 0.000000e+00
 0.000000e+00 8.115288e-01 1.884712e-01 0.000000e+00 0.000000e+00
 0.000000e+00 0.000000e+00 5.637844e-01 4.362156e-01 0.000000e+00
 0.000000e+00 0.000000e+00 0.000000e+00 5.572680e-01 4.427320e-01
 0.000000e+00 0.000000e+00 0.000000e+00 0.000000e+00 0.000000e+00
<ENDHMM>
~h "ou"
<BEGINHMM>
<NUMSTATES> 5
<STATE> 2
<MEAN> 39
 3.957171e+00 4.702169e+00 -7.248601e+00 -1.484385e+01 -1.684607e+01 -7.535706e+00 -1.099119e+00 -9.967046e+00 -5.977056e+00 -5.023958e+00 -2.319962e-02 1.268272e+00 7.076472e+01 3.573589e-02 2.246831e-01 1.064145e-01 5.347162e-01 1.916872e-02 -2.067788e-01 -4.593473e-01 -5.136905e-01 -4.799956e-01 -4.254254e-01 2.114297e-01 1.750536e-01 -2.643754e-01 -9.967944e-02 7.100859e-02 1.085336e-01 2.657976e-01 2.723416e-01 5.925854e-02 1.133336e-02 1.453013e-01 5.725768e-02 -7.996672e-02 -1.143395e-01 -1.043768e-01 -1.805094e-01
<VARIANCE> 39
 5.439131e+00 3.903498e+01 3.196164e+01 5.637226e+01 5.076150e+01 5.216580e+01 9.101118e+01 5.475222e+01 6.145740e+01 5.558810e+01 6.136586e+01 5.735813e+01 1.292772e+01 2.212440e-01 1.108165e+00 9.109687e-01 1.805045e+00 1.736268e+00 2.123323e+00 2.173584e+00 2.125881e+00 2.314600e+00 2.073368e+00 2.701020e+00 2.425372e+00 4.964179e-01 6.621324e-02 1.475472e-01 1.419533e-01 2.427645e-01 3.279288e-01 3.662277e-01 3.977666e-01 4.122790e-01 4.741782e-01 4.062480e-01 4.664722e-01 4.424329e-01 5.660366e-02
<GCONST> 1.064431e+02
<STATE> 3
<MEAN> 39
 3.537563e+00 9.304110e+00 -3.376113e+00 -1.041067e+01 -1.451437e+01 -8.149356e+00 -3.499901e+00 -1.000555e+01 -9.028841e+00 -7.417391e+00 -9.272690e-01 -5.391761e-01 6.738921e+01 -1.721314e-01 3.685926e-01 4.364612e-01 8.007384e-01 5.402198e-01 -1.395162e-01 -3.508218e-01 1.482771e-01 -9.102829e-02 -4.497837e-01 -2.977465e-01 -2.630309e-01 -5.564182e-01 -5.169144e-02 -3.776013e-02 1.851643e-02 1.510676e-02 8.596852e-02 7.881550e-02 1.842599e-02 4.220113e-02 5.426399e-02 6.847865e-02 -7.471772e-03 -1.373872e-02 -4.522579e-02
<VARIANCE> 39
 6.394809e+00 4.280014e+01 2.587598e+01 5.085506e+01 4.833441e+01 5.222812e+01 8.108497e+01 6.536513e+01 5.885251e+01 6.288108e+01 6.903175e+01 6.158355e+01 1.868021e+01 1.464373e-01 4.230112e-01 6.356384e-01 9.621096e-01 1.124950e+00 1.321880e+00 1.480334e+00 1.784473e+00 1.435259e+00 1.841673e+00 1.889864e+00 1.678612e+00 2.549743e-01 2.520502e-02 6.260294e-02 8.478210e-02 1.444794e-01 1.696595e-01 2.053068e-01 2.412424e-01 2.546368e-01 2.559036e-01 2.986695e-01 2.988172e-01 2.783957e-01 1.724294e-02
<GCONST> 9.311490e+01
<STATE> 4
<MEAN> 39
 -1.620816e+00 8.408570e+00 -4.400643e-01 -1.734709e+00 -4.893756e+00 -5.540668e+00 -4.164121e+00 -6.440642e+00 -5.302037e+00 -6.573847e+00 -3.355028e+00 -1.989970e+00 6.095045e+01 -5.970990e-01 -3.598377e-01 4.485426e-02 3.430946e-01 7.372569e-01 4.911363e-01 2.301324e-01 4.816040e-01 4.371183e-01 3.994542e-01 8.863904e-02 2.703881e-02 -6.385826e-01 -2.816378e-02 -8.128373e-02 -7.248435e-02 -9.061812e-02 -3.307724e-02 2.472789e-02 8.394703e-02 2.236009e-02 4.964163e-02 6.447972e-02 4.754211e-02 5.562298e-02 3.984168e-02
<VARIANCE> 39
 1.226984e+01 4.215618e+01 2.072387e+01 2.578729e+01 3.396554e+01 3.238569e+01 4.060124e+01 4.362246e+01 3.642305e+01 4.148552e+01 3.588353e+01 3.870152e+01 3.377552e+01 3.228963e-01 6.400899e-01 6.472359e-01 1.146298e+00 1.370906e+00 1.299799e+00 1.881486e+00 1.884297e+00 1.669004e+00 1.948673e+00 1.861498e+00 1.695243e+00 2.983375e-01 4.242423e-02 9.103851e-02 1.157729e-01 1.774368e-01 2.094190e-01 2.265982e-01 3.043952e-01 3.099746e-01 2.896394e-01 3.398737e-01 3.365240e-01 3.121148e-01 3.337033e-02
<GCONST> 9.503072e+01
<TRANSP> 5
 0.000000e+00 1.000000e+00 0.000000e+00 0.000000e+00 0.000000e+00
 0.000000e+00 8.004057e-01 1.995943e-01 0.000000e+00 0.000000e+00
 0.000000e+00 0.000000e+00 8.820410e-01 1.179590e-01 0.000000e+00
 0.000000e+00 0.000000e+00 0.000000e+00 8.912389e-01 1.087611e-01
 0.000000e+00 0.000000e+00 0.000000e+00 0.000000e+00 0.000000e+00
<ENDHMM>
~h "uu"
<BEGINHMM>
<NUMSTATES> 5
<STATE> 2
<MEAN> 39
 -1.654391e+00 3.258940e+00 -1.247110e+00 8.392520e-02 -5.645097e+00 -1.167259e+01 -9.116301e+00 -1.176693e+01 -4.741747e+00 -6.700191e+00 -3.720126e+00 -3.153373e+00 6.850172e+01 2.853140e+00 1.811911e+00 3.639322e-01 -7.360732e-01 -2.242627e+00 -1.409366e+00 -1.128840e+00 -1.868935e+00 -2.056643e+00 -1.434810e+00 -3.249722e-01 2.514024e-02 3.608100e-01 -7.776234e-01 -3.665195e-01 -1.829047e-01 -4.115540e-01 -2.226267e-01 2.842023e-01 6.013106e-01 7.533876e-01 4.426861e-01 4.108382e-01 3.005067e-01 4.094996e-01 -3.378892e-02
<VARIANCE> 39
