~o
<STREAMINFO> 1 39
<VECSIZE> 39<NULLD><MFCC_D_A_0><DIAGC>
~s "silst"
<MEAN> 39
 -6.519551e+00 -6.191217e-01 -4.338643e+00 -4.368951e+00 -5.903107e+00 -5.022210e+00 -1.876985e+00 -3.233963e+00 -1.944234e-01 -8.070343e-01 1.158202e+00 -8.298951e-01 6.450113e+01 -3.585610e-02 -1.089192e-01 -1.159116e-01 -2.995528e-01 -2.241984e-02 1.487995e-01 1.822885e-02 -5.394227e-02 -3.635879e-02 -2.070196e-03 1.125546e-01 -2.128695e-02 4.633954e-01 1.469959e-01 1.466543e-01 1.444849e-01 1.044301e-01 -9.977408e-04 7.437279e-03 7.743713e-02 -1.597916e-02 -1.179502e-01 -3.482817e-02 -1.181578e-01 -2.954807e-02 -1.648518e-01
<VARIANCE> 39
 4.663517e+01 5.241937e+01 6.647636e+01 7.646684e+01 7.717995e+01 8.776282e+01 6.457254e+01 5.948440e+01 6.105284e+01 6.297282e+01 5.167822e+01 5.132770e+01 6.543853e+01 2.927488e+00 3.398778e+00 3.535102e+00 4.334679e+00 5.182952e+00 5.339317e+00 4.354602e+00 4.447184e+00 4.586967e+00 4.689168e+00 3.772923e+00 3.523396e+00 5.290229e+00 4.885581e-01 5.911466e-01 6.028326e-01 7.483172e-01 8.423577e-01 8.507326e-01 7.841325e-01 8.056646e-01 8.562281e-01 8.817521e-01 7.369668e-01 6.883891e-01 6.217688e-01
<GCONST> 1.397728e+02
~h "N"
<BEGINHMM>
<NUMSTATES> 5
<STATE> 2
<MEAN> 39
 1.566440e+00 5.003564e+00 -1.102164e+00 -2.265552e+00 -7.272480e+00 -9.054461e+00 -3.189435e+00 -4.720898e+00 -5.697694e+00 -4.576943e+00 -2.609674e+00 -3.474737e+00 6.525579e+01 1.065219e-01 7.130616e-01 4.603865e-02 -1.006139e-01 2.393575e-01 2.900132e-01 9.040479e-02 -1.853383e-01 -5.004863e-01 -5.062639e-02 -3.886820e-02 7.200640e-02 -4.912522e-01 -1.253144e-01 -4.358787e-01 -2.265216e-01 -2.402102e-01 -1.313931e-01 3.017615e-02 7.378636e-02 -2.353892e-02 4.321620e-01 2.415553e-01 -1.929992e-03 -7.294562e-02 3.804222e-01
<VARIANCE> 39
 8.375121e+00 3.711945e+01 2.031778e+01 3.590811e+01 3.761155e+01 4.589102e+01 4.511853e+01 5.350100e+01 4.102258e+01 5.287059e+01 5.105411e+01 5.015975e+01 2.308081e+01 3.530486e-01 8.963847e-01 1.070690e+00 1.488147e+00 1.816083e+00 2.342602e+00 2.240019e+00 2.682631e+00 2.923092e+00 2.778882e+00 2.424663e+00 1.876490e+00 4.759428e-01 7.191119e-02 1.396558e-01 2.337391e-01 2.999447e-01 3.959776e-01 5.283824e-01 4.394345e-01 5.502226e-01 5.856454e-01 5.410858e-01 5.317546e-01 4.141867e-01 6.602713e-02
<GCONST> 1.077220e+02
<STATE> 3
<MEAN> 39
 8.998982e-01 4.713593e+00 -2.134556e+00 -3.672361e+00 -6.862661e+00 -7.806671e+00 -2.896147e+00 -5.698752e+00 -3.826486e+00 -3.957236e+00 -2.543238e+00 -2.928455e+00 6.552002e+01 -2.566136e-01 -9.470129e-01 -7.412905e-01 -8.741571e-01 4.135410e-02 7.679250e-01 2.190525e-01 -2.432934e-01 1.359303e+00 8.329559e-01 -4.646429e-01 -5.279127e-01 7.347862e-01 7.050265e-03 -4.202333e-01 -2.487604e-01 -8.600983e-02 -7.074319e-02 1.518679e-01 1.979524e-01 3.599495e-02 2.291923e-01 2.885869e-01 -5.505008e-02 -3.407875e-01 2.288668e-01
<VARIANCE> 39
 9.947828e+00 3.480076e+01 2.448953e+01 4.442403e+01 5.092192e+01 6.446745e+01 5.413643e+01 6.273174e+01 5.453564e+01 6.279013e+01 5.606765e+01 5.574045e+01 2.511992e+01 4.499518e-01 1.633170e+00 2.073766e+00 2.403655e+00 2.904986e+00 3.893976e+00 2.956774e+00 3.890100e+00 4.581688e+00 3.863561e+00 4.112092e+00 3.078389e+00 6.093684e-01 8.388924e-02 1.851399e-01 2.541390e-01 2.837670e-01 4.384385e-01 5.232364e-01 5.615184e-01 6.151267e-01 6.177367e-01 5.525921e-01 6.314908e-01 4.802690e-01 9.031706e-02
<GCONST> 1.172339e+02
<STATE> 4
<MEAN> 39
 1.051043e+00 -1.102880e+00 -5.909411e+00 -6.576753e+00 -6.300467e+00 -3.746777e+00 4.735916e-01 -6.459610e+00 8.428658e-01 -1.300565e+00 -5.028451e+00 -6.586310e+00 6.967945e+01 -4.592087e-02 -6.437082e-01 -6.240415e-01 -2.838451e-01 8.383738e-02 4.432906e-01 4.472869e-01 9.424541e-02 3.540402e-01 5.512200e-01 -1.020763e-01 -6.312400e-01 2.451469e-01 -1.160797e-02 1.498543e-01 1.459546e-01 1.588955e-01 -1.578586e-02 -1.643074e-01 -4.440660e-02 7.858494e-02 -2.264901e-01 -1.159697e-01 1.428000e-01 1.253203e-01 -1.432779e-01
<VARIANCE> 39
 1.109966e+01 5.088447e+01 6.527373e+01 6.212011e+01 7.124472e+01 8.769008e+01 7.432722e+01 9.396341e+01 7.819338e+01 9.384222e+01 7.760391e+01 6.858585e+01 3.985831e+01 2.990054e-01 1.477507e+00 1.596389e+00 1.527173e+00 1.889634e+00 2.433160e+00 2.700033e+00 2.765145e+00 2.930579e+00 2.464743e+00 3.003597e+00 2.659218e+00 5.912166e-01 5.109889e-02 1.923657e-01 2.071031e-01 2.621886e-01 3.313493e-01 4.502508e-01 4.447355e-01 4.998643e-01 5.222808e-01 4.688721e-01 4.372493e-01 4.142652e-01 6.858735e-02
<GCONST> 1.154812e+02
<TRANSP> 5
 0.000000e+00 1.000000e+00 0.000000e+00 0.000000e+00 0.000000e+00
 0.000000e+00 6.591151e-01 3.408849e-01 0.000000e+00 0.000000e+00
 0.000000e+00 0.000000e+00 4.758154e-01 5.241845e-01 0.000000e+00
 0.000000e+00 0.000000e+00 0.000000e+00 6.883660e-01 3.116340e-01
 0.000000e+00 0.000000e+00 0.000000e+00 0.000000e+00 0.000000e+00
<ENDHMM>
~h "a"
<BEGINHMM>
<NUMSTATES> 5
<STATE> 2
<MEAN> 39
 1.672625e+00 -4.408247e+00 -9.630140e+00 -9.793077e+00 -1.029891e+01 -5.794582e+00 -1.212523e+00 -5.853963e+00 -2.213603e-01 9.747932e-01 -1.470040e+00 -5.237787e+00 7.215206e+01 5.579585e-02 3.194102e-01 2.125325e-01 4.149137e-01 3.641638e-01 -7.438079e-03 -3.643893e-01 9.150177e-02 1.220839e-01 1.987603e-01 -7.022455e-02 -3.122223e-02 -5.850441e-01 -1.606911e-01 3.851278e-01 3.753832e-01 3.074424e-01 1.713112e-01 -6.734446e-02 -1.409995e-01 4.316086e-03 -1.917149e-01 -2.722440e-01 1.342936e-03 1.791160e-01 -3.889020e-01
<VARIANCE> 39
 1.404464e+01 4.961902e+01 3.927148e+01 5.217317e+01 5.904898e+01 8.284736e+01 6.928943e+01 7.209198e+01 6.589816e+01 6.775017e+01 7.030598e+01 8.635377e+01 2.911937e+01 8.160563e-01 1.923922e+00 2.180603e+00 2.830976e+00 2.809369e+00 3.874102e+00 3.688923e+00 3.309950e+00 3.794430e+00 3.594394e+00 3.505511e+00 3.519861e+00 1.117729e+00 1.690816e-01 2.605721e-01 2.823451e-01 3.436064e-01 5.169753e-01 5.926061e-01 5.926779e-01 6.121961e-01 7.205856e-01 7.198225e-01 6.769295e-01 7.063883e-01 1.730711e-01
<GCONST> 1.249448e+02
<STATE> 3
<MEAN> 39
 1.371247e+00 -4.266513e-01 -7.339655e+00 -6.944409e+00 -8.063574e+00 -6.102006e+00 -2.496618e+00 -5.654879e+00 -1.236957e+00 9.795518e-01 -9.339296e-01 -3.944044e+00 6.822431e+01 -4.712348e-01 7.083370e-01 8.481587e-01 1.020460e+00 8.430686e-01 9.720664e-02 -3.853952e-01 3.129816e-01 -4.336319e-02 -2.047810e-01 8.804734e-02 2.714737e-01 -1.270965e+00 -1.910091e-01 -1.736162e-02 6.609353e-02 -4.792884e-04 -1.431494e-02 5.957146e-02 1.348732e-01 5.690166e-02 -3.825043e-02 -1.772563e-01 4.976592e-03 1.072662e-01 -7.439274e-02
<VARIANCE> 39
 1.500271e+01 3.995143e+01 3.768261e+01 5.162019e+01 5.510867e+01 7.107567e+01 6.233073e+01 6.407930e+01 5.687129e+01 6.061298e+01 6.569495e+01 7.114346e+01 2.797072e+01 1.029666e+00 1.828078e+00 2.231452e+00 2.534600e+00 2.739388e+00 3.196132e+00 3.315588e+00 3.347797e+00 3.710666e+00 3.820780e+00 3.297384e+00 3.278055e+00 1.399650e+00 1.311070e-01 2.567436e-01 3.101847e-01 3.693890e-01 4.672204e-01 5.385172e-01 5.702962e-01 5.574430e-01 6.206590e-01 6.314880e-01 5.725248e-01 5.638190e-01 2.250775e-01
<GCONST> 1.228056e+02
<STATE> 4
<MEAN> 39
 -1.229320e+00 6.329659e-01 -5.571395e+00 -5.153195e+00 -6.015965e+00 -4.822278e+00 -2.148531e+00 -3.693777e+00 -6.439678e-01 9.874079e-01 3.638124e-01 -2.204789e+00 6.425879e+01 -7.357942e-01 1.968349e-01 4.922760e-01 5.330725e-01 4.046924e-01 7.797691e-02 -4.632810e-02 2.390700e-01 -1.101032e-03 -2.710772e-01 7.788026e-02 3.454271e-01 -8.731401e-01 -4.707944e-02 -1.527993e-01 -9.653773e-02 -1.954917e-01 -2.165015e-01 -5.514067e-02 1.001049e-01 -9.813964e-02 -4.279871e-02 -7.446136e-02 -3.327172e-02 -2.439005e-02 3.407270e-01
<VARIANCE> 39
 2.256680e+01 3.814261e+01 3.581916e+01 4.612706e+01 4.671248e+01 6.039820e+01 5.162656e+01 5.469835e+01 5.033118e+01 5.300626e+01 5.337784e+01 5.636768e+01 4.543868e+01 1.113976e+00 1.546834e+00 1.932037e+00 2.099312e+00 2.560055e+00 2.867728e+00 2.955921e+00 2.992088e+00 3.262470e+00 3.408105e+00 2.995717e+00 2.894239e+00 1.579388e+00 2.015254e-01 2.962589e-01 3.600762e-01 4.299499e-01 5.410064e-01 5.805200e-01 6.045319e-01 5.901125e-01 6.320013e-01 6.419464e-01 5.920646e-01 5.891551e-01 3.595626e-01
<GCONST> 1.227427e+02
<TRANSP> 5
 0.000000e+00 1.000000e+00 0.000000e+00 0.000000e+00 0.000000e+00
 0.000000e+00 4.981004e-01 5.018997e-01 0.000000e+00 0.000000e+00
 0.000000e+00 0.000000e+00 2.741338e-01 7.258662e-01 0.000000e+00
 0.000000e+00 0.000000e+00 0.000000e+00 3.563220e-01 6.436781e-01
 0.000000e+00 0.000000e+00 0.000000e+00 0.000000e+00 0.000000e+00
<ENDHMM>
~h "e"
<BEGINHMM>
<NUMSTATES> 5
<STATE> 2
<MEAN> 39
 -1.091969e+00 -7.163867e-01 -8.479382e-01 2.051442e+00 -1.238609e+01 -1.524510e+01 -6.863062e+00 -5.244641e+00 -1.770345e+00 -2.083668e+00 2.867864e-01 -2.931704e-01 6.925805e+01 -7.206306e-03 2.653381e-01 3.455339e-01 4.185427e-01 2.991263e-01 8.960620e-02 6.770255e-02 8.716016e-02 2.045969e-02 -1.861669e-01 1.420811e-03 2.329534e-01 -5.457924e-01 -1.466388e-01 9.999655e-02 -9.689061e-02 -1.752124e-01 5.471283e-01 4.486362e-01 9.086241e-02 -3.005519e-02 -5.224449e-02 2.516524e-02 -5.931893e-03 -1.060999e-01 -3.005007e-01
<VARIANCE> 39
 2.325514e+01 3.366785e+01 5.791932e+01 4.875559e+01 7.873689e+01 6.946975e+01 5.213478e+01 5.807801e+01 5.277744e+01 5.990730e+01 4.853213e+01 4.879190e+01 2.572066e+01 8.677657e-01 1.320529e+00 1.702499e+00 1.735381e+00 3.062928e+00 3.511923e+00 2.380529e+00 2.644957e+00 3.163590e+00 3.381460e+00 2.924883e+00 2.640880e+00 2.314359e+00 2.016438e-01 2.803371e-01 3.840659e-01 4.541511e-01 5.740929e-01 6.067996e-01 5.348368e-01 5.494104e-01 6.283616e-01 6.450571e-01 5.374678e-01 5.483672e-01 2.510539e-01
<GCONST> 1.222679e+02
<STATE> 3
<MEAN> 39
 -6.375358e-01 -1.279286e+00 -4.319333e-01 3.112067e+00 -1.316748e+01 -1.571940e+01 -7.456538e+00 -5.493595e+00 -1.388764e+00 -2.163468e+00 -1.166364e-01 8.117680e-02 6.889439e+01 -6.874231e-02 6.433002e-01 1.284203e-01 1.469077e-01 1.212094e+00 7.986982e-01 7.030500e-02 -7.868408e-02 -3.642702e-01 -6.961676e-02 -7.215772e-03 -2.144898e-01 -1.002335e+00 -8.526842e-02 1.185970e-01 -7.349940e-02 -1.899180e-01 3.674812e-01 3.280857e-01 4.559949e-02 -2.208132e-02 -1.051495e-01 -4.936705e-02 -1.700241e-02 -1.250468e-01 -1.428688e-01
<VARIANCE> 39
 1.893870e+01 3.428216e+01 5.893341e+01 4.453931e+01 8.628872e+01 6.460847e+01 5.316633e+01 5.841145e+01 4.699335e+01 5.794831e+01 5.202965e+01 4.945687e+01 2.453372e+01 7.483257e-01 1.248889e+00 1.666433e+00 1.644353e+00 3.014008e+00 2.816507e+00 2.321108e+00 2.455440e+00 2.699256e+00 3.176156e+00 2.829171e+00 2.543954e+00 1.208184e+00 1.068225e-01 2.485905e-01 3.076509e-01 3.126890e-01 4.171927e-01 4.519660e-01 4.870843e-01 5.285066e-01 5.293417e-01 5.468257e-01 5.106057e-01 4.619184e-01 2.508523e-01
<GCONST> 1.177239e+02
<STATE> 4
<MEAN> 39
 -2.344257e+00 1.985366e+00 1.001881e-02 2.566686e+00 -7.273823e+00 -1.198686e+01 -5.581105e+00 -5.006479e+00 -2.992803e+00 -2.262185e+00 5.965354e-01 -6.999221e-01 6.429087e+01 -3.887288e-01 3.994019e-01 -1.437259e-01 -3.103513e-01 1.315414e+00 1.194579e+00 2.772591e-01 2.074325e-02 -1.413725e-01 -1.086177e-01 -4.049413e-02 -1.086103e-01 -8.886964e-01 6.583231e-03 -2.033063e-01 -2.481594e-01 -2.144676e-01 -1.722478e-01 -4.012097e-02 4.439304e-02 2.426403e-02 1.066806e-01 5.650240e-03 -4.671005e-02 1.242536e-02 3.512287e-01
<VARIANCE> 39
 2.344799e+01 2.289369e+01 3.440314e+01 3.560590e+01 5.922337e+01 6.096636e+01 3.936787e+01 4.683514e+01 4.603663e+01 4.724276e+01 4.662156e+01 4.214054e+01 3.309471e+01 7.407258e-01 1.415020e+00 1.881469e+00 1.525967e+00 2.544496e+00 2.401115e+00 2.454208e+00 2.639084e+00 3.293820e+00 3.526704e+00 2.693613e+00 2.592137e+00 1.008846e+00 1.130914e-01 1.911259e-01 2.897114e-01 2.803761e-01 4.872192e-01 4.753432e-01 3.790257e-01 4.119105e-01 4.725429e-01 4.847094e-01 4.720291e-01 4.511016e-01 2.901775e-01
<GCONST> 1.148137e+02
<TRANSP> 5
 0.000000e+00 1.000000e+00 0.000000e+00 0.000000e+00 0.000000e+00
 0.000000e+00 1.890605e-01 8.109394e-01 0.000000e+00 0.000000e+00
 0.000000e+00 0.000000e+00 4.197918e-01 5.802082e-01 0.000000e+00
 0.000000e+00 0.000000e+00 0.000000e+00 5.345436e-01 4.654565e-01
 0.000000e+00 0.000000e+00 0.000000e+00 0.000000e+00 0.000000e+00
<ENDHMM>
~h "f"
<BEGINHMM>
<NUMSTATES> 5
<STATE> 2
<MEAN> 39
 -1.316792e+01 -5.431966e-01 -8.909843e+00 -2.798007e+00 -4.201020e+00 -2.636013e+00 1.119834e+00 -1.400669e+00 1.144411e+00 -1.010963e+00 5.205500e-01 -7.320932e-01 6.646780e+01 3.064601e+00 -5.866474e-02 -4.160725e-01 -2.059484e+00 -1.180225e+00 -1.729031e-02 6.877415e-01 8.840263e-03 -1.053890e+00 -3.689586e-01 -4.533126e-01 -4.585821e-01 5.860869e-01 7.811700e-01 -4.508558e-02 -1.407456e-01 -4.107973e-01 -4.049743e-01 -2.871231e-02 1.012014e-01 -1.066831e-01 -3.153667e-01 2.603486e-02 2.544086e-02 -1.441265e-01 2.818715e-01
<VARIANCE> 39
 5.301335e+01 2.677390e+01 2.786261e+01 3.838641e+01 3.840447e+01 3.264982e+01 3.759241e+01 3.054959e+01 3.283119e+01 2.705726e+01 2.775683e+01 3.008696e+01 1.973041e+01 6.454604e+00 2.378098e+00 2.184440e+00 3.572914e+00 3.869081e+00 2.816920e+00 2.880510e+00 3.768700e+00 3.578363e+00 2.976447e+00 2.646183e+00 3.009611e+00 1.389426e+00 9.413069e-01 4.926737e-01 3.496356e-01 5.528347e-01 5.572662e-01 4.994449e-01 5.249415e-01 5.791140e-01 5.742893e-01 5.557812e-01 4.962917e-01 4.840667e-01 2.466935e-01
<GCONST> 1.220687e+02
<STATE> 3
<MEAN> 39
 9.413500e-01 -7.485449e-01 -1.159418e+01 -1.226808e+01 -1.128493e+01 -3.739571e+00 3.838233e+00 -2.374599e+00 -4.389452e+00 -2.277785e+00 -4.544573e-01 -2.048430e+00 7.079327e+01 2.667956e+00 -1.581212e+00 -1.136190e+00 -1.919758e+00 -1.442565e+00 1.058652e-01 7.903421e-01 -3.962228e-01 -1.060591e+00 2.472475e-01 1.763395e-01 -7.500325e-01 1.780862e+00 -1.218038e+00 -4.649102e-01 2.154494e-01 9.344174e-01 7.695555e-01 1.804057e-01 -3.077564e-01 -2.069471e-02 5.485178e-01 3.511422e-01 1.141257e-01 -6.089646e-02 -1.553040e-01
<VARIANCE> 39
 4.949027e+01 3.141038e+01 4.013893e+01 5.908180e+01 4.464248e+01 4.901399e+01 4.508114e+01 6.162855e+01 3.640070e+01 4.352165e+01 4.188018e+01 5.874795e+01 2.360790e+01 3.671457e+00 2.589482e+00 2.709652e+00 3.261100e+00 3.643392e+00 3.427102e+00 3.683732e+00 4.276262e+00 3.617875e+00 3.556352e+00 2.999736e+00 3.210485e+00 1.393558e+00 7.682404e-01 4.169833e-01 3.317105e-01 5.413691e-01 6.328406e-01 6.232143e-01 5.008625e-01 6.990828e-01 6.412253e-01 5.495495e-01 5.409446e-01 5.673183e-01 1.664956e-01
<GCONST> 1.267669e+02
<STATE> 4
<MEAN> 39
 8.021574e-01 -6.247525e+00 -1.234494e+01 -1.283237e+01 -1.006370e+01 -1.292822e+00 5.135304e+00 -2.702727e+00 -4.881155e+00 -5.280350e-01 -5.161592e-01 -4.654198e+00 7.342198e+01 2.747140e-01 -1.444113e+00 -7.229272e-02 2.167126e-01 5.129954e-01 4.647381e-01 -8.958652e-02 -4.509180e-01 5.652273e-02 7.745295e-01 -2.562716e-01 -7.937159e-01 5.903772e-01 -6.242728e-01 3.765252e-01 4.199840e-01 7.531273e-01 4.914483e-01 -8.966297e-02 -4.206605e-01 -4.442921e-02 4.012482e-01 6.071283e-03 -1.346291e-01 1.315159e-01 -5.540982e-01
<VARIANCE> 39
 4.367824e+01 4.133229e+01 4.227453e+01 5.624166e+01 4.472203e+01 6.033970e+01 5.594939e+01 6.383387e+01 4.550748e+01 5.040459e+01 5.686715e+01 6.119774e+01 3.014551e+01 1.857211e+00 1.915918e+00 1.513249e+00 1.742759e+00 2.483237e+00 3.435207e+00 2.861843e+00 2.785501e+00 3.361979e+00 3.242381e+00 2.890002e+00 2.749929e+00 9.901875e-01 6.827837e-01 3.335486e-01 3.106537e-01 4.810512e-01 6.745797e-01 4.937854e-01 6.159108e-01 6.832199e-01 5.265601e-01 6.212897e-01 5.642071e-01 5.305935e-01 1.752664e-01
<GCONST> 1.238297e+02
<TRANSP> 5
 0.000000e+00 1.000000e+00 0.000000e+00 0.000000e+00 0.000000e+00
 0.000000e+00 7.364015e-01 2.635985e-01 0.000000e+00 0.000000e+00
 0.000000e+00 0.000000e+00 3.173488e-01 6.826512e-01 0.000000e+00
 0.000000e+00 0.000000e+00 0.000000e+00 4.129789e-01 5.870211e-01
 0.000000e+00 0.000000e+00 0.000000e+00 0.000000e+00 0.000000e+00
<ENDHMM>
~h "h"
<BEGINHMM>
<NUMSTATES> 5
<STATE> 2
<MEAN> 39
 -5.645689e+00 -1.040074e+00 -4.452915e+00 -6.271449e+00 -4.266643e+00 -1.474978e+00 5.377167e+00 1.143453e-01 -2.298739e-01 -1.134419e+00 -1.913210e+00 -2.620535e+00 6.694105e+01 5.869644e-01 7.978755e-01 5.311171e-01 -1.332908e-01 -8.740299e-01 -7.699877e-01 -1.780559e-01 -5.407657e-01 -6.954190e-01 -5.466323e-01 -3.255381e-01 -3.120051e-01 3.815506e-01 4.036717e-01 2.497391e-01 7.006608e-03 -1.751241e-01 -5.012299e-01 -4.085513e-01 -3.270003e-01 -3.662567e-01 -2.464262e-01 -9.507605e-02 5.016316e-03 1.245565e-02 1.502410e-01
<VARIANCE> 39
 2.320383e+01 5.950662e+01 5.336061e+01 6.741158e+01 5.460382e+01 6.282099e+01 4.801262e+01 5.464859e+01 4.733394e+01 4.404416e+01 4.501023e+01 5.171381e+01 3.195693e+01 2.078773e+00 2.330464e+00 2.425874e+00 2.430229e+00 3.100374e+00 3.431213e+00 2.957146e+00 3.404422e+00 3.291507e+00 2.844094e+00 3.269728e+00 2.928568e+00 1.059264e+00 1.718482e-01 3.209151e-01 2.938613e-01 3.842852e-01 4.400277e-01 4.931865e-01 4.862081e-01 5.929525e-01 5.708768e-01 4.924657e-01 5.701376e-01 5.496365e-01 1.055580e-01
<GCONST> 1.220188e+02
<STATE> 3
<MEAN> 39
 -2.052149e-01 2.466539e+00 -3.438765e+00 -8.526292e+00 -1.136261e+01 -8.210313e+00 1.663036e+00 -3.804956e+00 -3.157994e+00 -3.569735e+00 -4.641748e+00 -3.996158e+00 7.056224e+01 9.641382e-01 1.348060e-01 7.875837e-02 -8.126181e-01 -1.946504e+00 -1.234791e+00 -7.907041e-01 -9.956428e-01 -7.117521e-01 -2.961123e-01 3.568408e-01 4.055019e-01 8.998708e-01 -3.142684e-01 -3.782766e-01 -1.492547e-01 6.461648e-02 2.495392e-01 3.359721e-01 6.508152e-02 1.719267e-02 1.388871e-01 2.291565e-01 4.031625e-01 2.055266e-01 -1.487412e-01
<VARIANCE> 39
 2.231231e+01 6.595376e+01 7.163783e+01 7.794933e+01 7.694116e+01 6.666214e+01 5.894228e+01 6.205640e+01 5.688301e+01 5.517004e+01 4.993690e+01 5.791439e+01 3.230001e+01 1.717279e+00 2.490921e+00 2.609253e+00 2.827699e+00 3.716001e+00 3.824179e+00 3.847836e+00 3.888030e+00 3.784307e+00 2.768778e+00 3.363528e+00 3.017480e+00 1.680879e+00 2.610312e-01 4.325117e-01 2.827639e-01 4.121045e-01 6.044096e-01 5.451590e-01 6.159609e-01 6.827488e-01 6.315225e-01 4.975689e-01 5.766955e-01 5.030278e-01 1.705579e-01
<GCONST> 1.273687e+02
<STATE> 4
<MEAN> 39
 5.247462e-02 1.713632e+00 -2.587606e+00 -8.616785e+00 -1.368827e+01 -9.041573e+00 1.070938e+00 -6.125303e+00 -4.853467e+00 -3.403277e+00 -1.283334e+00 -2.221857e+00 7.133331e+01 9.535427e-02 -9.784491e-02 1.729480e-01 1.894045e-02 -5.411842e-01 -2.890753e-01 -5.048034e-01 -8.170606e-01 -5.343223e-01 9.512940e-02 9.167103e-01 3.110874e-01 1.077277e-01 -1.245033e-01 -3.231091e-02 1.368423e-02 2.838963e-01 3.431755e-01 8.412389e-02 -5.914510e-02 6.485856e-02 1.684188e-01 7.914989e-02 -5.329132e-02 -1.753311e-01 -1.471981e-01
<VARIANCE> 39
 2.368866e+01 4.930615e+01 8.443713e+01 9.316724e+01 7.732359e+01 7.073256e+01 6.665864e+01 7.350897e+01 6.728097e+01 6.212433e+01 5.284772e+01 6.352717e+01 3.000037e+01 4.353967e-01 1.578519e+00 1.725241e+00 1.660264e+00 2.926793e+00 2.287072e+00 2.480808e+00 2.903901e+00 2.790305e+00 2.437165e+00 3.332986e+00 2.366226e+00 5.362014e-01 1.187723e-01 1.938899e-01 2.310880e-01 3.307214e-01 4.086570e-01 4.737673e-01 5.053005e-01 4.721834e-01 5.105244e-01 4.421615e-01 5.243081e-01 4.982572e-01 1.074535e-01
<GCONST> 1.181059e+02
<TRANSP> 5
 0.000000e+00 1.000000e+00 0.000000e+00 0.000000e+00 0.000000e+00
 0.000000e+00 6.426778e-01 3.573222e-01 0.000000e+00 0.000000e+00
 0.000000e+00 0.000000e+00 4.368152e-01 5.631848e-01 0.000000e+00
 0.000000e+00 0.000000e+00 0.000000e+00 4.777579e-01 5.222421e-01
 0.000000e+00 0.000000e+00 0.000000e+00 0.000000e+00 0.000000e+00
<ENDHMM>
~h "i"
<BEGINHMM>
<NUMSTATES> 5
<STATE> 2
<MEAN> 39
 -6.769541e+00 1.766277e+00 5.066928e+00 1.821478e+00 -9.866693e+00 -1.025495e+01 -2.077380e+00 -5.999986e+00 -3.393411e+00 -4.822795e+00 3.348883e-01 -2.070616e+00 6.688219e+01 1.362961e-01 7.282188e-01 1.191622e+00 7.002694e-01 -4.072987e-01 -5.346949e-01 2.558194e-01 -2.715722e-01 -8.171398e-01 -8.173125e-01 1.666410e-01 -4.057010e-02 -1.828830e-01 2.385656e-01 8.467476e-02 -1.965453e-01 4.372060e-03 7.361852e-02 4.749969e-04 -8.113229e-02 1.473034e-02 -6.951699e-02 6.241586e-03 -8.986451e-02 -4.177223e-02 -8.685585e-02
<VARIANCE> 39
 4.711303e+01 3.403773e+01 4.302830e+01 5.269404e+01 7.141833e+01 7.791264e+01 5.915936e+01 5.888871e+01 5.906062e+01 5.343682e+01 4.096543e+01 4.081074e+01 2.804631e+01 2.308652e+00 2.078101e+00 2.474620e+00 2.332842e+00 3.782327e+00 4.176774e+00 3.089990e+00 3.598283e+00 3.547403e+00 3.123373e+00 3.108974e+00 2.794478e+00 1.349138e+00 4.233981e-01 2.935919e-01 4.131622e-01 4.576654e-01 8.463543e-01 9.457936e-01 6.627509e-01 6.047541e-01 7.253779e-01 6.924555e-01 6.001560e-01 5.489148e-01 2.201046e-01
<GCONST> 1.275326e+02
<STATE> 3
<MEAN> 39
 -4.020545e+00 3.699211e+00 7.865445e+00 3.788637e+00 -1.329746e+01 -1.359321e+01 -2.712889e+00 -8.172344e+00 -7.021094e+00 -8.033893e+00 2.243457e-01 -2.776621e+00 6.752762e+01 3.985474e-01 4.616988e-01 3.934436e-01 4.215572e-01 -5.620159e-01 -6.544978e-01 3.786805e-02 -1.264881e-01 -6.774763e-01 -6.127505e-01 1.983270e-01 2.205084e-01 -1.371945e-01 -7.505962e-02 -1.983994e-01 -5.638114e-01 -2.394042e-01 4.375631e-01 3.572930e-01 -1.012086e-01 2.440982e-01 4.098301e-01 4.014938e-01 -8.318020e-02 5.616044e-02 -1.427008e-01
<VARIANCE> 39
 1.888352e+01 3.281972e+01 4.516154e+01 5.186356e+01 7.165810e+01 5.514184e+01 4.932600e+01 6.128998e+01 5.703408e+01 4.775401e+01 4.366724e+01 4.426246e+01 2.295515e+01 1.921648e+00 1.711995e+00 2.460546e+00 1.872696e+00 4.337700e+00 4.983165e+00 3.293410e+00 3.726904e+00 3.545671e+00 3.241271e+00 2.901501e+00 2.778892e+00 1.575909e+00 2.269700e-01 2.734081e-01 3.291848e-01 3.681387e-01 6.466200e-01 6.508930e-01 5.726675e-01 6.210902e-01 6.095391e-01 5.656505e-01 6.007780e-01 5.415881e-01 1.644512e-01
<GCONST> 1.232726e+02
<STATE> 4
<MEAN> 39
 -3.226885e+00 4.370303e+00 6.461287e+00 4.511539e+00 -1.223643e+01 -1.416366e+01 -3.640507e+00 -7.610542e+00 -7.085923e+00 -8.096869e+00 2.498135e-01 -2.083028e+00 6.627664e+01 8.439277e-02 1.049851e-01 -8.027396e-01 -2.589343e-01 9.654652e-01 7.473741e-01 -2.497846e-01 3.206766e-01 3.758161e-01 4.880883e-01 -1.048881e-01 4.924961e-02 -6.344542e-01 -4.309064e-02 -8.291387e-02 -2.130771e-01 -2.143403e-01 1.812096e-01 2.859046e-01 2.488306e-02 1.646122e-02 1.210629e-01 1.859935e-01 -5.225976e-02 -3.946547e-02 -3.149796e-02
<VARIANCE> 39
 1.753318e+01 3.045358e+01 3.757771e+01 4.595983e+01 6.988728e+01 5.356282e+01 4.890936e+01 5.711576e+01 6.047960e+01 4.740124e+01 4.449311e+01 4.118761e+01 2.619834e+01 8.277221e-01 1.177529e+00 2.060484e+00 1.551169e+00 2.748410e+00 3.289780e+00 2.528643e+00 2.877463e+00 3.230364e+00 2.757621e+00 2.335354e+00 2.159806e+00 9.146386e-01 1.160520e-01 1.918159e-01 2.743553e-01 2.859332e-01 5.003863e-01 5.659395e-01 4.874474e-01 5.093077e-01 5.442528e-01 4.771175e-01 4.561732e-01 4.480938e-01 1.553562e-01
<GCONST> 1.155500e+02
<TRANSP> 5
 0.000000e+00 1.000000e+00 0.000000e+00 0.000000e+00 0.000000e+00
 0.000000e+00 3.429686e-01 6.570314e-01 0.000000e+00 0.000000e+00
 0.000000e+00 0.000000e+00 3.447799e-01 6.552201e-01 0.000000e+00
 0.000000e+00 0.000000e+00 0.000000e+00 6.834425e-01 3.165576e-01
 0.000000e+00 0.000000e+00 0.000000e+00 0.000000e+00 0.000000e+00
<ENDHMM>
~h "k"
<BEGINHMM>
<NUMSTATES> 5
<STATE> 2
<MEAN> 39
 -7.923090e+00 -8.811396e-01 -6.098769e+00 -6.029418e+00 -2.888542e+00 -3.357097e+00 -3.081089e+00 -3.816292e+00 4.373956e-01 -1.647099e+00 1.158207e+00 -1.184709e+00 6.574834e+01 1.253693e+00 1.885979e-01 3.658575e-01 -3.317539e-01 -9.812110e-01 -7.234281e-01 -2.404238e-01 -7.776580e-01 -6.849319e-01 -1.507954e-01 -6.097713e-01 -8.708882e-01 1.214827e+00 4.234504e-01 9.814582e-02 1.521614e-01 -1.391493e-02 -5.362803e-01 -3.826143e-01 1.230984e-02 -7.769894e-02 -1.586183e-01 -3.841048e-03 -4.648313e-02 -3.344973e-02 1.269860e-01
<VARIANCE> 39
 3.407746e+01 5.423070e+01 6.499007e+01 6.386249e+01 6.647629e+01 6.531936e+01 5.718471e+01 5.334100e+01 5.574537e+01 5.563763e+01 4.912321e+01 4.756837e+01 4.111005e+01 5.106318e+00 4.585734e+00 5.413978e+00 4.874085e+00 5.991118e+00 6.359662e+00 5.293471e+00 5.459846e+00 5.733088e+00 5.102589e+00 4.790270e+00 4.364819e+00 2.329150e+00 5.971532e-01 7.715288e-01 8.477380e-01 7.310277e-01 8.537273e-01 9.030228e-01 8.798730e-01 8.986875e-01 9.403133e-01 8.386244e-01 8.357847e-01 7.740898e-01 5.065556e-01
<GCONST> 1.410323e+02
<STATE> 3
<MEAN> 39
 -7.280135e-01 -3.036234e-01 -4.923371e+00 -8.086284e+00 -1.010652e+01 -8.325179e+00 -3.894565e+00 -6.150196e+00 -2.641438e+00 -1.495633e+00 -7.230811e-01 -3.999494e+00 7.054537e+01 1.351674e+00 -4.572967e-01 -1.086690e-03 -5.808641e-01 -2.015677e+00 -9.501780e-01 4.808139e-01 -2.095383e-01 -3.841783e-01 3.420614e-01 -9.955946e-02 -1.962541e-01 1.083303e+00 -6.261629e-01 -2.573882e-01 -1.796845e-01 1.818628e-01 4.663677e-01 4.058673e-01 1.642698e-01 1.864268e-01 2.822318e-01 8.771571e-02 2.810185e-01 3.097730e-01 -2.937485e-01
<VARIANCE> 39
 3.253192e+01 5.993676e+01 6.554658e+01 6.054369e+01 6.686680e+01 7.938982e+01 5.748977e+01 6.276588e+01 5.978485e+01 6.751946e+01 5.603379e+01 6.143542e+01 3.566378e+01 3.257771e+00 2.717465e+00 3.402532e+00 3.636508e+00 4.146926e+00 5.530777e+00 4.950114e+00 4.861386e+00 4.587916e+00 4.269543e+00 4.127916e+00 3.809931e+00 1.112309e+00 4.029895e-01 5.459536e-01 5.063570e-01 5.685164e-01 6.740874e-01 8.188243e-01 7.834771e-01 9.148912e-01 8.542259e-01 8.511981e-01 7.625045e-01 6.255795e-01 2.047793e-01
<GCONST> 1.348434e+02
<STATE> 4
<MEAN> 39
 -1.141107e+00 -1.302642e+00 -4.871682e+00 -8.347801e+00 -1.121317e+01 -7.657771e+00 -2.222379e+00 -5.451232e+00 -2.210999e+00 -6.889974e-01 -1.750997e-01 -3.534852e+00 7.076890e+01 2.199833e-01 -2.552035e-01 1.001073e-01 5.694732e-02 -7.350740e-01 -1.156518e-01 5.267237e-01 -1.578068e-01 -1.144142e-01 2.101782e-01 6.890015e-02 7.114629e-02 2.461409e-01 -4.152065e-01 1.496508e-01 6.901298e-02 3.627099e-01 6.090559e-01 2.588401e-01 -9.394685e-02 2.863644e-02 8.785171e-02 -1.151382e-01 8.073001e-02 1.464589e-01 -4.348321e-01
<VARIANCE> 39
 4.143232e+01 6.987744e+01 7.881914e+01 6.597601e+01 6.888355e+01 7.844210e+01 5.598746e+01 6.301395e+01 6.407163e+01 7.067686e+01 5.787831e+01 6.567223e+01 3.872752e+01 1.466842e+00 1.776347e+00 2.246345e+00 2.505527e+00 2.852521e+00 3.633486e+00 3.152330e+00 3.121373e+00 3.377153e+00 2.948778e+00 3.157829e+00 2.708058e+00 8.718498e-01 5.019879e-01 5.242121e-01 5.055930e-01 5.794157e-01 6.479947e-01 8.243378e-01 7.738516e-01 8.567952e-01 8.482751e-01 7.982472e-01 7.263969e-01 6.237773e-01 2.104993e-01
<GCONST> 1.305626e+02
<TRANSP> 5
 0.000000e+00 1.000000e+00 0.000000e+00 0.000000e+00 0.000000e+00
 0.000000e+00 6.965652e-01 3.034348e-01 0.000000e+00 0.000000e+00
 0.000000e+00 0.000000e+00 3.124412e-01 6.875588e-01 0.000000e+00
 0.000000e+00 0.000000e+00 0.000000e+00 1.114637e-01 8.885363e-01
 0.000000e+00 0.000000e+00 0.000000e+00 0.000000e+00 0.000000e+00
<ENDHMM>
~h "m"
<BEGINHMM>
<NUMSTATES> 5
<STATE> 2
<MEAN> 39
 1.647360e+00 7.387572e+00 -2.821256e-01 -4.200279e-01 -4.613991e+00 -4.902250e+00 -1.468319e+00 -7.217299e+00 -1.072605e+01 -1.090159e+01 -4.543840e+00 -1.956592e+00 6.427465e+01 5.154103e-01 -4.350920e-01 -1.248650e+00 -1.443479e+00 -1.005255e+00 7.661271e-02 5.834845e-01 -8.210970e-02 4.834426e-01 4.958988e-01 -2.239170e-02 2.863594e-02 8.781005e-01 -4.874719e-03 -4.372159e-01 -5.400060e-01 -5.447339e-01 -3.248579e-01 1.090320e-01 2.282945e-01 9.510262e-02 6.044093e-01 7.265822e-01 2.009340e-01 -1.229269e-01 2.791151e-01
<VARIANCE> 39
 8.698813e+00 2.854741e+01 2.802790e+01 3.629259e+01 4.664504e+01 4.016419e+01 5.155532e+01 5.044688e+01 4.224628e+01 4.798378e+01 4.317677e+01 3.936049e+01 2.128199e+01 6.881981e-01 1.376897e+00 2.469610e+00 3.456460e+00 2.819566e+00 2.292217e+00 2.843747e+00 2.963410e+00 4.002470e+00 4.759927e+00 2.958948e+00 2.493585e+00 8.271220e-01 1.045901e-01 2.163553e-01 2.986742e-01 4.564421e-01 4.414285e-01 4.640945e-01 5.598894e-01 5.586110e-01 6.284040e-01 6.818015e-01 6.653957e-01 5.750921e-01 1.085579e-01
<GCONST> 1.159125e+02
<STATE> 3
<MEAN> 39
 3.769578e+00 2.579900e+00 -9.352857e+00 -1.117501e+01 -1.143263e+01 -3.478560e+00 3.177487e+00 -6.061925e+00 -4.912382e+00 -3.761104e+00 -3.336397e+00 -2.430058e+00 6.946019e+01 1.643137e-01 -2.055273e+00 -2.313030e+00 -2.346235e+00 -8.929510e-01 1.234302e+00 1.497029e+00 -4.994562e-02 1.572677e+00 2.389748e+00 3.994648e-01 -7.670144e-01 1.576586e+00 -2.803637e-01 -4.194941e-02 6.452472e-01 8.750259e-01 6.096044e-01 -6.712064e-03 -3.925658e-01 -8.041885e-02 -2.209734e-01 -2.602604e-01 -5.930058e-02 -1.587142e-01 -2.460411e-01
<VARIANCE> 39
 7.975716e+00 4.414022e+01 3.464027e+01 4.457426e+01 4.859929e+01 5.384048e+01 6.217997e+01 6.895892e+01 4.323542e+01 5.449212e+01 4.661546e+01 4.932355e+01 2.241329e+01 7.124842e-01 1.998019e+00 2.207677e+00 4.149562e+00 4.538043e+00 4.662258e+00 4.570217e+00 5.274325e+00 6.035599e+00 5.572143e+00 6.034962e+00 5.014829e+00 8.822520e-01 7.873192e-02 2.624869e-01 3.588353e-01 5.153721e-01 5.340322e-01 7.006766e-01 7.136949e-01 6.863478e-01 7.623831e-01 7.391234e-01 6.757815e-01 5.493704e-01 1.255128e-01
<GCONST> 1.244302e+02
<STATE> 4
<MEAN> 39
 2.528578e+00 -2.360105e+00 -1.111752e+01 -1.154041e+01 -9.680329e+00 -6.435014e-01 3.499802e+00 -7.804497e+00 -3.119803e+00 -1.015076e+00 -3.301647e+00 -5.907422e+00 7.208593e+01 -3.141614e-01 -1.104019e+00 -8.495821e-02 2.382509e-01 2.243229e-01 2.217029e-02 -4.201668e-01 -2.577365e-03 8.793246e-01 8.287851e-01 6.296046e-02 -6.491314e-01 5.062783e-01 -7.847274e-02 5.195293e-01 7.021130e-01 6.686069e-01 1.650541e-01 -5.176084e-01 -5.232286e-01 1.672173e-01 -3.073924e-01 -5.923343e-01 -6.268185e-02 3.080444e-01 -4.621639e-01
<VARIANCE> 39
 1.017789e+01 5.573639e+01 3.632329e+01 5.054861e+01 5.789706e+01 6.715073e+01 7.324624e+01 8.606295e+01 6.136047e+01 6.867879e+01 6.954181e+01 6.558959e+01 2.578127e+01 4.154910e-01 1.267641e+00 1.302595e+00 2.253365e+00 2.461815e+00 4.086874e+00 3.324029e+00 3.416310e+00 4.471918e+00 3.563197e+00 3.757904e+00 3.128078e+00 4.722888e-01 1.079573e-01 2.927190e-01 3.809123e-01 4.440052e-01 5.890670e-01 6.161894e-01 6.670290e-01 7.463006e-01 7.697375e-01 8.278890e-01 8.427641e-01 6.953608e-01 1.372109e-01
<GCONST> 1.223120e+02
<TRANSP> 5
 0.000000e+00 1.000000e+00 0.000000e+00 0.000000e+00 0.000000e+00
 0.000000e+00 7.261444e-01 2.738555e-01 0.000000e+00 0.000000e+00
 0.000000e+00 0.000000e+00 4.911126e-01 5.088875e-01 0.000000e+00
 0.000000e+00 0.000000e+00 0.000000e+00 4.119341e-01 5.880659e-01
 0.000000e+00 0.000000e+00 0.000000e+00 0.000000e+00 0.000000e+00
<ENDHMM>
~h "n"
<BEGINHMM>
<NUMSTATES> 5
<STATE> 2
<MEAN> 39
 2.055723e+00 5.659829e+00 -3.685917e-01 -3.732330e-01 -5.815467e+00 -8.764227e+00 -6.894104e+00 -7.759005e+00 -7.055391e+00 -5.752895e+00 -2.830423e+00 -4.890199e+00 6.530451e+01 -4.554997e-02 3.185469e-01 1.466062e-01 1.978319e-01 4.081174e-01 -2.538908e-01 -4.257596e-01 -8.150095e-02 -2.212277e-01 -2.972028e-02 2.290038e-01 -9.508586e-02 -2.087780e-01 6.052929e-03 -4.985291e-01 -5.017280e-01 -3.198380e-01 -3.810622e-01 7.268216e-02 3.536025e-01 6.999294e-02 3.834481e-01 2.898386e-01 -2.960332e-02 7.997897e-02 3.939486e-01
<VARIANCE> 39
 8.038720e+00 2.772466e+01 2.859358e+01 3.652996e+01 3.720728e+01 3.771726e+01 5.132477e+01 4.461843e+01 4.100480e+01 4.898469e+01 3.811543e+01 4.536463e+01 1.770895e+01 2.684995e-01 1.173791e+00 1.816812e+00 1.537167e+00 1.646258e+00 1.701643e+00 2.152612e+00 1.987125e+00 2.258721e+00 2.408558e+00 1.893355e+00 1.894326e+00 4.326175e-01 6.049100e-02 2.071233e-01 3.119464e-01 2.992638e-01 4.393850e-01 3.920595e-01 5.544044e-01 5.372388e-01 4.876160e-01 5.526507e-01 4.867717e-01 5.091701e-01 7.194500e-02
<GCONST> 1.063827e+02
<STATE> 3
<MEAN> 39
 1.801683e+00 1.706089e+00 -4.542835e+00 -1.581763e+00 -7.138437e+00 -8.733126e+00 -5.446228e+00 -8.277271e+00 -5.031281e+00 -2.029929e+00 -1.942426e+00 -4.741852e+00 6.772102e+01 -9.747851e-02 -1.349941e+00 -1.686026e+00 -1.322135e+00 -1.309692e+00 4.613603e-01 1.637585e+00 4.964513e-01 1.329581e+00 1.063721e+00 -3.742365e-01 5.529970e-02 1.269534e+00 -5.168053e-02 1.245824e-01 3.751172e-02 -2.549623e-01 -2.589653e-01 1.207619e-01 4.093106e-01 3.263765e-01 1.233858e-01 -7.085029e-02 -1.628903e-01 -5.487328e-02 -1.634910e-02
<VARIANCE> 39
 1.179508e+01 4.177268e+01 4.903662e+01 4.959025e+01 6.025865e+01 4.804527e+01 6.051892e+01 5.705703e+01 7.113671e+01 6.865814e+01 5.163414e+01 5.671955e+01 2.898106e+01 6.126235e-01 2.262903e+00 3.282112e+00 3.531330e+00 4.188496e+00 4.021124e+00 5.772761e+00 5.188755e+00 5.352802e+00 5.323920e+00 4.539741e+00 4.810214e+00 6.329926e-01 6.688286e-02 4.881531e-01 7.066551e-01 5.470083e-01 7.407864e-01 6.179665e-01 9.176118e-01 7.839614e-01 1.014045e+00 8.610618e-01 7.777494e-01 6.983942e-01 2.449094e-01
<GCONST> 1.289745e+02
<STATE> 4
<MEAN> 39
 8.064821e-01 4.138802e-01 -6.278222e+00 -6.624744e+00 -1.239952e+01 -7.739449e+00 2.753880e-01 -5.083370e+00 -2.466426e+00 -1.767389e+00 -4.357569e+00 -5.281015e+00 7.018138e+01 -1.374913e-01 1.527951e-01 2.204850e-03 -5.474807e-01 -6.380407e-01 7.301178e-02 8.945447e-01 6.922600e-01 3.483323e-01 6.433038e-02 -1.894298e-01 -4.733987e-02 -3.326328e-02 -9.545564e-03 2.650963e-01 3.499340e-01 2.677369e-01 2.624403e-01 -9.207413e-02 -3.807594e-01 -8.059311e-02 -1.848804e-01 -1.795791e-01 1.712179e-01 4.542108e-02 -2.884815e-01
<VARIANCE> 39
 1.824458e+01 5.366517e+01 5.231532e+01 5.369102e+01 7.592643e+01 7.065054e+01 5.968758e+01 6.347216e+01 7.146559e+01 8.190085e+01 7.516737e+01 6.759003e+01 2.572919e+01 2.799160e-01 1.247368e+00 1.588149e+00 2.026492e+00 2.684639e+00 2.649592e+00 2.968403e+00 2.919332e+00 3.383271e+00 2.820957e+00 3.360834e+00 2.266104e+00 4.466687e-01 7.245871e-02 2.358699e-01 3.852371e-01 3.595257e-01 4.840822e-01 5.142796e-01 5.979317e-01 5.449546e-01 7.567097e-01 6.170843e-01 6.183842e-01 5.823346e-01 1.058401e-01
<GCONST> 1.189188e+02
<TRANSP> 5
 0.000000e+00 1.000000e+00 0.000000e+00 0.000000e+00 0.000000e+00
 0.000000e+00 7.290996e-01 2.709004e-01 0.000000e+00 0.000000e+00
 0.000000e+00 0.000000e+00 6.494656e-01 3.505344e-01 0.000000e+00
 0.000000e+00 0.000000e+00 0.000000e+00 5.677398e-01 4.322602e-01
 0.000000e+00 0.000000e+00 0.000000e+00 0.000000e+00 0.000000e+00
<ENDHMM>
~h "o"
<BEGINHMM>
<NUMSTATES> 5
<STATE> 2
<MEAN> 39
 3.511969e+00 6.195813e+00 -7.515949e+00 -1.237405e+01 -1.576159e+01 -7.388880e+00 2.558746e+00 -3.878368e+00 -4.318332e+00 -2.829598e+00 -2.441350e+00 -1.201133e+00 6.688066e+01 -3.108896e-02 2.862430e-01 2.593029e-01 1.214549e-01 1.266871e-01 2.690110e-01 4.633972e-01 1.186336e-01 -1.198820e-01 -1.777304e-01 -1.861711e-01 -8.596917e-02 -3.580663e-01 -2.635326e-01 -2.521437e-01 1.278973e-01 4.909289e-01 6.856900e-01 1.647795e-01 -2.473436e-01 -1.414140e-01 -1.639315e-02 3.200328e-02 1.244493e-01 -6.877302e-02 -1.002085e-01
<VARIANCE> 39
 1.139042e+01 4.147393e+01 2.640434e+01 4.166332e+01 5.788784e+01 4.658054e+01 5.718522e+01 5.580225e+01 5.397274e+01 4.777545e+01 5.014596e+01 4.900493e+01 2.518822e+01 7.043135e-01 1.437997e+00 1.638916e+00 2.832284e+00 3.844875e+00 2.853248e+00 3.362535e+00 3.342418e+00 3.617312e+00 3.245803e+00 3.298027e+00 2.768217e+00 8.842363e-01 1.256587e-01 1.929649e-01 2.641495e-01 3.773082e-01 5.686799e-01 5.269204e-01 6.337911e-01 5.547717e-01 6.664991e-01 6.094950e-01 6.281506e-01 5.602052e-01 8.945684e-02
<GCONST> 1.179732e+02
<STATE> 3
<MEAN> 39
 2.602315e+00 5.506145e+00 -6.998569e+00 -1.002473e+01 -1.243540e+01 -5.818097e+00 2.966746e+00 -4.150637e+00 -4.918584e+00 -2.916822e+00 -1.616832e+00 -1.755594e+00 6.619331e+01 -5.301234e-01 -3.528436e-01 3.842381e-01 1.160169e+00 1.572090e+00 4.994669e-01 -2.985274e-01 -2.741181e-01 -1.070462e-01 -2.599933e-02 2.977865e-01 4.965542e-02 -5.322172e-01 -1.916101e-01 -1.928960e-01 1.054732e-01 3.009901e-01 3.227741e-01 -5.052014e-02 -3.773341e-01 -1.094393e-01 1.351389e-01 8.051681e-02 1.521584e-02 -3.762998e-02 -2.074493e-02
<VARIANCE> 39
 1.218430e+01 3.838563e+01 2.807840e+01 4.384923e+01 5.323489e+01 4.846814e+01 6.119942e+01 5.726548e+01 5.052605e+01 5.287270e+01 5.393383e+01 4.962260e+01 2.966024e+01 9.602163e-01 1.455869e+00 1.980933e+00 3.240905e+00 4.004986e+00 3.374141e+00 3.772624e+00 3.746538e+00 4.011627e+00 3.299664e+00 3.614569e+00 3.196832e+00 8.730376e-01 1.169476e-01 2.164592e-01 3.043305e-01 3.789433e-01 5.983736e-01 5.193322e-01 5.887296e-01 5.611047e-01 6.041820e-01 6.290482e-01 6.428399e-01 5.606681e-01 1.323261e-01
<GCONST> 1.203485e+02
<STATE> 4
<MEAN> 39
 6.658263e-01 4.588767e+00 -6.047978e+00 -7.043848e+00 -8.180332e+00 -4.690222e+00 1.162204e+00 -4.987193e+00 -4.489727e+00 -2.447508e+00 -6.660703e-01 -1.405886e+00 6.416602e+01 -7.934811e-01 -5.436128e-01 4.772714e-01 1.168747e+00 1.387632e+00 2.041273e-01 -7.470863e-01 -2.727813e-01 2.346965e-01 1.636295e-01 8.863381e-02 -6.161862e-02 -4.567861e-01 3.624258e-02 -6.029598e-03 1.492187e-02 -8.942793e-02 -3.444990e-01 -2.375215e-01 -7.987332e-02 6.788140e-02 4.630704e-02 -4.977787e-02 -1.131833e-01 -6.381116e-02 1.655881e-01
<VARIANCE> 39
 1.940996e+01 3.673253e+01 3.278838e+01 4.315576e+01 4.898063e+01 4.547995e+01 5.716520e+01 5.960730e+01 4.864600e+01 4.875767e+01 4.562191e+01 4.596698e+01 4.376807e+01 1.011711e+00 1.675106e+00 2.235748e+00 3.236969e+00 3.802430e+00 3.426207e+00 3.963608e+00 3.622239e+00 3.437888e+00 3.193439e+00 3.365060e+00 3.096110e+00 9.648902e-01 1.829012e-01 2.875439e-01 4.192413e-01 4.470790e-01 6.664078e-01 5.544545e-01 5.474005e-01 6.649356e-01 6.591008e-01 6.359122e-01 6.423593e-01 5.887017e-01 2.277004e-01
<GCONST> 1.230370e+02
<TRANSP> 5
 0.000000e+00 1.000000e+00 0.000000e+00 0.000000e+00 0.000000e+00
 0.000000e+00 4.842704e-01 5.157295e-01 0.000000e+00 0.000000e+00
 0.000000e+00 0.000000e+00 2.395606e-01 7.604394e-01 0.000000e+00
 0.000000e+00 0.000000e+00 0.000000e+00 3.722873e-01 6.277127e-01
 0.000000e+00 0.000000e+00 0.000000e+00 0.000000e+00 0.000000e+00
<ENDHMM>
~h "p"
<BEGINHMM>
<NUMSTATES> 5
<STATE> 2
<MEAN> 39
 -5.686681e+00 1.134244e-02 -6.903671e+00 -7.300455e+00 -4.534273e+00 -3.133479e+00 7.870040e-01 -2.772952e+00 -1.629286e+00 -2.515546e+00 -1.568722e+00 -1.479612e+00 6.535414e+01 1.669591e+00 5.120410e-01 -4.427919e-01 -1.327689e+00 -1.442434e+00 -5.533185e-01 1.882692e-01 -8.817542e-01 -1.202856e+00 -8.061402e-01 -7.178877e-01 -4.168112e-01 1.756270e+00 3.387103e-01 2.369812e-01 1.093472e-01 -9.093017e-02 -3.362123e-01 -6.508881e-02 -7.552040e-02 -2.737997e-02 -9.875192e-02 1.062837e-01 8.610909e-02 1.379863e-02 -1.616090e-01
<VARIANCE> 39
 3.121702e+01 4.229628e+01 2.598225e+01 5.226645e+01 5.127467e+01 5.988837e+01 4.674284e+01 4.009196e+01 3.846785e+01 3.978808e+01 3.293560e+01 3.252950e+01 3.668669e+01 4.064103e+00 5.966262e+00 2.978978e+00 4.298995e+00 6.166880e+00 5.408981e+00 5.258264e+00 4.714961e+00 3.866402e+00 4.537628e+00 3.582887e+00 3.336223e+00 3.452001e+00 7.301244e-01 1.049179e+00 4.492522e-01 6.817250e-01 9.464458e-01 9.426048e-01 8.358603e-01 8.007190e-01 6.969894e-01 8.226196e-01 6.615238e-01 5.740143e-01 6.434648e-01
<GCONST> 1.346644e+02
<STATE> 3
<MEAN> 39
 1.507065e+00 -4.806155e-01 -8.397986e+00 -1.435783e+01 -1.289762e+01 -5.317340e+00 4.000609e+00 -2.777748e+00 -5.037353e+00 -2.981452e+00 -2.759699e+00 -2.358872e+00 7.251771e+01 7.260208e-01 -2.362856e-01 -1.159905e-01 -4.436186e-01 -1.050297e+00 -4.231408e-01 -3.874282e-01 -5.324213e-01 -2.099626e-01 4.131159e-01 4.571126e-01 -1.561696e-01 6.781868e-01 -5.055072e-01 -2.368072e-01 1.528662e-01 5.279284e-01 4.682435e-01 2.624959e-02 -2.991565e-01 9.698638e-02 5.326443e-01 2.797123e-01 1.250176e-01 9.543100e-03 -3.567074e-01
<VARIANCE> 39
 1.645539e+01 6.456120e+01 2.988415e+01 4.862680e+01 5.754160e+01 8.204745e+01 1.099998e+02 8.040314e+01 7.150938e+01 6.277483e+01 4.748783e+01 5.756448e+01 3.781003e+01 2.052964e+00 4.196554e+00 1.464272e+00 2.657883e+00 3.788885e+00 3.371430e+00 5.047849e+00 3.731378e+00 4.738178e+00 3.919269e+00 3.386563e+00 3.479720e+00 1.926452e+00 3.968551e-01 6.181640e-01 3.327562e-01 5.195675e-01 7.260467e-01 6.618913e-01 1.094924e+00 8.095810e-01 9.163350e-01 6.809240e-01 7.178145e-01 6.546513e-01 2.464966e-01
<GCONST> 1.318283e+02
<STATE> 4
<MEAN> 39
 2.221351e+00 -2.518796e-01 -9.124184e+00 -1.418995e+01 -1.262869e+01 -2.504778e+00 -8.088773e-02 -6.171972e+00 -3.658437e+00 -2.929664e+00 -1.027876e+00 -3.960429e+00 7.202598e+01 4.389062e-02 -3.394117e-01 1.138029e-01 6.124745e-01 -4.023113e-02 -4.759529e-01 -1.005838e+00 -3.477368e-01 6.830702e-01 5.996346e-01 6.800433e-02 -3.493951e-01 1.390396e-01 -3.283949e-01 -3.713233e-02 1.921107e-01 3.811326e-01 3.575212e-01 -8.110937e-02 -7.695460e-02 1.898880e-01 2.242825e-01 -6.157526e-02 -1.085800e-01 4.563519e-02 -2.599895e-01
<VARIANCE> 39
 1.179745e+01 8.288772e+01 4.828193e+01 6.431112e+01 8.366936e+01 8.874817e+01 6.902187e+01 6.253425e+01 7.267233e+01 7.664018e+01 5.363583e+01 7.611388e+01 3.297801e+01 6.231264e-01 1.530637e+00 1.070937e+00 2.054127e+00 2.421244e+00 2.893307e+00 3.341930e+00 2.701456e+00 3.312980e+00 2.511101e+00 3.183147e+00 2.948848e+00 6.391066e-01 1.899225e-01 4.396144e-01 3.187304e-01 3.283184e-01 6.733392e-01 5.880649e-01 5.412244e-01 5.699793e-01 5.498419e-01 6.858571e-01 6.079683e-01 6.109335e-01 1.326800e-01
<GCONST> 1.222917e+02
<TRANSP> 5
 0.000000e+00 1.000000e+00 0.000000e+00 0.000000e+00 0.000000e+00
 0.000000e+00 7.679988e-01 2.320012e-01 0.000000e+00 0.000000e+00
 0.000000e+00 0.000000e+00 5.263357e-01 4.736643e-01 0.000000e+00
 0.000000e+00 0.000000e+00 0.000000e+00 4.459660e-01 5.540340e-01
 0.000000e+00 0.000000e+00 0.000000e+00 0.000000e+00 0.000000e+00
<ENDHMM>
~h "r"
<BEGINHMM>
<NUMSTATES> 5
<STATE> 2
<MEAN> 39
 5.338554e-01 1.828574e-01 -3.761550e+00 8.366075e-01 -5.874088e+00 -1.055948e+01 -6.012821e+00 -8.574458e+00 -3.852602e+00 -1.552480e+00 -4.622141e-01 -2.656637e+00 6.749531e+01 -1.141464e-01 -3.752475e-01 1.621727e-01 7.182391e-01 -3.289066e-01 -5.769452e-01 -6.879805e-01 -2.224621e-01 1.573504e-01 -2.053317e-01 -2.230376e-03 -8.170351e-03 2.752712e-01 1.304736e-01 4.840270e-02 -1.333809e-01 -3.910499e-01 -7.525324e-01 -3.203675e-02 3.325146e-01 8.409740e-02 -7.737811e-02 -8.877188e-02 5.856580e-02 7.864825e-02 2.170789e-01
<VARIANCE> 39
 2.001626e+01 3.830588e+01 5.858226e+01 5.189466e+01 6.216071e+01 5.741230e+01 5.004121e+01 5.160774e+01 5.017036e+01 5.155566e+01 4.248081e+01 4.839318e+01 2.630462e+01 1.685858e+00 2.140752e+00 3.640994e+00 4.236153e+00 7.337547e+00 5.088054e+00 4.873125e+00 4.292116e+00 4.635844e+00 5.564270e+00 4.171156e+00 4.150815e+00 1.331345e+00 3.272861e-01 4.465154e-01 5.434676e-01 5.642670e-01 1.161585e+00 9.948118e-01 9.077644e-01 8.727826e-01 9.101693e-01 8.910402e-01 8.760741e-01 8.551322e-01 2.763005e-01
<GCONST> 1.332214e+02
<STATE> 3
<MEAN> 39
 1.576725e+00 -9.855047e-01 -4.870113e+00 8.086389e-01 -9.493080e+00 -1.205170e+01 -6.464942e+00 -8.583669e+00 -3.376564e+00 -1.626351e+00 2.708839e-01 -1.661508e+00 6.891298e+01 2.368071e-01 1.259698e-01 -1.669571e-03 -1.879946e-01 -1.604686e+00 -2.906118e-01 3.569225e-01 2.335935e-02 -4.431711e-01 -6.147040e-01 3.418393e-01 5.287780e-01 2.901484e-01 -3.121921e-02 2.017424e-01 5.457683e-02 -3.322248e-01 2.575966e-03 3.098498e-01 4.259927e-01 1.763977e-01 -1.258948e-01 -5.701111e-02 4.287600e-03 -4.281773e-02 -1.168549e-01
<VARIANCE> 39
 1.410681e+01 3.903414e+01 6.464260e+01 5.599846e+01 7.148159e+01 7.051207e+01 5.676657e+01 5.650786e+01 5.700475e+01 6.036982e+01 4.695488e+01 4.963139e+01 2.431797e+01 1.359356e+00 1.857303e+00 3.335305e+00 3.565005e+00 4.401114e+00 4.980451e+00 4.000643e+00 3.571292e+00 4.735712e+00 5.404538e+00 4.138091e+00 4.402039e+00 9.176641e-01 1.592532e-01 2.551967e-01 3.822270e-01 3.717409e-01 9.129592e-01 6.820825e-01 6.956125e-01 6.801358e-01 7.436146e-01 7.494469e-01 7.343153e-01 7.048491e-01 1.607344e-01
<GCONST> 1.276294e+02
<STATE> 4
<MEAN> 39
 1.821427e+00 -6.457433e-01 -4.195764e+00 -8.695017e-01 -1.232128e+01 -1.242832e+01 -5.620402e+00 -8.304482e+00 -4.547047e+00 -3.984824e+00 7.674540e-01 -1.810765e+00 6.945661e+01 -3.410168e-02 4.139587e-01 2.245080e-01 -4.136176e-01 -6.317790e-01 2.995320e-01 6.159240e-01 2.017678e-01 -3.606837e-01 -4.498096e-01 4.083385e-02 1.265809e-01 -1.078780e-01 -1.127184e-01 1.150367e-01 7.700702e-02 -6.815886e-02 3.757039e-01 2.169608e-01 7.742243e-02 4.803271e-02 4.179297e-02 8.641885e-02 -9.245227e-02 -9.966853e-02 -1.750179e-01
<VARIANCE> 39
 1.357370e+01 3.944448e+01 6.905717e+01 6.215082e+01 6.740391e+01 6.956685e+01 5.938151e+01 5.364542e+01 5.520594e+01 6.425888e+01 4.697043e+01 5.004062e+01 2.166466e+01 6.720142e-01 1.219021e+00 1.918388e+00 2.265397e+00 3.363161e+00 2.961746e+00 3.152238e+00 2.784757e+00 3.063457e+00 3.300491e+00 2.971674e+00 3.198430e+00 5.950103e-01 1.146953e-01 1.930956e-01 3.262867e-01 2.955235e-01 5.829678e-01 5.376905e-01 5.036546e-01 4.823746e-01 5.693003e-01 6.572124e-01 5.584607e-01 5.504484e-01 1.094038e-01
<GCONST> 1.185436e+02
<TRANSP> 5
 0.000000e+00 1.000000e+00 0.000000e+00 0.000000e+00 0.000000e+00
 0.000000e+00 4.394023e-01 5.605977e-01 0.000000e+00 0.000000e+00
 0.000000e+00 0.000000e+00 1.865744e-01 8.134257e-01 0.000000e+00
 0.000000e+00 0.000000e+00 0.000000e+00 4.198117e-01 5.801884e-01
 0.000000e+00 0.000000e+00 0.000000e+00 0.000000e+00 0.000000e+00
<ENDHMM>
~h "t"
<BEGINHMM>
<NUMSTATES> 5
<STATE> 2
<MEAN> 39
 -1.331605e+01 -7.608125e-01 -2.899702e+00 -4.986307e+00 -2.886863e+00 -5.098969e+00 -1.773488e+00 -1.352965e+00 1.897558e+00 -1.306579e+00 5.974057e-01 -2.858115e-01 6.670253e+01 6.734867e-01 -1.141728e-01 3.462833e-01 -2.058966e-01 -6.179291e-01 -8.157120e-01 -4.474508e-01 -7.920370e-01 -3.432065e-01 -4.318049e-01 -5.682227e-01 -6.870944e-01 1.632510e+00 8.054542e-01 2.339652e-01 -2.686437e-03 7.973613e-02 -3.442997e-01 -1.376749e-01 -1.348010e-01 -3.349412e-01 -3.273124e-01 -3.729138e-02 -8.018891e-02 -1.620608e-01 -1.349579e-01
<VARIANCE> 39
 5.646203e+01 3.658318e+01 4.614359e+01 4.000090e+01 3.762830e+01 5.454813e+01 4.207774e+01 3.846304e+01 3.809589e+01 3.723701e+01 3.609988e+01 3.717516e+01 5.491082e+01 8.001800e+00 3.736093e+00 3.938180e+00 4.721650e+00 4.183553e+00 4.988117e+00 4.173946e+00 4.466976e+00 4.594361e+00 4.403958e+00 3.872658e+00 4.278659e+00 5.186589e+00 8.567313e-01 6.489925e-01 5.641313e-01 7.236630e-01 7.204623e-01 8.915673e-01 7.970502e-01 7.195417e-01 7.773975e-01 7.703927e-01 7.246678e-01 7.875360e-01 9.733848e-01
<GCONST> 1.364755e+02
<STATE> 3
<MEAN> 39
 -2.861204e+00 1.089185e+00 -1.703048e+00 -5.952504e+00 -9.491689e+00 -9.874385e+00 -4.943034e+00 -7.871457e+00 -3.161577e+00 -3.470972e+00 -2.425084e+00 -4.279567e+00 7.121004e+01 2.883111e+00 3.746697e-01 -4.526455e-01 -3.865236e-01 -2.029905e+00 -8.885109e-01 -2.995119e-01 -1.256948e+00 -1.208958e+00 -1.339475e-01 -5.792378e-02 -3.356230e-01 5.406950e-01 -6.075576e-01 -3.090998e-01 -2.191466e-01 2.847026e-02 3.756055e-01 4.844617e-01 3.474363e-01 5.143588e-01 3.168126e-01 2.310118e-01 3.865811e-01 4.859685e-01 -4.729912e-01
<VARIANCE> 39
 3.180779e+01 3.549758e+01 7.614292e+01 7.365741e+01 6.405591e+01 7.475214e+01 5.389093e+01 5.074751e+01 5.038939e+01 6.954707e+01 4.933851e+01 5.612103e+01 2.488781e+01 2.710696e+00 3.254669e+00 2.876316e+00 4.365723e+00 5.102252e+00 5.616136e+00 4.734046e+00 4.623294e+00 4.933802e+00 5.222417e+00 4.314263e+00 5.239944e+00 1.881837e+00 4.839602e-01 4.322412e-01 5.781780e-01 6.640303e-01 8.601755e-01 8.475128e-01 7.273057e-01 6.561769e-01 7.094111e-01 8.543261e-01 7.070435e-01 7.219417e-01 4.761367e-01
<GCONST> 1.356840e+02
<STATE> 4
<MEAN> 39
 -4.355980e-01 -1.107689e+00 -4.782462e+00 -8.512146e+00 -1.159632e+01 -8.760220e+00 -3.443376e+00 -7.369034e+00 -3.655904e+00 -2.622060e+00 -1.190644e+00 -3.189024e+00 7.233125e+01 7.164861e-01 -2.476929e-01 -3.859346e-01 1.625315e-01 -1.224748e-01 2.387621e-01 9.379754e-02 -1.133750e-01 -2.902795e-01 1.746573e-01 3.498551e-01 3.148477e-01 -2.293202e-01 -5.832301e-01 1.491707e-02 1.715851e-01 3.131009e-01 5.934719e-01 1.914913e-01 -3.091563e-02 2.016753e-01 2.214593e-01 8.558035e-04 3.366637e-02 8.641462e-02 -3.553347e-01
<VARIANCE> 39
 2.596660e+01 4.394439e+01 7.142513e+01 8.448186e+01 7.375391e+01 8.637052e+01 6.335131e+01 5.984834e+01 6.265943e+01 8.360537e+01 5.956363e+01 7.334534e+01 2.734991e+01 1.422205e+00 1.850567e+00 1.652506e+00 2.304588e+00 3.268280e+00 3.394542e+00 3.126101e+00 2.963168e+00 3.170102e+00 3.289128e+00 3.285436e+00 3.240910e+00 1.476282e+00 4.081668e-01 3.882105e-01 4.646333e-01 5.817762e-01 7.251784e-01 8.604801e-01 7.417903e-01 6.912585e-01 7.510587e-01 8.127621e-01 6.787351e-01 7.875991e-01 2.562636e-01
<GCONST> 1.299420e+02
<TRANSP> 5
 0.000000e+00 1.000000e+00 0.000000e+00 0.000000e+00 0.000000e+00
 0.000000e+00 7.108181e-01 2.891819e-01 0.000000e+00 0.000000e+00
 0.000000e+00 0.000000e+00 4.189562e-01 5.810438e-01 0.000000e+00
 0.000000e+00 0.000000e+00 0.000000e+00 4.142079e-01 5.857921e-01
 0.000000e+00 0.000000e+00 0.000000e+00 0.000000e+00 0.000000e+00
<ENDHMM>
~h "u"
<BEGINHMM>
<NUMSTATES> 5
<STATE> 2
<MEAN> 39
 1.262639e+00 6.037617e+00 -2.256793e+00 -1.175060e+00 -1.071438e+01 -9.726531e+00 -4.997649e+00 -1.196873e+01 -9.566631e+00 -6.186058e+00 3.878526e-01 -2.822548e-03 6.668335e+01 6.516188e-02 2.483364e-01 1.021926e-01 -7.256207e-01 -8.556411e-01 4.809593e-01 8.135216e-01 -1.035785e-01 -9.260698e-02 9.113196e-02 2.766466e-01 4.169605e-01 -1.196227e-01 -2.108214e-01 -2.536440e-01 -4.623999e-02 1.235755e-02 3.763604e-01 7.146862e-02 -6.824502e-02 2.042060e-01 3.947898e-01 3.031539e-01 3.743877e-02 -1.110658e-01 -5.500040e-03
<VARIANCE> 39
 1.895823e+01 3.736537e+01 4.458694e+01 5.352729e+01 5.644351e+01 5.713958e+01 5.990176e+01 4.668088e+01 5.684008e+01 6.120578e+01 5.059545e+01 4.844376e+01 2.340962e+01 6.821045e-01 1.126934e+00 1.887141e+00 3.121462e+00 3.313740e+00 2.661822e+00 3.155032e+00 3.063012e+00 2.971426e+00 3.160329e+00 3.402256e+00 3.202541e+00 7.609076e-01 1.644051e-01 2.288652e-01 2.670648e-01 3.791217e-01 5.090357e-01 5.450705e-01 5.819494e-01 5.803819e-01 6.129435e-01 6.867869e-01 6.827300e-01 6.018133e-01 1.104685e-01
<GCONST> 1.195597e+02
<STATE> 3
<MEAN> 39
 1.164999e+00 5.329411e+00 -2.268153e+00 -2.257883e+00 -1.130163e+01 -8.839028e+00 -5.453976e+00 -1.132196e+01 -8.401696e+00 -5.758088e+00 6.585587e-01 -3.640668e-01 6.652424e+01 -1.463435e-01 -2.059050e-01 2.489962e-02 -4.867556e-01 -2.544633e-02 4.651939e-01 3.499703e-01 2.847053e-01 3.894542e-01 6.941615e-01 4.764069e-01 9.922451e-02 -1.252908e-01 -1.473321e-01 -2.340411e-01 -5.193020e-02 4.753999e-02 3.643603e-01 -2.753940e-03 -6.323776e-02 2.229434e-01 2.089463e-01 2.398335e-01 -1.057923e-02 -9.605534e-02 -1.091879e-02
<VARIANCE> 39
 2.313708e+01 3.490512e+01 4.921634e+01 6.586661e+01 6.291830e+01 5.522243e+01 5.926583e+01 5.053314e+01 6.037662e+01 6.088160e+01 4.857379e+01 4.602000e+01 2.698196e+01 6.322479e-01 1.337016e+00 1.851583e+00 2.352008e+00 3.232550e+00 2.567899e+00 2.706088e+00 2.814257e+00 3.001051e+00 3.614808e+00 3.695089e+00 3.038561e+00 1.041756e+00 1.310170e-01 1.798719e-01 2.608097e-01 3.575765e-01 4.227036e-01 4.640556e-01 5.211844e-01 5.198444e-01 6.133220e-01 6.148180e-01 6.071672e-01 5.580299e-01 1.118954e-01
<GCONST> 1.188202e+02
<STATE> 4
<MEAN> 39
 7.356761e-01 4.534856e+00 -2.946468e+00 -3.720223e+00 -1.056398e+01 -7.625859e+00 -4.396337e+00 -1.095446e+01 -7.211914e+00 -2.863801e+00 2.118272e+00 -2.451020e-01 6.667241e+01 -2.998477e-01 -5.770006e-01 -1.053157e-01 -2.876838e-01 4.937766e-01 4.463542e-01 3.240539e-01 7.136726e-01 6.617538e-01 8.964759e-01 1.884231e-01 -2.352867e-01 -1.202851e-01 -7.160744e-02 -7.821226e-02 -2.133608e-02 8.315156e-02 1.735198e-01 -5.052674e-02 -4.066215e-02 1.508427e-01 9.489881e-02 -3.911252e-02 -1.168962e-01 -7.377572e-02 -4.903990e-02
<VARIANCE> 39
 2.036646e+01 3.431407e+01 5.382525e+01 7.529080e+01 7.442752e+01 5.725726e+01 7.055775e+01 5.019401e+01 5.918811e+01 7.148683e+01 5.017870e+01 4.951248e+01 3.284944e+01 5.567498e-01 1.287108e+00 1.533366e+00 1.739570e+00 2.358470e+00 2.437101e+00 2.534746e+00 2.340001e+00 3.169746e+00 3.782225e+00 2.810717e+00 2.677817e+00 9.983211e-01 7.974086e-02 1.471131e-01 2.272187e-01 2.775979e-01 3.997207e-01 3.964182e-01 4.383039e-01 4.452272e-01 4.979501e-01 5.055457e-01 4.946650e-01 5.008879e-01 9.527711e-02
<GCONST> 1.155903e+02
<TRANSP> 5
 0.000000e+00 1.000000e+00 0.000000e+00 0.000000e+00 0.000000e+00
 0.000000e+00 3.680564e-01 6.319436e-01 0.000000e+00 0.000000e+00
 0.000000e+00 0.000000e+00 2.354317e-01 7.645683e-01 0.000000e+00
 0.000000e+00 0.000000e+00 0.000000e+00 4.582913e-01 5.417086e-01
 0.000000e+00 0.000000e+00 0.000000e+00 0.000000e+00 0.000000e+00
<ENDHMM>
~h "w"
<BEGINHMM>
<NUMSTATES> 5
<STATE> 2
<MEAN> 39
 4.083848e+00 8.666576e+00 -3.428468e+00 -9.255618e+00 -1.510807e+01 -8.037509e+00 -1.118735e+00 -5.003333e+00 -3.787948e+00 -3.279173e+00 -2.597015e+00 -2.052937e+00 6.455128e+01 3.650407e-01 -4.045765e-01 -1.006266e+00 -1.863863e+00 -1.206092e+00 4.605934e-01 1.487316e+00 5.065364e-01 -7.261059e-02 1.905824e-01 -6.066003e-02 3.962561e-01 6.659884e-01 -1.844702e-01 -4.896958e-01 -1.176183e-01 1.137801e-01 2.765512e-01 2.454957e-01 2.071388e-01 -2.262114e-02 -1.175309e-01 -3.897236e-02 1.670344e-01 1.798693e-01 2.461069e-01
<VARIANCE> 39
 1.009609e+01 3.027000e+01 2.975174e+01 7.088729e+01 6.829447e+01 3.681971e+01 5.189369e+01 5.140581e+01 3.730244e+01 4.752722e+01 3.575474e+01 3.242892e+01 2.098159e+01 7.820670e-01 2.612992e+00 1.934056e+00 2.676895e+00 4.421072e+00 4.063735e+00 4.020403e+00 3.690810e+00 3.495481e+00 2.866901e+00 3.001843e+00 2.896863e+00 1.561555e+00 8.949146e-02 2.354226e-01 2.912768e-01 4.703821e-01 8.678395e-01 7.887557e-01 7.505876e-01 6.491877e-01 6.351707e-01 6.172827e-01 5.568396e-01 5.558926e-01 9.795214e-02
<GCONST> 1.198321e+02
<STATE> 3
<MEAN> 39
 4.402067e+00 4.164403e+00 -7.895571e+00 -1.496846e+01 -1.742687e+01 -5.217628e+00 5.971637e+00 -2.758003e+00 -4.648712e+00 -3.618279e+00 -2.874574e+00 1.296500e+00 6.816566e+01 -3.342839e-01 -1.993104e+00 -1.309586e+00 -5.389206e-01 1.072155e+00 1.800574e+00 1.165115e+00 -6.495565e-01 -8.033782e-01 2.537507e-01 1.252324e+00 8.868916e-01 1.142837e+00 -2.629564e-01 -8.605245e-02 2.948704e-01 7.877018e-01 7.540397e-01 -1.348692e-01 -7.691243e-01 -3.361679e-01 2.237764e-01 2.939859e-01 2.356513e-01 -4.053325e-01 -1.553135e-01
<VARIANCE> 39
 1.041497e+01 3.578902e+01 3.389856e+01 6.893113e+01 6.592004e+01 5.045131e+01 7.145845e+01 7.478371e+01 4.639534e+01 4.784477e+01 5.615799e+01 4.513859e+01 2.372835e+01 7.257590e-01 2.471518e+00 1.493335e+00 2.356243e+00 3.180907e+00 3.560841e+00 4.653371e+00 4.597841e+00 3.644246e+00 4.274533e+00 3.918300e+00 3.538336e+00 1.233841e+00 1.191253e-01 3.539802e-01 2.645174e-01 4.370672e-01 7.590620e-01 8.388829e-01 8.776280e-01 7.537923e-01 8.416572e-01 6.786583e-01 7.411891e-01 6.755596e-01 1.595394e-01
<GCONST> 1.244002e+02
<STATE> 4
<MEAN> 39
 2.897710e+00 -6.553459e-01 -1.005257e+01 -1.365673e+01 -1.199473e+01 -1.531917e+00 4.341538e+00 -6.620049e+00 -5.798093e+00 -1.086856e+00 1.825460e+00 -9.636606e-02 7.048241e+01 -5.711566e-01 -1.396785e+00 -3.498694e-01 9.985183e-01 1.678003e+00 2.062085e-01 -9.468001e-01 -5.035694e-01 7.385755e-01 1.121095e+00 3.639894e-01 -9.909887e-01 5.425390e-01 -5.724143e-02 3.551877e-01 3.944376e-01 4.062442e-01 -1.050868e-01 -6.038551e-01 -3.858248e-01 3.393015e-01 3.809133e-01 -1.280787e-01 -5.717861e-01 -2.938248e-01 -2.939692e-01
<VARIANCE> 39
 1.358475e+01 4.981952e+01 3.937047e+01 7.553494e+01 5.403284e+01 5.010782e+01 7.469571e+01 8.465377e+01 4.700970e+01 5.889708e+01 5.837355e+01 5.954256e+01 3.244510e+01 5.429426e-01 1.493887e+00 1.167983e+00 2.352622e+00 2.447660e+00 4.351282e+00 4.424960e+00 3.166267e+00 3.859438e+00 3.548160e+00 3.596840e+00 3.637027e+00 6.780047e-01 1.155756e-01 2.740074e-01 2.730940e-01 3.393456e-01 4.750290e-01 5.918849e-01 6.791421e-01 7.132492e-01 6.156367e-01 6.963035e-01 7.091081e-01 6.317862e-01 1.359247e-01
<GCONST> 1.215432e+02
<TRANSP> 5
 0.000000e+00 1.000000e+00 0.000000e+00 0.000000e+00 0.000000e+00
 0.000000e+00 6.027865e-01 3.972134e-01 0.000000e+00 0.000000e+00
 0.000000e+00 0.000000e+00 4.540482e-01 5.459518e-01 0.000000e+00
 0.000000e+00 0.000000e+00 0.000000e+00 5.387943e-01 4.612057e-01
 0.000000e+00 0.000000e+00 0.000000e+00 0.000000e+00 0.000000e+00
<ENDHMM>
~h "aa"
<BEGINHMM>
<NUMSTATES> 5
<STATE> 2
<MEAN> 39
 2.408970e+00 -6.034183e+00 -1.307716e+01 -1.398788e+01 -7.450871e+00 3.020735e+00 5.900435e+00 -6.201635e+00 -3.780402e+00 -5.522132e-01 -4.623211e+00 -6.572833e+00 7.329759e+01 -8.933605e-02 -1.449224e-01 1.560368e-02 3.690685e-01 2.562080e-01 -2.236343e-01 -3.285744e-01 7.301101e-02 3.197058e-01 1.828069e-01 -1.151792e-01 -2.961891e-01 -4.925220e-02 -5.382552e-03 2.070064e-01 1.155548e-01 9.514134e-02 -1.023578e-01 -2.586627e-01 -1.465548e-01 9.981620e-02 7.924108e-02 -1.462525e-02 5.150779e-02 8.480412e-02 -1.050335e-01
<VARIANCE> 39
 1.197701e+01 4.355117e+01 2.600988e+01 4.001846e+01 5.669449e+01 4.956004e+01 5.433577e+01 8.294246e+01 5.700291e+01 5.744411e+01 6.773337e+01 6.866187e+01 2.322533e+01 1.670252e-01 5.440453e-01 4.929639e-01 7.768297e-01 1.187734e+00 1.454912e+00 1.460967e+00 1.668273e+00 1.596197e+00 1.453798e+00 1.763380e+00 1.577767e+00 1.614448e-01 3.822549e-02 9.688903e-02 1.014790e-01 1.411314e-01 1.869993e-01 2.343825e-01 2.685999e-01 2.922946e-01 2.870140e-01 2.764346e-01 2.809474e-01 3.030035e-01 2.772862e-02
<GCONST> 9.494193e+01
<STATE> 3
<MEAN> 39
 1.770247e+00 -6.240667e+00 -1.170229e+01 -9.799723e+00 -6.894506e+00 -3.205430e+00 1.996217e+00 -3.339715e+00 -1.845836e-01 1.157354e+00 -5.167168e+00 -8.056174e+00 7.268691e+01 -2.205986e-01 9.676490e-01 1.047737e+00 1.355192e+00 -9.138937e-02 -1.491424e+00 -1.132137e+00 3.606459e-01 5.352187e-01 -7.560691e-02 2.286177e-01 4.749691e-01 -7.743914e-01 -1.048017e-01 2.679561e-01 2.972569e-01 1.580192e-01 1.226554e-02 5.716462e-02 4.754018e-02 -8.062565e-02 -2.626935e-01 -1.901250e-01 2.204159e-01 2.626875e-01 -2.710055e-01
<VARIANCE> 39
 1.128746e+01 4.411943e+01 3.324377e+01 5.047077e+01 5.196269e+01 7.692663e+01 6.423376e+01 7.714953e+01 6.536647e+01 6.339504e+01 6.990524e+01 7.609106e+01 2.194388e+01 6.922179e-01 1.243175e+00 1.522070e+00 1.850203e+00 3.086068e+00 2.926232e+00 3.208414e+00 3.370377e+00 3.320482e+00 3.123184e+00 3.444928e+00 3.239425e+00 6.368847e-01 8.671514e-02 1.747221e-01 2.067718e-01 2.519647e-01 4.169209e-01 5.242743e-01 5.561192e-01 5.397525e-01 5.766575e-01 5.035880e-01 5.219369e-01 5.560354e-01 8.036673e-02
<GCONST> 1.170153e+02
<STATE> 4
<MEAN> 39
 -1.104311e+00 -4.559996e-01 -7.650264e+00 -6.515878e+00 -5.212853e+00 -2.895615e+00 7.486605e-01 -2.473148e+00 -5.119519e-01 1.081282e+00 -1.275331e+00 -4.142398e+00 6.510729e+01 -8.086254e-01 6.292859e-01 8.543147e-01 9.074523e-01 2.133984e-01 -2.447031e-01 -1.988790e-01 3.317499e-01 -3.528753e-02 -3.554297e-01 5.593364e-01 6.199512e-01 -1.301319e+00 -7.704182e-02 -1.575623e-01 -4.710235e-02 -1.465418e-01 -3.365432e-02 1.003207e-01 8.966883e-02 -7.975845e-02 -9.392656e-02 -5.658931e-02 -1.885780e-02 -4.016399e-02 1.760561e-01
<VARIANCE> 39
 1.838356e+01 3.333612e+01 3.220369e+01 4.477648e+01 4.406681e+01 5.820678e+01 5.237509e+01 5.208395e+01 4.572189e+01 4.724408e+01 5.180496e+01 4.635968e+01 4.883583e+01 8.540021e-01 1.555087e+00 1.995514e+00 1.810260e+00 2.349748e+00 2.999509e+00 3.098513e+00 3.125726e+00 3.341715e+00 3.145772e+00 2.808105e+00 3.038467e+00 1.205100e+00 1.443059e-01 2.224164e-01 2.611153e-01 3.007488e-01 4.156613e-01 5.398278e-01 5.508657e-01 5.222833e-01 5.371040e-01 5.210418e-01 5.349526e-01 4.999490e-01 2.398318e-01
<GCONST> 1.182111e+02
<TRANSP> 5
 0.000000e+00 1.000000e+00 0.000000e+00 0.000000e+00 0.000000e+00
 0.000000e+00 8.383510e-01 1.616490e-01 0.000000e+00 0.000000e+00
 0.000000e+00 0.000000e+00 6.738139e-01 3.261861e-01 0.000000e+00
 0.000000e+00 0.000000e+00 0.000000e+00 5.812497e-01 4.187502e-01
 0.000000e+00 0.000000e+00 0.000000e+00 0.000000e+00 0.000000e+00
<ENDHMM>
~h "ae"
<BEGINHMM>
<NUMSTATES> 5
<STATE> 2
<MEAN> 39
 1.965039e+00 -7.664785e+00 -1.240983e+01 -1.107287e+01 -8.225688e+00 -1.323643e+00 2.645964e+00 -4.170133e+00 -9.343110e-01 1.842806e+00 -2.896451e+00 -7.791951e+00 7.354942e+01 -2.710873e-01 -3.134074e-01 3.968604e-01 4.821420e-01 1.435477e-01 -8.343441e-01 -8.913331e-01 4.896435e-01 1.081672e+00 1.168318e-01 -6.970091e-01 -5.185405e-01 9.938995e-02 -3.048560e-02 1.863956e-01 1.930843e-01 2.262591e-01 -8.181148e-02 -3.894549e-01 -1.275179e-01 1.014203e-01 3.020721e-02 -1.717950e-01 5.140686e-02 2.710210e-01 -1.218696e-01
<VARIANCE> 39
 1.374895e+01 4.127538e+01 2.742772e+01 3.996377e+01 5.304980e+01 6.849992e+01 4.819737e+01 7.104887e+01 7.381480e+01 6.341044e+01 6.737518e+01 5.698864e+01 2.711355e+01 3.285015e-01 5.939732e-01 8.840456e-01 1.673186e+00 1.864676e+00 3.543613e+00 2.455973e+00 2.800918e+00 2.388577e+00 2.410623e+00 2.638042e+00 2.460319e+00 2.289769e-01 5.338532e-02 1.128517e-01 1.490716e-01 1.972198e-01 3.101183e-01 3.740007e-01 4.348114e-01 4.094209e-01 4.550604e-01 4.225121e-01 4.403693e-01 4.614489e-01 4.452011e-02
<GCONST> 1.072069e+02
<STATE> 3
<MEAN> 39
 1.074941e-01 -7.501949e+00 -7.143389e+00 -4.998608e+00 -1.196445e+01 -1.278591e+01 -2.977022e+00 3.321123e-01 4.999674e+00 -1.067768e-01 -4.944482e+00 -6.198269e+00 7.335234e+01 -2.685553e-01 8.422299e-01 1.240289e+00 1.018688e+00 -6.763085e-01 -1.391659e+00 -5.092959e-01 -4.842523e-02 -2.835875e-01 -5.259775e-01 5.769833e-01 1.054013e+00 -6.355896e-01 -1.420624e-02 1.888404e-01 7.026571e-02 -6.161316e-02 1.328168e-01 3.893545e-01 1.275720e-01 -2.670586e-01 -3.890491e-01 -3.381800e-02 1.552183e-01 5.181591e-02 -1.786967e-01
<VARIANCE> 39
 1.179170e+01 3.201545e+01 4.479790e+01 3.955510e+01 6.280031e+01 6.731228e+01 5.138150e+01 5.866539e+01 5.378093e+01 6.385411e+01 5.707455e+01 6.108519e+01 2.106027e+01 4.387907e-01 6.508464e-01 1.174592e+00 1.380001e+00 1.879437e+00 2.445014e+00 2.435587e+00 2.519292e+00 2.752803e+00 2.359264e+00 2.516426e+00 2.456225e+00 2.867439e-01 5.158009e-02 1.200129e-01 1.824013e-01 2.122041e-01 3.148781e-01 3.311631e-01 3.771184e-01 3.660031e-01 4.427609e-01 4.087378e-01 4.427684e-01 4.367721e-01 5.290718e-02
<GCONST> 1.069397e+02
<STATE> 4
<MEAN> 39
 -2.898439e+00 -2.173860e+00 -2.118774e+00 -7.400147e-01 -1.052399e+01 -1.400687e+01 -2.069731e+00 -3.489918e-01 2.044953e+00 -6.025948e-01 -2.293108e+00 -2.365409e+00 6.670040e+01 -4.211624e-01 7.510046e-01 5.980620e-01 5.504327e-01 4.137419e-01 2.581280e-01 5.548157e-03 -1.851875e-01 -3.080606e-01 -2.623757e-01 3.103557e-01 3.824103e-01 -1.178960e+00 5.321201e-03 -8.495231e-02 -2.146595e-01 -1.724606e-01 1.122548e-01 2.868197e-01 9.101409e-02 5.707825e-02 9.369943e-05 1.125992e-01 2.805085e-02 -8.532478e-02 -5.101786e-02
<VARIANCE> 39
 2.313414e+01 3.550739e+01 5.255067e+01 3.484243e+01 5.973594e+01 6.494749e+01 7.756763e+01 6.449399e+01 6.269184e+01 5.676243e+01 6.185587e+01 6.702930e+01 4.088238e+01 5.181355e-01 1.054016e+00 1.435606e+00 1.354449e+00 1.989746e+00 2.638111e+00 2.418690e+00 2.392776e+00 2.621032e+00 2.622921e+00 2.861972e+00 2.575456e+00 4.943622e-01 6.343311e-02 1.563178e-01 2.057141e-01 2.209182e-01 2.972896e-01 4.004138e-01 4.140600e-01 4.149796e-01 4.676867e-01 4.497915e-01 5.239080e-01 5.281323e-01 7.761327e-02
<GCONST> 1.126004e+02
<TRANSP> 5
 0.000000e+00 1.000000e+00 0.000000e+00 0.000000e+00 0.000000e+00
 0.000000e+00 8.223685e-01 1.776315e-01 0.000000e+00 0.000000e+00
 0.000000e+00 0.000000e+00 6.953992e-01 3.046008e-01 0.000000e+00
 0.000000e+00 0.000000e+00 0.000000e+00 6.780754e-01 3.219246e-01
 0.000000e+00 0.000000e+00 0.000000e+00 0.000000e+00 0.000000e+00
<ENDHMM>
~h "ai"
<BEGINHMM>
<NUMSTATES> 5
<STATE> 2
<MEAN> 39
 1.329575e-02 -6.163959e+00 -6.784855e+00 -4.962293e+00 -9.720273e+00 -1.263575e+01 -5.747120e+00 -4.141037e+00 4.933513e+00 1.082711e+00 -4.210944e+00 -5.167186e+00 7.445367e+01 -6.172240e-01 1.230223e-01 2.074270e+00 1.849963e+00 -1.099639e+00 -2.806607e+00 -9.059045e-01 1.121288e+00 5.320041e-01 -1.555526e+00 -5.650704e-01 9.608474e-01 -1.302838e-01 2.492401e-02 5.107304e-01 2.814524e-01 -2.365261e-01 -3.445180e-01 4.002391e-01 6.204699e-01 -2.418512e-01 -1.003238e+00 -4.350406e-01 4.287994e-01 4.767131e-01 -2.846619e-01
<VARIANCE> 39
 1.414561e+01 4.485540e+01 5.086874e+01 6.288783e+01 5.509767e+01 7.721698e+01 5.987972e+01 7.656480e+01 4.999636e+01 8.634298e+01 6.408866e+01 7.911037e+01 2.170205e+01 4.196686e-01 1.225986e+00 1.824470e+00 2.180172e+00 2.468781e+00 3.403195e+00 3.982659e+00 3.831849e+00 5.400397e+00 4.172493e+00 5.308689e+00 3.774142e+00 3.537166e-01 6.977146e-02 1.912211e-01 3.317078e-01 3.462757e-01 4.553094e-01 7.570677e-01 6.503683e-01 8.479649e-01 5.930109e-01 1.049330e+00 7.688949e-01 7.126604e-01 6.508850e-02
<GCONST> 1.216597e+02
<STATE> 3
<MEAN> 39
 -1.871773e+00 -2.829046e+00 1.959470e+00 -1.546475e+00 -1.581044e+01 -1.805812e+01 -5.776329e+00 -5.236667e+00 -1.582162e+00 -5.590722e+00 -4.048828e-01 -7.636804e-01 7.268491e+01 -3.430982e-01 9.494169e-01 1.217029e+00 6.615902e-01 -3.414660e-01 -3.278881e-02 2.955215e-01 -6.467794e-01 -1.119021e+00 -4.960361e-01 2.495245e-01 1.073705e-01 -6.795467e-01 9.141904e-02 4.160165e-02 -3.862919e-01 -2.184925e-01 4.441578e-01 4.802567e-01 1.507109e-02 -4.578744e-02 1.721588e-01 3.847547e-01 -1.269514e-01 -3.176948e-01 -1.357307e-01
<VARIANCE> 39
 1.346394e+01 3.866010e+01 6.540233e+01 6.163284e+01 6.678394e+01 7.059940e+01 5.455343e+01 6.767773e+01 6.558098e+01 6.725970e+01 6.395273e+01 5.887278e+01 1.727719e+01 3.172495e-01 8.561067e-01 1.714910e+00 1.299980e+00 2.193677e+00 2.324501e+00 2.181506e+00 3.231739e+00 3.544449e+00 2.791749e+00 3.298445e+00 2.476624e+00 4.104944e-01 5.513324e-02 1.366163e-01 2.162091e-01 2.278282e-01 3.685478e-01 4.977923e-01 4.242568e-01 5.624599e-01 5.525391e-01 6.535050e-01 6.432614e-01 4.880587e-01 6.128825e-02
<GCONST> 1.129662e+02
<STATE> 4
<MEAN> 39
 -4.369946e+00 3.118967e+00 4.815599e+00 1.820517e+00 -1.199467e+01 -1.402226e+01 -3.033432e+00 -8.025224e+00 -4.151446e+00 -3.598631e+00 -2.623099e+00 -2.293161e+00 6.657552e+01 -2.438690e-01 2.311313e-01 -1.282171e-01 1.833698e-01 9.839820e-01 7.918471e-01 1.045665e-01 3.665591e-01 1.712511e-01 3.290004e-01 6.264382e-02 -1.273925e-01 -9.755021e-01 2.245204e-02 -1.380962e-01 -2.749161e-01 -1.463511e-01 1.851912e-01 1.844785e-01 -6.216821e-02 1.466874e-01 1.700303e-01 1.562125e-01 1.207139e-01 4.728470e-02 -1.938413e-02
<VARIANCE> 39
 2.392225e+01 5.337558e+01 6.449014e+01 5.004981e+01 5.759224e+01 6.403130e+01 6.484231e+01 5.397751e+01 7.375597e+01 5.820545e+01 4.268225e+01 5.424612e+01 3.656155e+01 5.246712e-01 1.232823e+00 1.975246e+00 1.525862e+00 2.547594e+00 2.606091e+00 2.478517e+00 2.646863e+00 3.092576e+00 2.947069e+00 2.917744e+00 2.516077e+00 7.304375e-01 7.947213e-02 1.851301e-01 2.331443e-01 2.305300e-01 3.588354e-01 3.885879e-01 4.719737e-01 4.645642e-01 5.507288e-01 4.284811e-01 5.044676e-01 4.427598e-01 7.976149e-02
<GCONST> 1.152222e+02
<TRANSP> 5
 0.000000e+00 1.000000e+00 0.000000e+00 0.000000e+00 0.000000e+00
 0.000000e+00 6.798131e-01 3.201869e-01 0.000000e+00 0.000000e+00
 0.000000e+00 0.000000e+00 6.677271e-01 3.322729e-01 0.000000e+00
 0.000000e+00 0.000000e+00 0.000000e+00 6.565863e-01 3.434137e-01
 0.000000e+00 0.000000e+00 0.000000e+00 0.000000e+00 0.000000e+00
<ENDHMM>
~h "ao"
<BEGINHMM>
<NUMSTATES> 5
<STATE> 2
<MEAN> 39
 8.666983e-01 -4.622933e+00 -1.077404e+01 -1.811772e+01 -1.388514e+01 7.532203e-01 8.229203e+00 4.771844e-01 -5.505693e+00 -6.516130e+00 -4.054808e+00 -4.363822e+00 7.592995e+01 1.525681e-01 3.606654e-01 1.182124e-01 -2.708845e-01 -6.720187e-01 -1.698106e-01 -3.125073e-02 -1.710006e-01 2.066397e-01 1.794907e-01 -1.768059e-01 9.290785e-02 -3.627794e-01 5.340881e-03 1.782907e-01 5.996967e-02 1.625397e-02 -2.517907e-02 -1.254483e-01 -8.155729e-02 -5.681304e-02 5.855101e-02 4.804614e-02 -6.769626e-02 3.009491e-03 -1.146051e-01
<VARIANCE> 39
 1.356682e+01 3.820461e+01 2.250352e+01 2.180768e+01 7.212695e+01 7.457927e+01 5.015769e+01 1.009148e+02 5.146404e+01 7.530688e+01 3.588189e+01 4.759922e+01 1.995800e+01 5.150133e-01 1.153755e+00 5.499610e-01 8.614439e-01 1.434716e+00 1.853862e+00 1.720703e+00 2.203773e+00 2.234155e+00 2.502334e+00 1.972560e+00 1.969907e+00 6.523854e-01 9.169969e-02 1.276083e-01 1.024034e-01 1.476787e-01 2.639532e-01 3.780569e-01 2.985879e-01 3.627266e-01 4.143910e-01 4.115299e-01 3.137167e-01 3.108980e-01 6.381842e-02
<GCONST> 1.036222e+02
<STATE> 3
<MEAN> 39
 4.333236e+00 1.225587e-01 -9.643999e+00 -2.093259e+01 -1.640906e+01 2.467238e+00 6.436063e+00 -5.530362e+00 -1.759148e+00 -4.527895e+00 -5.212098e+00 -2.281857e+00 7.104437e+01 2.540628e-02 6.609475e-01 2.487721e-01 2.171303e-02 -3.918356e-01 -6.443984e-01 -2.723128e-01 3.330145e-01 1.109459e-01 7.410726e-03 -1.277018e-01 -6.127669e-02 -4.241473e-01 -3.016524e-02 4.703241e-02 2.427696e-02 8.509415e-02 5.994034e-02 -7.158450e-02 -5.480246e-02 2.432289e-02 6.573508e-05 -1.521286e-02 1.508415e-02 -4.253759e-02 -3.523758e-02
<VARIANCE> 39
 6.564023e+00 3.712963e+01 5.287189e+01 2.694440e+01 8.399458e+01 6.084420e+01 3.812274e+01 8.248084e+01 6.654414e+01 5.958147e+01 4.670687e+01 4.490828e+01 1.287694e+01 9.695640e-02 4.510065e-01 4.483530e-01 6.272275e-01 7.306237e-01 1.009324e+00 1.075415e+00 1.147712e+00 1.277568e+00 1.006931e+00 1.113112e+00 1.159120e+00 1.368071e-01 1.758865e-02 4.663917e-02 6.457911e-02 8.925774e-02 1.271108e-01 1.503051e-01 1.496385e-01 1.764875e-01 2.098803e-01 1.708674e-01 2.064254e-01 1.882566e-01 9.913797e-03
<GCONST> 8.249808e+01
<STATE> 4
<MEAN> 39
 4.253960e-01 8.193003e+00 -4.800765e+00 -1.374332e+01 -1.614861e+01 -7.005305e+00 1.550902e+00 -1.874037e-01 -1.201304e+00 -1.749237e+00 -4.733071e+00 -3.951762e+00 6.157002e+01 -6.736401e-01 -7.180539e-02 2.439042e-01 1.064216e+00 1.077141e+00 4.751932e-02 -3.383567e-01 1.117169e-01 1.990620e-01 9.090979e-02 3.620622e-01 2.500349e-01 -8.294693e-01 -5.589378e-02 -1.545347e-01 -3.322527e-02 2.812549e-02 1.151541e-01 1.391109e-01 7.013256e-02 8.789444e-03 2.182468e-02 3.735102e-02 7.764441e-02 9.891777e-02 2.425135e-02
<VARIANCE> 39
 1.250332e+01 2.322317e+01 2.948784e+01 3.655642e+01 5.686395e+01 3.497563e+01 4.716330e+01 3.619205e+01 4.589215e+01 5.316977e+01 3.332843e+01 3.859701e+01 3.225751e+01 3.465373e-01 8.531820e-01 7.391093e-01 1.190712e+00 1.613492e+00 1.781411e+00 1.631864e+00 2.034303e+00 2.323059e+00 1.992983e+00 1.940837e+00 2.111897e+00 2.342113e-01 4.647865e-02 1.003504e-01 1.170964e-01 1.962292e-01 2.347127e-01 2.601912e-01 2.613791e-01 3.437777e-01 4.129357e-01 3.735024e-01 3.160181e-01 3.527207e-01 2.613977e-02
<GCONST> 9.814916e+01
<TRANSP> 5
 0.000000e+00 1.000000e+00 0.000000e+00 0.000000e+00 0.000000e+00
 0.000000e+00 8.363987e-01 1.636013e-01 0.000000e+00 0.000000e+00
 0.000000e+00 0.000000e+00 9.085714e-01 9.142868e-02 0.000000e+00
 0.000000e+00 0.000000e+00 0.000000e+00 9.112999e-01 8.870003e-02
 0.000000e+00 0.000000e+00 0.000000e+00 0.000000e+00 0.000000e+00
<ENDHMM>
~h "au"
<BEGINHMM>
<NUMSTATES> 5
<STATE> 2
<MEAN> 39
 1.964647e+00 -4.154831e+00 -9.666897e+00 -8.479348e+00 -1.115118e+01 -9.256943e+00 -6.019136e+00 -5.724589e+00 2.018316e+00 3.761593e-01 -8.987352e-02 -6.382213e+00 7.364082e+01 1.891526e-02 7.690914e-01 4.814662e-01 6.680186e-01 -2.449052e-01 -7.650778e-01 -7.951836e-01 -7.024587e-01 -2.535315e-01 -2.689340e-01 4.916134e-01 5.534008e-01 -4.704019e-01 -1.795067e-02 2.457454e-01 1.098583e-01 7.692580e-02 1.440177e-01 1.070353e-01 2.209968e-03 -1.662225e-01 -2.868973e-01 -2.042449e-01 -2.845367e-02 1.141316e-01 -1.715575e-01
<VARIANCE> 39
 9.464529e+00 2.842760e+01 2.606946e+01 5.446296e+01 4.475059e+01 7.571773e+01 7.237936e+01 5.095357e+01 6.289157e+01 7.971204e+01 6.266309e+01 7.434081e+01 1.699802e+01 2.251703e-01 6.844337e-01 6.628055e-01 9.688858e-01 1.283666e+00 2.027168e+00 1.730311e+00 2.529845e+00 2.409880e+00 2.274760e+00 2.065182e+00 2.064130e+00 2.315441e-01 4.869020e-02 1.054399e-01 1.165439e-01 1.678150e-01 2.213035e-01 3.451974e-01 3.250617e-01 3.157382e-01 4.132906e-01 4.225503e-01 3.665719e-01 3.780366e-01 3.632056e-02
<GCONST> 1.013875e+02
<STATE> 3
<MEAN> 39
 2.756532e+00 3.523747e+00 -5.817770e+00 -6.310187e+00 -1.123358e+01 -7.844575e+00 -5.936768e+00 -1.357823e+01 -5.955613e+00 -7.003189e-01 3.593957e+00 1.514915e-01 6.882154e+01 7.722160e-02 1.394197e+00 5.814001e-01 4.687149e-01 3.163224e-01 3.785246e-01 2.003295e-01 -2.714294e-01 -1.156641e+00 -1.369527e+00 -5.424801e-01 3.310453e-01 -1.075861e+00 -6.163596e-02 -5.742091e-02 5.863224e-02 1.792633e-03 1.399183e-01 8.211307e-02 1.355379e-01 4.629618e-01 1.889849e-01 -2.717916e-02 -2.486857e-01 -2.354066e-01 -7.183938e-02
<VARIANCE> 39
 8.888122e+00 2.944891e+01 2.326745e+01 5.555279e+01 4.538762e+01 6.141957e+01 7.479999e+01 7.052408e+01 7.650074e+01 7.844964e+01 4.624448e+01 5.891777e+01 1.923847e+01 2.716501e-01 7.342768e-01 7.878404e-01 1.356230e+00 1.628736e+00 2.115714e+00 2.275697e+00 3.262753e+00 2.653485e+00 3.021209e+00 2.836445e+00 2.637424e+00 2.871838e-01 4.318915e-02 1.062103e-01 1.385820e-01 2.228141e-01 2.980051e-01 3.649080e-01 4.222330e-01 4.614613e-01 4.900735e-01 5.298677e-01 4.538550e-01 4.257451e-01 3.779037e-02
<GCONST> 1.060375e+02
<STATE> 4
<MEAN> 39
 5.740368e-01 9.014682e+00 -1.704974e+00 -2.678973e+00 -6.984181e+00 -6.433933e+00 -3.974069e+00 -9.166214e+00 -6.978344e+00 -5.834672e+00 -1.620534e+00 -1.565186e+00 6.248920e+01 -4.608538e-01 9.797042e-02 4.926546e-01 5.831036e-01 7.959562e-01 3.272153e-01 2.526662e-01 6.250452e-01 1.735853e-01 -2.696299e-01 -3.746731e-01 -1.721596e-01 -7.772377e-01 -6.189186e-02 -2.311564e-01 -1.200593e-01 -7.935491e-02 1.895627e-02 4.101818e-02 3.833431e-02 4.460587e-03 1.137462e-01 1.941898e-01 1.269055e-01 8.589605e-02 9.242550e-02
<VARIANCE> 39
 1.135090e+01 3.082602e+01 2.348998e+01 3.691340e+01 3.864891e+01 4.396361e+01 5.202396e+01 4.092533e+01 4.961681e+01 4.990392e+01 4.236008e+01 4.337444e+01 3.100974e+01 4.149532e-01 9.750776e-01 9.941687e-01 1.337651e+00 1.652092e+00 1.966303e+00 2.192372e+00 2.632692e+00 2.622378e+00 2.915482e+00 2.268033e+00 2.411943e+00 3.715820e-01 5.228000e-02 1.161127e-01 1.457606e-01 1.967214e-01 2.658565e-01 3.062804e-01 3.194485e-01 4.057546e-01 4.026511e-01 4.357037e-01 3.558669e-01 3.712684e-01 3.651071e-02
<GCONST> 1.029391e+02
<TRANSP> 5
 0.000000e+00 1.000000e+00 0.000000e+00 0.000000e+00 0.000000e+00
 0.000000e+00 7.685459e-01 2.314541e-01 0.000000e+00 0.000000e+00
 0.000000e+00 0.000000e+00 7.305970e-01 2.694030e-01 0.000000e+00
 0.000000e+00 0.000000e+00 0.000000e+00 7.779577e-01 2.220422e-01
 0.000000e+00 0.000000e+00 0.000000e+00 0.000000e+00 0.000000e+00
<ENDHMM>
~h "ee"
<BEGINHMM>
<NUMSTATES> 5
<STATE> 2
<MEAN> 39
 -3.838145e+00 -6.943995e-01 6.668722e+00 -3.244663e+00 -2.146079e+01 -1.966808e+01 -4.728482e+00 -1.022084e+01 -7.914583e+00 -5.818640e+00 2.418666e+00 -1.740302e+00 7.546149e+01 -4.120070e-03 -5.516524e-02 -2.508857e-02 -3.410521e-02 2.280700e-02 -1.497570e-02 3.342628e-02 9.783458e-02 7.264759e-02 -3.186157e-02 2.884989e-02 -1.762055e-02 -9.359708e-02 2.333600e-03 3.634215e-02 -2.217998e-02 1.330438e-02 6.072208e-02 2.841069e-02 1.177516e-02 3.506804e-02 1.716432e-02 -2.692086e-02 -3.365457e-02 -1.141512e-02 -4.876134e-02
<VARIANCE> 39
 8.646802e+00 2.457978e+01 4.494104e+01 5.421682e+01 4.623829e+01 5.577063e+01 3.872564e+01 5.074100e+01 3.075652e+01 4.912798e+01 6.649362e+01 8.830783e+01 8.942934e+00 8.612454e-02 2.981483e-01 3.447670e-01 4.222372e-01 6.451303e-01 7.193192e-01 7.026597e-01 7.893901e-01 7.776622e-01 8.915455e-01 9.004610e-01 8.531820e-01 1.036196e-01 1.722977e-02 5.377445e-02 6.583881e-02 7.781369e-02 1.368366e-01 1.364874e-01 1.452365e-01 1.453978e-01 1.513250e-01 1.726999e-01 1.729025e-01 1.607531e-01 1.894289e-02
<GCONST> 7.732903e+01
<STATE> 3
<MEAN> 39
 -3.194667e+00 -5.209846e-01 5.582170e+00 -1.048848e+00 -1.974700e+01 -2.140015e+01 -6.413912e+00 -5.561244e+00 -5.466735e+00 -7.174730e+00 -6.256487e-01 8.968676e-01 7.193355e+01 4.684890e-02 1.940926e-01 -2.341139e-01 1.067446e-01 3.027096e-01 1.731277e-01 1.737137e-01 2.602594e-01 2.559465e-01 -2.292583e-01 -3.462103e-01 -2.125622e-01 -6.163038e-01 1.169711e-03 9.739763e-02 -2.180927e-02 8.998360e-02 1.858352e-01 1.103443e-01 1.419232e-02 -4.395095e-03 -4.463122e-02 3.054852e-02 -8.738002e-02 -5.129249e-02 -1.351864e-01
<VARIANCE> 39
 9.774908e+00 2.132188e+01 3.788601e+01 4.160534e+01 8.250261e+01 5.351800e+01 3.460994e+01 4.892371e+01 5.407215e+01 4.657589e+01 5.566789e+01 6.588277e+01 1.581104e+01 2.516013e-01 5.831950e-01 6.008708e-01 1.107798e+00 1.285757e+00 1.143865e+00 1.783228e+00 1.284219e+00 1.868477e+00 1.716405e+00 2.032072e+00 2.025917e+00 2.397854e-01 4.449707e-02 1.177258e-01 1.099090e-01 2.163576e-01 2.656066e-01 2.289926e-01 3.048325e-01 2.783027e-01 3.479020e-01 3.459195e-01 3.578337e-01 3.160172e-01 4.355017e-02
<GCONST> 9.735844e+01
<STATE> 4
<MEAN> 39
 -4.594687e+00 1.025796e+00 4.380052e+00 -5.199532e-02 -1.474588e+01 -1.451030e+01 -2.474534e+00 -4.747486e+00 -3.982405e+00 -6.610552e+00 -1.226795e+00 -1.793601e+00 6.492924e+01 -1.581410e-01 3.790842e-01 -5.631835e-01 3.785528e-01 1.576907e+00 1.147427e+00 1.643520e-01 4.142870e-01 1.511409e-01 3.759903e-01 -1.017480e-01 2.013575e-01 -1.355041e+00 -4.074740e-02 -4.842264e-02 -5.929228e-02 -6.680286e-02 1.121020e-01 5.752590e-02 -2.646482e-02 1.336184e-03 -2.011920e-02 8.405447e-02 1.273585e-01 5.083202e-02 5.358906e-02
<VARIANCE> 39
 1.184385e+01 2.200523e+01 3.298704e+01 3.338141e+01 5.796394e+01 5.241012e+01 4.128947e+01 4.498228e+01 5.540622e+01 7.449503e+01 6.197755e+01 6.034618e+01 4.069022e+01 5.543566e-01 1.227668e+00 9.258806e-01 1.319493e+00 2.047300e+00 2.094514e+00 2.369081e+00 2.726366e+00 3.253641e+00 3.316121e+00 3.425645e+00 2.951766e+00 5.735063e-01 5.587427e-02 1.618444e-01 1.385176e-01 1.895300e-01 2.677215e-01 3.407079e-01 3.875942e-01 4.373979e-01 6.240177e-01 5.092717e-01 5.359210e-01 5.209847e-01 8.871146e-02
<GCONST> 1.099620e+02
<TRANSP> 5
 0.000000e+00 1.000000e+00 0.000000e+00 0.000000e+00 0.000000e+00
 0.000000e+00 9.197477e-01 8.025230e-02 0.000000e+00 0.000000e+00
 0.000000e+00 0.000000e+00 8.094229e-01 1.905771e-01 0.000000e+00
 0.000000e+00 0.000000e+00 0.000000e+00 8.279178e-01 1.720822e-01
 0.000000e+00 0.000000e+00 0.000000e+00 0.000000e+00 0.000000e+00
<ENDHMM>
~h "ei"
<BEGINHMM>
<NUMSTATES> 5
<STATE> 2
<MEAN> 39
 -2.517091e+00 -4.489652e+00 1.460079e+00 -4.255686e+00 -1.804402e+01 -1.973912e+01 -3.835478e+00 -5.662471e-01 -2.007685e+00 -7.870300e+00 7.855779e-01 -2.883848e+00 7.594064e+01 -1.201280e-01 5.041894e-01 7.340893e-01 2.460659e-01 -3.864745e-01 -1.858909e-01 -5.967002e-03 -8.407946e-01 -7.837065e-01 1.648247e-02 5.720179e-01 2.478793e-01 -3.200001e-01 1.571000e-04 1.212509e-01 3.945293e-03 7.549925e-02 7.790412e-02 9.397608e-02 5.179550e-06 -1.352222e-01 -8.736547e-02 1.903074e-02 -9.496579e-02 -6.666951e-02 -9.779881e-02
<VARIANCE> 39
 7.359157e+00 2.533536e+01 4.112580e+01 5.036793e+01 5.295366e+01 7.341756e+01 4.702639e+01 5.115566e+01 4.458354e+01 6.909601e+01 5.098183e+01 6.383459e+01 8.897665e+00 1.383673e-01 4.267944e-01 5.938396e-01 6.823258e-01 8.662907e-01 9.762477e-01 1.036470e+00 1.687574e+00 1.218035e+00 1.589088e+00 1.192114e+00 1.393066e+00 1.942801e-01 2.520145e-02 7.019936e-02 9.195874e-02 1.195662e-01 1.378683e-01 1.556021e-01 2.067464e-01 2.442661e-01 1.968757e-01 2.456280e-01 2.205355e-01 2.331096e-01 2.672097e-02
<GCONST> 8.779234e+01
<STATE> 3
<MEAN> 39
 -3.380948e+00 2.912634e+00 8.939895e+00 -1.398483e+00 -1.886424e+01 -1.583445e+01 -2.667070e+00 -1.084727e+01 -9.346566e+00 -4.672964e+00 1.186452e+00 -3.113865e+00 7.039759e+01 -1.438565e-01 7.745184e-01 3.687734e-01 3.040099e-01 4.590570e-01 6.346688e-01 1.530395e-01 -3.962984e-01 -3.075920e-01 -9.480304e-02 -5.139037e-01 -4.724700e-01 -7.282863e-01 -1.435017e-02 -3.515229e-02 -7.482339e-02 8.652932e-03 1.547422e-01 5.233563e-02 4.551272e-03 1.499357e-01 1.134347e-01 -5.884375e-02 -4.366780e-02 2.616081e-02 -3.118837e-02
<VARIANCE> 39
 7.073052e+00 2.353468e+01 3.288131e+01 5.242194e+01 4.980737e+01 7.485626e+01 3.042092e+01 4.396909e+01 3.857895e+01 6.550120e+01 4.779456e+01 4.929328e+01 1.321162e+01 1.369288e-01 4.189329e-01 6.509363e-01 8.772068e-01 9.513666e-01 1.119212e+00 1.195987e+00 1.558018e+00 1.027322e+00 1.313293e+00 1.305398e+00 1.289987e+00 1.784867e-01 2.263253e-02 5.120016e-02 9.262203e-02 1.424686e-01 1.687926e-01 1.920206e-01 2.073634e-01 2.423720e-01 1.682966e-01 2.161416e-01 2.205863e-01 2.379806e-01 1.464219e-02
<GCONST> 8.621822e+01
<STATE> 4
<MEAN> 39
 -6.698788e+00 6.668422e+00 9.748019e+00 2.834370e+00 -1.185642e+01 -9.345413e+00 -1.670518e+00 -9.740491e+00 -8.239210e+00 -6.409966e+00 -2.644186e+00 -3.181765e+00 6.278990e+01 -3.333606e-01 -1.443294e-01 -6.754149e-01 1.670410e-01 1.248797e+00 9.105464e-01 2.142454e-01 4.660521e-01 2.154879e-01 2.537796e-01 4.655095e-02 2.517205e-01 -9.899244e-01 -3.178681e-02 -1.571249e-01 -1.528081e-01 -1.085304e-01 -1.445995e-04 1.174820e-02 5.182939e-02 1.578512e-01 1.149562e-01 1.471665e-01 1.030248e-01 7.043771e-02 1.893855e-02
<VARIANCE> 39
 1.150465e+01 2.979334e+01 4.926786e+01 2.671834e+01 7.941150e+01 5.685543e+01 4.003589e+01 4.320874e+01 4.953741e+01 4.670922e+01 2.972471e+01 5.291982e+01 3.026284e+01 3.383076e-01 9.568561e-01 1.354613e+00 1.070356e+00 2.023549e+00 1.670419e+00 1.868333e+00 2.608927e+00 2.149159e+00 2.168700e+00 1.894233e+00 2.166659e+00 3.528075e-01 5.747474e-02 1.266122e-01 1.665264e-01 1.681138e-01 3.466014e-01 3.114344e-01 3.545982e-01 4.204341e-01 3.325731e-01 3.473269e-01 3.153265e-01 3.674064e-01 4.685016e-02
<GCONST> 1.030373e+02
<TRANSP> 5
 0.000000e+00 1.000000e+00 0.000000e+00 0.000000e+00 0.000000e+00
 0.000000e+00 8.721218e-01 1.278782e-01 0.000000e+00 0.000000e+00
 0.000000e+00 0.000000e+00 8.770109e-01 1.229892e-01 0.000000e+00
 0.000000e+00 0.000000e+00 0.000000e+00 8.922813e-01 1.077187e-01
 0.000000e+00 0.000000e+00 0.000000e+00 0.000000e+00 0.000000e+00
<ENDHMM>
~h "ii"
<BEGINHMM>
<NUMSTATES> 5
<STATE> 2
<MEAN> 39
 -4.126019e+00 3.017940e+00 8.828827e+00 -2.601713e+00 -1.569776e+01 -1.337276e+01 -5.097465e+00 -1.351124e+01 -1.055429e+01 -8.338030e+00 -1.832424e+00 -5.132335e+00 7.140056e+01 2.201399e-01 3.504401e-01 -1.480293e-01 -4.711681e-02 4.792634e-01 5.316282e-01 1.773279e-01 4.629716e-02 -1.277904e-01 -1.187787e-02 -1.257935e-02 -1.654722e-02 -5.090948e-01 -8.456250e-02 4.319286e-02 -1.885216e-02 5.056424e-02 1.210836e-01 6.013460e-02 9.526781e-02 8.659813e-02 2.233607e-02 -4.237965e-02 -3.129338e-02 -2.117885e-03 -3.858161e-02
<VARIANCE> 39
 1.289423e+01 2.109181e+01 4.340879e+01 7.209112e+01 5.379605e+01 7.195959e+01 4.755992e+01 5.784665e+01 3.915009e+01 4.488895e+01 4.192264e+01 7.300301e+01 1.969645e+01 3.359495e-01 6.294495e-01 7.825618e-01 1.111322e+00 1.773527e+00 1.740350e+00 1.692527e+00 1.446542e+00 1.360134e+00 1.311222e+00 1.426751e+00 1.397588e+00 3.986087e-01 6.907438e-02 8.910252e-02 1.292954e-01 1.675453e-01 2.738717e-01 2.668312e-01 2.685857e-01 2.541553e-01 2.316268e-01 2.587577e-01 2.697603e-01 2.430709e-01 5.342992e-02
<GCONST> 9.797713e+01
<STATE> 3
<MEAN> 39
 -4.751611e+00 8.795766e+00 1.034678e+01 2.337225e-01 -1.024149e+01 -1.191098e+01 -1.172783e+00 -1.148961e+01 -9.679009e+00 -6.901386e+00 -3.603076e+00 -3.562700e+00 6.762357e+01 4.782322e-03 2.433486e-01 -1.678158e-01 5.458567e-02 5.345750e-01 3.420720e-01 1.690084e-01 1.777526e-01 -3.078138e-03 -3.525943e-02 -3.668345e-02 1.206562e-01 -4.920454e-01 -4.956458e-02 -1.128590e-01 -5.505902e-02 2.563445e-02 -5.187002e-02 -3.097838e-02 9.005830e-03 2.126564e-02 2.963432e-02 -8.658646e-03 -1.737987e-02 1.972800e-02 4.972941e-02
<VARIANCE> 39
 2.103159e+01 2.375726e+01 7.935089e+01 2.819856e+01 4.630888e+01 4.618912e+01 3.390206e+01 4.305926e+01 3.593631e+01 3.774089e+01 3.765179e+01 4.132102e+01 1.407628e+01 2.205461e-01 5.343224e-01 6.610805e-01 8.123308e-01 1.076883e+00 1.431949e+00 1.375220e+00 1.458554e+00 1.548440e+00 1.310019e+00 1.471245e+00 1.436757e+00 2.722052e-01 3.226045e-02 7.347371e-02 1.052629e-01 1.143720e-01 2.334841e-01 2.257017e-01 2.287647e-01 2.371535e-01 2.471295e-01 2.429327e-01 2.576807e-01 2.405273e-01 6.114637e-02
<GCONST> 9.157890e+01
<STATE> 4
<MEAN> 39
 -6.116992e+00 7.198591e+00 7.262243e+00 2.728806e+00 -5.915396e+00 -6.974540e+00 -1.420264e+00 -9.714540e+00 -8.423481e+00 -6.831868e+00 -3.524192e+00 -3.392761e+00 6.084866e+01 -1.154373e-01 -4.699394e-01 -1.032435e+00 -1.380490e-02 8.581931e-01 8.876856e-01 4.481193e-01 7.004125e-01 3.117513e-01 2.308015e-01 -4.469350e-02 2.487361e-01 -6.405161e-01 -1.161396e-02 -1.851826e-01 -1.750778e-01 -2.116134e-01 -2.114450e-01 1.587621e-02 5.394499e-02 8.705068e-02 1.942047e-01 1.694168e-01 8.503304e-02 8.944753e-03 1.667239e-01
<VARIANCE> 39
 2.871471e+01 2.891025e+01 5.200335e+01 2.617111e+01 3.385796e+01 4.834649e+01 5.737798e+01 4.211069e+01 3.786483e+01 4.453821e+01 2.961340e+01 3.932722e+01 2.959458e+01 5.243028e-01 8.375982e-01 9.609779e-01 1.080679e+00 1.723985e+00 1.507991e+00 2.008883e+00 2.342021e+00 2.685781e+00 2.443705e+00 2.295424e+00 2.198506e+00 3.631169e-01 7.323895e-02 1.630765e-01 2.030485e-01 2.210915e-01 3.143085e-01 2.984140e-01 4.219141e-01 3.935200e-01 4.693512e-01 4.066495e-01 4.720151e-01 4.134926e-01 9.215793e-02
<GCONST> 1.055219e+02
<TRANSP> 5
 0.000000e+00 1.000000e+00 0.000000e+00 0.000000e+00 0.000000e+00
 0.000000e+00 7.547589e-01 2.452411e-01 0.000000e+00 0.000000e+00
 0.000000e+00 0.000000e+00 7.794970e-01 2.205030e-01 0.000000e+00
 0.000000e+00 0.000000e+00 0.000000e+00 6.761717e-01 3.238283e-01
 0.000000e+00 0.000000e+00 0.000000e+00 0.000000e+00 0.000000e+00
<ENDHMM>
~h "oe"
<BEGINHMM>
<NUMSTATES> 5
<STATE> 2
<MEAN> 39
 1.562586e+00 -2.871262e+00 -7.035692e+00 -9.065000e+00 -1.109861e+01 -1.108889e+01 -1.054376e+01 -1.386167e+01 -1.703884e+00 2.243321e+00 3.051410e+00 -4.900460e-01 7.415900e+01 -6.975801e-01 -1.174419e+00 1.112301e+00 2.504006e+00 5.586907e-01 -2.595947e+00 -2.023725e+00 1.060061e+00 2.261818e+00 4.204449e-01 -8.795896e-01 -1.119776e+00 3.323371e-01 -5.529733e-02 3.502216e-01 4.454980e-01 -1.492203e-02 -5.296008e-01 -2.958632e-01 6.702908e-01 7.444666e-01 -2.377605e-01 -9.553166e-01 -5.790383e-01 3.315572e-01 -2.368482e-01
<VARIANCE> 39
 1.127279e+01 2.638765e+01 4.994814e+01 5.658953e+01 5.079398e+01 6.737485e+01 4.234219e+01 5.741407e+01 6.866048e+01 6.118386e+01 6.096016e+01 7.339646e+01 1.368498e+01 2.480393e-01 1.022254e+00 1.504755e+00 1.921488e+00 3.260415e+00 3.129072e+00 4.171011e+00 5.003140e+00 3.718518e+00 6.397645e+00 4.251926e+00 3.838499e+00 3.847357e-01 5.857065e-02 1.325621e-01 2.115864e-01 4.226952e-01 4.176841e-01 7.826515e-01 7.042727e-01 7.523538e-01 1.298282e+00 5.801538e-01 9.487858e-01 1.049070e+00 4.391743e-02
<GCONST> 1.182366e+02
<STATE> 3
<MEAN> 39
 -9.972060e-01 -3.488970e+00 4.388869e-01 -1.832995e+00 -1.470099e+01 -2.109517e+01 -9.903326e+00 -4.954262e+00 -7.322490e-01 -5.119708e+00 -9.562930e-01 4.239546e-01 7.246336e+01 -3.763083e-01 7.088311e-01 8.530925e-01 5.771918e-01 -5.821446e-02 -2.684465e-01 6.263208e-01 5.694022e-01 -6.701703e-01 -7.790315e-01 6.470804e-02 3.667981e-01 -9.363776e-01 1.120559e-02 1.838141e-01 -2.557294e-01 -2.172182e-01 2.683544e-01 5.457450e-01 6.970666e-02 -3.136120e-01 -7.985032e-02 3.730969e-01 2.543466e-01 -1.112260e-01 -2.294159e-01
<VARIANCE> 39
 1.036341e+01 2.319074e+01 4.997269e+01 4.978536e+01 5.475603e+01 5.052967e+01 4.023793e+01 4.202983e+01 5.001860e+01 6.707853e+01 6.074922e+01 4.077721e+01 1.523358e+01 3.756836e-01 8.945145e-01 1.403082e+00 1.442488e+00 2.270992e+00 2.944894e+00 2.518640e+00 2.749461e+00 2.289143e+00 2.940708e+00 2.923937e+00 2.352615e+00 9.091236e-01 7.139222e-02 1.519080e-01 2.253795e-01 2.709196e-01 3.174374e-01 4.426715e-01 4.163475e-01 4.652360e-01 5.174990e-01 4.765794e-01 5.017878e-01 3.867373e-01 7.443910e-02
<GCONST> 1.096227e+02
<STATE> 4
<MEAN> 39
 -5.200498e+00 2.354320e+00 1.599759e+00 1.183358e+00 -8.843109e+00 -1.449262e+01 -4.293488e+00 -3.831267e+00 -2.554525e+00 -3.266500e+00 7.355531e-01 1.098651e+00 6.273397e+01 -5.646360e-01 1.197191e-01 -2.745874e-01 1.015844e-01 7.877775e-01 1.201616e+00 5.673596e-01 2.772453e-01 2.683562e-01 4.167907e-01 1.134358e-01 1.479045e-01 -1.054568e+00 -2.098677e-02 -1.648451e-01 -7.575323e-02 -1.014805e-01 -1.792057e-02 2.447417e-02 -3.501698e-02 4.847085e-02 8.265077e-02 1.774511e-02 -5.184469e-02 3.252981e-02 1.794670e-01
<VARIANCE> 39
 1.531883e+01 2.097169e+01 2.792441e+01 2.836296e+01 3.548771e+01 4.743211e+01 6.010872e+01 5.192125e+01 3.950738e+01 4.660260e+01 3.638244e+01 3.579824e+01 3.564651e+01 4.171341e-01 7.886367e-01 9.839828e-01 1.033896e+00 1.677614e+00 2.072500e+00 1.737587e+00 1.998757e+00 2.093776e+00 2.216211e+00 2.149950e+00 1.917985e+00 6.629985e-01 6.706424e-02 1.326128e-01 1.613713e-01 1.768140e-01 2.948143e-01 2.993346e-01 3.061093e-01 3.656795e-01 3.720464e-01 3.727808e-01 3.939400e-01 3.859355e-01 1.055907e-01
<GCONST> 1.027954e+02
<TRANSP> 5
 0.000000e+00 1.000000e+00 0.000000e+00 0.000000e+00 0.000000e+00
 0.000000e+00 7.574290e-01 2.425710e-01 0.000000e+00 0.000000e+00
 0.000000e+00 0.000000e+00 8.403724e-01 1.596277e-01 0.000000e+00
 0.000000e+00 0.000000e+00 0.000000e+00 8.745062e-01 1.254938e-01
 0.000000e+00 0.000000e+00 0.000000e+00 0.000000e+00 0.000000e+00
<ENDHMM>
~h "oi"
<BEGINHMM>
<NUMSTATES> 5
<STATE> 2
<MEAN> 39
 2.803826e+00 4.370296e-01 -7.663788e+00 -1.072953e+01 -1.073281e+01 -7.657244e+00 -9.434474e+00 -1.634642e+01 -5.682491e+00 -5.044490e-01 4.560595e+00 1.913571e+00 7.269500e+01 -7.614169e-01 -1.260257e+00 9.580461e-01 3.479196e+00 1.339578e+00 -2.854817e+00 -2.661806e+00 2.341115e-01 1.924112e+00 6.499078e-01 -2.644806e-01 -1.875403e+00 2.996468e-01 -1.431679e-01 2.097597e-01 7.226925e-01 3.822572e-01 -6.744782e-01 -7.859431e-01 5.573243e-01 1.068778e+00 1.135738e-01 -1.018722e+00 -9.367698e-01 -3.923485e-02 -1.864854e-01
<VARIANCE> 39
 1.184411e+01 2.967664e+01 4.013707e+01 7.259728e+01 4.542447e+01 6.461105e+01 6.657446e+01 5.599524e+01 7.252416e+01 6.088568e+01 5.741904e+01 8.263371e+01 1.278683e+01 3.601615e-01 9.566188e-01 2.339854e+00 2.347802e+00 3.700862e+00 4.673153e+00 3.699629e+00 6.412886e+00 4.046655e+00 6.894888e+00 7.680552e+00 3.471658e+00 3.715580e-01 6.501641e-02 1.665967e-01 2.039611e-01 7.074743e-01 5.968237e-01 9.616855e-01 1.270684e+00 6.320838e-01 1.632021e+00 9.356871e-01 9.922655e-01 1.524029e+00 5.574125e-02
<GCONST> 1.241220e+02
<STATE> 3
<MEAN> 39
 -1.794077e+00 -1.196430e+00 2.159764e+00 1.884609e+00 -1.237442e+01 -1.908806e+01 -9.752169e+00 -9.327621e+00 -4.328815e+00 -8.974808e+00 -9.725275e-01 -9.091975e-01 7.176072e+01 -5.405022e-01 4.146833e-01 1.026856e+00 7.358649e-01 -1.018458e-01 5.276278e-03 1.226487e+00 6.255912e-01 -8.180516e-01 -8.869426e-01 4.144197e-02 1.250992e-01 -6.645868e-01 6.441469e-02 2.145449e-01 -3.496582e-01 -5.977991e-01 1.262894e-01 7.690079e-01 2.675037e-01 -3.327003e-01 -1.752278e-01 3.977828e-01 2.497746e-01 5.722742e-02 -1.239821e-01
<VARIANCE> 39
 1.228289e+01 2.599378e+01 6.365765e+01 5.684520e+01 8.418694e+01 7.355317e+01 4.533430e+01 4.609680e+01 7.487130e+01 6.104161e+01 6.869754e+01 7.131683e+01 1.655686e+01 4.525107e-01 1.120463e+00 4.492911e+00 3.795989e+00 5.247328e+00 6.695204e+00 3.930862e+00 3.620518e+00 4.324056e+00 6.204901e+00 4.196160e+00 3.646343e+00 3.282297e-01 6.631730e-02 2.180732e-01 3.172477e-01 4.462460e-01 7.981724e-01 7.929193e-01 9.727926e-01 7.039504e-01 9.816471e-01 9.050067e-01 8.108034e-01 7.431099e-01 4.363008e-02
<GCONST> 1.242349e+02
<STATE> 4
<MEAN> 39
 -4.122889e+00 4.082141e+00 5.767324e+00 1.890979e+00 -1.155235e+01 -1.365519e+01 -2.826781e+00 -9.773161e+00 -7.303075e+00 -7.323542e+00 -4.446205e-01 -2.380304e+00 6.483065e+01 -4.242005e-01 2.160122e-01 -1.383759e-01 -8.750096e-02 8.704961e-01 1.064660e+00 4.231730e-01 3.355920e-01 2.294070e-01 4.338170e-01 -1.661725e-01 9.586064e-02 -8.813432e-01 1.521816e-02 -1.536551e-01 -1.905946e-01 -4.124508e-02 1.207006e-01 2.797299e-02 -1.099462e-01 1.261821e-01 1.883769e-01 5.454145e-02 -4.165587e-03 5.557626e-02 2.809461e-02
<VARIANCE> 39
 1.616148e+01 2.093322e+01 3.663924e+01 3.220486e+01 5.486047e+01 4.901704e+01 4.825044e+01 5.091399e+01 3.538509e+01 4.889081e+01 3.317599e+01 4.491505e+01 2.589006e+01 3.130682e-01 1.087116e+00 1.443857e+00 1.274339e+00 1.928391e+00 1.973862e+00 2.244056e+00 2.860136e+00 2.109193e+00 1.805804e+00 1.845858e+00 2.296040e+00 3.309356e-01 6.044219e-02 1.269165e-01 1.873568e-01 1.656076e-01 2.855237e-01 3.287421e-01 3.937162e-01 4.491515e-01 3.272533e-01 3.737921e-01 3.397172e-01 3.919682e-01 3.685488e-02
<GCONST> 1.028380e+02
<TRANSP> 5
 0.000000e+00 1.000000e+00 0.000000e+00 0.000000e+00 0.000000e+00
 0.000000e+00 7.444041e-01 2.555959e-01 0.000000e+00 0.000000e+00
 0.000000e+00 0.000000e+00 8.363834e-01 1.636166e-01 0.000000e+00
 0.000000e+00 0.000000e+00 0.000000e+00 8.790964e-01 1.209035e-01
 0.000000e+00 0.000000e+00 0.000000e+00 0.000000e+00 0.000000e+00
<ENDHMM>
~h "oo"
<BEGINHMM>
<NUMSTATES> 5
<STATE> 2
<MEAN> 39
 3.933858e+00 1.114700e+01 -1.640144e+00 -1.414536e+01 -2.057123e+01 -1.322135e+01 -5.277340e+00 -6.419428e+00 -7.186744e-01 -3.947935e-02 -3.420037e+00 -3.178378e+00 6.646972e+01 -6.481688e-04 -8.419387e-02 -1.041189e-01 6.569607e-02 -5.567976e-02 1.822183e-01 3.784561e-01 3.689075e-02 -1.449743e-01 -6.635509e-02 9.569778e-02 1.508246e-02 -9.268724e-02 -1.580030e-01 -1.259537e-01 -1.276267e-01 1.448333e-01 3.639210e-01 1.720861e-01 1.447340e-01 1.049533e-01 -1.126355e-01 -1.430978e-01 6.294201e-02 1.232668e-01 -6.061339e-02
<VARIANCE> 39
 9.297690e+00 2.818049e+01 3.063102e+01 3.378299e+01 3.752201e+01 4.108794e+01 4.560154e+01 5.607767e+01 4.250944e+01 5.820068e+01 4.122826e+01 3.745533e+01 1.543661e+01 1.830249e-01 5.494313e-01 6.974246e-01 7.670113e-01 1.464459e+00 1.139418e+00 1.703496e+00 1.518324e+00 1.821304e+00 1.577996e+00 1.911013e+00 1.566825e+00 2.481142e-01 7.979911e-02 1.622308e-01 1.932305e-01 1.909216e-01 4.310389e-01 2.581602e-01 3.534527e-01 3.006917e-01 3.767378e-01 3.915265e-01 4.064508e-01 3.520243e-01 3.681028e-02
<GCONST> 9.732137e+01
<STATE> 3
<MEAN> 39
 3.571350e+00 1.074170e+01 -1.833383e+00 -1.301473e+01 -2.091933e+01 -9.744085e+00 -1.068675e+00 -5.324346e+00 -8.140129e-01 -8.833452e-01 -4.678183e+00 -4.344357e+00 6.485299e+01 -1.375736e-01 -7.442204e-01 -6.790408e-01 3.930592e-01 8.357526e-01 4.613512e-01 1.337432e+00 1.472175e-01 -1.377751e+00 -7.512444e-01 3.693636e-01 7.759277e-01 7.600726e-02 -9.204962e-02 -2.969381e-01 -1.961626e-01 4.313709e-01 7.512729e-01 3.212652e-02 -2.479216e-01 -2.360856e-01 -3.238709e-01 -4.133648e-02 3.898813e-01 3.950747e-01 -2.531995e-02
<VARIANCE> 39
 8.017548e+00 3.348804e+01 3.938689e+01 4.028185e+01 5.434715e+01 4.516745e+01 5.338557e+01 4.660109e+01 6.325397e+01 8.872662e+01 3.668545e+01 3.824264e+01 2.754306e+01 3.928335e-01 9.419434e-01 1.262271e+00 1.885047e+00 1.860425e+00 2.373602e+00 4.047390e+00 3.283799e+00 4.379691e+00 3.869703e+00 3.772006e+00 3.201205e+00 5.403064e-01 8.281672e-02 1.629809e-01 2.208088e-01 3.482702e-01 6.144323e-01 5.292431e-01 6.581835e-01 4.885085e-01 6.421412e-01 5.663382e-01 6.808410e-01 6.215056e-01 4.486219e-02
<GCONST> 1.140055e+02
<STATE> 4
<MEAN> 39
 3.713211e+00 6.975427e+00 -5.979379e+00 -1.156048e+01 -1.599394e+01 -8.063397e+00 1.808524e+00 -6.129644e+00 -8.356968e+00 -5.915390e+00 -1.557107e+00 8.864439e-02 6.641254e+01 -1.955878e-01 -1.433931e+00 -1.038897e+00 2.023773e+00 3.157846e+00 3.468335e-01 -8.762192e-01 -9.640234e-01 -1.224594e+00 2.346321e-01 1.735350e+00 1.426548e+00 -7.322215e-02 -1.454499e-01 -5.330165e-02 2.033061e-01 5.293018e-01 6.033267e-01 -1.828167e-01 -9.216808e-01 -1.950474e-01 7.421510e-01 5.709865e-01 -4.610394e-02 -4.815985e-01 -1.333462e-01
<VARIANCE> 39
 1.350867e+01 2.852952e+01 2.510379e+01 4.698478e+01 5.532079e+01 4.680469e+01 5.814395e+01 5.538844e+01 6.623152e+01 6.118815e+01 5.274113e+01 5.007720e+01 3.107065e+01 7.758384e-01 1.096556e+00 1.814505e+00 2.037846e+00 3.709662e+00 4.007184e+00 3.992222e+00 3.623014e+00 4.397743e+00 4.595351e+00 3.719180e+00 4.511663e+00 5.959647e-01 9.990706e-02 1.536554e-01 2.771358e-01 3.890936e-01 9.899408e-01 7.156234e-01 8.663329e-01 7.633606e-01 7.966366e-01 6.820517e-01 9.241542e-01 8.703953e-01 7.435592e-02
<GCONST> 1.215000e+02
<TRANSP> 5
 0.000000e+00 1.000000e+00 0.000000e+00 0.000000e+00 0.000000e+00
 0.000000e+00 7.538244e-01 2.461756e-01 0.000000e+00 0.000000e+00
 0.000000e+00 0.000000e+00 4.480991e-01 5.519009e-01 0.000000e+00
 0.000000e+00 0.000000e+00 0.000000e+00 5.859795e-01 4.140205e-01
 0.000000e+00 0.000000e+00 0.000000e+00 0.000000e+00 0.000000e+00
<ENDHMM>
~h "ou"
<BEGINHMM>
<NUMSTATES> 5
<STATE> 2
<MEAN> 39
 4.145361e+00 4.840358e+00 -6.247911e+00 -1.205485e+01 -1.486292e+01 -7.484783e+00 -4.910219e+00 -1.055477e+01 -7.634026e+00 -6.275813e+00 1.853641e+00 1.212672e+00 7.010091e+01 -6.082186e-02 3.877573e-01 3.582194e-01 6.349324e-01 1.789503e-01 -2.997779e-01 -3.147262e-01 -2.404468e-01 -3.322636e-01 -4.706495e-01 -1.576895e-01 -1.498071e-02 -3.527420e-01 -3.862805e-02 6.859802e-02 6.284925e-02 8.171448e-02 1.117981e-01 2.216056e-02 4.274679e-02 1.095526e-01 1.866760e-02 -4.472082e-02 -9.753180e-02 -6.968686e-02 -9.246305e-02
<VARIANCE> 39
 7.267572e+00 3.027102e+01 2.237327e+01 7.404018e+01 5.104102e+01 4.710516e+01 9.112563e+01 6.059992e+01 7.856682e+01 5.677252e+01 6.053964e+01 5.619737e+01 1.239700e+01 1.321829e-01 5.451161e-01 5.845855e-01 1.085736e+00 9.888021e-01 1.276239e+00 1.276793e+00 1.688349e+00 1.415157e+00 1.717414e+00 1.580012e+00 1.680354e+00 2.089819e-01 2.652590e-02 7.400846e-02 8.269746e-02 1.657979e-01 1.862745e-01 2.176026e-01 2.142314e-01 2.739677e-01 2.603014e-01 2.841521e-01 2.646658e-01 2.559847e-01 2.458325e-02
<GCONST> 9.258671e+01
<STATE> 3
<MEAN> 39
 2.682903e+00 1.262656e+01 -1.211887e+00 -8.327809e+00 -1.412089e+01 -8.352263e+00 -1.479450e+00 -9.343579e+00 -8.303740e+00 -8.025508e+00 -4.498806e+00 -1.855229e+00 6.482684e+01 -2.941656e-01 3.161224e-01 4.412090e-01 8.756050e-01 8.301077e-01 1.436100e-01 -3.490890e-01 2.815391e-01 6.841423e-03 -3.774762e-01 -2.950960e-01 -3.284963e-01 -7.543561e-01 -7.943363e-02 -1.186258e-01 -6.568396e-03 1.691666e-02 1.303420e-01 1.275290e-01 1.860093e-02 5.345822e-03 9.986433e-02 1.501312e-01 5.654471e-02 3.307206e-02 -3.411196e-02
<VARIANCE> 39
 4.878143e+00 3.249976e+01 2.462473e+01 4.042143e+01 4.707251e+01 5.794492e+01 7.358418e+01 5.886678e+01 4.554038e+01 6.430996e+01 4.579521e+01 5.549258e+01 2.262377e+01 2.055236e-01 5.416352e-01 7.398571e-01 1.089512e+00 1.324041e+00 1.531902e+00 1.900196e+00 1.960158e+00 1.786642e+00 2.058659e+00 2.058856e+00 1.794591e+00 2.693445e-01 3.242385e-02 7.083902e-02 1.075150e-01 1.672662e-01 1.992336e-01 2.487386e-01 3.145009e-01 2.840151e-01 3.107722e-01 3.583294e-01 3.416668e-01 3.368764e-01 2.453686e-02
<GCONST> 9.620261e+01
<STATE> 4
<MEAN> 39
 -1.967454e+00 8.983120e+00 1.820890e-01 -1.169597e+00 -4.228762e+00 -5.356814e+00 -4.351358e+00 -6.711975e+00 -5.809807e+00 -6.444178e+00 -3.534987e+00 -2.105793e+00 6.022824e+01 -7.341361e-01 -5.250178e-01 -7.544439e-02 2.747403e-01 7.753430e-01 5.304527e-01 3.235842e-01 6.160672e-01 5.554923e-01 5.812980e-01 1.869897e-01 1.447693e-01 -7.374244e-01 -2.901639e-02 -1.003639e-01 -1.018136e-01 -1.178909e-01 -7.001313e-02 1.653001e-02 1.099664e-01 4.858491e-02 6.903923e-02 7.607590e-02 5.850726e-02 5.998611e-02 5.939094e-02
<VARIANCE> 39
 9.983013e+00 3.072246e+01 1.882389e+01 2.618032e+01 2.523231e+01 2.816547e+01 3.418959e+01 4.151230e+01 2.974891e+01 3.935925e+01 3.752782e+01 4.071972e+01 3.352383e+01 3.984085e-01 8.039238e-01 7.431310e-01 1.268212e+00 1.512761e+00 1.399644e+00 2.026600e+00 2.039044e+00 1.741606e+00 2.127239e+00 2.049695e+00 1.879462e+00 3.823048e-01 5.454022e-02 1.152375e-01 1.412905e-01 2.130582e-01 2.389830e-01 2.440961e-01 3.318379e-01 3.340097e-01 2.951192e-01 3.528397e-01 3.820181e-01 3.535048e-01 5.171693e-02
<GCONST> 9.716470e+01
<TRANSP> 5
 0.000000e+00 1.000000e+00 0.000000e+00 0.000000e+00 0.000000e+00
 0.000000e+00 8.559024e-01 1.440976e-01 0.000000e+00 0.000000e+00
 0.000000e+00 0.000000e+00 8.421510e-01 1.578489e-01 0.000000e+00
