~o
<STREAMINFO> 1 39
<VECSIZE> 39<NULLD><MFCC_D_A_0><DIAGC>
~s "silst"
<MEAN> 39
 -7.185372e+00 -1.104829e-01 -4.515332e+00 -3.264755e+00 -4.720892e+00 -4.860684e+00 -1.904998e+00 -2.815473e+00 -2.946692e-01 -7.504218e-01 1.275684e+00 -5.701514e-01 6.360035e+01 1.444025e-01 -2.257870e-01 -2.666411e-01 -4.699138e-01 -4.967406e-02 1.424166e-01 1.381242e-01 2.446219e-02 -3.060545e-02 1.546741e-05 2.373131e-02 -6.355765e-02 4.002608e-01 2.273219e-01 9.194165e-02 7.158609e-02 -3.460474e-02 -9.801172e-02 3.889401e-03 8.841735e-02 -2.703802e-02 -1.212309e-01 -2.709815e-02 -1.160941e-01 -6.454483e-02 -1.959472e-02
<VARIANCE> 39
 4.346677e+01 4.472290e+01 5.821832e+01 6.455910e+01 6.798392e+01 7.729373e+01 5.832192e+01 5.459107e+01 5.889004e+01 5.542950e+01 4.437147e+01 4.407036e+01 5.615727e+01 3.150801e+00 2.860828e+00 3.256021e+00 4.059499e+00 4.722081e+00 4.684073e+00 4.006088e+00 4.051132e+00 4.307768e+00 4.181754e+00 3.647768e+00 3.382085e+00 4.128355e+00 4.837643e-01 4.711991e-01 5.302677e-01 6.676078e-01 7.886193e-01 7.549831e-01 7.103668e-01 7.416974e-01 7.688867e-01 7.442926e-01 6.663283e-01 6.212633e-01 5.154877e-01
<GCONST> 1.355176e+02
~h "N"
<BEGINHMM>
<NUMSTATES> 5
<STATE> 2
<MEAN> 39
 9.389999e-01 2.951718e+00 -1.533704e+00 -3.105203e+00 -8.280534e+00 -8.566051e+00 -2.179322e+00 -5.196146e+00 -3.845978e+00 -4.930509e+00 -2.667175e+00 -3.634885e+00 6.690907e+01 9.544707e-02 3.354374e-01 -8.448574e-02 -3.756751e-01 1.988177e-01 5.855455e-01 5.874660e-02 -3.755480e-01 -2.371769e-02 1.660538e-01 -1.780235e-01 -9.062821e-02 -2.661570e-01 -4.957762e-02 -2.907204e-01 -1.837007e-01 -1.023137e-01 -5.006127e-02 1.514293e-02 5.749219e-02 -2.820697e-02 2.397377e-01 2.255927e-01 -1.178607e-02 -1.161495e-01 2.224978e-01
<VARIANCE> 39
 1.206928e+01 5.614605e+01 3.722044e+01 5.237465e+01 5.736782e+01 6.767525e+01 6.872134e+01 7.503696e+01 5.940764e+01 7.119683e+01 5.945430e+01 5.675723e+01 3.632893e+01 6.146624e-01 1.932792e+00 1.838359e+00 2.033297e+00 2.699144e+00 3.062533e+00 2.777452e+00 3.142763e+00 3.698632e+00 3.301208e+00 3.060963e+00 2.449147e+00 1.121690e+00 9.795130e-02 2.261437e-01 2.553566e-01 3.143562e-01 4.459154e-01 5.372915e-01 5.137351e-01 5.368540e-01 6.846572e-01 5.626528e-01 5.843427e-01 4.513559e-01 1.245705e-01
<GCONST> 1.196323e+02
<STATE> 3
<MEAN> 39
 8.452001e-01 2.792522e+00 -2.215528e+00 -4.105985e+00 -7.722176e+00 -7.383399e+00 -1.766351e+00 -6.153621e+00 -3.147727e+00 -3.828097e+00 -3.041602e+00 -4.176806e+00 6.699991e+01 -8.784837e-02 -2.813587e-01 -3.741918e-01 -4.160297e-01 8.225298e-02 5.012987e-01 2.463618e-01 -2.692572e-01 4.041255e-01 4.657345e-01 -1.518064e-01 -3.335229e-01 1.709877e-01 -4.225698e-02 -1.996612e-01 -1.036338e-01 1.223447e-02 -2.408307e-02 -2.719322e-02 4.509347e-02 6.255854e-02 1.157795e-01 1.095285e-01 3.146559e-02 -9.833236e-02 1.169126e-01
<VARIANCE> 39
 1.302519e+01 5.742428e+01 4.831943e+01 5.646455e+01 6.270650e+01 7.454868e+01 6.714993e+01 7.516839e+01 6.655769e+01 7.258332e+01 6.207821e+01 6.040932e+01 3.666758e+01 5.413924e-01 1.855136e+00 1.918012e+00 2.002948e+00 2.679849e+00 3.145118e+00 2.729854e+00 3.144070e+00 4.051142e+00 3.060869e+00 3.359271e+00 2.549793e+00 9.444806e-01 8.657892e-02 2.599290e-01 2.620654e-01 3.165770e-01 4.166394e-01 5.021139e-01 5.249168e-01 5.597662e-01 6.553032e-01 5.492118e-01 5.515239e-01 4.764011e-01 1.323175e-01
<GCONST> 1.202831e+02
<STATE> 4
<MEAN> 39
 4.694645e-01 8.465481e-01 -3.348730e+00 -4.891031e+00 -7.052942e+00 -6.351127e+00 -4.562942e-01 -6.718118e+00 -1.135154e+00 -2.435179e+00 -3.512003e+00 -5.653320e+00 6.809626e+01 -9.624152e-02 -4.356005e-01 -4.810953e-01 -2.065304e-01 1.097449e-01 3.851173e-01 2.832770e-01 -3.920940e-02 3.994506e-01 5.018613e-01 -1.242630e-01 -4.563349e-01 1.392491e-01 -1.462291e-02 3.247683e-02 3.954292e-02 9.674279e-02 3.313473e-02 -5.588170e-02 -2.802042e-02 8.104263e-02 -6.480777e-02 -1.605094e-02 5.097407e-02 2.403389e-02 -7.328530e-02
<VARIANCE> 39
 1.482614e+01 5.723582e+01 8.010535e+01 6.573282e+01 8.164207e+01 8.704026e+01 7.025248e+01 8.410635e+01 7.893623e+01 8.184643e+01 7.059800e+01 6.638515e+01 3.962334e+01 4.134482e-01 1.705855e+00 1.863011e+00 1.875564e+00 2.219043e+00 2.858906e+00 2.633996e+00 2.798774e+00 3.683487e+00 2.839707e+00 3.147851e+00 2.902190e+00 7.702821e-01 7.358859e-02 2.424234e-01 2.519633e-01 2.906816e-01 3.874168e-01 4.727205e-01 4.720673e-01 5.235023e-01 5.704913e-01 5.026450e-01 4.898455e-01 4.667864e-01 1.051793e-01
<GCONST> 1.197814e+02
<TRANSP> 5
 0.000000e+00 1.000000e+00 0.000000e+00 0.000000e+00 0.000000e+00
 0.000000e+00 5.407199e-01 4.592801e-01 0.000000e+00 0.000000e+00
 0.000000e+00 0.000000e+00 5.407199e-01 4.592801e-01 0.000000e+00
 0.000000e+00 0.000000e+00 0.000000e+00 6.772907e-01 3.227093e-01
 0.000000e+00 0.000000e+00 0.000000e+00 0.000000e+00 0.000000e+00
<ENDHMM>
~h "a"
<BEGINHMM>
<NUMSTATES> 5
<STATE> 2
<MEAN> 39
 1.713747e+00 -3.283996e+00 -9.054811e+00 -8.462748e+00 -9.677181e+00 -6.077018e+00 -1.658638e+00 -6.514206e+00 -4.306259e-01 2.104307e+00 -1.315851e+00 -5.028874e+00 7.101016e+01 -1.470790e-01 3.455644e-01 4.894108e-01 8.008957e-01 5.655906e-01 -2.706107e-01 -6.500126e-01 2.584215e-01 3.167769e-01 3.746722e-01 7.079816e-02 -1.464575e-01 -6.884831e-01 -1.695233e-01 3.402167e-01 3.428329e-01 2.437722e-01 1.570401e-01 -4.962906e-03 -5.567357e-02 9.246981e-02 -2.020415e-01 -3.882091e-01 1.055886e-02 2.015168e-01 -3.717999e-01
<VARIANCE> 39
 1.516491e+01 4.723411e+01 4.238238e+01 5.535774e+01 5.991507e+01 7.953639e+01 6.963046e+01 6.781918e+01 6.137856e+01 6.059286e+01 7.436199e+01 8.504313e+01 2.998989e+01 8.766055e-01 2.248684e+00 2.311074e+00 3.001096e+00 2.924990e+00 3.726574e+00 3.716696e+00 3.328252e+00 4.021885e+00 3.874665e+00 3.650223e+00 3.846138e+00 1.430364e+00 1.707520e-01 3.130355e-01 3.331488e-01 4.312885e-01 5.522359e-01 6.416661e-01 6.712927e-01 6.123586e-01 7.573923e-01 6.899827e-01 7.529296e-01 7.220759e-01 2.278843e-01
<GCONST> 1.270478e+02
<STATE> 3
<MEAN> 39
 3.415267e-01 1.925831e-01 -6.531777e+00 -5.864100e+00 -6.845909e+00 -5.834982e+00 -2.671161e+00 -4.874351e+00 -4.375074e-01 1.493083e+00 -2.849703e-01 -4.070400e+00 6.665793e+01 -5.755200e-01 4.482520e-01 5.943402e-01 6.687742e-01 6.591195e-01 2.631768e-01 -6.868178e-02 4.353256e-01 -5.425142e-02 -1.827215e-01 2.066371e-01 2.949537e-01 -1.180241e+00 -1.072251e-01 -1.033669e-01 -3.158385e-02 -1.031631e-01 -1.152034e-01 4.712763e-02 1.485385e-01 -1.721049e-02 -6.880161e-02 -1.715816e-01 -3.132173e-02 1.262556e-01 7.486032e-02
<VARIANCE> 39
 1.678593e+01 3.551487e+01 3.796806e+01 4.704016e+01 5.266785e+01 6.273812e+01 5.454668e+01 5.594758e+01 5.195548e+01 5.500968e+01 6.060167e+01 6.660036e+01 3.445950e+01 9.657550e-01 1.595083e+00 2.130750e+00 2.391058e+00 2.663815e+00 3.046718e+00 3.108425e+00 3.023959e+00 3.400282e+00 3.302501e+00 3.002875e+00 2.773435e+00 1.387811e+00 1.484756e-01 2.582448e-01 3.335655e-01 3.822652e-01 4.800153e-01 5.028065e-01 5.428028e-01 5.301800e-01 5.947949e-01 5.894201e-01 5.227757e-01 5.529312e-01 2.596060e-01
<GCONST> 1.211177e+02
<STATE> 4
<MEAN> 39
 -1.728509e+00 6.432672e-01 -5.340281e+00 -4.813508e+00 -5.677617e+00 -4.553823e+00 -1.635969e+00 -3.443323e+00 -7.361271e-01 6.674223e-01 1.976391e-01 -2.489217e+00 6.444513e+01 -6.514178e-01 4.669629e-02 4.363115e-01 3.715212e-01 2.949295e-01 1.627848e-01 2.093695e-02 9.985691e-02 -1.219042e-01 -4.304131e-01 4.883856e-02 4.091247e-01 -4.694538e-01 -6.865293e-03 -1.138640e-01 -5.687279e-02 -1.713797e-01 -2.319531e-01 -7.448047e-02 3.742115e-02 -1.533223e-01 -2.878290e-02 -7.067943e-02 -4.604832e-02 -1.035304e-02 3.021744e-01
<VARIANCE> 39
 2.614609e+01 3.784249e+01 3.592346e+01 4.353517e+01 4.690279e+01 5.829871e+01 4.913619e+01 5.125162e+01 4.987026e+01 5.204374e+01 4.739235e+01 5.073100e+01 4.755952e+01 1.192112e+00 1.791124e+00 2.020477e+00 2.289320e+00 2.532769e+00 3.051876e+00 3.037528e+00 2.916937e+00 3.202538e+00 3.346029e+00 2.904616e+00 2.853903e+00 1.848517e+00 2.164108e-01 3.028879e-01 3.597126e-01 3.875518e-01 5.200765e-01 5.402716e-01 5.627195e-01 5.897310e-01 6.436458e-01 6.103398e-01 5.553485e-01 5.347679e-01 3.583509e-01
<GCONST> 1.225582e+02
<TRANSP> 5
 0.000000e+00 1.000000e+00 0.000000e+00 0.000000e+00 0.000000e+00
 0.000000e+00 4.267481e-01 5.732520e-01 0.000000e+00 0.000000e+00
 0.000000e+00 0.000000e+00 3.523030e-01 6.476970e-01 0.000000e+00
 0.000000e+00 0.000000e+00 0.000000e+00 2.298304e-01 7.701696e-01
 0.000000e+00 0.000000e+00 0.000000e+00 0.000000e+00 0.000000e+00
<ENDHMM>
~h "e"
<BEGINHMM>
<NUMSTATES> 5
<STATE> 2
<MEAN> 39
 -1.746669e+00 8.264837e-01 -1.384935e+00 1.093009e+00 -9.829691e+00 -1.265510e+01 -5.828903e+00 -5.111556e+00 -3.017755e+00 -1.522875e+00 3.376102e-02 -7.054623e-01 6.756715e+01 -2.822404e-02 1.033906e-01 1.230276e-01 2.272745e-01 -4.802400e-02 4.003378e-02 1.375102e-01 9.833950e-02 1.070581e-01 -1.239425e-01 -1.303205e-01 1.389267e-01 -1.883427e-01 -3.006686e-02 1.563533e-02 -1.211451e-01 -1.141439e-01 1.839073e-01 2.199118e-01 5.486199e-02 -3.609887e-02 5.291323e-02 -4.688649e-02 5.565373e-02 -2.609355e-02 -9.481481e-02
<VARIANCE> 39
 2.524571e+01 3.685173e+01 5.272610e+01 5.202937e+01 7.702788e+01 7.555714e+01 5.055686e+01 5.516175e+01 5.843475e+01 5.670156e+01 4.328868e+01 5.190155e+01 3.549122e+01 1.341548e+00 1.535555e+00 2.303586e+00 1.993434e+00 4.498821e+00 3.896055e+00 3.076671e+00 2.703451e+00 3.834473e+00 4.123751e+00 2.959777e+00 2.655684e+00 2.184073e+00 2.363362e-01 2.724226e-01 4.235935e-01 4.095658e-01 8.550715e-01 6.564231e-01 5.853575e-01 4.979131e-01 7.055072e-01 6.553383e-01 5.490781e-01 5.556175e-01 3.414124e-01
<GCONST> 1.259191e+02
<STATE> 3
<MEAN> 39
 -9.770622e-01 -8.798552e-02 -8.206081e-01 1.771289e+00 -1.191342e+01 -1.413731e+01 -6.174810e+00 -4.924034e+00 -2.062268e+00 -2.353958e+00 1.355354e-01 -3.643012e-02 6.824060e+01 -1.222010e-02 3.793551e-01 -4.202033e-02 1.316121e-01 5.713815e-01 4.949578e-01 2.646615e-01 -8.687866e-02 -1.351123e-01 -4.202265e-02 1.183932e-01 -5.747648e-02 -5.693088e-01 -4.872187e-02 7.727142e-02 -9.878180e-02 -1.174988e-01 3.779185e-01 3.084619e-01 1.083625e-02 -9.193560e-02 -6.237808e-02 1.413369e-02 2.223380e-02 -1.157638e-01 -1.554762e-01
<VARIANCE> 39
 2.032696e+01 3.532903e+01 6.138771e+01 5.522362e+01 7.714490e+01 6.768058e+01 5.671606e+01 5.945584e+01 5.415005e+01 5.852876e+01 5.258863e+01 5.641350e+01 2.904962e+01 7.180459e-01 1.015012e+00 1.432992e+00 1.567303e+00 3.292613e+00 3.174397e+00 2.266449e+00 2.557979e+00 2.416958e+00 3.050242e+00 2.746415e+00 2.692852e+00 1.159424e+00 1.397347e-01 2.354203e-01 3.075864e-01 3.241749e-01 5.403140e-01 4.938805e-01 5.448600e-01 5.698901e-01 5.782997e-01 5.662309e-01 5.207496e-01 5.210639e-01 2.534901e-01
<GCONST> 1.192316e+02
<STATE> 4
<MEAN> 39
 -2.567301e+00 6.873659e-01 -8.558421e-01 1.423980e+00 -9.168434e+00 -1.113404e+01 -2.738001e+00 -3.512870e+00 -1.613291e+00 -2.536933e+00 -1.678027e-01 -1.212391e+00 6.534480e+01 -1.335159e-01 2.228589e-01 -1.911931e-01 -1.461703e-01 8.517123e-01 7.213132e-01 1.256348e-01 -4.743970e-02 2.879162e-02 1.084093e-01 1.038922e-01 -1.667809e-02 -6.148280e-01 -3.868829e-03 -1.671026e-02 -7.791700e-02 -1.533588e-01 8.893443e-02 6.839274e-02 -5.986745e-02 -5.257761e-02 -1.302744e-02 1.865995e-02 -4.088812e-02 -3.796944e-02 4.290949e-02
<VARIANCE> 39
 2.625449e+01 2.819571e+01 4.662450e+01 4.526741e+01 6.964795e+01 6.248870e+01 6.366681e+01 5.518464e+01 4.754694e+01 5.377224e+01 5.188141e+01 4.433367e+01 3.708841e+01 5.758111e-01 1.069134e+00 1.329169e+00 1.558999e+00 2.680608e+00 2.301968e+00 2.232234e+00 2.464592e+00 2.891474e+00 2.802224e+00 2.486786e+00 2.485729e+00 8.139106e-01 1.015812e-01 1.700543e-01 2.401524e-01 2.225028e-01 4.315849e-01 3.881136e-01 3.677855e-01 4.446405e-01 4.431285e-01 5.371358e-01 4.689012e-01 4.196843e-01 1.622174e-01
<GCONST> 1.136932e+02
<TRANSP> 5
 0.000000e+00 1.000000e+00 0.000000e+00 0.000000e+00 0.000000e+00
 0.000000e+00 3.699384e-01 6.300617e-01 0.000000e+00 0.000000e+00
 0.000000e+00 0.000000e+00 2.455415e-01 7.544584e-01 0.000000e+00
 0.000000e+00 0.000000e+00 0.000000e+00 3.795067e-01 6.204934e-01
 0.000000e+00 0.000000e+00 0.000000e+00 0.000000e+00 0.000000e+00
<ENDHMM>
~h "f"
<BEGINHMM>
<NUMSTATES> 5
<STATE> 2
<MEAN> 39
 -5.679668e+00 4.492512e-01 -9.388874e+00 -6.845329e+00 -8.240501e+00 -4.372158e+00 9.765190e-01 -3.031189e+00 -2.596280e+00 -2.505678e+00 -6.914740e-01 -1.735317e+00 6.908033e+01 2.006708e+00 -6.403073e-01 -6.330844e-01 -1.447830e+00 -1.079667e+00 -1.219253e-02 5.477998e-01 -1.388681e-01 -9.288632e-01 -2.319640e-02 -1.588225e-02 -3.709915e-01 9.980021e-01 -4.640241e-01 -3.514681e-01 7.196142e-03 3.364649e-01 3.220917e-01 1.582751e-01 -3.988108e-02 2.983302e-02 2.483457e-01 2.386571e-01 1.136623e-01 -6.555169e-02 4.322810e-03
<VARIANCE> 39
 1.037551e+02 3.711765e+01 4.838558e+01 8.702251e+01 5.465966e+01 4.718495e+01 5.531457e+01 5.932674e+01 3.760339e+01 3.554620e+01 4.067403e+01 4.683241e+01 2.807637e+01 6.730944e+00 2.666240e+00 2.584579e+00 4.045926e+00 4.288392e+00 2.896729e+00 2.891652e+00 3.879442e+00 3.213860e+00 2.989930e+00 2.973952e+00 3.238307e+00 1.873765e+00 1.196440e+00 4.172678e-01 3.230327e-01 6.645370e-01 6.918790e-01 5.099144e-01 5.011862e-01 6.353468e-01 5.950053e-01 5.180265e-01 5.226944e-01 4.954403e-01 2.234583e-01
<GCONST> 1.291962e+02
<STATE> 3
<MEAN> 39
 -3.998903e+00 -1.668231e+00 -1.033280e+01 -8.382591e+00 -8.555737e+00 -3.579133e+00 2.324821e+00 -2.526358e+00 -3.210326e+00 -1.843980e+00 -2.362359e-01 -2.187517e+00 7.020479e+01 1.296250e+00 -1.147973e+00 -5.807146e-01 -9.351723e-01 -3.856604e-01 3.823280e-01 5.532370e-01 -1.251830e-01 -4.551960e-01 3.595280e-01 1.875898e-02 -5.150352e-01 8.060566e-01 -4.826113e-01 -1.208930e-01 1.444083e-01 4.416493e-01 3.760267e-01 5.454136e-02 -1.691474e-01 -7.332009e-02 2.899630e-01 1.526208e-01 -1.175448e-02 -3.099243e-02 -1.559691e-01
<VARIANCE> 39
 1.007314e+02 4.371029e+01 5.468546e+01 9.303267e+01 5.480756e+01 4.939577e+01 6.096954e+01 5.860765e+01 4.230050e+01 4.337294e+01 4.416631e+01 5.476795e+01 3.685014e+01 4.723650e+00 2.403507e+00 1.996542e+00 3.252234e+00 3.407340e+00 2.783469e+00 2.928823e+00 3.071066e+00 2.967359e+00 3.243459e+00 2.726443e+00 2.923220e+00 1.674242e+00 1.263928e+00 4.517747e-01 3.803827e-01 8.222991e-01 8.068242e-01 5.098181e-01 5.912060e-01 6.093007e-01 6.666391e-01 5.541495e-01 5.048797e-01 5.455076e-01 2.799733e-01
<GCONST> 1.300109e+02
<STATE> 4
<MEAN> 39
 -2.341470e+00 -3.462419e+00 -1.131927e+01 -9.628682e+00 -8.398204e+00 -2.714149e+00 3.352196e+00 -3.041353e+00 -3.932934e+00 -1.503304e+00 -4.422231e-01 -2.983630e+00 7.109035e+01 7.477620e-01 -1.040915e+00 -3.100268e-01 -4.086509e-01 7.732922e-02 3.238617e-01 2.746641e-01 -3.847162e-01 -1.526705e-01 4.907445e-01 -1.037882e-01 -5.652813e-01 5.374169e-01 -4.080035e-01 1.462528e-01 2.741700e-01 4.795270e-01 2.537070e-01 -1.297269e-01 -3.057713e-01 -5.800331e-02 2.931947e-01 3.889744e-02 -4.657261e-02 1.585300e-02 -2.106941e-01
<VARIANCE> 39
 7.792928e+01 4.801009e+01 5.603557e+01 8.276185e+01 5.731116e+01 5.528347e+01 6.463191e+01 5.852554e+01 4.618203e+01 5.008072e+01 5.166004e+01 6.180553e+01 4.690473e+01 4.822965e+00 2.163963e+00 1.885977e+00 3.597905e+00 3.066951e+00 3.057500e+00 3.083720e+00 3.034869e+00 3.566479e+00 3.370008e+00 2.906253e+00 2.708728e+00 1.302377e+00 8.487720e-01 4.056558e-01 3.334725e-01 6.710932e-01 5.949905e-01 4.558414e-01 6.040828e-01 5.481501e-01 5.867725e-01 5.810111e-01 5.067483e-01 4.999795e-01 3.093510e-01
<GCONST> 1.292617e+02
<TRANSP> 5
 0.000000e+00 1.000000e+00 0.000000e+00 0.000000e+00 0.000000e+00
 0.000000e+00 3.470949e-01 6.529051e-01 0.000000e+00 0.000000e+00
 0.000000e+00 0.000000e+00 3.470945e-01 6.529055e-01 0.000000e+00
 0.000000e+00 0.000000e+00 0.000000e+00 4.416505e-01 5.583494e-01
 0.000000e+00 0.000000e+00 0.000000e+00 0.000000e+00 0.000000e+00
<ENDHMM>
~h "h"
<BEGINHMM>
<NUMSTATES> 5
<STATE> 2
<MEAN> 39
 -4.711914e+00 1.717591e-02 -4.173745e+00 -6.666918e+00 -5.592283e+00 -3.024339e+00 4.779634e+00 -9.515859e-01 -9.833927e-01 -1.487736e+00 -2.346225e+00 -2.961847e+00 6.741895e+01 8.910518e-01 9.690582e-01 5.813894e-01 -2.887409e-01 -1.301235e+00 -1.095104e+00 -4.189989e-01 -8.088961e-01 -8.234966e-01 -6.685635e-01 -4.453358e-01 -2.374103e-01 6.126645e-01 2.734992e-01 5.484900e-02 -3.107218e-02 -1.528581e-01 -3.972562e-01 -2.666585e-01 -2.674920e-01 -2.701737e-01 -1.431695e-01 -2.495416e-02 9.572802e-02 1.020322e-01 1.211428e-01
<VARIANCE> 39
 2.918788e+01 6.279339e+01 6.324507e+01 7.436037e+01 6.502261e+01 6.852099e+01 5.427400e+01 6.159298e+01 5.535055e+01 4.695939e+01 4.843437e+01 5.248062e+01 3.106691e+01 2.504940e+00 2.272112e+00 2.575442e+00 3.176981e+00 3.801076e+00 3.810899e+00 3.392767e+00 3.980854e+00 3.684870e+00 2.827392e+00 3.226302e+00 3.131742e+00 1.358807e+00 2.714743e-01 4.548985e-01 3.403236e-01 4.510799e-01 5.307158e-01 6.048555e-01 5.405395e-01 6.719010e-01 6.253612e-01 5.050640e-01 6.102534e-01 5.778204e-01 1.375541e-01
<GCONST> 1.270900e+02
<STATE> 3
<MEAN> 39
 3.640882e-01 1.264100e+00 -4.215690e+00 -8.372173e+00 -1.246801e+01 -8.973790e+00 7.710115e-01 -4.424791e+00 -3.392044e+00 -3.447355e+00 -4.594258e+00 -4.216085e+00 7.127371e+01 5.687252e-01 -1.757321e-01 -6.128594e-02 -6.340484e-01 -1.506007e+00 -7.657886e-01 -4.881774e-01 -6.672583e-01 -4.641936e-01 -1.628760e-01 5.981950e-01 6.083391e-01 6.084062e-01 -3.315136e-01 -2.318561e-01 -4.174588e-02 1.814704e-01 4.195088e-01 3.900405e-01 1.046050e-01 3.845574e-02 1.072524e-01 1.900299e-01 3.166716e-01 1.387811e-01 -2.220464e-01
<VARIANCE> 39
 2.224796e+01 7.157803e+01 7.866501e+01 8.070009e+01 7.782045e+01 6.860973e+01 5.756746e+01 6.327812e+01 5.991966e+01 5.351917e+01 5.780829e+01 6.196999e+01 3.093823e+01 1.131277e+00 2.243673e+00 2.562860e+00 2.806100e+00 3.879156e+00 3.860892e+00 4.417725e+00 3.817959e+00 3.771601e+00 2.780425e+00 3.139051e+00 2.937490e+00 1.624510e+00 2.541493e-01 4.410495e-01 3.386549e-01 4.489797e-01 6.755094e-01 5.614697e-01 6.809317e-01 6.995817e-01 6.888794e-01 5.269110e-01 6.426772e-01 5.305355e-01 1.810845e-01
<GCONST> 1.281901e+02
<STATE> 4
<MEAN> 39
 9.762979e-02 1.695997e+00 -2.253550e+00 -7.309423e+00 -1.393602e+01 -8.994424e+00 2.647530e-01 -7.687427e+00 -5.515378e+00 -4.374352e+00 -9.007357e-01 -1.961935e+00 7.109362e+01 -5.148947e-02 -1.133896e-01 1.986273e-01 2.014858e-01 -1.397968e-01 -8.017294e-02 -4.276713e-01 -6.302725e-01 -3.410276e-01 1.757836e-01 7.744721e-01 1.934622e-01 -2.611727e-03 -1.057130e-01 1.247520e-02 5.083179e-02 2.809697e-01 3.125533e-01 1.442095e-02 -8.926664e-02 7.054968e-02 1.667372e-01 9.963061e-02 -9.881389e-02 -2.140702e-01 -1.363602e-01
<VARIANCE> 39
 2.337035e+01 4.805314e+01 9.746599e+01 9.973219e+01 6.782983e+01 7.876916e+01 6.481969e+01 8.232279e+01 7.389588e+01 5.567320e+01 5.413508e+01 6.546245e+01 2.640723e+01 3.680221e-01 1.505041e+00 1.544843e+00 1.584615e+00 3.016827e+00 2.219365e+00 2.808514e+00 2.841361e+00 2.845113e+00 2.544557e+00 3.443247e+00 2.457486e+00 5.103847e-01 9.870993e-02 2.024997e-01 2.449958e-01 3.250430e-01 4.080694e-01 4.852879e-01 5.081987e-01 4.702786e-01 5.510004e-01 4.415213e-01 5.188341e-01 5.208400e-01 1.017472e-01
<GCONST> 1.180420e+02
<TRANSP> 5
 0.000000e+00 1.000000e+00 0.000000e+00 0.000000e+00 0.000000e+00
 0.000000e+00 6.449475e-01 3.550525e-01 0.000000e+00 0.000000e+00
 0.000000e+00 0.000000e+00 4.370363e-01 5.629638e-01 0.000000e+00
 0.000000e+00 0.000000e+00 0.000000e+00 5.691762e-01 4.308238e-01
 0.000000e+00 0.000000e+00 0.000000e+00 0.000000e+00 0.000000e+00
<ENDHMM>
~h "i"
<BEGINHMM>
<NUMSTATES> 5
<STATE> 2
<MEAN> 39
 -8.408869e+00 1.676668e+00 4.203927e+00 3.949308e-01 -9.313210e+00 -9.067008e+00 -1.218287e+00 -5.013792e+00 -3.008017e+00 -4.067677e+00 6.774883e-01 -1.658501e+00 6.696635e+01 5.873322e-02 4.298290e-01 9.240969e-01 4.072543e-01 -2.649681e-01 -3.614950e-01 2.393730e-01 -1.920074e-01 -6.080939e-01 -5.846536e-01 -3.883262e-02 -3.470397e-02 -1.293182e-03 4.064842e-01 1.273920e-01 -1.145326e-01 1.563435e-01 5.080283e-02 -1.773241e-01 -2.009525e-01 -6.652233e-02 -1.290860e-01 -7.487963e-02 -1.423257e-01 -4.793040e-02 -1.066264e-01
<VARIANCE> 39
 7.071777e+01 3.567558e+01 5.158479e+01 5.607152e+01 7.471387e+01 7.391297e+01 5.353775e+01 5.872311e+01 6.023184e+01 5.293248e+01 4.012299e+01 3.870220e+01 2.755233e+01 2.815250e+00 2.184385e+00 2.930079e+00 2.717623e+00 3.690581e+00 3.725760e+00 2.717182e+00 3.281112e+00 3.458527e+00 3.198431e+00 2.983879e+00 2.596789e+00 1.541536e+00 4.426160e-01 3.709704e-01 4.621071e-01 4.860193e-01 7.341958e-01 7.171401e-01 5.778948e-01 5.752199e-01 6.344787e-01 5.973558e-01 5.420583e-01 4.748484e-01 2.425344e-01
<GCONST> 1.276780e+02
<STATE> 3
<MEAN> 39
 -4.511612e+00 3.561524e+00 6.855863e+00 3.027157e+00 -1.167173e+01 -1.207044e+01 -2.307834e+00 -6.942017e+00 -6.054434e+00 -6.897360e+00 -1.186297e-01 -2.381122e+00 6.709122e+01 7.587979e-01 5.861821e-01 3.019488e-01 5.693179e-01 -3.860293e-01 -8.632269e-01 -2.623309e-01 -2.368737e-01 -7.325088e-01 -6.913153e-01 -1.226336e-01 1.787375e-01 -2.107356e-01 -1.080903e-02 -1.471946e-01 -5.124989e-01 -1.865452e-01 2.747394e-01 1.872520e-01 -8.271935e-02 1.662711e-01 3.040226e-01 2.841179e-01 -3.812172e-02 4.499350e-02 -8.370700e-02
<VARIANCE> 39
 2.890195e+01 3.526244e+01 5.685343e+01 5.498851e+01 6.992545e+01 5.969944e+01 4.895560e+01 5.824215e+01 5.463555e+01 4.729670e+01 3.901937e+01 3.944546e+01 2.533485e+01 2.576248e+00 1.775355e+00 2.593143e+00 2.236082e+00 4.203436e+00 4.309157e+00 2.942616e+00 3.755291e+00 3.614861e+00 3.358500e+00 2.885153e+00 2.967959e+00 1.180254e+00 2.482048e-01 2.545460e-01 3.622819e-01 3.571526e-01 6.549407e-01 6.454724e-01 5.515587e-01 5.725943e-01 5.828428e-01 5.690747e-01 5.585975e-01 4.888184e-01 1.564293e-01
<GCONST> 1.236818e+02
<STATE> 4
<MEAN> 39
 -3.673215e+00 4.312767e+00 6.312887e+00 4.960962e+00 -1.129361e+01 -1.427238e+01 -2.593820e+00 -6.681524e+00 -5.779766e+00 -7.581830e+00 -1.678389e-02 -1.235670e+00 6.640092e+01 3.346746e-01 1.146088e-01 -9.033009e-01 -1.494011e-01 7.577059e-01 4.758655e-01 -3.277539e-01 1.663944e-01 3.225784e-01 4.221087e-01 -6.645694e-02 -7.026026e-02 -4.984843e-01 -8.669794e-02 -9.062471e-02 -2.792450e-01 -3.036875e-01 2.842563e-01 5.147614e-01 5.327298e-02 4.069725e-02 1.713430e-01 3.056764e-01 1.060539e-02 -8.427103e-02 -9.698839e-02
<VARIANCE> 39
 2.158072e+01 3.724447e+01 4.939143e+01 5.947936e+01 6.201914e+01 5.787851e+01 4.753968e+01 5.482935e+01 5.737848e+01 5.440430e+01 4.727227e+01 4.105368e+01 2.606250e+01 1.153507e+00 1.314059e+00 2.500930e+00 1.979839e+00 3.229259e+00 4.099905e+00 3.038184e+00 3.404309e+00 3.688592e+00 3.488414e+00 2.712548e+00 2.616948e+00 9.674798e-01 1.921697e-01 2.171501e-01 3.257945e-01 3.421308e-01 5.285236e-01 6.222842e-01 5.271235e-01 5.888358e-01 6.782584e-01 5.979797e-01 5.560843e-01 5.407683e-01 1.364224e-01
<GCONST> 1.209490e+02
<TRANSP> 5
 0.000000e+00 1.000000e+00 0.000000e+00 0.000000e+00 0.000000e+00
 0.000000e+00 2.724449e-01 7.275551e-01 0.000000e+00 0.000000e+00
 0.000000e+00 0.000000e+00 1.548768e-01 8.451232e-01 0.000000e+00
 0.000000e+00 0.000000e+00 0.000000e+00 4.251929e-01 5.748071e-01
 0.000000e+00 0.000000e+00 0.000000e+00 0.000000e+00 0.000000e+00
<ENDHMM>
~h "k"
<BEGINHMM>
<NUMSTATES> 5
<STATE> 2
<MEAN> 39
 -5.155849e+00 -3.788229e-01 -4.221223e+00 -5.635014e+00 -6.903214e+00 -6.330945e+00 -3.061046e+00 -5.646246e+00 -1.878405e+00 -2.567430e+00 -1.485566e-01 -2.533514e+00 6.802311e+01 1.561680e+00 3.867352e-01 7.770073e-01 1.547162e-01 -1.445678e+00 -1.320430e+00 -3.169995e-01 -7.999964e-01 -7.927150e-01 -4.271518e-01 -6.035692e-01 -6.680098e-01 9.493658e-01 6.050858e-02 -8.511150e-02 -8.092887e-02 -5.052122e-02 -1.730933e-01 -6.227373e-02 1.915604e-02 7.142448e-02 9.290744e-02 8.826220e-02 1.441047e-01 1.332099e-01 -4.080836e-02
<VARIANCE> 39
 5.257693e+01 6.224790e+01 7.233131e+01 5.979729e+01 7.404298e+01 7.279559e+01 5.786779e+01 5.791626e+01 6.122643e+01 6.120347e+01 5.332374e+01 5.452184e+01 3.419075e+01 4.322516e+00 3.927037e+00 4.305882e+00 4.650427e+00 5.787259e+00 5.859612e+00 5.380544e+00 5.359521e+00 5.562511e+00 5.024871e+00 4.618437e+00 4.380709e+00 1.868868e+00 7.911357e-01 7.783629e-01 7.040028e-01 6.948076e-01 1.040492e+00 1.033033e+00 8.780141e-01 8.892261e-01 9.406454e-01 8.793444e-01 8.493664e-01 7.649432e-01 4.090934e-01
<GCONST> 1.413751e+02
<STATE> 3
<MEAN> 39
 -7.408957e-01 -6.754441e-01 -2.378242e+00 -6.347943e+00 -1.287607e+01 -1.058300e+01 -3.770090e+00 -6.254001e+00 -3.675215e+00 -3.417598e+00 8.454740e-02 -3.595363e+00 7.099776e+01 3.656508e-01 -4.697549e-01 -8.466539e-02 -2.609354e-01 -8.471646e-01 -1.914252e-01 2.665825e-01 5.214095e-03 1.947859e-02 3.650129e-01 2.786951e-01 1.703814e-01 3.456076e-01 -4.501662e-01 -2.869934e-02 -1.222595e-01 1.177640e-01 5.301214e-01 4.040954e-01 5.855927e-02 1.075116e-01 2.165004e-01 1.444564e-01 5.964134e-02 5.858094e-02 -2.906900e-01
<VARIANCE> 39
 2.508347e+01 6.015384e+01 9.030358e+01 7.477068e+01 8.080902e+01 9.383907e+01 5.723054e+01 7.116050e+01 8.149302e+01 6.993356e+01 6.181177e+01 6.780086e+01 3.435019e+01 1.175548e+00 1.775610e+00 2.364051e+00 2.288284e+00 3.293361e+00 3.668061e+00 3.189575e+00 3.398767e+00 3.227365e+00 2.930212e+00 3.119739e+00 2.533651e+00 1.033027e+00 3.380844e-01 3.624345e-01 4.117673e-01 4.499099e-01 6.333888e-01 7.084213e-01 6.449345e-01 7.391340e-01 7.399679e-01 6.704441e-01 6.665919e-01 5.933851e-01 1.704668e-01
<GCONST> 1.285052e+02
<STATE> 4
<MEAN> 39
 -1.373692e+00 7.700882e-01 -1.177818e+00 -4.877620e+00 -1.198051e+01 -1.022816e+01 -2.736410e+00 -6.167791e+00 -3.462510e+00 -2.949655e+00 4.897130e-01 -2.318673e+00 7.000294e+01 5.938873e-03 -7.172927e-03 3.705662e-02 1.494249e-01 -1.636132e-01 1.384584e-01 2.890304e-01 -9.023103e-02 -7.790996e-03 2.456789e-01 1.607105e-02 -3.482277e-02 -1.466106e-01 -2.027593e-01 8.584002e-02 4.662920e-03 1.709295e-01 3.523215e-01 1.421430e-01 -5.880864e-02 3.199268e-02 5.834851e-02 -6.031769e-02 -5.353045e-02 -2.509117e-03 -1.956997e-01
<VARIANCE> 39
 3.210883e+01 6.692802e+01 1.002006e+02 8.194121e+01 7.142616e+01 8.887774e+01 5.054424e+01 6.448982e+01 7.143497e+01 7.248375e+01 5.870169e+01 6.269819e+01 3.474898e+01 7.313093e-01 1.286553e+00 1.662219e+00 1.891991e+00 2.304942e+00 2.661356e+00 2.554772e+00 2.640769e+00 2.671738e+00 2.507141e+00 2.589232e+00 2.262430e+00 8.927556e-01 2.254990e-01 2.583322e-01 3.240693e-01 3.583610e-01 4.908386e-01 5.483004e-01 5.029371e-01 5.723898e-01 5.826328e-01 5.550833e-01 5.312071e-01 4.326288e-01 1.333434e-01
<GCONST> 1.217156e+02
<TRANSP> 5
 0.000000e+00 1.000000e+00 0.000000e+00 0.000000e+00 0.000000e+00
 0.000000e+00 6.965591e-01 3.034410e-01 0.000000e+00 0.000000e+00
 0.000000e+00 0.000000e+00 3.277014e-01 6.722987e-01 0.000000e+00
 0.000000e+00 0.000000e+00 0.000000e+00 1.900068e-01 8.099932e-01
 0.000000e+00 0.000000e+00 0.000000e+00 0.000000e+00 0.000000e+00
<ENDHMM>
~h "m"
<BEGINHMM>
<NUMSTATES> 5
<STATE> 2
<MEAN> 39
 1.615316e+00 7.398639e+00 -3.592019e-01 -3.729577e-01 -5.067239e+00 -5.101386e+00 -1.547865e+00 -7.436410e+00 -1.043971e+01 -1.080988e+01 -4.414855e+00 -2.003340e+00 6.434373e+01 5.480123e-01 -4.647483e-01 -1.268140e+00 -1.491044e+00 -1.027701e+00 6.352346e-02 5.745837e-01 -9.159638e-02 5.356538e-01 5.578395e-01 5.807146e-03 -2.162769e-03 9.281045e-01 -3.261502e-02 -4.185249e-01 -4.738941e-01 -4.983571e-01 -2.687304e-01 1.350428e-01 2.382600e-01 1.165228e-01 5.591713e-01 6.650911e-01 1.638573e-01 -1.166834e-01 2.472760e-01
<VARIANCE> 39
 9.470961e+00 2.851025e+01 3.182597e+01 3.897002e+01 5.113784e+01 4.746283e+01 5.274080e+01 5.117696e+01 4.544292e+01 5.013430e+01 4.364454e+01 3.966551e+01 2.219196e+01 7.760341e-01 1.597853e+00 2.769603e+00 3.783202e+00 3.149494e+00 2.640311e+00 3.074009e+00 3.311604e+00 4.514530e+00 5.272319e+00 3.178226e+00 2.580763e+00 9.545051e-01 1.107824e-01 2.228815e-01 3.391787e-01 4.691342e-01 4.804451e-01 4.832192e-01 5.626825e-01 5.509540e-01 6.708511e-01 7.168760e-01 6.613674e-01 5.670046e-01 1.206992e-01
<GCONST> 1.186137e+02
<STATE> 3
<MEAN> 39
 3.711662e+00 1.272003e+00 -9.993251e+00 -1.190128e+01 -1.164303e+01 -2.717350e+00 3.616501e+00 -6.119500e+00 -4.131902e+00 -2.945370e+00 -3.533105e+00 -3.202127e+00 7.012815e+01 3.872067e-03 -1.956616e+00 -1.805243e+00 -1.748074e+00 -4.566696e-01 1.248728e+00 1.246448e+00 -9.492456e-02 1.338017e+00 1.939174e+00 2.283650e-01 -8.212231e-01 1.350412e+00 -2.605635e-01 1.060296e-01 7.154110e-01 9.296093e-01 5.871337e-01 -1.252367e-01 -4.733639e-01 -6.725562e-02 -3.167401e-01 -4.066559e-01 -5.706351e-02 -5.238371e-02 -3.174159e-01
<VARIANCE> 39
 8.524970e+00 4.939004e+01 3.362256e+01 4.443411e+01 5.274004e+01 6.069656e+01 6.581960e+01 7.748957e+01 4.677258e+01 5.973326e+01 5.321127e+01 5.498458e+01 2.232516e+01 7.248566e-01 1.844705e+00 2.638895e+00 4.435514e+00 4.324606e+00 4.567442e+00 4.607265e+00 4.848710e+00 6.181412e+00 5.830133e+00 5.596873e+00 4.803839e+00 9.332477e-01 8.534662e-02 3.075249e-01 3.406577e-01 4.750142e-01 5.770882e-01 7.910580e-01 7.250664e-01 7.708359e-01 7.618001e-01 8.406763e-01 7.389671e-01 6.310400e-01 1.265425e-01
<GCONST> 1.262039e+02
<STATE> 4
<MEAN> 39
 2.312590e+00 -2.717654e+00 -1.126635e+01 -1.256234e+01 -9.853667e+00 -4.722185e-01 4.930814e+00 -5.877370e+00 -3.755444e+00 -1.792971e+00 -3.243751e+00 -5.458662e+00 7.269519e+01 -2.318193e-01 -6.474935e-01 3.811421e-02 2.472300e-01 1.907660e-01 -1.095511e-01 -4.160168e-01 6.427631e-03 4.539869e-01 5.227468e-01 1.465436e-01 -2.725083e-01 2.403116e-01 -1.527105e-02 3.856466e-01 3.936444e-01 3.814591e-01 1.301683e-02 -4.031929e-01 -3.407213e-01 1.000289e-01 -1.351405e-01 -2.713701e-01 2.889596e-03 2.327906e-01 -3.115092e-01
<VARIANCE> 39
 1.131654e+01 5.719261e+01 3.316499e+01 4.537358e+01 5.861924e+01 6.519527e+01 7.015027e+01 9.444478e+01 5.789901e+01 6.658205e+01 6.273616e+01 6.148672e+01 2.603001e+01 3.354049e-01 9.985204e-01 1.057242e+00 1.644937e+00 1.885970e+00 2.896008e+00 2.637838e+00 2.779883e+00 3.112546e+00 2.978735e+00 2.928890e+00 2.552580e+00 3.717437e-01 8.246616e-02 2.312524e-01 3.339605e-01 3.682726e-01 4.287519e-01 4.714909e-01 5.383377e-01 5.394810e-01 6.285763e-01 6.989344e-01 5.991791e-01 5.622749e-01 1.178803e-01
<GCONST> 1.157473e+02
<TRANSP> 5
 0.000000e+00 1.000000e+00 0.000000e+00 0.000000e+00 0.000000e+00
 0.000000e+00 7.419831e-01 2.580169e-01 0.000000e+00 0.000000e+00
 0.000000e+00 0.000000e+00 5.620570e-01 4.379430e-01 0.000000e+00
 0.000000e+00 0.000000e+00 0.000000e+00 5.482217e-01 4.517783e-01
 0.000000e+00 0.000000e+00 0.000000e+00 0.000000e+00 0.000000e+00
<ENDHMM>
~h "n"
<BEGINHMM>
<NUMSTATES> 5
<STATE> 2
<MEAN> 39
 2.013782e+00 4.430591e+00 -9.298158e-01 -3.222671e-01 -7.038643e+00 -9.028719e+00 -6.582604e+00 -8.164956e+00 -5.649741e+00 -5.546557e+00 -3.548500e+00 -5.599480e+00 6.634013e+01 4.327498e-02 5.674498e-01 1.900604e-01 2.481421e-01 6.429579e-01 -1.240096e-01 -5.127876e-01 -7.894802e-02 -4.113674e-01 -1.630615e-01 1.843041e-01 -1.585213e-01 -4.207402e-01 -3.087983e-02 -3.627741e-01 -3.244506e-01 -2.980956e-01 -3.354679e-01 4.320545e-02 2.867103e-01 9.458652e-02 2.800248e-01 2.149866e-01 2.665087e-02 1.135160e-01 3.047519e-01
<VARIANCE> 39
 9.530418e+00 2.914927e+01 3.341418e+01 4.058409e+01 4.909670e+01 4.782055e+01 5.066419e+01 4.253956e+01 4.301708e+01 5.537428e+01 3.800265e+01 5.228406e+01 1.790738e+01 3.277736e-01 1.174721e+00 1.948004e+00 1.790380e+00 2.118583e+00 1.988855e+00 2.564259e+00 2.115083e+00 2.583974e+00 2.684080e+00 2.262594e+00 2.225005e+00 5.712366e-01 5.664714e-02 2.341113e-01 2.942420e-01 2.892236e-01 4.158120e-01 3.675923e-01 5.063989e-01 4.673293e-01 5.033838e-01 5.816432e-01 4.629962e-01 4.669059e-01 8.738021e-02
<GCONST> 1.093219e+02
<STATE> 3
<MEAN> 39
 1.708543e+00 1.617091e+00 -4.546125e+00 -2.251946e+00 -8.499133e+00 -8.321672e+00 -4.578224e+00 -7.751184e+00 -3.882345e+00 -2.302457e+00 -2.712107e+00 -4.641489e+00 6.794762e+01 -1.723885e-01 -1.069122e+00 -1.018309e+00 -8.554652e-01 -1.206991e+00 2.419242e-01 1.327184e+00 5.472596e-01 1.177050e+00 7.736990e-01 -3.698208e-01 -2.334201e-02 9.132290e-01 -2.688102e-02 6.029729e-02 3.694967e-02 -8.217104e-02 -1.082308e-01 -5.472705e-03 2.108608e-01 2.102702e-01 4.047684e-02 -2.331019e-02 -2.787110e-02 -6.788703e-02 -2.708874e-02
<VARIANCE> 39
 1.205471e+01 4.850071e+01 5.392853e+01 4.598022e+01 6.031932e+01 4.466678e+01 6.801189e+01 6.086118e+01 7.738005e+01 6.869720e+01 5.508577e+01 5.384911e+01 2.982955e+01 5.328642e-01 2.611203e+00 3.351189e+00 2.841394e+00 3.987123e+00 3.543152e+00 5.485970e+00 4.906697e+00 5.180865e+00 5.048282e+00 4.341545e+00 4.187527e+00 9.175749e-01 7.569127e-02 5.726494e-01 7.071015e-01 4.651361e-01 7.820607e-01 5.910261e-01 1.041724e+00 8.210999e-01 1.136837e+00 8.917272e-01 8.055373e-01 7.420852e-01 2.597879e-01
<GCONST> 1.296362e+02
<STATE> 4
<MEAN> 39
 2.590526e-01 1.356090e+00 -3.450835e+00 -4.325333e+00 -1.358337e+01 -9.793605e+00 -7.897025e-01 -4.043879e+00 -1.765343e+00 -2.334016e+00 -3.602195e+00 -3.419030e+00 6.931800e+01 -1.894150e-01 1.813016e-01 1.378663e-01 -7.689432e-02 -4.808065e-02 -5.510291e-02 4.080807e-01 3.451754e-01 -2.041960e-02 8.043364e-02 4.299685e-02 -8.109838e-02 -2.105452e-01 8.201893e-03 1.063833e-01 8.460695e-02 1.091448e-01 2.602760e-01 5.155250e-02 -2.598284e-01 -1.310493e-01 -9.719365e-02 -8.244396e-02 7.359754e-02 -2.006732e-03 -1.469568e-01
<VARIANCE> 39
 1.479401e+01 5.518941e+01 6.327661e+01 5.230229e+01 8.384705e+01 6.356731e+01 7.033924e+01 6.057028e+01 6.333089e+01 6.572631e+01 6.533031e+01 4.173123e+01 2.629024e+01 2.250610e-01 8.280131e-01 1.303931e+00 1.412436e+00 2.000980e+00 1.865686e+00 1.975980e+00 2.535021e+00 2.955618e+00 2.299834e+00 2.443908e+00 2.122967e+00 4.014119e-01 5.270782e-02 2.169759e-01 2.997256e-01 3.091278e-01 4.332580e-01 4.005438e-01 5.316134e-01 4.381928e-01 5.432092e-01 4.547301e-01 4.766865e-01 4.206637e-01 1.009330e-01
<GCONST> 1.120915e+02
<TRANSP> 5
 0.000000e+00 1.000000e+00 0.000000e+00 0.000000e+00 0.000000e+00
 0.000000e+00 7.104642e-01 2.895358e-01 0.000000e+00 0.000000e+00
 0.000000e+00 0.000000e+00 7.070572e-01 2.929428e-01 0.000000e+00
 0.000000e+00 0.000000e+00 0.000000e+00 5.258191e-01 4.741809e-01
 0.000000e+00 0.000000e+00 0.000000e+00 0.000000e+00 0.000000e+00
<ENDHMM>
~h "o"
<BEGINHMM>
<NUMSTATES> 5
<STATE> 2
<MEAN> 39
 1.776105e+00 4.605632e+00 -6.430879e+00 -8.780972e+00 -1.145481e+01 -7.092280e+00 3.743232e-01 -4.652418e+00 -3.920800e+00 -2.154338e+00 -1.124869e+00 -1.795562e+00 6.634060e+01 -1.431797e-01 5.512520e-02 1.443317e-01 2.093334e-01 2.654951e-01 2.169686e-01 1.177711e-01 5.240716e-02 9.375344e-02 -5.443909e-02 -8.090703e-02 -1.030515e-01 -2.686715e-01 -8.088773e-02 -9.538092e-02 2.141463e-02 1.287174e-01 1.532374e-01 1.719982e-02 -7.078779e-02 -4.907409e-02 -1.840298e-02 -4.226299e-02 -1.861042e-02 -2.738749e-02 5.899960e-03
<VARIANCE> 39
 1.764231e+01 4.894121e+01 3.458362e+01 5.898183e+01 7.130699e+01 5.461063e+01 6.542555e+01 6.262363e+01 5.693646e+01 5.250795e+01 5.024038e+01 4.869355e+01 3.640693e+01 1.186324e+00 1.702101e+00 2.033798e+00 3.442276e+00 4.446611e+00 3.208263e+00 3.790617e+00 3.328118e+00 3.556004e+00 3.534643e+00 3.021148e+00 2.821409e+00 1.096055e+00 1.923034e-01 2.821257e-01 3.500523e-01 4.969021e-01 7.584984e-01 5.409171e-01 6.434538e-01 5.724214e-01 6.311762e-01 6.221265e-01 6.125296e-01 5.581227e-01 1.601757e-01
<GCONST> 1.242591e+02
<STATE> 3
<MEAN> 39
 1.485296e+00 4.510054e+00 -6.402138e+00 -8.581259e+00 -1.089174e+01 -6.451752e+00 7.760463e-01 -4.589900e+00 -3.936825e+00 -2.337693e+00 -1.300845e+00 -1.885146e+00 6.591934e+01 -2.471731e-01 -1.249215e-01 1.253160e-01 3.715950e-01 4.645377e-01 1.651246e-01 9.553190e-03 -7.148774e-02 -2.096657e-02 -1.095323e-01 -4.454292e-02 -1.653577e-02 -2.087453e-01 -3.793032e-02 -4.044375e-02 4.412689e-02 1.039443e-01 6.867023e-02 -4.314572e-02 -1.049501e-01 -5.459920e-02 -3.254884e-02 -2.714488e-02 8.081233e-03 -4.934232e-03 1.790020e-02
<VARIANCE> 39
 2.003795e+01 4.721473e+01 3.482413e+01 5.758986e+01 6.865514e+01 5.551198e+01 6.435913e+01 6.089187e+01 5.452008e+01 4.935157e+01 4.728996e+01 4.575152e+01 3.794960e+01 1.199996e+00 1.830412e+00 2.314332e+00 3.544034e+00 4.479629e+00 3.403141e+00 3.758618e+00 3.462195e+00 3.551162e+00 3.513373e+00 3.361837e+00 2.941029e+00 1.105186e+00 2.023322e-01 2.978972e-01 3.749537e-01 4.991191e-01 7.753924e-01 5.487005e-01 6.361344e-01 5.962124e-01 6.202174e-01 6.205669e-01 5.972995e-01 5.603933e-01 1.925387e-01
<GCONST> 1.249568e+02
<STATE> 4
<MEAN> 39
 9.250722e-01 4.191848e+00 -6.416583e+00 -8.115958e+00 -9.862058e+00 -6.007998e+00 1.017303e+00 -4.715491e+00 -4.304513e+00 -2.605643e+00 -1.352442e+00 -1.859174e+00 6.561635e+01 -2.816355e-01 -1.400760e-01 2.157073e-01 5.586166e-01 5.913288e-01 1.169122e-01 -2.252737e-01 -1.604914e-01 -7.100663e-02 -7.540225e-02 1.585669e-02 -3.584893e-02 -1.890425e-01 3.414030e-02 4.067160e-02 7.303443e-02 4.501492e-02 -6.048105e-02 -7.442761e-02 -1.124356e-01 1.027318e-03 -1.738560e-02 -8.543110e-03 -5.742376e-03 -9.930626e-03 6.055919e-03
<VARIANCE> 39
 2.337397e+01 4.768054e+01 3.853395e+01 5.827840e+01 6.454109e+01 5.370868e+01 6.456068e+01 6.213220e+01 5.320774e+01 4.826707e+01 4.714661e+01 4.413905e+01 4.165186e+01 1.296076e+00 1.989214e+00 2.386122e+00 3.538628e+00 4.541313e+00 3.438837e+00 3.943727e+00 3.563331e+00 3.461128e+00 3.427238e+00 3.223666e+00 3.056301e+00 1.257995e+00 2.439000e-01 3.301992e-01 3.904435e-01 4.796014e-01 7.432433e-01 5.904555e-01 6.024628e-01 6.330897e-01 6.285763e-01 6.144524e-01 6.156898e-01 5.491921e-01 1.942608e-01
<GCONST> 1.258850e+02
<TRANSP> 5
 0.000000e+00 1.000000e+00 0.000000e+00 0.000000e+00 0.000000e+00
 0.000000e+00 3.971816e-01 6.028183e-01 0.000000e+00 0.000000e+00
 0.000000e+00 0.000000e+00 3.971814e-01 6.028186e-01 0.000000e+00
 0.000000e+00 0.000000e+00 0.000000e+00 5.091712e-01 4.908287e-01
 0.000000e+00 0.000000e+00 0.000000e+00 0.000000e+00 0.000000e+00
<ENDHMM>
~h "p"
<BEGINHMM>
<NUMSTATES> 5
<STATE> 2
<MEAN> 39
 -1.810495e+00 5.973570e-01 -7.737989e+00 -1.141125e+01 -8.159809e+00 -2.876485e+00 2.108282e+00 -3.780614e+00 -3.592310e+00 -3.098084e+00 -2.869923e+00 -2.679072e+00 6.832688e+01 1.705310e+00 4.665387e-01 -3.025583e-01 -1.315734e+00 -1.690339e+00 -5.417535e-01 2.816693e-02 -7.652902e-01 -1.062894e+00 -4.361809e-01 -3.391355e-01 -4.178175e-01 1.413752e+00 -1.852742e-01 -1.409436e-01 1.161099e-01 3.080249e-01 6.552659e-02 -5.554888e-02 -2.784110e-01 7.967723e-02 2.433483e-01 2.348527e-01 2.919130e-01 1.002716e-01 -2.605876e-01
<VARIANCE> 39
 3.346149e+01 5.574453e+01 3.095362e+01 5.739882e+01 7.120805e+01 7.835791e+01 6.672284e+01 5.249154e+01 5.111671e+01 5.033402e+01 4.139692e+01 4.793645e+01 3.071686e+01 3.304204e+00 5.425959e+00 2.603751e+00 4.289293e+00 5.816462e+00 5.261571e+00 5.490885e+00 4.649951e+00 4.374794e+00 5.101014e+00 4.203832e+00 3.823451e+00 2.628319e+00 7.359146e-01 9.644922e-01 4.508640e-01 7.516947e-01 1.084658e+00 9.981493e-01 9.062506e-01 8.389408e-01 7.782014e-01 8.183215e-01 6.766796e-01 6.592595e-01 4.715987e-01
<GCONST> 1.375295e+02
<STATE> 3
<MEAN> 39
 9.171022e-01 -2.495925e+00 -8.784552e+00 -1.422471e+01 -1.255089e+01 -4.518617e+00 1.562135e+00 -2.969262e+00 -3.987586e+00 -2.689776e+00 -1.655531e+00 -3.919669e+00 7.351061e+01 1.184352e-01 -1.236060e-01 1.699399e-01 2.616808e-01 -3.512786e-01 -3.972813e-01 -7.282003e-01 -3.306457e-01 4.034326e-01 4.799183e-01 7.005495e-02 -2.377837e-01 5.798367e-02 -2.204168e-01 8.736782e-02 1.472436e-01 3.009436e-01 2.481374e-01 -7.794349e-02 -5.439316e-02 8.516265e-02 2.187463e-01 1.388121e-02 -1.102272e-01 3.589589e-02 -3.003657e-01
<VARIANCE> 39
 1.728491e+01 7.289193e+01 3.067538e+01 4.735955e+01 6.042584e+01 9.253306e+01 1.144543e+02 8.740107e+01 7.590153e+01 7.383749e+01 5.498123e+01 5.790580e+01 4.299973e+01 1.160358e+00 2.619925e+00 1.068244e+00 2.097345e+00 2.656410e+00 3.466638e+00 4.684645e+00 3.571761e+00 4.489559e+00 3.344372e+00 2.961302e+00 2.832894e+00 1.230830e+00 2.737908e-01 4.642496e-01 2.727015e-01 4.152060e-01 6.251941e-01 6.119615e-01 8.087183e-01 7.256521e-01 7.584344e-01 6.978734e-01 6.058440e-01 5.414531e-01 1.843116e-01
<GCONST> 1.272181e+02
<STATE> 4
<MEAN> 39
 2.132583e+00 5.258977e-02 -7.150019e+00 -1.309977e+01 -1.291871e+01 -2.251331e+00 -1.515424e-01 -5.376199e+00 -2.419634e+00 -1.324153e+00 -1.407521e+00 -5.400007e+00 7.178006e+01 -3.643308e-02 -2.097671e-02 3.119192e-01 5.892378e-01 3.151249e-02 -5.888847e-01 -6.346039e-01 -5.448059e-02 4.785848e-01 1.599665e-01 -1.026252e-01 -1.410417e-01 -1.526505e-01 -1.242789e-01 5.629470e-02 1.260084e-01 1.641627e-01 1.437990e-01 -3.258247e-02 4.373824e-02 9.059109e-02 -3.557928e-03 -1.592595e-01 -3.404129e-02 8.274439e-02 -1.451162e-01
<VARIANCE> 39
 1.152122e+01 7.945663e+01 6.152393e+01 4.970898e+01 9.958798e+01 1.115927e+02 7.855349e+01 5.804578e+01 7.751929e+01 8.007686e+01 5.799103e+01 7.084234e+01 2.809262e+01 4.257118e-01 1.014078e+00 1.028869e+00 1.723569e+00 1.969240e+00 2.671659e+00 2.669789e+00 2.246382e+00 2.372914e+00 1.976859e+00 2.409427e+00 2.017355e+00 4.728332e-01 1.194012e-01 2.589259e-01 2.050859e-01 2.122396e-01 4.139771e-01 3.658461e-01 4.003357e-01 3.531624e-01 4.365101e-01 5.282435e-01 4.497666e-01 4.053452e-01 8.324563e-02
<GCONST> 1.141055e+02
<TRANSP> 5
 0.000000e+00 1.000000e+00 0.000000e+00 0.000000e+00 0.000000e+00
 0.000000e+00 7.438861e-01 2.561139e-01 0.000000e+00 0.000000e+00
 0.000000e+00 0.000000e+00 5.935810e-01 4.064190e-01 0.000000e+00
 0.000000e+00 0.000000e+00 0.000000e+00 5.273984e-01 4.726016e-01
 0.000000e+00 0.000000e+00 0.000000e+00 0.000000e+00 0.000000e+00
<ENDHMM>
~h "r"
<BEGINHMM>
<NUMSTATES> 5
<STATE> 2
<MEAN> 39
 7.356611e-01 8.522558e-01 -2.585086e+00 3.683610e-01 -9.373041e+00 -1.175496e+01 -5.593572e+00 -8.594004e+00 -4.219308e+00 -3.419723e+00 -9.219646e-03 -2.261949e+00 6.797138e+01 -2.908972e-02 -2.745462e-02 -2.751515e-02 2.639436e-01 -1.267812e-01 1.205900e-02 -1.149180e-01 -2.201651e-01 -2.218979e-01 -2.919103e-01 1.507091e-01 1.835086e-01 -3.615701e-02 -1.137676e-02 2.124480e-02 -5.448363e-02 -2.248667e-01 -1.214519e-01 1.083134e-01 1.682342e-01 1.252969e-01 2.138410e-02 6.746341e-02 -3.610902e-02 1.434797e-02 3.047894e-02
<VARIANCE> 39
 1.913641e+01 4.295024e+01 6.589873e+01 6.427539e+01 6.753862e+01 6.251534e+01 5.269319e+01 5.537883e+01 5.097761e+01 6.511201e+01 4.760075e+01 4.523660e+01 2.687536e+01 1.410751e+00 2.329516e+00 3.212423e+00 4.095494e+00 6.748823e+00 5.168500e+00 4.271570e+00 3.954648e+00 3.833641e+00 5.300513e+00 4.176681e+00 3.874641e+00 1.620139e+00 2.413559e-01 3.944429e-01 4.739758e-01 5.592422e-01 1.137444e+00 9.039346e-01 7.475160e-01 7.766913e-01 6.934969e-01 8.810707e-01 8.345650e-01 6.932483e-01 2.978733e-01
<GCONST> 1.321176e+02
<STATE> 3
<MEAN> 39
 3.239739e-01 6.832380e-01 -2.931129e+00 1.668756e+00 -9.093610e+00 -1.101882e+01 -5.244245e+00 -7.693417e+00 -3.741932e+00 -2.482379e+00 -1.609246e-01 -3.388414e-01 6.733943e+01 -2.549791e-01 8.117896e-02 2.567419e-01 -1.243055e-02 -5.245176e-01 7.252303e-02 2.975609e-01 1.843278e-01 -2.713926e-01 -2.722538e-01 2.349351e-01 3.570551e-01 -4.316143e-02 -4.023910e-02 8.114153e-02 1.366342e-02 -2.244338e-01 -3.195685e-02 1.307945e-01 2.171444e-01 1.037715e-01 -3.298879e-02 5.731138e-02 5.697459e-02 -1.221443e-01 -2.595808e-02
<VARIANCE> 39
 2.296292e+01 4.222150e+01 7.198939e+01 5.779769e+01 8.071935e+01 7.138653e+01 6.011169e+01 5.227434e+01 6.424660e+01 5.348716e+01 4.092062e+01 5.184875e+01 2.792181e+01 1.123464e+00 1.777365e+00 2.732000e+00 3.007467e+00 6.537547e+00 4.534706e+00 4.586403e+00 3.737287e+00 5.197985e+00 4.240365e+00 3.845543e+00 4.335731e+00 1.071872e+00 1.717860e-01 2.759770e-01 4.244209e-01 3.639780e-01 1.239024e+00 7.522112e-01 9.010624e-01 6.699181e-01 9.585020e-01 7.071806e-01 6.316107e-01 8.445192e-01 2.071314e-01
<GCONST> 1.296518e+02
<STATE> 4
<MEAN> 39
 8.634202e-01 5.901380e-01 -2.825576e+00 -1.724249e+00 -1.229251e+01 -1.132593e+01 -4.585839e+00 -7.700390e+00 -5.640823e+00 -4.453338e+00 8.430109e-01 -1.597402e+00 6.845863e+01 -2.143746e-01 2.656133e-01 1.902256e-01 -3.582285e-01 -5.341358e-02 3.869026e-01 3.996678e-01 2.200524e-01 -1.441883e-01 -3.200698e-02 2.401294e-02 -8.443230e-02 -2.014019e-01 -4.435857e-02 2.420139e-02 -3.232063e-02 5.363755e-03 2.291342e-01 6.282340e-02 -1.066300e-02 5.554400e-03 9.389481e-02 8.411931e-02 -7.628527e-02 -6.292868e-02 -7.293667e-02
<VARIANCE> 39
 1.974717e+01 3.830456e+01 6.151871e+01 6.403941e+01 6.938573e+01 7.139346e+01 5.550710e+01 4.880226e+01 5.877433e+01 5.911341e+01 4.680264e+01 4.842350e+01 2.499625e+01 6.018533e-01 1.082590e+00 1.441713e+00 1.792363e+00 2.711621e+00 2.165482e+00 2.653571e+00 2.306448e+00 2.609932e+00 2.826053e+00 2.565068e+00 2.545518e+00 7.328995e-01 9.852495e-02 1.747519e-01 2.248051e-01 2.458097e-01 5.234484e-01 4.277567e-01 4.161168e-01 3.786560e-01 5.020307e-01 4.952487e-01 4.491524e-01 4.717105e-01 1.043383e-01
<GCONST> 1.142555e+02
<TRANSP> 5
 0.000000e+00 1.000000e+00 0.000000e+00 0.000000e+00 0.000000e+00
 0.000000e+00 6.167524e-01 3.832476e-01 0.000000e+00 0.000000e+00
 0.000000e+00 0.000000e+00 3.621552e-01 6.378448e-01 0.000000e+00
 0.000000e+00 0.000000e+00 0.000000e+00 4.561280e-01 5.438720e-01
 0.000000e+00 0.000000e+00 0.000000e+00 0.000000e+00 0.000000e+00
<ENDHMM>
~h "t"
<BEGINHMM>
<NUMSTATES> 5
<STATE> 2
<MEAN> 39
 -1.148235e+01 -8.098185e-01 -2.385453e+00 -4.146387e+00 -3.530767e+00 -6.335772e+00 -3.405327e+00 -2.718289e+00 1.320607e+00 -2.015561e+00 6.394434e-02 -8.218639e-01 6.758454e+01 1.100941e+00 7.073750e-02 5.009201e-02 -2.608745e-01 -6.077828e-01 -6.151413e-01 -4.512676e-01 -8.986887e-01 -4.541304e-01 -2.583398e-01 -5.008770e-01 -7.051979e-01 1.228490e+00 5.889937e-01 1.737973e-01 -8.117761e-02 -1.408423e-02 -2.843484e-01 -3.079810e-02 1.247832e-02 -1.951632e-01 -2.580152e-01 4.402277e-02 -1.261495e-02 -6.791405e-02 -1.801020e-01
<VARIANCE> 39
 5.433522e+01 4.114188e+01 5.569979e+01 4.956359e+01 4.412088e+01 6.518678e+01 4.512089e+01 4.489597e+01 4.634570e+01 4.550369e+01 3.931629e+01 4.177334e+01 5.034389e+01 7.521372e+00 3.911346e+00 4.364748e+00 4.822418e+00 5.058139e+00 5.927185e+00 4.258103e+00 4.880393e+00 5.309149e+00 4.890057e+00 4.059191e+00 4.552727e+00 5.443880e+00 9.898134e-01 6.964107e-01 6.914162e-01 7.596886e-01 8.430490e-01 1.054823e+00 8.520505e-01 8.334951e-01 8.927385e-01 8.229566e-01 7.610264e-01 8.519636e-01 9.751859e-01
<GCONST> 1.403559e+02
<STATE> 3
<MEAN> 39
 -8.901465e-01 2.594030e-02 -4.459713e+00 -8.039557e+00 -1.034054e+01 -8.879311e+00 -3.987180e+00 -7.875219e+00 -3.365504e+00 -2.161199e+00 -2.137245e+00 -4.287352e+00 7.180083e+01 1.964631e+00 -7.667071e-02 -6.802327e-01 -6.271753e-01 -1.533489e+00 -2.665125e-01 2.268644e-01 -6.356756e-01 -8.489789e-01 1.762159e-01 1.732355e-01 8.813325e-02 4.244176e-01 -7.304466e-01 -2.432082e-01 4.997813e-02 2.693847e-01 5.314496e-01 3.640043e-01 1.769524e-01 4.516846e-01 3.467896e-01 8.933279e-02 2.845006e-01 3.939555e-01 -4.254886e-01
<VARIANCE> 39
 2.782437e+01 4.061426e+01 6.890912e+01 7.007464e+01 6.650803e+01 7.810049e+01 5.723513e+01 5.683381e+01 5.296461e+01 7.592955e+01 5.650522e+01 6.630505e+01 2.664601e+01 2.722378e+00 2.810478e+00 2.452254e+00 3.188303e+00 5.024698e+00 4.831144e+00 4.258594e+00 4.255974e+00 4.413331e+00 4.370853e+00 3.951889e+00 4.496083e+00 1.718162e+00 4.382358e-01 4.734270e-01 5.470353e-01 6.209018e-01 8.450586e-01 8.414390e-01 7.891620e-01 7.485136e-01 7.372195e-01 9.462479e-01 7.508985e-01 8.127847e-01 3.542155e-01
<GCONST> 1.347874e+02
<STATE> 4
<MEAN> 39
 -9.276175e-02 -2.127683e+00 -6.325032e+00 -9.147570e+00 -1.081294e+01 -7.706159e+00 -3.602283e+00 -7.255327e+00 -3.474446e+00 -2.736419e+00 -1.404319e+00 -3.935490e+00 7.238934e+01 2.555901e-01 -7.191627e-02 -3.008415e-02 4.087195e-01 1.430483e-01 8.488642e-02 -2.762662e-02 -6.080166e-02 -8.901843e-02 8.107844e-02 1.422080e-01 1.592329e-01 -2.685089e-01 -3.039872e-01 9.735912e-02 2.100179e-01 2.905294e-01 3.380941e-01 -2.306005e-02 -1.094250e-01 8.954667e-02 1.344512e-01 -4.573955e-02 -3.943977e-02 -1.151104e-02 -2.079465e-01
<VARIANCE> 39
 2.592779e+01 4.636951e+01 5.810892e+01 6.293227e+01 7.048280e+01 8.284351e+01 6.290900e+01 6.441864e+01 6.948739e+01 8.788258e+01 6.677750e+01 8.394005e+01 2.633852e+01 1.172552e+00 1.615179e+00 1.619758e+00 2.191325e+00 2.857637e+00 3.146515e+00 3.033822e+00 2.840320e+00 3.115102e+00 3.450023e+00 3.145512e+00 3.139841e+00 1.127698e+00 2.915776e-01 2.879515e-01 3.260991e-01 4.216734e-01 5.953892e-01 6.108822e-01 5.838544e-01 5.749717e-01 6.183461e-01 7.017624e-01 6.186928e-01 6.959600e-01 1.791417e-01
<GCONST> 1.256515e+02
<TRANSP> 5
 0.000000e+00 1.000000e+00 0.000000e+00 0.000000e+00 0.000000e+00
 0.000000e+00 7.543632e-01 2.456368e-01 0.000000e+00 0.000000e+00
 0.000000e+00 0.000000e+00 4.785824e-01 5.214176e-01 0.000000e+00
 0.000000e+00 0.000000e+00 0.000000e+00 5.753473e-01 4.246527e-01
 0.000000e+00 0.000000e+00 0.000000e+00 0.000000e+00 0.000000e+00
<ENDHMM>
~h "u"
<BEGINHMM>
<NUMSTATES> 5
<STATE> 2
<MEAN> 39
 6.292939e-02 5.298983e+00 -1.240034e+00 -9.323139e-01 -1.051563e+01 -9.908729e+00 -3.886543e+00 -1.087669e+01 -7.985036e+00 -4.187678e+00 1.492895e+00 -7.730734e-01 6.704623e+01 4.235795e-02 1.213817e-01 -6.297898e-02 -4.270806e-01 -6.944114e-02 4.302388e-01 3.756969e-01 2.095706e-01 2.757953e-01 2.154819e-01 1.429589e-01 2.001047e-01 -2.463328e-01 -1.346135e-01 -1.461713e-01 -5.871522e-02 -9.094369e-03 2.900902e-01 6.474996e-02 -1.167231e-01 1.838752e-01 2.845384e-01 1.328340e-01 -1.141179e-01 -3.934364e-02 -5.166223e-02
<VARIANCE> 39
 2.260695e+01 3.767281e+01 6.597052e+01 5.837870e+01 6.407077e+01 6.372123e+01 6.508962e+01 5.810705e+01 5.825914e+01 6.904584e+01 4.741679e+01 5.394759e+01 2.635659e+01 7.198260e-01 1.209196e+00 1.753148e+00 2.575585e+00 3.067765e+00 2.652152e+00 3.072594e+00 2.874928e+00 3.048801e+00 2.831856e+00 2.868819e+00 2.766611e+00 8.347244e-01 1.548895e-01 1.888976e-01 2.220710e-01 3.095865e-01 4.252736e-01 4.967392e-01 5.075710e-01 4.956348e-01 5.466693e-01 6.046747e-01 5.860524e-01 5.272205e-01 1.004211e-01
<GCONST> 1.186182e+02
<STATE> 3
<MEAN> 39
 2.340336e-01 4.739520e+00 -1.247143e+00 -1.150789e+00 -9.451744e+00 -9.145186e+00 -5.660334e+00 -9.650776e+00 -6.414583e+00 -5.392390e+00 4.558965e-01 -7.961656e-01 6.620285e+01 -9.083048e-02 -1.003121e-01 -1.301900e-01 -4.185380e-01 2.495743e-01 5.063038e-01 1.275973e-01 2.547749e-01 3.943112e-01 5.931947e-01 2.776474e-03 6.200260e-02 -2.924302e-01 -1.212410e-01 -1.786220e-01 -4.617758e-02 1.308923e-02 1.416938e-01 1.082356e-02 1.540788e-02 1.097698e-01 6.452940e-02 1.816050e-01 1.978549e-02 -3.385160e-02 6.388493e-03
<VARIANCE> 39
 2.585975e+01 3.539128e+01 5.746094e+01 6.723608e+01 6.705952e+01 5.801173e+01 5.810123e+01 5.132398e+01 6.055417e+01 5.276082e+01 4.724480e+01 3.977322e+01 2.810369e+01 7.022445e-01 1.225375e+00 1.679263e+00 1.915046e+00 3.013823e+00 2.342518e+00 2.362456e+00 2.487100e+00 3.059078e+00 3.449047e+00 2.965714e+00 2.644593e+00 9.410394e-01 1.288887e-01 1.871399e-01 2.455088e-01 2.960603e-01 4.527738e-01 4.731850e-01 4.985894e-01 4.633840e-01 5.137514e-01 4.991230e-01 5.270401e-01 4.439029e-01 1.176080e-01
<GCONST> 1.167581e+02
<STATE> 4
<MEAN> 39
 -4.696164e-01 4.674500e+00 -1.498572e+00 -1.182515e+00 -7.786581e+00 -7.735846e+00 -4.932936e+00 -9.372954e+00 -5.753578e+00 -3.680565e+00 4.356311e-01 -9.831616e-01 6.525940e+01 -3.133204e-01 -3.661512e-01 -1.214038e-01 -2.415763e-01 3.760231e-01 5.068970e-01 3.020368e-01 5.078307e-01 5.227275e-01 6.072934e-01 5.965692e-02 5.859561e-02 -2.848547e-01 -7.989793e-02 -1.350101e-01 -4.110549e-02 3.302512e-02 7.101908e-02 -6.633829e-02 -1.126787e-02 1.418168e-01 1.072866e-01 6.500073e-02 2.197383e-02 -2.005147e-02 9.755537e-03
<VARIANCE> 39
 2.401203e+01 3.563184e+01 5.150397e+01 5.763283e+01 7.384521e+01 5.372419e+01 5.695469e+01 5.279336e+01 5.371751e+01 5.065783e+01 4.207455e+01 4.202675e+01 3.477366e+01 6.572235e-01 1.150121e+00 1.346564e+00 1.623049e+00 2.385849e+00 2.276039e+00 2.502565e+00 2.258709e+00 2.796106e+00 3.210445e+00 2.760281e+00 2.416709e+00 9.153679e-01 9.171086e-02 1.802273e-01 2.633997e-01 2.745278e-01 4.191590e-01 4.056888e-01 4.524291e-01 4.510577e-01 5.097167e-01 4.427974e-01 4.320349e-01 4.100515e-01 1.065298e-01
<GCONST> 1.140357e+02
<TRANSP> 5
 0.000000e+00 1.000000e+00 0.000000e+00 0.000000e+00 0.000000e+00
 0.000000e+00 2.406194e-01 7.593806e-01 0.000000e+00 0.000000e+00
 0.000000e+00 0.000000e+00 2.144498e-01 7.855502e-01 0.000000e+00
 0.000000e+00 0.000000e+00 0.000000e+00 2.592745e-01 7.407255e-01
 0.000000e+00 0.000000e+00 0.000000e+00 0.000000e+00 0.000000e+00
<ENDHMM>
~h "w"
<BEGINHMM>
<NUMSTATES> 5
<STATE> 2
<MEAN> 39
 2.926480e+00 5.701138e+00 -3.626889e+00 -8.553276e+00 -1.458196e+01 -8.029542e+00 -5.385115e-01 -5.739998e+00 -4.585436e+00 -4.150364e+00 -1.613999e+00 -1.729690e+00 6.668586e+01 2.776074e-01 -4.068415e-01 -8.461042e-01 -1.084883e+00 -3.736190e-01 6.171227e-01 8.769503e-01 1.255732e-01 -1.922335e-01 1.263891e-01 8.853205e-02 3.437182e-01 3.953071e-01 -1.555703e-01 -2.349590e-01 7.014097e-03 1.665540e-01 2.465158e-01 9.391060e-02 1.217393e-02 3.289287e-03 3.820004e-02 3.553698e-02 3.867350e-02 -1.318375e-02 5.710088e-02
<VARIANCE> 39
 1.775760e+01 4.915924e+01 4.893578e+01 1.022752e+02 7.077316e+01 5.554777e+01 6.811032e+01 6.648981e+01 4.962652e+01 5.197300e+01 4.533034e+01 4.156985e+01 3.217501e+01 9.435412e-01 3.255946e+00 2.192238e+00 3.188966e+00 4.940554e+00 4.399082e+00 4.580204e+00 3.908310e+00 3.749448e+00 3.119092e+00 3.620231e+00 3.016004e+00 1.900131e+00 1.176623e-01 3.217788e-01 3.167477e-01 4.968851e-01 8.130929e-01 7.537350e-01 8.729169e-01 6.944370e-01 6.485264e-01 5.925518e-01 6.258281e-01 6.125598e-01 1.550092e-01
<GCONST> 1.271597e+02
<STATE> 3
<MEAN> 39
 2.953023e+00 4.314171e+00 -5.440069e+00 -1.024422e+01 -1.437929e+01 -6.281025e+00 1.245454e+00 -5.264641e+00 -4.864598e+00 -3.937907e+00 -1.358158e+00 -9.800961e-01 6.741856e+01 -1.371863e-01 -8.956091e-01 -7.173280e-01 -4.299245e-01 3.859209e-01 7.396668e-01 5.147794e-01 -7.960066e-02 -8.581003e-02 2.868957e-01 3.027864e-01 1.451474e-01 4.984939e-01 -1.482209e-01 -9.716779e-02 1.436020e-01 3.216245e-01 2.539184e-01 -9.148454e-02 -2.389218e-01 -5.557188e-02 9.255906e-02 7.518625e-02 3.505428e-03 -1.312378e-01 -2.157334e-02
<VARIANCE> 39
 1.844659e+01 5.054152e+01 4.982803e+01 1.030276e+02 7.382809e+01 6.098143e+01 8.048748e+01 7.204377e+01 4.869803e+01 5.683309e+01 5.121431e+01 4.666743e+01 3.327048e+01 9.017548e-01 3.030275e+00 1.957078e+00 3.097769e+00 4.629148e+00 4.254548e+00 5.182787e+00 4.053510e+00 3.653898e+00 3.407411e+00 3.725094e+00 3.569530e+00 1.524494e+00 1.307558e-01 3.535290e-01 3.198659e-01 5.204668e-01 8.217180e-01 8.497462e-01 8.944322e-01 7.608081e-01 7.411567e-01 6.502787e-01 7.383402e-01 6.436306e-01 1.780115e-01
<GCONST> 1.288982e+02
<STATE> 4
<MEAN> 39
 2.046435e+00 2.128793e+00 -6.648284e+00 -1.058051e+01 -1.302746e+01 -4.840780e+00 1.607529e+00 -5.673594e+00 -5.282027e+00 -3.114598e+00 -5.380023e-01 -1.216792e+00 6.831697e+01 -3.415397e-01 -8.562509e-01 -3.010420e-01 1.768795e-01 6.647626e-01 3.260210e-01 -3.587846e-04 -1.807125e-01 1.759837e-01 5.246149e-01 2.363192e-01 -2.076625e-01 3.419158e-01 -5.843931e-02 9.244394e-02 1.840844e-01 2.408534e-01 5.896821e-02 -2.190980e-01 -1.874676e-01 6.142743e-02 1.228212e-01 2.887158e-02 -9.920646e-02 -9.724500e-02 -1.185297e-01
<VARIANCE> 39
 2.095889e+01 5.290934e+01 5.693712e+01 1.082220e+02 7.300310e+01 7.141135e+01 8.653625e+01 7.892496e+01 5.176589e+01 6.269758e+01 5.516953e+01 5.666187e+01 3.545135e+01 8.673253e-01 2.036449e+00 1.763619e+00 2.905511e+00 3.991922e+00 4.568367e+00 4.639545e+00 3.539430e+00 3.724515e+00 3.564319e+00 3.628237e+00 3.617724e+00 1.067121e+00 1.283636e-01 3.183692e-01 2.843262e-01 4.444645e-01 6.895432e-01 6.976511e-01 7.760221e-01 7.058164e-01 6.603230e-01 6.686252e-01 7.249405e-01 6.429967e-01 1.489036e-01
<GCONST> 1.275486e+02
<TRANSP> 5
 0.000000e+00 1.000000e+00 0.000000e+00 0.000000e+00 0.000000e+00
 0.000000e+00 6.079426e-01 3.920574e-01 0.000000e+00 0.000000e+00
 0.000000e+00 0.000000e+00 6.079417e-01 3.920582e-01 0.000000e+00
 0.000000e+00 0.000000e+00 0.000000e+00 7.277285e-01 2.722714e-01
 0.000000e+00 0.000000e+00 0.000000e+00 0.000000e+00 0.000000e+00
<ENDHMM>
~h "aa"
<BEGINHMM>
<NUMSTATES> 5
<STATE> 2
<MEAN> 39
 2.368715e+00 -6.739045e+00 -1.316624e+01 -1.390967e+01 -7.013428e+00 3.118646e+00 5.474560e+00 -6.878409e+00 -3.547561e+00 -3.715999e-01 -5.606167e+00 -7.040110e+00 7.345508e+01 -7.270037e-02 -6.108210e-02 4.882457e-02 3.815949e-01 1.806749e-01 -2.999614e-01 -2.955896e-01 1.111050e-01 3.161243e-01 1.391009e-01 -1.047805e-01 -2.673988e-01 -9.687944e-02 -1.561604e-03 2.021041e-01 1.074933e-01 8.871448e-02 -1.057991e-01 -2.375414e-01 -1.251817e-01 9.783141e-02 6.379306e-02 -1.899863e-02 9.056596e-02 9.143785e-02 -1.065761e-01
<VARIANCE> 39
 1.160146e+01 3.954884e+01 2.617315e+01 4.399861e+01 5.470977e+01 5.315276e+01 5.615451e+01 7.632094e+01 5.979406e+01 5.547771e+01 6.682484e+01 6.739738e+01 2.291956e+01 1.793391e-01 5.538364e-01 5.186718e-01 7.102842e-01 1.210859e+00 1.528932e+00 1.342872e+00 1.674177e+00 1.503933e+00 1.373446e+00 1.601937e+00 1.462173e+00 1.794764e-01 3.911789e-02 9.698064e-02 9.959553e-02 1.377787e-01 1.894647e-01 2.301871e-01 2.612259e-01 2.863946e-01 2.783947e-01 2.536095e-01 2.563236e-01 2.821996e-01 3.157486e-02
<GCONST> 9.450064e+01
<STATE> 3
<MEAN> 39
 1.951592e+00 -4.145941e+00 -1.107815e+01 -9.767580e+00 -7.267779e+00 -3.051267e+00 2.378653e+00 -3.472466e+00 -1.245724e+00 1.352841e+00 -3.378561e+00 -6.447711e+00 7.074855e+01 -3.613617e-01 9.350994e-01 9.660726e-01 1.375106e+00 2.391619e-01 -1.040116e+00 -1.028490e+00 2.222750e-01 4.263260e-01 -7.946999e-02 4.199269e-01 4.945504e-01 -9.881262e-01 -1.292656e-01 1.182539e-01 1.999339e-01 1.222406e-01 5.099835e-02 9.113088e-02 4.945364e-02 -2.037272e-02 -1.366477e-01 -1.673235e-01 7.509865e-02 1.410525e-01 -1.935592e-01
<VARIANCE> 39
 1.135982e+01 4.597465e+01 3.748318e+01 5.114547e+01 4.919326e+01 7.062013e+01 6.643552e+01 6.696339e+01 6.133755e+01 6.132693e+01 6.968986e+01 7.581591e+01 2.999729e+01 7.794386e-01 1.382908e+00 1.761804e+00 1.908463e+00 3.119348e+00 3.552830e+00 3.496355e+00 3.454688e+00 3.612348e+00 3.161686e+00 3.604462e+00 3.248379e+00 9.469363e-01 9.675444e-02 2.288557e-01 2.593925e-01 2.950925e-01 4.316396e-01 5.780098e-01 6.155245e-01 5.630845e-01 6.079983e-01 5.231180e-01 5.806041e-01 5.793740e-01 1.131637e-01
<GCONST> 1.200372e+02
<STATE> 4
<MEAN> 39
 -1.989442e+00 1.765482e-01 -7.206911e+00 -5.643662e+00 -4.859120e+00 -2.623686e+00 8.021879e-01 -1.806725e+00 -5.035090e-02 5.489146e-01 -7.914144e-01 -3.461263e+00 6.389526e+01 -8.618488e-01 3.146130e-01 8.065381e-01 7.677048e-01 1.553468e-01 -3.060395e-01 -3.059217e-01 2.716477e-01 3.304176e-02 -3.466505e-01 3.323878e-01 5.032128e-01 -8.355476e-01 -3.621743e-02 -1.493709e-01 1.090625e-02 -1.544380e-01 -1.054178e-01 -5.241384e-02 -2.670764e-02 -1.522623e-01 -9.629758e-02 -1.669353e-02 -4.799858e-02 -5.044820e-02 3.296339e-01
<VARIANCE> 39
 2.061783e+01 3.403243e+01 3.136967e+01 3.628458e+01 4.209245e+01 5.594777e+01 4.633750e+01 4.426415e+01 3.891761e+01 4.235444e+01 4.709989e+01 4.421621e+01 5.250138e+01 1.029326e+00 1.860067e+00 1.936308e+00 1.947239e+00 2.469482e+00 2.997283e+00 2.910109e+00 2.985326e+00 3.188109e+00 3.249290e+00 2.694036e+00 2.977208e+00 1.651317e+00 1.666993e-01 2.385272e-01 2.853332e-01 3.146169e-01 4.461685e-01 5.029367e-01 5.194011e-01 5.065512e-01 5.611516e-01 5.485984e-01 5.724688e-01 5.195802e-01 2.941673e-01
<GCONST> 1.186507e+02
<TRANSP> 5
 0.000000e+00 1.000000e+00 0.000000e+00 0.000000e+00 0.000000e+00
 0.000000e+00 8.132321e-01 1.867679e-01 0.000000e+00 0.000000e+00
 0.000000e+00 0.000000e+00 7.429252e-01 2.570749e-01 0.000000e+00
 0.000000e+00 0.000000e+00 0.000000e+00 4.818535e-01 5.181465e-01
 0.000000e+00 0.000000e+00 0.000000e+00 0.000000e+00 0.000000e+00
<ENDHMM>
~h "ae"
<BEGINHMM>
<NUMSTATES> 5
<STATE> 2
<MEAN> 39
 1.622431e+00 -8.173862e+00 -1.170527e+01 -9.752891e+00 -8.249844e+00 -3.695914e+00 1.045492e+00 -3.476849e+00 1.006024e+00 1.711123e+00 -3.888822e+00 -8.644822e+00 7.391372e+01 -2.712333e-01 -6.079481e-02 5.840181e-01 6.815228e-01 -7.240129e-02 -1.191830e+00 -9.206561e-01 6.299009e-01 9.839199e-01 -1.357392e-01 -5.450929e-01 -2.291963e-01 -3.558391e-02 -2.177186e-02 1.903616e-01 1.925680e-01 1.584849e-01 -1.092363e-01 -2.285621e-01 -5.031727e-02 2.353331e-02 -9.697286e-02 -1.651890e-01 1.406187e-01 3.090626e-01 -1.207388e-01
<VARIANCE> 39
 1.344249e+01 3.795352e+01 3.132718e+01 4.225427e+01 4.984660e+01 8.271065e+01 5.395216e+01 7.355263e+01 7.691322e+01 6.278750e+01 6.767950e+01 5.534044e+01 2.359865e+01 3.168352e-01 6.359753e-01 9.486810e-01 1.513007e+00 1.763378e+00 3.354339e+00 2.459486e+00 2.730685e+00 2.569777e+00 2.381811e+00 2.541974e+00 2.623212e+00 2.472781e-01 4.429071e-02 1.031087e-01 1.351532e-01 1.970590e-01 2.794746e-01 4.574557e-01 4.462885e-01 4.147310e-01 5.116397e-01 4.019173e-01 4.341209e-01 4.081789e-01 3.486746e-02
<GCONST> 1.069090e+02
<STATE> 3
<MEAN> 39
 -2.661617e-01 -5.952050e+00 -5.535484e+00 -4.307139e+00 -1.273693e+01 -1.407412e+01 -3.024557e+00 6.578324e-01 3.623841e+00 -6.898779e-01 -3.783451e+00 -5.015954e+00 7.257511e+01 -3.203174e-01 8.739331e-01 1.248686e+00 8.271077e-01 -5.551913e-01 -8.263159e-01 -2.659588e-01 -2.996172e-01 -5.800725e-01 -4.585889e-01 6.268349e-01 9.100594e-01 -6.742231e-01 -1.497611e-02 1.140023e-01 -2.872094e-02 -3.767420e-02 1.967219e-01 3.281253e-01 1.114134e-01 -1.824917e-01 -2.230940e-01 -1.317952e-02 3.990458e-02 -7.632528e-02 -1.403728e-01
<VARIANCE> 39
 1.247266e+01 3.507436e+01 4.675229e+01 4.033582e+01 6.227640e+01 6.491570e+01 5.593620e+01 5.341079e+01 5.299964e+01 5.739408e+01 4.896321e+01 5.524006e+01 2.135014e+01 3.634741e-01 7.441585e-01 1.088476e+00 1.287476e+00 1.787475e+00 2.076314e+00 1.999050e+00 2.052402e+00 2.268758e+00 2.208027e+00 2.453064e+00 2.589055e+00 3.110615e-01 4.669487e-02 1.030829e-01 1.560814e-01 2.014787e-01 2.578685e-01 2.712080e-01 2.959730e-01 3.426090e-01 3.798788e-01 3.720054e-01 3.741098e-01 3.571965e-01 4.707019e-02
<GCONST> 1.038663e+02
<STATE> 4
<MEAN> 39
 -3.604321e+00 -1.784531e+00 -1.669424e+00 -2.860620e-01 -1.038809e+01 -1.332437e+01 -1.556205e+00 -1.634389e-01 2.060268e+00 -9.157740e-01 -1.809646e+00 -2.148114e+00 6.597977e+01 -4.239873e-01 5.596685e-01 3.877844e-01 4.397052e-01 5.106009e-01 3.684903e-01 6.767760e-02 -9.654942e-02 -1.912480e-01 -9.786531e-02 2.571744e-01 3.983691e-01 -1.104378e+00 1.620712e-02 -5.225315e-02 -1.878759e-01 -1.540690e-01 1.215968e-01 2.444190e-01 5.033183e-02 3.086471e-02 -3.303632e-03 8.388043e-02 1.443029e-02 -6.260343e-02 -4.815928e-02
<VARIANCE> 39
 2.452324e+01 3.705185e+01 5.098542e+01 3.233716e+01 5.725795e+01 6.262689e+01 7.148678e+01 5.668382e+01 5.804315e+01 5.755859e+01 5.765458e+01 6.469922e+01 4.044117e+01 4.575305e-01 1.072127e+00 1.460298e+00 1.305484e+00 1.876842e+00 2.646590e+00 2.354653e+00 2.281348e+00 2.578255e+00 2.627731e+00 2.866111e+00 2.557104e+00 5.100548e-01 5.589565e-02 1.521929e-01 2.074924e-01 2.084056e-01 2.917861e-01 4.059999e-01 4.119231e-01 4.156613e-01 4.459640e-01 4.512150e-01 5.377527e-01 5.027870e-01 7.885078e-02
<GCONST> 1.116183e+02
<TRANSP> 5
 0.000000e+00 1.000000e+00 0.000000e+00 0.000000e+00 0.000000e+00
 0.000000e+00 8.028838e-01 1.971161e-01 0.000000e+00 0.000000e+00
 0.000000e+00 0.000000e+00 5.862840e-01 4.137160e-01 0.000000e+00
 0.000000e+00 0.000000e+00 0.000000e+00 6.875046e-01 3.124954e-01
 0.000000e+00 0.000000e+00 0.000000e+00 0.000000e+00 0.000000e+00
<ENDHMM>
~h "ai"
<BEGINHMM>
<NUMSTATES> 5
<STATE> 2
<MEAN> 39
 -4.946089e-01 -5.472822e+00 -4.123660e+00 -3.671519e+00 -1.150001e+01 -1.510844e+01 -6.282915e+00 -3.168829e+00 3.923591e+00 -1.380159e+00 -3.423334e+00 -3.655066e+00 7.407463e+01 -5.579793e-01 5.484948e-01 2.082078e+00 1.528630e+00 -1.181010e+00 -2.036161e+00 -3.090840e-01 4.602390e-01 -4.324582e-01 -1.548944e+00 1.043346e-01 1.146690e+00 -3.563805e-01 4.233056e-02 3.712928e-01 2.503671e-02 -2.833939e-01 -5.683716e-02 6.057303e-01 4.953686e-01 -3.973815e-01 -7.470610e-01 -5.979615e-02 3.354620e-01 1.471675e-01 -2.198550e-01
<VARIANCE> 39
 1.390519e+01 4.148026e+01 6.284953e+01 6.119222e+01 6.538551e+01 7.496461e+01 6.037706e+01 7.231391e+01 5.657162e+01 8.485836e+01 6.640259e+01 7.586675e+01 1.798399e+01 4.047504e-01 1.126884e+00 1.790395e+00 2.064216e+00 2.337428e+00 3.967724e+00 3.305066e+00 4.501327e+00 5.027227e+00 4.219692e+00 5.282187e+00 3.051287e+00 3.781885e-01 6.122041e-02 1.682898e-01 3.495470e-01 2.865139e-01 5.485652e-01 6.399668e-01 6.172826e-01 6.941345e-01 7.387099e-01 9.902190e-01 8.055435e-01 7.954195e-01 5.733455e-02
<GCONST> 1.209831e+02
<STATE> 3
<MEAN> 39
 -2.087506e+00 -4.844775e-01 2.771205e+00 -7.643127e-01 -1.530214e+01 -1.772772e+01 -5.055940e+00 -6.746572e+00 -3.648799e+00 -4.862592e+00 -4.148354e-01 -1.215021e+00 7.112693e+01 -3.401907e-01 9.338876e-01 8.290063e-01 5.112949e-01 1.554063e-01 4.033226e-01 2.640101e-01 -5.990394e-01 -7.561215e-01 -2.160231e-01 -1.553061e-01 -1.807201e-01 -8.128126e-01 6.536765e-02 -5.235787e-02 -3.347922e-01 -1.779571e-01 3.511255e-01 3.280807e-01 -4.447637e-02 1.304205e-01 2.644787e-01 2.809377e-01 -6.681784e-02 -1.898817e-01 -1.108974e-01
<VARIANCE> 39
 1.399160e+01 3.703854e+01 6.813522e+01 5.421624e+01 6.411535e+01 7.025806e+01 5.295798e+01 6.318199e+01 7.430295e+01 5.762428e+01 5.553024e+01 5.809007e+01 1.883560e+01 3.460606e-01 8.396651e-01 1.639376e+00 1.326028e+00 2.101189e+00 2.153095e+00 2.323720e+00 2.449234e+00 3.417231e+00 2.323527e+00 2.709239e+00 2.167511e+00 4.826284e-01 5.851220e-02 1.552714e-01 2.304251e-01 2.318081e-01 3.498084e-01 4.160878e-01 4.250543e-01 4.905608e-01 5.865017e-01 5.487812e-01 6.017829e-01 4.665408e-01 6.048027e-02
<GCONST> 1.116148e+02
<STATE> 4
<MEAN> 39
 -5.052555e+00 3.534742e+00 4.156204e+00 1.530428e+00 -1.063030e+01 -1.261992e+01 -2.329112e+00 -7.890993e+00 -3.565187e+00 -3.484941e+00 -2.394324e+00 -2.322895e+00 6.543157e+01 -2.874065e-01 7.947690e-02 -8.483846e-02 1.579115e-01 7.817100e-01 6.783359e-01 1.203338e-01 3.494945e-01 1.871004e-01 2.494906e-01 1.768929e-01 6.622177e-02 -9.089468e-01 2.722114e-02 -1.267584e-01 -2.399718e-01 -1.419335e-01 1.379306e-01 1.349333e-01 -4.628134e-02 1.367314e-01 1.364953e-01 1.489212e-01 8.161117e-02 2.485119e-02 -7.536598e-03
<VARIANCE> 39
 2.581867e+01 5.419820e+01 6.425578e+01 4.443598e+01 6.359699e+01 6.025933e+01 6.257590e+01 5.149528e+01 7.052342e+01 5.978406e+01 4.705258e+01 5.115051e+01 4.067387e+01 4.558364e-01 1.118868e+00 1.777971e+00 1.301095e+00 2.335964e+00 2.394955e+00 2.192435e+00 2.433804e+00 2.768896e+00 2.806432e+00 2.604644e+00 2.317489e+00 5.682563e-01 6.954475e-02 1.683878e-01 2.207959e-01 2.121152e-01 3.434814e-01 3.695596e-01 4.175489e-01 4.036192e-01 5.383793e-01 4.379130e-01 4.795347e-01 4.224333e-01 5.936949e-02
<GCONST> 1.126712e+02
<TRANSP> 5
 0.000000e+00 1.000000e+00 0.000000e+00 0.000000e+00 0.000000e+00
 0.000000e+00 7.088998e-01 2.911002e-01 0.000000e+00 0.000000e+00
 0.000000e+00 0.000000e+00 5.793479e-01 4.206521e-01 0.000000e+00
 0.000000e+00 0.000000e+00 0.000000e+00 5.948845e-01 4.051156e-01
 0.000000e+00 0.000000e+00 0.000000e+00 0.000000e+00 0.000000e+00
<ENDHMM>
~h "ao"
<BEGINHMM>
<NUMSTATES> 5
<STATE> 2
<MEAN> 39
 7.749544e-01 -5.096953e+00 -1.046106e+01 -1.832508e+01 -1.443666e+01 4.420652e-01 7.832664e+00 -4.820508e-01 -5.261185e+00 -8.232645e+00 -4.111969e+00 -3.655080e+00 7.512741e+01 2.507658e-01 5.810192e-01 1.530560e-01 -4.181908e-01 -7.806464e-01 -1.596863e-01 -8.142464e-02 -2.220441e-01 2.537698e-01 2.255847e-01 -3.215292e-01 1.783879e-01 -5.604667e-01 2.237925e-02 1.706609e-01 4.359173e-02 -3.577114e-03 -5.357782e-03 -7.263182e-02 -8.270602e-02 -7.086765e-02 9.743381e-03 1.046180e-01 -6.723255e-02 -5.788651e-02 -9.938794e-02
<VARIANCE> 39
 1.339235e+01 3.304666e+01 2.480920e+01 2.195223e+01 8.150833e+01 7.146177e+01 4.998268e+01 9.615981e+01 4.848568e+01 6.271856e+01 4.258418e+01 5.409461e+01 2.205399e+01 5.406801e-01 9.181043e-01 5.059445e-01 7.617989e-01 1.429851e+00 1.681112e+00 1.560920e+00 2.271297e+00 2.342180e+00 2.775084e+00 1.804925e+00 2.259643e+00 6.164787e-01 9.059131e-02 1.006276e-01 9.161222e-02 1.340785e-01 2.590305e-01 3.240034e-01 2.430675e-01 3.325965e-01 4.217761e-01 4.077836e-01 3.107101e-01 3.345469e-01 6.182897e-02
<GCONST> 1.024579e+02
<STATE> 3
<MEAN> 39
 4.763754e+00 3.520752e-01 -9.950376e+00 -2.130684e+01 -1.729397e+01 1.786018e+00 6.409515e+00 -4.869130e+00 -1.945679e+00 -3.832616e+00 -5.415148e+00 -2.228990e+00 7.073800e+01 2.089129e-02 7.409773e-01 2.934403e-01 6.033127e-02 -4.215160e-01 -7.043446e-01 -3.087149e-01 3.219678e-01 1.363502e-01 4.080491e-02 -1.003494e-01 -1.132731e-01 -4.735913e-01 -4.171885e-02 4.433951e-02 2.818783e-02 9.463321e-02 6.246023e-02 -6.415717e-02 -5.454518e-02 1.217987e-02 1.302557e-02 -2.421150e-02 2.820011e-02 -2.442579e-02 -3.497096e-02
<VARIANCE> 39
 5.395816e+00 3.507298e+01 4.200249e+01 2.507277e+01 7.714992e+01 5.861015e+01 3.586540e+01 8.909354e+01 6.665172e+01 6.320253e+01 4.155782e+01 4.178461e+01 1.410282e+01 1.071217e-01 4.880808e-01 4.477732e-01 5.896205e-01 7.667729e-01 1.143823e+00 1.126494e+00 1.254986e+00 1.302557e+00 1.026421e+00 1.144180e+00 1.111763e+00 1.619348e-01 1.955025e-02 5.270415e-02 6.785671e-02 8.168377e-02 1.405692e-01 1.663407e-01 1.654990e-01 1.931328e-01 2.168181e-01 1.858580e-01 2.021324e-01 1.927489e-01 1.497187e-02
<GCONST> 8.353017e+01
<STATE> 4
<MEAN> 39
 4.150233e-01 8.375475e+00 -4.853163e+00 -1.368295e+01 -1.604274e+01 -7.278428e+00 1.312588e+00 -2.090302e-01 -1.056072e+00 -1.749115e+00 -4.663670e+00 -3.851648e+00 6.154331e+01 -6.642171e-01 -6.015353e-02 2.562469e-01 1.058010e+00 1.080549e+00 4.650173e-02 -3.761237e-01 1.173036e-01 1.966209e-01 1.211061e-01 3.423637e-01 2.438312e-01 -8.196574e-01 -5.615081e-02 -1.582016e-01 -3.451336e-02 3.061290e-02 1.111740e-01 1.396113e-01 7.532223e-02 2.283055e-02 2.872302e-02 3.124699e-02 8.065306e-02 9.595729e-02 2.828569e-02
<VARIANCE> 39
 1.241754e+01 2.135645e+01 2.902390e+01 3.674440e+01 5.755424e+01 3.409887e+01 4.809093e+01 3.396522e+01 4.386096e+01 5.207987e+01 3.290728e+01 3.754404e+01 3.167727e+01 3.485601e-01 8.253024e-01 7.058245e-01 1.199764e+00 1.587551e+00 1.685853e+00 1.557750e+00 1.981561e+00 2.226029e+00 1.990680e+00 1.917747e+00 2.044468e+00 2.428257e-01 4.707621e-02 9.801444e-02 1.105548e-01 1.942179e-01 2.331287e-01 2.503320e-01 2.602785e-01 3.372976e-01 4.077124e-01 3.666611e-01 3.136579e-01 3.427632e-01 2.595135e-02
<GCONST> 9.738198e+01
<TRANSP> 5
 0.000000e+00 1.000000e+00 0.000000e+00 0.000000e+00 0.000000e+00
 0.000000e+00 7.846138e-01 2.153861e-01 0.000000e+00 0.000000e+00
 0.000000e+00 0.000000e+00 8.968763e-01 1.031238e-01 0.000000e+00
 0.000000e+00 0.000000e+00 0.000000e+00 9.117323e-01 8.826773e-02
 0.000000e+00 0.000000e+00 0.000000e+00 0.000000e+00 0.000000e+00
<ENDHMM>
~h "au"
<BEGINHMM>
<NUMSTATES> 5
<STATE> 2
<MEAN> 39
 1.953097e+00 -3.529905e+00 -9.442053e+00 -8.733747e+00 -1.095320e+01 -8.736931e+00 -5.720778e+00 -6.076549e+00 1.466999e+00 7.550886e-01 3.134525e-01 -6.452721e+00 7.337497e+01 6.136861e-02 8.294654e-01 4.845961e-01 6.722944e-01 -2.028049e-01 -6.361805e-01 -7.903243e-01 -7.164896e-01 -3.049339e-01 -3.312151e-01 5.102643e-01 5.673671e-01 -5.357860e-01 1.975019e-03 2.035916e-01 8.846457e-02 7.848393e-02 1.308582e-01 9.828974e-02 2.321274e-02 -1.094856e-01 -2.638568e-01 -2.156400e-01 -5.749650e-02 1.076861e-01 -1.495565e-01
<VARIANCE> 39
 9.054263e+00 3.297759e+01 2.815435e+01 5.327286e+01 4.719896e+01 7.421563e+01 6.727303e+01 5.227487e+01 6.588080e+01 8.098623e+01 6.694756e+01 7.898571e+01 1.812883e+01 2.377103e-01 7.396595e-01 6.119165e-01 9.779952e-01 1.338609e+00 2.082405e+00 1.672907e+00 2.717340e+00 2.544164e+00 2.465883e+00 2.187577e+00 2.276140e+00 2.581147e-01 3.718123e-02 9.695074e-02 1.133475e-01 1.614102e-01 2.227927e-01 3.261017e-01 3.307925e-01 3.436190e-01 4.156474e-01 4.211723e-01 3.852660e-01 3.994394e-01 3.262212e-02
<GCONST> 1.019837e+02
<STATE> 3
<MEAN> 39
 3.104565e+00 3.437523e+00 -5.724491e+00 -5.744248e+00 -1.102538e+01 -8.583389e+00 -6.917030e+00 -1.334600e+01 -5.262938e+00 -1.579409e+00 3.253215e+00 -3.633240e-01 6.862128e+01 1.504178e-02 1.274171e+00 6.170579e-01 4.859550e-01 3.708088e-01 2.484926e-01 7.747486e-02 -1.636530e-01 -1.110017e+00 -1.201442e+00 -5.345206e-01 2.842140e-01 -1.013193e+00 -7.344826e-02 -5.571451e-02 4.709113e-02 -2.366526e-02 1.058428e-01 8.729438e-02 1.431640e-01 3.868507e-01 1.536374e-01 4.760628e-03 -2.065159e-01 -1.839184e-01 -5.018379e-02
<VARIANCE> 39
 7.788294e+00 2.913035e+01 2.308341e+01 5.287192e+01 4.503610e+01 6.215445e+01 7.448476e+01 7.013618e+01 8.154508e+01 6.583806e+01 4.308508e+01 5.958276e+01 1.675028e+01 2.513110e-01 7.291011e-01 7.837132e-01 1.271691e+00 1.453679e+00 2.020014e+00 2.182718e+00 2.702815e+00 2.476386e+00 2.628886e+00 2.493748e+00 2.442998e+00 2.937270e-01 3.894084e-02 9.309405e-02 1.274631e-01 2.063800e-01 2.681199e-01 3.074109e-01 3.627014e-01 4.362355e-01 4.489770e-01 4.246250e-01 4.025654e-01 3.984255e-01 3.396051e-02
<GCONST> 1.031035e+02
<STATE> 4
<MEAN> 39
 3.850507e-01 8.876015e+00 -1.734239e+00 -2.766903e+00 -6.781311e+00 -6.225830e+00 -3.842926e+00 -8.957956e+00 -6.919390e+00 -5.993321e+00 -1.622374e+00 -1.532970e+00 6.222583e+01 -4.641237e-01 8.260188e-02 4.354833e-01 5.437011e-01 7.690022e-01 3.077933e-01 2.597582e-01 6.246368e-01 1.851815e-01 -2.454839e-01 -3.796292e-01 -1.237404e-01 -7.562804e-01 -5.526422e-02 -2.197739e-01 -1.106648e-01 -5.866171e-02 2.729091e-02 2.387877e-02 2.606800e-02 6.041169e-03 1.104890e-01 1.860880e-01 1.256753e-01 7.712277e-02 8.519666e-02
<VARIANCE> 39
 1.110942e+01 3.266421e+01 2.340306e+01 3.579614e+01 3.867207e+01 4.135888e+01 5.043956e+01 4.248640e+01 4.994747e+01 5.045351e+01 4.352713e+01 4.352535e+01 2.988328e+01 4.023510e-01 9.477399e-01 9.514256e-01 1.255742e+00 1.581015e+00 1.859409e+00 2.113642e+00 2.523990e+00 2.430031e+00 2.895715e+00 2.228719e+00 2.390230e+00 3.773301e-01 4.993995e-02 1.168415e-01 1.451969e-01 1.864380e-01 2.494684e-01 3.053450e-01 3.236749e-01 4.037287e-01 3.987468e-01 4.319264e-01 3.501717e-01 3.757579e-01 3.452000e-02
<GCONST> 1.022249e+02
<TRANSP> 5
 0.000000e+00 1.000000e+00 0.000000e+00 0.000000e+00 0.000000e+00
 0.000000e+00 7.083864e-01 2.916136e-01 0.000000e+00 0.000000e+00
 0.000000e+00 0.000000e+00 7.157074e-01 2.842927e-01 0.000000e+00
 0.000000e+00 0.000000e+00 0.000000e+00 7.732816e-01 2.267184e-01
 0.000000e+00 0.000000e+00 0.000000e+00 0.000000e+00 0.000000e+00
<ENDHMM>
~h "ee"
<BEGINHMM>
<NUMSTATES> 5
<STATE> 2
<MEAN> 39
 -3.689794e+00 -8.823983e-01 6.427756e+00 -3.427335e+00 -2.174677e+01 -1.934119e+01 -4.638905e+00 -1.016624e+01 -7.941791e+00 -5.717645e+00 2.421082e+00 -1.909947e+00 7.535979e+01 2.067957e-03 -3.598335e-02 -2.572751e-02 -2.883574e-02 4.318612e-02 -3.911220e-03 3.130396e-02 9.379922e-02 4.978396e-02 -4.526926e-02 1.972516e-02 -2.921240e-03 -1.168309e-01 7.248055e-03 3.208684e-02 -2.227905e-02 1.459420e-02 4.398372e-02 2.153974e-02 4.821728e-03 2.598317e-02 8.998052e-03 -2.626079e-02 -1.734985e-02 -3.866763e-03 -4.529098e-02
<VARIANCE> 39
 7.558437e+00 2.191179e+01 4.671463e+01 5.521151e+01 4.430223e+01 5.489368e+01 4.097157e+01 4.932106e+01 3.062513e+01 4.902882e+01 6.819454e+01 8.968446e+01 9.355474e+00 8.747445e-02 2.879263e-01 3.450584e-01 5.002826e-01 6.430402e-01 7.044194e-01 7.067530e-01 7.502763e-01 8.090603e-01 8.315712e-01 8.579314e-01 8.447762e-01 1.074482e-01 1.631985e-02 4.901179e-02 6.517269e-02 8.775788e-02 1.248793e-01 1.328305e-01 1.420298e-01 1.287601e-01 1.513149e-01 1.648282e-01 1.569301e-01 1.572800e-01 1.808294e-02
<GCONST> 7.670399e+01
<STATE> 3
<MEAN> 39
 -2.701334e+00 -1.385932e-01 6.093582e+00 -8.238497e-01 -1.990987e+01 -2.142754e+01 -6.108591e+00 -6.088093e+00 -5.633533e+00 -7.378021e+00 -2.226726e-01 6.883132e-01 7.187126e+01 7.046510e-02 2.073222e-01 -2.243312e-01 1.046803e-01 2.696046e-01 1.717836e-01 2.397099e-01 2.069019e-01 2.091777e-01 -2.588514e-01 -3.052731e-01 -1.943452e-01 -5.786427e-01 -9.976747e-04 7.557844e-02 -2.665888e-02 9.140933e-02 1.862231e-01 7.872476e-02 2.759540e-02 3.131480e-02 -5.569745e-02 1.894491e-02 -1.064141e-01 -5.766953e-02 -1.218272e-01
<VARIANCE> 39
 1.014422e+01 2.175649e+01 3.251299e+01 4.089914e+01 8.447457e+01 5.488122e+01 3.086770e+01 4.914507e+01 5.909246e+01 4.276831e+01 5.669909e+01 5.505013e+01 1.389235e+01 2.354673e-01 5.916352e-01 6.116770e-01 9.725919e-01 1.264856e+00 1.043537e+00 1.792541e+00 1.397916e+00 1.777779e+00 1.536702e+00 1.702536e+00 1.859510e+00 2.347758e-01 4.289557e-02 1.175688e-01 1.038481e-01 1.793789e-01 2.423787e-01 2.058548e-01 3.101890e-01 2.882836e-01 3.462935e-01 2.912523e-01 3.316447e-01 2.979524e-01 3.843508e-02
<GCONST> 9.540688e+01
<STATE> 4
<MEAN> 39
 -4.880688e+00 7.441646e-01 4.073924e+00 -8.923793e-02 -1.350050e+01 -1.508026e+01 -2.918231e+00 -4.101423e+00 -4.577234e+00 -5.429842e+00 -1.050705e+00 -9.720891e-01 6.490431e+01 -2.424530e-01 2.065427e-01 -5.431253e-01 2.536978e-01 1.317214e+00 1.020576e+00 2.317231e-01 4.098138e-01 3.334302e-01 4.165532e-01 -9.735841e-02 2.516252e-01 -1.211250e+00 -2.713666e-02 -1.590906e-02 -6.029904e-02 -3.116818e-02 1.245049e-01 8.222529e-02 -1.204242e-02 1.229310e-02 1.935736e-02 4.568390e-02 8.819164e-02 3.380261e-02 -1.365285e-03
<VARIANCE> 39
 1.225732e+01 2.178104e+01 2.909061e+01 3.371018e+01 6.390152e+01 6.212357e+01 4.305481e+01 4.550531e+01 5.238941e+01 6.153658e+01 5.770650e+01 6.775848e+01 3.469456e+01 4.428076e-01 1.023703e+00 8.828292e-01 1.274183e+00 1.750462e+00 2.005248e+00 1.946745e+00 2.519834e+00 2.874899e+00 2.619415e+00 3.180456e+00 2.707463e+00 5.587691e-01 5.529545e-02 1.686093e-01 1.279612e-01 1.880522e-01 2.761152e-01 3.299802e-01 3.563897e-01 4.490722e-01 5.654811e-01 4.555348e-01 4.951434e-01 5.033508e-01 7.509182e-02
<GCONST> 1.077130e+02
<TRANSP> 5
 0.000000e+00 1.000000e+00 0.000000e+00 0.000000e+00 0.000000e+00
 0.000000e+00 9.151642e-01 8.483578e-02 0.000000e+00 0.000000e+00
 0.000000e+00 0.000000e+00 7.700047e-01 2.299953e-01 0.000000e+00
 0.000000e+00 0.000000e+00 0.000000e+00 8.395964e-01 1.604036e-01
 0.000000e+00 0.000000e+00 0.000000e+00 0.000000e+00 0.000000e+00
<ENDHMM>
~h "ei"
<BEGINHMM>
<NUMSTATES> 5
<STATE> 2
<MEAN> 39
 -2.367265e+00 -3.985032e+00 1.806607e+00 -4.423070e+00 -1.792268e+01 -2.008961e+01 -3.572404e+00 -1.422700e+00 -2.737027e+00 -7.426570e+00 1.167003e+00 -2.763352e+00 7.560837e+01 -1.097292e-01 5.271553e-01 7.120061e-01 2.738547e-01 -2.989675e-01 -1.039041e-01 -5.272030e-02 -9.074961e-01 -8.204670e-01 4.017223e-02 4.790412e-01 1.440298e-01 -3.430523e-01 -7.817554e-04 9.286210e-02 -3.197143e-03 5.437183e-02 7.071839e-02 1.005620e-01 7.948561e-03 -8.217562e-02 -5.578952e-02 2.548206e-03 -9.606808e-02 -6.864873e-02 -7.787911e-02
<VARIANCE> 39
 6.313572e+00 2.358950e+01 3.903595e+01 5.024664e+01 5.023407e+01 7.484251e+01 4.791269e+01 5.754745e+01 4.238366e+01 7.227696e+01 4.884643e+01 5.960665e+01 9.409981e+00 1.352400e-01 4.004622e-01 5.503721e-01 6.274488e-01 8.179781e-01 9.577755e-01 9.497453e-01 1.503599e+00 1.133870e+00 1.597099e+00 1.225345e+00 1.384328e+00 1.884418e-01 2.217444e-02 5.925261e-02 8.487040e-02 1.024449e-01 1.274787e-01 1.446942e-01 1.749848e-01 2.333454e-01 1.861686e-01 2.287517e-01 1.932561e-01 2.287847e-01 2.377625e-02
<GCONST> 8.566307e+01
<STATE> 3
<MEAN> 39
 -3.242051e+00 2.936949e+00 9.068360e+00 -1.529073e+00 -1.872324e+01 -1.543032e+01 -2.933754e+00 -1.070604e+01 -9.520732e+00 -5.043700e+00 1.192603e+00 -3.251676e+00 6.998515e+01 -1.403328e-01 7.616080e-01 3.540778e-01 2.833570e-01 4.769930e-01 5.934103e-01 1.660146e-01 -3.238563e-01 -2.961582e-01 -1.251766e-01 -4.904715e-01 -4.677489e-01 -7.200326e-01 -1.626213e-02 -3.154439e-02 -6.915783e-02 3.167179e-03 1.226536e-01 4.924960e-02 1.037241e-02 1.241250e-01 1.117854e-01 -3.471493e-02 -3.735252e-02 3.403351e-02 -3.234303e-02
<VARIANCE> 39
 5.663922e+00 2.251373e+01 3.006149e+01 5.104598e+01 5.263495e+01 7.387388e+01 2.797935e+01 4.497293e+01 3.853551e+01 6.436884e+01 4.873515e+01 4.779687e+01 1.147008e+01 1.301551e-01 4.234437e-01 6.667866e-01 8.696737e-01 1.017506e+00 1.092252e+00 1.062315e+00 1.543216e+00 9.843568e-01 1.173404e+00 1.174700e+00 1.273611e+00 1.624840e-01 2.249168e-02 4.716216e-02 9.634037e-02 1.492511e-01 1.671937e-01 1.929239e-01 1.941850e-01 2.505341e-01 1.613436e-01 2.071974e-01 2.040713e-01 2.230977e-01 1.431413e-02
<GCONST> 8.487827e+01
<STATE> 4
<MEAN> 39
 -6.415290e+00 6.770000e+00 1.019817e+01 2.985889e+00 -1.235127e+01 -9.462440e+00 -1.402019e+00 -1.034866e+01 -8.512825e+00 -6.593541e+00 -2.734812e+00 -3.424188e+00 6.343615e+01 -3.033580e-01 -7.456924e-02 -6.108751e-01 1.956642e-01 1.217054e+00 9.292271e-01 2.258845e-01 4.084898e-01 1.941947e-01 2.345571e-01 -2.610629e-03 1.692011e-01 -9.813022e-01 -3.348485e-02 -1.762086e-01 -1.748426e-01 -1.022619e-01 2.700082e-02 1.968839e-02 3.814386e-02 1.755288e-01 1.153077e-01 1.449853e-01 1.029787e-01 9.193854e-02 7.985890e-03
<VARIANCE> 39
 1.120489e+01 2.713810e+01 4.818184e+01 2.410120e+01 7.546093e+01 5.898902e+01 4.074837e+01 3.895874e+01 4.809681e+01 4.824120e+01 3.226793e+01 5.321417e+01 2.927360e+01 3.124757e-01 9.334759e-01 1.230905e+00 1.024393e+00 1.942968e+00 1.643136e+00 1.856131e+00 2.413268e+00 2.036911e+00 2.084481e+00 2.006328e+00 2.111634e+00 3.572737e-01 5.343106e-02 1.158322e-01 1.522538e-01 1.540561e-01 3.283727e-01 2.972424e-01 3.470889e-01 3.913788e-01 3.248194e-01 3.382241e-01 3.254127e-01 3.621871e-01 4.431319e-02
<GCONST> 1.016937e+02
<TRANSP> 5
 0.000000e+00 1.000000e+00 0.000000e+00 0.000000e+00 0.000000e+00
 0.000000e+00 8.662016e-01 1.337985e-01 0.000000e+00 0.000000e+00
 0.000000e+00 0.000000e+00 8.543180e-01 1.456821e-01 0.000000e+00
 0.000000e+00 0.000000e+00 0.000000e+00 8.895203e-01 1.104797e-01
 0.000000e+00 0.000000e+00 0.000000e+00 0.000000e+00 0.000000e+00
<ENDHMM>
~h "ii"
<BEGINHMM>
<NUMSTATES> 5
<STATE> 2
<MEAN> 39
 -4.034611e+00 3.913277e+00 9.749896e+00 -3.035371e+00 -1.447308e+01 -1.329716e+01 -4.692065e+00 -1.340928e+01 -1.081205e+01 -7.171619e+00 -2.353470e+00 -5.497985e+00 7.073113e+01 1.403372e-01 3.184534e-01 -1.320704e-01 8.063543e-02 3.526499e-01 3.654534e-01 1.901830e-01 7.167677e-02 -1.636715e-02 -2.693443e-02 -1.193418e-02 -1.139353e-02 -4.296840e-01 -4.176440e-02 1.409652e-02 -4.170132e-02 6.100904e-02 4.978974e-02 1.852006e-02 3.593723e-02 1.012435e-01 3.520490e-02 -3.797151e-02 -2.224140e-02 3.662653e-03 -1.381017e-02
<VARIANCE> 39
 1.268341e+01 2.104610e+01 4.321412e+01 6.940977e+01 5.020373e+01 7.052124e+01 4.956374e+01 5.813109e+01 4.019570e+01 4.156025e+01 3.740778e+01 6.551090e+01 1.791018e+01 2.733003e-01 5.020002e-01 6.320909e-01 8.109487e-01 1.297772e+00 1.425244e+00 1.302552e+00 1.188892e+00 1.190018e+00 1.266766e+00 1.392579e+00 1.313693e+00 2.896174e-01 4.901110e-02 8.480515e-02 1.067215e-01 1.470309e-01 2.726989e-01 2.312358e-01 2.421931e-01 2.310412e-01 2.179945e-01 2.456343e-01 2.900708e-01 2.247540e-01 4.997990e-02
<GCONST> 9.375335e+01
<STATE> 3
<MEAN> 39
 -4.297343e+00 8.390727e+00 9.499802e+00 5.023183e-01 -1.094134e+01 -1.150741e+01 -1.413831e+00 -1.223160e+01 -9.562885e+00 -7.370941e+00 -3.596316e+00 -4.476883e+00 6.786246e+01 5.995072e-02 2.569968e-01 -2.468332e-01 1.101187e-01 5.585731e-01 3.321109e-01 9.219104e-02 2.442148e-01 3.404437e-02 2.884386e-02 -4.264010e-02 9.942859e-02 -4.882328e-01 -4.390544e-02 -1.083964e-01 -5.539437e-02 -1.446798e-02 -3.556999e-02 -1.222352e-02 -1.060063e-02 4.494829e-02 3.243675e-02 -1.886039e-02 -6.576670e-03 2.951442e-02 4.163614e-02
<VARIANCE> 39
 1.691014e+01 2.374071e+01 8.095993e+01 3.131584e+01 4.548518e+01 4.839185e+01 3.515339e+01 4.439824e+01 3.676857e+01 3.920068e+01 4.076969e+01 4.271335e+01 1.316485e+01 2.341166e-01 5.262749e-01 6.741547e-01 7.524612e-01 1.133872e+00 1.488091e+00 1.389956e+00 1.475399e+00 1.466880e+00 1.218830e+00 1.517706e+00 1.432304e+00 3.317820e-01 3.100120e-02 7.543517e-02 1.083088e-01 1.136294e-01 2.433448e-01 2.233301e-01 2.332543e-01 2.318115e-01 2.426395e-01 2.287771e-01 2.328755e-01 2.289449e-01 5.733107e-02
<GCONST> 9.162911e+01
<STATE> 4
<MEAN> 39
 -6.982630e+00 8.168165e+00 8.783674e+00 2.751111e+00 -6.305600e+00 -7.686612e+00 -6.800086e-01 -1.020460e+01 -8.548654e+00 -6.637104e+00 -3.349058e+00 -3.114691e+00 6.159299e+01 -1.111880e-01 -4.177710e-01 -8.759398e-01 8.997045e-02 7.995656e-01 7.492909e-01 3.437063e-01 6.411277e-01 3.280959e-01 1.402625e-01 -6.149161e-02 2.186157e-01 -6.782300e-01 -8.718253e-03 -1.568064e-01 -1.532222e-01 -1.817621e-01 -1.203350e-01 4.602651e-02 5.918465e-02 9.019456e-02 1.473371e-01 1.595713e-01 5.936109e-02 -1.077865e-02 1.104093e-01
<VARIANCE> 39
 2.956748e+01 3.203885e+01 6.133064e+01 2.573864e+01 4.300304e+01 4.980439e+01 5.393930e+01 3.826007e+01 3.609899e+01 4.357514e+01 2.848584e+01 3.972393e+01 2.814028e+01 4.148540e-01 7.405376e-01 9.044358e-01 9.953117e-01 1.767137e+00 1.434638e+00 1.917471e+00 2.021572e+00 2.424994e+00 2.292807e+00 2.171259e+00 2.078392e+00 3.666008e-01 6.301428e-02 1.396038e-01 1.809500e-01 2.058584e-01 2.946657e-01 2.815107e-01 3.701198e-01 3.528804e-01 4.428780e-01 4.193384e-01 4.249862e-01 3.957355e-01 7.876008e-02
<GCONST> 1.035888e+02
<TRANSP> 5
 0.000000e+00 1.000000e+00 0.000000e+00 0.000000e+00 0.000000e+00
 0.000000e+00 7.209759e-01 2.790242e-01 0.000000e+00 0.000000e+00
 0.000000e+00 0.000000e+00 7.129712e-01 2.870288e-01 0.000000e+00
 0.000000e+00 0.000000e+00 0.000000e+00 6.902876e-01 3.097124e-01
 0.000000e+00 0.000000e+00 0.000000e+00 0.000000e+00 0.000000e+00
<ENDHMM>
~h "oe"
<BEGINHMM>
<NUMSTATES> 5
<STATE> 2
<MEAN> 39
 9.954168e-01 -3.531143e+00 -6.806242e+00 -8.193034e+00 -1.088300e+01 -1.250386e+01 -1.139716e+01 -1.290060e+01 -2.842156e-01 2.598576e+00 2.334751e+00 -7.899370e-01 7.460868e+01 -6.672037e-01 -9.762353e-01 1.217867e+00 2.362692e+00 3.234069e-01 -2.572515e+00 -1.519518e+00 1.258088e+00 1.873698e+00 -6.525235e-02 -1.036550e+00 -8.776352e-01 2.067323e-01 -7.644739e-03 3.788549e-01 3.822847e-01 -1.236392e-01 -5.222046e-01 -1.374426e-01 7.471471e-01 6.115705e-01 -4.268280e-01 -9.342804e-01 -4.277663e-01 4.084919e-01 -2.540655e-01
<VARIANCE> 39
 1.215168e+01 2.643318e+01 5.020387e+01 5.075707e+01 4.744442e+01 6.572340e+01 3.769645e+01 5.980178e+01 6.354453e+01 5.560291e+01 6.294642e+01 6.844019e+01 1.370344e+01 2.928342e-01 1.069141e+00 1.443260e+00 2.113657e+00 3.061703e+00 3.231449e+00 4.907440e+00 4.842901e+00 4.312965e+00 6.226921e+00 4.075613e+00 4.244608e+00 4.363038e-01 6.033694e-02 1.208039e-01 2.290982e-01 3.754998e-01 4.225099e-01 7.503920e-01 6.314732e-01 8.335037e-01 1.101369e+00 5.342335e-01 1.005446e+00 8.835383e-01 4.669178e-02
<GCONST> 1.180619e+02
<STATE> 3
<MEAN> 39
 -1.141336e+00 -3.361868e+00 3.444221e-01 -1.939246e+00 -1.405310e+01 -2.120396e+01 -1.005899e+01 -4.853251e+00 -1.078730e+00 -5.830584e+00 -1.247910e+00 2.702032e-01 7.191368e+01 -3.803723e-01 7.924073e-01 7.809278e-01 5.523466e-01 4.204008e-02 -1.179124e-01 6.264781e-01 5.464014e-01 -6.232862e-01 -6.109976e-01 2.413904e-01 3.608431e-01 -1.102168e+00 3.241955e-03 1.592848e-01 -2.859117e-01 -2.204415e-01 2.606494e-01 5.365498e-01 3.464312e-02 -3.095839e-01 -9.787783e-03 4.702553e-01 2.942448e-01 -1.238447e-01 -2.174560e-01
<VARIANCE> 39
 9.881201e+00 2.395898e+01 5.053361e+01 4.695417e+01 5.437964e+01 5.466673e+01 4.125123e+01 4.655947e+01 4.031237e+01 6.657423e+01 6.028891e+01 4.043539e+01 1.825736e+01 4.122375e-01 9.005167e-01 1.526612e+00 1.451679e+00 2.457230e+00 3.035933e+00 2.593484e+00 2.742885e+00 2.635523e+00 3.089798e+00 2.910814e+00 2.643325e+00 1.101001e+00 7.056820e-02 1.676455e-01 2.394792e-01 2.684556e-01 3.363948e-01 4.724598e-01 4.210229e-01 5.154257e-01 4.859215e-01 4.501437e-01 5.027602e-01 4.228905e-01 8.896561e-02
<GCONST> 1.110461e+02
<STATE> 4
<MEAN> 39
 -5.067996e+00 1.928341e+00 1.434735e+00 9.199231e-01 -9.142842e+00 -1.477071e+01 -4.148770e+00 -3.579587e+00 -2.448308e+00 -3.172332e+00 1.069898e+00 1.270045e+00 6.326394e+01 -5.335243e-01 1.215025e-01 -1.953052e-01 1.030414e-01 7.009850e-01 1.098023e+00 5.306768e-01 2.365871e-01 1.779432e-01 3.371598e-01 8.424173e-02 1.549389e-01 -9.649516e-01 -1.722831e-02 -1.429810e-01 -5.989602e-02 -7.226793e-02 2.403299e-02 4.707056e-02 -4.003147e-02 3.899214e-02 7.041217e-02 -1.079601e-02 -8.761090e-02 -1.349263e-03 1.568841e-01
<VARIANCE> 39
 1.622864e+01 2.125970e+01 3.014926e+01 2.988290e+01 4.254535e+01 4.594537e+01 5.606971e+01 5.145383e+01 4.147829e+01 4.488126e+01 3.596995e+01 3.680886e+01 3.663082e+01 3.910210e-01 7.360977e-01 8.926295e-01 9.519376e-01 1.547270e+00 2.066026e+00 1.719596e+00 1.857069e+00 1.976730e+00 2.007240e+00 1.961598e+00 1.687651e+00 6.003696e-01 6.549732e-02 1.310311e-01 1.510738e-01 1.723130e-01 2.766330e-01 2.990893e-01 3.029056e-01 3.491689e-01 3.613342e-01 3.406249e-01 3.520013e-01 3.522299e-01 1.054594e-01
<GCONST> 1.015911e+02
<TRANSP> 5
 0.000000e+00 1.000000e+00 0.000000e+00 0.000000e+00 0.000000e+00
 0.000000e+00 7.651964e-01 2.348036e-01 0.000000e+00 0.000000e+00
 0.000000e+00 0.000000e+00 8.236138e-01 1.763862e-01 0.000000e+00
 0.000000e+00 0.000000e+00 0.000000e+00 8.799264e-01 1.200736e-01
 0.000000e+00 0.000000e+00 0.000000e+00 0.000000e+00 0.000000e+00
<ENDHMM>
~h "oi"
<BEGINHMM>
<NUMSTATES> 5
<STATE> 2
<MEAN> 39
 2.415205e+00 -6.061101e-02 -7.396400e+00 -9.491285e+00 -1.052266e+01 -8.872979e+00 -1.041720e+01 -1.566887e+01 -4.620486e+00 -4.353784e-01 4.194429e+00 1.397442e+00 7.274653e+01 -7.708697e-01 -1.124828e+00 1.163162e+00 3.459315e+00 1.008981e+00 -2.944422e+00 -2.288599e+00 5.181675e-01 1.765253e+00 1.584630e-01 -5.512133e-01 -1.751927e+00 2.099355e-01 -1.197500e-01 2.457225e-01 6.826338e-01 2.407078e-01 -6.855693e-01 -6.115539e-01 6.735706e-01 9.360806e-01 -5.845719e-02 -1.020392e+00 -7.944779e-01 9.452288e-02 -1.905927e-01
<VARIANCE> 39
 1.221109e+01 3.009719e+01 4.102757e+01 7.571111e+01 4.794952e+01 6.927911e+01 6.328348e+01 5.898242e+01 7.681856e+01 5.732479e+01 6.026488e+01 8.428027e+01 1.294104e+01 3.442607e-01 1.073524e+00 2.396464e+00 2.327518e+00 4.239911e+00 4.297509e+00 4.743040e+00 6.179230e+00 4.483569e+00 7.781598e+00 7.273103e+00 4.141822e+00 4.027734e-01 6.440045e-02 1.677868e-01 2.106397e-01 7.497967e-01 5.897520e-01 1.114440e+00 1.183500e+00 7.670429e-01 1.703575e+00 8.525246e-01 1.156289e+00 1.500937e+00 5.157671e-02
<GCONST> 1.255639e+02
<STATE> 3
<MEAN> 39
 -2.223340e+00 -6.779814e-01 2.593169e+00 1.705565e+00 -1.168061e+01 -1.800042e+01 -8.947463e+00 -9.391655e+00 -4.926850e+00 -9.115435e+00 -9.326878e-01 -1.166339e+00 7.120734e+01 -4.854006e-01 4.217529e-01 6.815866e-01 3.889066e-01 1.302108e-01 4.221938e-01 1.213822e+00 5.908822e-01 -7.422771e-01 -5.737487e-01 1.354561e-01 2.103667e-01 -6.959587e-01 7.404833e-02 1.682447e-01 -3.602761e-01 -5.448930e-01 1.047947e-01 6.464019e-01 1.759953e-01 -2.842345e-01 -9.390025e-02 4.160101e-01 2.125764e-01 1.685638e-02 -9.605790e-02
<VARIANCE> 39
 1.308500e+01 2.703010e+01 6.144082e+01 5.416512e+01 9.194542e+01 8.698942e+01 4.551812e+01 4.865983e+01 6.753217e+01 5.778970e+01 6.506635e+01 6.836043e+01 1.785872e+01 5.199075e-01 1.169515e+00 5.033184e+00 3.909657e+00 5.614778e+00 6.622284e+00 4.297203e+00 3.705462e+00 4.557897e+00 6.016898e+00 4.113549e+00 3.505339e+00 3.238545e-01 7.584698e-02 2.293213e-01 3.358846e-01 4.788289e-01 8.362217e-01 9.888541e-01 9.527259e-01 8.005953e-01 9.179118e-01 9.191123e-01 8.643498e-01 6.999239e-01 4.482917e-02
<GCONST> 1.254985e+02
<STATE> 4
<MEAN> 39
 -4.106927e+00 3.871940e+00 5.385668e+00 1.835721e+00 -1.136536e+01 -1.363713e+01 -2.806739e+00 -9.392576e+00 -7.042822e+00 -7.206795e+00 -4.608231e-01 -2.111394e+00 6.481404e+01 -4.033658e-01 2.401868e-01 -9.609363e-02 -1.025568e-01 7.325988e-01 9.466367e-01 4.126765e-01 2.500349e-01 1.942044e-01 4.221824e-01 -1.246326e-01 6.301309e-02 -8.614007e-01 2.004574e-02 -1.226891e-01 -1.670846e-01 -3.237942e-02 1.210958e-01 3.270503e-02 -1.048143e-01 9.357730e-02 1.722105e-01 5.803251e-02 -1.988668e-02 3.097196e-02 2.302138e-02
<VARIANCE> 39
 1.614352e+01 2.204177e+01 4.004362e+01 3.582497e+01 5.479389e+01 5.070748e+01 4.923298e+01 5.018203e+01 3.772739e+01 5.357049e+01 3.303982e+01 4.630336e+01 2.613753e+01 3.324831e-01 9.894974e-01 1.328160e+00 1.217392e+00 1.895235e+00 1.776466e+00 2.175432e+00 2.805357e+00 1.955848e+00 1.857540e+00 1.683770e+00 2.146111e+00 3.362218e-01 5.894286e-02 1.332214e-01 1.909822e-01 1.762417e-01 2.730320e-01 3.432930e-01 3.896587e-01 4.417970e-01 3.448372e-01 3.703666e-01 2.991733e-01 3.839712e-01 3.642157e-02
<GCONST> 1.027465e+02
<TRANSP> 5
 0.000000e+00 1.000000e+00 0.000000e+00 0.000000e+00 0.000000e+00
 0.000000e+00 7.621413e-01 2.378587e-01 0.000000e+00 0.000000e+00
 0.000000e+00 0.000000e+00 8.399023e-01 1.600977e-01 0.000000e+00
 0.000000e+00 0.000000e+00 0.000000e+00 8.790965e-01 1.209034e-01
 0.000000e+00 0.000000e+00 0.000000e+00 0.000000e+00 0.000000e+00
<ENDHMM>
~h "oo"
<BEGINHMM>
<NUMSTATES> 5
<STATE> 2
<MEAN> 39
 4.601479e+00 1.001790e+01 -2.352248e+00 -1.438279e+01 -2.032250e+01 -1.299620e+01 -5.942979e+00 -7.662662e+00 -8.506455e-01 -3.464162e-01 -4.595264e+00 -2.438064e+00 6.695869e+01 5.705510e-02 -6.450945e-02 -1.502097e-01 7.052589e-02 -4.781066e-02 2.136085e-01 5.003519e-01 3.082110e-02 -2.531177e-01 -1.052227e-01 1.056571e-01 -2.187657e-02 -7.964630e-02 -1.207415e-01 -7.007083e-02 -9.208760e-02 1.623947e-01 3.063091e-01 7.982182e-02 1.137167e-01 9.552962e-02 -1.125720e-01 -1.673189e-01 1.142485e-01 9.158547e-02 -4.736567e-02
<VARIANCE> 39
 7.988255e+00 2.938800e+01 3.099157e+01 4.223931e+01 3.747580e+01 4.583036e+01 4.408436e+01 6.128008e+01 5.275008e+01 5.680207e+01 3.977162e+01 4.013185e+01 1.497214e+01 1.508578e-01 6.280536e-01 7.652487e-01 8.727230e-01 1.523107e+00 1.299277e+00 1.913881e+00 1.634948e+00 2.070052e+00 1.747277e+00 1.839364e+00 1.539618e+00 2.601653e-01 5.731102e-02 1.530537e-01 1.854100e-01 1.844271e-01 4.363625e-01 2.425920e-01 3.460668e-01 3.108201e-01 3.438769e-01 3.763233e-01 3.885404e-01 3.717488e-01 3.542028e-02
<GCONST> 9.788551e+01
<STATE> 3
<MEAN> 39
 3.449819e+00 1.167078e+01 -1.592199e+00 -1.196214e+01 -2.011187e+01 -1.211038e+01 -3.070811e+00 -4.925458e+00 -1.007625e+00 8.698668e-01 -3.258830e+00 -3.846744e+00 6.550887e+01 -2.520360e-01 -3.263329e-01 -2.327159e-01 5.333740e-01 6.764693e-01 2.379935e-01 5.314173e-01 1.571832e-01 -4.597432e-01 -4.382261e-01 4.531584e-01 4.444014e-01 -1.576953e-01 -1.129550e-01 -2.046624e-01 -7.908697e-02 1.977397e-01 4.256002e-01 8.305068e-02 -4.493998e-02 -8.315035e-02 -1.236572e-01 -1.238434e-01 1.521801e-01 1.988388e-01 -7.957143e-03
<VARIANCE> 39
 1.045392e+01 4.377348e+01 3.472732e+01 4.905320e+01 5.163478e+01 4.544423e+01 4.948763e+01 5.126727e+01 5.070819e+01 7.244946e+01 3.424608e+01 2.838682e+01 2.162063e+01 2.761812e-01 8.437539e-01 1.089574e+00 1.478029e+00 1.876628e+00 1.859059e+00 3.094842e+00 2.368542e+00 3.249831e+00 2.276611e+00 2.088495e+00 2.441257e+00 4.118998e-01 6.133940e-02 1.213407e-01 2.068439e-01 2.839205e-01 4.654128e-01 3.366170e-01 5.454523e-01 3.421818e-01 4.646847e-01 4.189381e-01 4.987299e-01 4.772739e-01 3.218232e-02
<GCONST> 1.062343e+02
<STATE> 4
<MEAN> 39
 8.050650e-01 8.841574e+00 -2.517426e+00 -9.682296e+00 -1.533002e+01 -9.152864e+00 -1.188210e+00 -4.285809e+00 -1.436881e+00 -9.995756e-01 -1.848411e+00 -2.407598e+00 6.296202e+01 -4.286567e-01 -7.732220e-01 -4.643332e-01 7.953306e-01 1.322966e+00 5.245849e-01 3.206502e-01 5.773964e-02 -7.083263e-01 -3.824397e-01 4.855410e-01 6.960695e-01 -3.003037e-01 -2.964516e-02 -9.182452e-02 -5.492691e-02 1.657692e-01 3.171423e-01 -5.120456e-03 -2.017543e-01 -1.301304e-01 -5.920066e-03 7.165767e-02 1.202977e-01 8.485143e-02 -1.196472e-02
<VARIANCE> 39
 1.845691e+01 3.368189e+01 3.119467e+01 4.607145e+01 5.712634e+01 5.669981e+01 5.610505e+01 4.997158e+01 5.854352e+01 7.629385e+01 3.925611e+01 3.987056e+01 4.355074e+01 5.511490e-01 7.059360e-01 1.216944e+00 1.596705e+00 2.269754e+00 1.721062e+00 2.742023e+00 2.387743e+00 3.242251e+00 2.832215e+00 3.089947e+00 2.892706e+00 4.682005e-01 7.013030e-02 1.035502e-01 1.773861e-01 3.283373e-01 5.727170e-01 4.081627e-01 5.880357e-01 4.408336e-01 5.466452e-01 4.715367e-01 5.573400e-01 4.699388e-01 4.456227e-02
<GCONST> 1.111685e+02
<TRANSP> 5
 0.000000e+00 1.000000e+00 0.000000e+00 0.000000e+00 0.000000e+00
 0.000000e+00 5.784829e-01 4.215171e-01 0.000000e+00 0.000000e+00
 0.000000e+00 0.000000e+00 3.909179e-01 6.090821e-01 0.000000e+00
 0.000000e+00 0.000000e+00 0.000000e+00 5.589850e-01 4.410149e-01
 0.000000e+00 0.000000e+00 0.000000e+00 0.000000e+00 0.000000e+00
<ENDHMM>
~h "ou"
<BEGINHMM>
<NUMSTATES> 5
<STATE> 2
<MEAN> 39
 4.366321e+00 4.965973e+00 -6.490210e+00 -1.336181e+01 -1.596901e+01 -7.082269e+00 -3.845575e+00 -1.068471e+01 -8.238192e+00 -5.867201e+00 1.483217e+00 1.959148e+00 7.005669e+01 -3.000456e-02 4.503937e-01 3.883863e-01 6.625258e-01 1.682027e-01 -2.358913e-01 -3.086144e-01 -2.972181e-01 -4.010288e-01 -5.609058e-01 -1.473737e-01 -2.419233e-02 -3.942890e-01 -3.852906e-02 7.223333e-02 5.601560e-02 9.660675e-02 1.231057e-01 2.544837e-02 3.576662e-02 1.476663e-01 2.349693e-02 -7.325477e-02 -1.038906e-01 -8.295641e-02 -1.024886e-01
<VARIANCE> 39
 5.986396e+00 2.818584e+01 2.102202e+01 6.876688e+01 5.282729e+01 4.838051e+01 9.172191e+01 6.475024e+01 7.125792e+01 5.871097e+01 5.318744e+01 4.644489e+01 1.085877e+01 1.486068e-01 5.868939e-01 6.527901e-01 1.167618e+00 1.120568e+00 1.472709e+00 1.471072e+00 1.723782e+00 1.487281e+00 1.783541e+00 1.741370e+00 1.873513e+00 2.325135e-01 2.888073e-02 8.141228e-02 8.900632e-02 1.729396e-01 2.160398e-01 2.425892e-01 2.578343e-01 2.878728e-01 2.901300e-01 3.132136e-01 2.995014e-01 2.748255e-01 2.945903e-02
<GCONST> 9.437666e+01
<STATE> 3
<MEAN> 39
 3.072261e+00 1.179983e+01 -2.049678e+00 -8.353504e+00 -1.400273e+01 -8.468490e+00 -2.343615e+00 -9.542929e+00 -8.667210e+00 -8.349660e+00 -3.650140e+00 -1.195499e+00 6.514222e+01 -2.987934e-01 3.232031e-01 4.374061e-01 8.460076e-01 8.051060e-01 1.003599e-01 -3.620092e-01 3.244694e-01 1.913425e-02 -3.128460e-01 -2.868723e-01 -3.532944e-01 -7.315099e-01 -8.072228e-02 -1.065723e-01 3.648139e-03 1.646010e-03 1.154658e-01 1.198705e-01 7.431440e-03 -1.594446e-03 9.956659e-02 1.528957e-01 5.177764e-02 2.912318e-02 -3.421281e-02
<VARIANCE> 39
 5.834576e+00 3.202566e+01 2.338357e+01 4.486020e+01 4.649131e+01 5.360482e+01 8.203858e+01 5.567422e+01 4.713532e+01 6.347132e+01 4.972100e+01 5.563145e+01 1.800201e+01 1.881826e-01 5.509218e-01 7.383612e-01 1.131328e+00 1.266531e+00 1.543600e+00 1.944009e+00 1.936108e+00 1.808246e+00 2.029145e+00 2.023067e+00 1.841194e+00 2.969453e-01 3.242837e-02 7.338008e-02 1.085735e-01 1.720399e-01 2.071616e-01 2.465018e-01 3.162520e-01 2.826512e-01 3.207652e-01 3.329213e-01 3.362656e-01 3.310616e-01 2.445048e-02
<GCONST> 9.632629e+01
<STATE> 4
<MEAN> 39
 -1.392603e+00 9.438763e+00 5.363932e-01 -1.722944e+00 -4.861726e+00 -5.165793e+00 -3.861091e+00 -6.825526e+00 -5.906743e+00 -6.677981e+00 -3.921823e+00 -2.272042e+00 6.107246e+01 -6.433920e-01 -4.649414e-01 -2.100475e-03 3.594985e-01 7.684057e-01 4.516543e-01 2.170949e-01 4.554150e-01 4.560417e-01 4.090476e-01 1.281455e-01 1.088127e-01 -6.632137e-01 -3.454789e-02 -1.059596e-01 -9.797986e-02 -9.387808e-02 -4.522350e-02 4.473121e-03 1.018599e-01 5.120917e-02 6.728728e-02 7.912678e-02 5.507376e-02 6.333888e-02 4.827078e-02
<VARIANCE> 39
 9.267164e+00 3.885900e+01 1.837963e+01 2.563668e+01 3.308849e+01 2.760006e+01 3.593591e+01 4.128496e+01 3.247973e+01 3.802936e+01 3.676895e+01 3.946452e+01 3.282111e+01 3.976400e-01 6.555800e-01 6.294063e-01 1.122161e+00 1.457678e+00 1.327096e+00 1.953877e+00 1.973328e+00 1.627642e+00 1.975275e+00 1.884539e+00 1.648565e+00 3.568406e-01 4.637135e-02 9.503545e-02 1.255928e-01 1.829271e-01 2.145045e-01 2.270920e-01 3.090191e-01 3.135882e-01 2.811309e-01 3.207155e-01 3.487378e-01 3.070887e-01 4.299662e-02
<GCONST> 9.497577e+01
<TRANSP> 5
 0.000000e+00 1.000000e+00 0.000000e+00 0.000000e+00 0.000000e+00
 0.000000e+00 8.261233e-01 1.738767e-01 0.000000e+00 0.000000e+00
 0.000000e+00 0.000000e+00 8.435004e-01 1.564995e-01 0.000000e+00
