~o
<STREAMINFO> 1 39
<VECSIZE> 39<NULLD><MFCC_D_A_0><DIAGC>
~h "N"
<BEGINHMM>
<NUMSTATES> 5
<STATE> 2
<MEAN> 39
 9.562690e-01 1.916147e+00 -3.148363e+00 -3.716134e+00 -7.645629e+00 -8.173768e+00 -1.773259e+00 -5.337578e+00 -3.113415e+00 -2.825375e+00 -2.660261e+00 -3.987299e+00 6.751111e+01 -1.117902e-03 4.400243e-01 1.916120e-01 -5.877672e-02 9.223296e-02 2.825771e-01 1.123764e-01 -9.394074e-02 -1.048981e-01 -8.776021e-02 -5.280412e-02 -2.381495e-02 -3.907450e-01 -4.505535e-02 -1.683250e-01 -1.108698e-01 -7.253657e-02 -1.300832e-02 5.669732e-02 2.682751e-02 1.759481e-02 1.437479e-01 7.522128e-02 -1.067251e-02 -7.808069e-02 1.167042e-01
<VARIANCE> 39
 1.248808e+01 5.413078e+01 3.944775e+01 5.476690e+01 5.601631e+01 7.521894e+01 5.837957e+01 7.276249e+01 6.465588e+01 7.121777e+01 5.827761e+01 5.868208e+01 3.523463e+01 5.667248e-01 1.992281e+00 1.986253e+00 2.162160e+00 2.589051e+00 3.112484e+00 2.905109e+00 3.178197e+00 3.683773e+00 3.326530e+00 3.218930e+00 2.710611e+00 1.027041e+00 1.025551e-01 2.604854e-01 2.819996e-01 3.448806e-01 4.706836e-01 5.488787e-01 5.466765e-01 5.634660e-01 6.488392e-01 5.687365e-01 5.690116e-01 4.821568e-01 1.411940e-01
<GCONST> 1.205611e+02
<STATE> 3
<MEAN> 39
 8.890224e-01 2.363134e+00 -3.039820e+00 -3.929384e+00 -7.441930e+00 -7.603752e+00 -1.579362e+00 -5.519114e+00 -3.018487e+00 -2.818395e+00 -2.778965e+00 -4.180222e+00 6.704948e+01 -7.043307e-02 1.361845e-01 -1.893262e-03 -1.664196e-01 5.936697e-02 3.656103e-01 1.617290e-01 -5.693496e-02 1.405182e-01 5.772148e-02 -7.650827e-02 -1.461120e-01 -1.777185e-01 -3.826933e-02 -1.744853e-01 -1.075645e-01 -4.713140e-02 -1.581074e-02 3.602317e-02 3.178187e-02 2.591113e-02 1.217360e-01 9.316701e-02 -3.870691e-04 -6.664304e-02 1.189362e-01
<VARIANCE> 39
 1.316271e+01 5.282179e+01 4.132370e+01 5.424712e+01 5.862910e+01 7.769316e+01 5.754494e+01 7.258143e+01 6.731374e+01 7.067489e+01 5.814366e+01 6.060148e+01 3.339981e+01 5.180323e-01 2.022577e+00 2.002313e+00 2.086944e+00 2.550548e+00 2.990582e+00 2.805409e+00 3.206062e+00 3.754469e+00 3.301114e+00 3.160647e+00 2.706006e+00 1.003164e+00 8.952015e-02 2.605970e-01 2.758035e-01 3.362538e-01 4.437121e-01 5.395721e-01 5.285508e-01 5.590758e-01 6.510719e-01 5.517209e-01 5.528597e-01 4.865172e-01 1.332805e-01
<GCONST> 1.200757e+02
<STATE> 4
<MEAN> 39
 6.964552e-01 2.274845e+00 -3.274323e+00 -4.272927e+00 -7.198627e+00 -6.891078e+00 -1.193898e+00 -5.597427e+00 -2.412840e+00 -2.501135e+00 -2.992257e+00 -4.635372e+00 6.695618e+01 -1.235771e-01 -1.392400e-01 -1.846580e-01 -2.103005e-01 6.590302e-02 4.048492e-01 2.099790e-01 -1.462122e-02 3.058417e-01 2.241123e-01 -8.256400e-02 -2.460627e-01 -4.678312e-03 -2.637667e-02 -1.199059e-01 -7.498849e-02 -1.188169e-03 7.153692e-03 9.387042e-03 2.153422e-02 2.687830e-02 4.783359e-02 7.628287e-02 1.188626e-02 -2.921034e-02 6.537846e-02
<VARIANCE> 39
 1.432186e+01 5.308064e+01 4.896150e+01 5.515497e+01 6.318182e+01 8.020471e+01 5.894024e+01 7.409033e+01 7.112717e+01 7.179144e+01 6.178696e+01 6.268465e+01 3.293092e+01 4.713592e-01 1.936420e+00 1.979655e+00 1.964372e+00 2.470998e+00 2.999228e+00 2.740712e+00 3.110036e+00 3.734956e+00 3.103511e+00 3.115949e+00 2.764333e+00 9.093729e-01 8.238595e-02 2.669135e-01 2.802848e-01 3.377858e-01 4.200712e-01 5.247312e-01 5.120440e-01 5.607101e-01 6.415374e-01 5.469695e-01 5.354514e-01 5.009913e-01 1.370560e-01
<GCONST> 1.200551e+02
<TRANSP> 5
 0.000000e+00 1.000000e+00 0.000000e+00 0.000000e+00 0.000000e+00
 0.000000e+00 3.881793e-01 6.118208e-01 0.000000e+00 0.000000e+00
 0.000000e+00 0.000000e+00 3.881791e-01 6.118209e-01 0.000000e+00
 0.000000e+00 0.000000e+00 0.000000e+00 4.597323e-01 5.402677e-01
 0.000000e+00 0.000000e+00 0.000000e+00 0.000000e+00 0.000000e+00
<ENDHMM>
~h "a"
<BEGINHMM>
<NUMSTATES> 5
<STATE> 2
<MEAN> 39
 -2.678180e-02 -3.261647e-01 -6.312065e+00 -6.813972e+00 -8.671767e+00 -5.992656e+00 -1.357698e+00 -5.433784e+00 -1.994347e+00 -7.716068e-01 -6.517792e-01 -2.851249e+00 6.830698e+01 2.382759e-02 -1.178143e-01 -9.337364e-02 -2.064662e-03 4.484902e-02 7.367513e-02 4.419780e-03 3.084609e-02 1.695085e-01 3.155762e-01 4.538157e-02 -6.463936e-02 -3.786640e-02 -5.037457e-02 4.175330e-02 6.771227e-02 8.407088e-02 4.209454e-02 -1.172306e-02 -3.672241e-02 7.399898e-03 -1.005200e-02 -2.264975e-02 -1.015228e-02 -1.078235e-03 -6.766120e-02
<VARIANCE> 39
 2.996423e+01 5.252081e+01 5.200309e+01 6.237834e+01 6.552283e+01 7.510343e+01 6.478455e+01 6.685236e+01 6.230923e+01 6.477145e+01 6.047574e+01 6.607042e+01 3.977904e+01 1.892555e+00 2.243649e+00 2.600694e+00 3.084880e+00 3.389473e+00 3.685454e+00 3.591989e+00 3.452471e+00 4.013817e+00 4.193617e+00 3.563138e+00 3.608453e+00 1.919775e+00 2.996150e-01 3.609772e-01 4.146341e-01 5.068732e-01 6.124056e-01 6.345336e-01 6.535785e-01 6.260749e-01 7.179340e-01 7.363344e-01 6.603550e-01 6.692590e-01 3.097107e-01
<GCONST> 1.306287e+02
<STATE> 3
<MEAN> 39
 -5.805159e-02 -4.647374e-01 -6.411479e+00 -6.721947e+00 -8.550400e+00 -5.886589e+00 -1.388603e+00 -5.398604e+00 -1.723501e+00 -2.961572e-01 -6.080327e-01 -2.974199e+00 6.816589e+01 -5.434290e-02 -4.386888e-02 1.913078e-02 1.225818e-01 1.096088e-01 6.477806e-02 -3.899935e-02 4.487552e-02 1.349665e-01 2.538254e-01 3.308388e-02 -5.278644e-02 -1.564344e-01 -5.642061e-02 5.353814e-02 7.934945e-02 7.430205e-02 3.152686e-02 -6.354689e-03 -2.268934e-02 7.877620e-03 -2.528371e-02 -5.734678e-02 -2.400261e-03 1.861805e-02 -8.498742e-02
<VARIANCE> 39
 2.914514e+01 5.074447e+01 5.149136e+01 6.180053e+01 6.470564e+01 7.537637e+01 6.511035e+01 6.615218e+01 6.099600e+01 6.459499e+01 6.131407e+01 6.691407e+01 3.967041e+01 1.750021e+00 2.154305e+00 2.532578e+00 2.872335e+00 3.311772e+00 3.561263e+00 3.514402e+00 3.404212e+00 3.912675e+00 4.068256e+00 3.463618e+00 3.499398e+00 1.884104e+00 2.844078e-01 3.543758e-01 4.004760e-01 4.864282e-01 6.002186e-01 6.217394e-01 6.362194e-01 6.205857e-01 7.000306e-01 7.272448e-01 6.436921e-01 6.525215e-01 3.110394e-01
<GCONST> 1.297818e+02
<STATE> 4
<MEAN> 39
 -2.947844e-01 -4.671593e-01 -6.293598e+00 -6.465745e+00 -8.287121e+00 -5.714066e+00 -1.432336e+00 -5.291101e+00 -1.485846e+00 6.168735e-02 -6.020927e-01 -3.106290e+00 6.776326e+01 -1.509560e-01 3.981881e-02 1.470180e-01 2.164962e-01 1.493521e-01 5.928931e-02 -5.169304e-02 6.421655e-02 9.250833e-02 1.408589e-01 4.008953e-02 -6.186815e-03 -2.907360e-01 -5.695086e-02 4.675268e-02 7.513189e-02 5.012998e-02 9.539111e-03 -1.179010e-02 -8.733064e-03 7.693951e-03 -2.525132e-02 -7.113972e-02 4.207443e-03 2.985801e-02 -7.487956e-02
<VARIANCE> 39
 2.966500e+01 4.917951e+01 5.273615e+01 6.138771e+01 6.462728e+01 7.601169e+01 6.489676e+01 6.461707e+01 5.992387e+01 6.432793e+01 6.129877e+01 6.679385e+01 4.067676e+01 1.621313e+00 2.043568e+00 2.421369e+00 2.641614e+00 3.220673e+00 3.422577e+00 3.389588e+00 3.354991e+00 3.763022e+00 3.901918e+00 3.343197e+00 3.337815e+00 1.876474e+00 2.647585e-01 3.431643e-01 3.793552e-01 4.586898e-01 5.838150e-01 6.021830e-01 6.145203e-01 6.054127e-01 6.756791e-01 6.985933e-01 6.187920e-01 6.228195e-01 3.013720e-01
<GCONST> 1.286943e+02
<TRANSP> 5
 0.000000e+00 1.000000e+00 0.000000e+00 0.000000e+00 0.000000e+00
 0.000000e+00 3.884337e-01 6.115663e-01 0.000000e+00 0.000000e+00
 0.000000e+00 0.000000e+00 3.884307e-01 6.115693e-01 0.000000e+00
 0.000000e+00 0.000000e+00 0.000000e+00 4.605376e-01 5.394624e-01
 0.000000e+00 0.000000e+00 0.000000e+00 0.000000e+00 0.000000e+00
<ENDHMM>
~h "e"
<BEGINHMM>
<NUMSTATES> 5
<STATE> 2
<MEAN> 39
 -1.575579e+00 -1.467519e-01 -2.221939e+00 4.178054e-01 -8.928281e+00 -1.156330e+01 -5.783582e+00 -5.542981e+00 -2.102149e+00 -2.019411e+00 -3.008103e-02 -1.235260e+00 6.731264e+01 -5.278841e-02 -2.004358e-02 -2.892931e-03 7.349014e-02 9.180948e-02 -2.837252e-02 -3.469744e-02 -4.565159e-02 -3.796077e-02 -7.875464e-02 -6.967941e-03 -3.923591e-03 9.934192e-02 4.403315e-02 3.541162e-02 -5.300897e-02 -1.331285e-01 -3.024717e-02 6.079893e-02 7.876327e-02 6.361411e-03 -2.317934e-02 -1.667773e-02 -3.574070e-03 -3.365048e-02 4.831707e-02
<VARIANCE> 39
 3.228914e+01 3.924743e+01 5.694059e+01 5.212295e+01 8.531440e+01 7.500343e+01 5.167516e+01 5.614323e+01 5.682994e+01 5.730668e+01 4.815318e+01 5.079398e+01 4.010906e+01 1.297994e+00 2.086517e+00 2.709357e+00 2.802341e+00 4.653333e+00 4.184427e+00 3.394697e+00 3.152214e+00 3.842110e+00 3.853719e+00 3.146602e+00 3.220825e+00 2.429205e+00 2.452812e-01 3.488806e-01 4.463372e-01 4.154548e-01 8.558750e-01 7.215615e-01 6.064288e-01 5.721968e-01 6.846837e-01 6.507928e-01 5.748785e-01 5.921797e-01 4.192021e-01
<GCONST> 1.289586e+02
<STATE> 3
<MEAN> 39
 -1.635892e+00 -1.319876e-01 -2.283440e+00 3.550653e-01 -8.819872e+00 -1.151521e+01 -5.661397e+00 -5.570647e+00 -2.197773e+00 -2.181277e+00 -4.039884e-02 -1.282704e+00 6.751722e+01 4.409024e-02 5.949171e-02 -7.375906e-02 -1.134445e-01 5.714310e-02 8.556721e-02 7.549599e-02 -5.323997e-02 -7.797796e-02 -9.630578e-02 -1.039181e-03 -5.475879e-02 1.131143e-01 6.347235e-02 4.763807e-02 -3.920738e-02 -1.041360e-01 -2.952126e-02 5.961498e-02 7.505438e-02 6.042671e-03 -2.453907e-02 6.675059e-03 8.907525e-03 -2.086275e-02 -9.417176e-03
<VARIANCE> 39
 3.203019e+01 3.903394e+01 5.897952e+01 5.365565e+01 8.636065e+01 7.731165e+01 5.332438e+01 5.754488e+01 5.700162e+01 5.878709e+01 4.900353e+01 5.117365e+01 3.683818e+01 1.426700e+00 2.036380e+00 2.555297e+00 2.663421e+00 4.454142e+00 3.941761e+00 3.294026e+00 3.125705e+00 3.823299e+00 3.811357e+00 3.133773e+00 3.157914e+00 2.346158e+00 2.615034e-01 3.502726e-01 4.459323e-01 4.127479e-01 8.231015e-01 6.894238e-01 5.777259e-01 5.831404e-01 6.815066e-01 6.601674e-01 5.716037e-01 5.821136e-01 3.603274e-01
<GCONST> 1.286024e+02
<STATE> 4
<MEAN> 39
 -1.668265e+00 1.016943e-01 -2.175177e+00 3.330469e-03 -8.876607e+00 -1.118677e+01 -5.088772e+00 -5.501082e+00 -2.362065e+00 -2.461734e+00 1.013803e-02 -1.402516e+00 6.745381e+01 1.309880e-01 1.270139e-01 -1.361495e-01 -2.398300e-01 4.230092e-02 1.845026e-01 1.908637e-01 -2.626382e-02 -8.410522e-02 -4.809235e-02 2.088838e-02 -5.816166e-02 7.988802e-03 4.398223e-02 2.845224e-02 -3.793866e-02 -7.189956e-02 -2.215853e-02 4.230635e-02 6.774137e-02 2.076950e-02 -1.061452e-03 2.908529e-02 8.067595e-03 -1.506786e-03 -4.131236e-02
<VARIANCE> 39
 3.056216e+01 3.739886e+01 5.947541e+01 5.507506e+01 8.448353e+01 7.930335e+01 5.709306e+01 5.740858e+01 5.592552e+01 6.089278e+01 5.032380e+01 5.139449e+01 3.596086e+01 1.521665e+00 1.879432e+00 2.277032e+00 2.492334e+00 4.316338e+00 3.648100e+00 3.123701e+00 3.067813e+00 3.727705e+00 3.697535e+00 3.097718e+00 3.099498e+00 2.054975e+00 2.558028e-01 3.272012e-01 4.199496e-01 3.950005e-01 7.679129e-01 6.403781e-01 5.562076e-01 5.782493e-01 6.562434e-01 6.654626e-01 5.674648e-01 5.697822e-01 2.889193e-01
<GCONST> 1.273800e+02
<TRANSP> 5
 0.000000e+00 1.000000e+00 0.000000e+00 0.000000e+00 0.000000e+00
 0.000000e+00 4.329271e-01 5.670729e-01 0.000000e+00 0.000000e+00
 0.000000e+00 0.000000e+00 4.329277e-01 5.670723e-01 0.000000e+00
 0.000000e+00 0.000000e+00 0.000000e+00 5.247894e-01 4.752105e-01
 0.000000e+00 0.000000e+00 0.000000e+00 0.000000e+00 0.000000e+00
<ENDHMM>
~h "f"
<BEGINHMM>
<NUMSTATES> 5
<STATE> 2
<MEAN> 39
 -9.417081e+00 -1.378792e+00 -8.829921e+00 -4.667582e+00 -5.607385e+00 -2.784130e+00 1.521571e+00 -2.290350e+00 -6.139518e-01 -1.431859e+00 -2.967247e-01 -1.478115e+00 6.829301e+01 1.747058e+00 -4.216637e-01 -2.370103e-01 -1.138755e+00 -6.628173e-01 1.641795e-01 4.762096e-01 -2.455138e-02 -6.541526e-01 -1.464519e-01 -2.702156e-01 -3.251461e-01 4.905130e-01 2.382336e-01 -1.232561e-02 1.652555e-02 -7.417008e-02 -7.288119e-02 2.282974e-03 -2.166711e-02 -6.465197e-02 -5.714427e-02 2.965070e-02 1.698431e-02 -5.877197e-02 3.926780e-02
<VARIANCE> 39
 9.766197e+01 3.704804e+01 4.346359e+01 7.681138e+01 5.252429e+01 4.967595e+01 5.143105e+01 4.642695e+01 4.492550e+01 3.872396e+01 4.062453e+01 4.219579e+01 2.952900e+01 6.073484e+00 2.310145e+00 2.405339e+00 3.741018e+00 3.840188e+00 2.905505e+00 2.870926e+00 3.462240e+00 3.256860e+00 3.094420e+00 2.616216e+00 2.576669e+00 1.585710e+00 1.192815e+00 4.150874e-01 3.583606e-01 6.702458e-01 7.358553e-01 5.028428e-01 5.040432e-01 5.729791e-01 5.826774e-01 5.596362e-01 4.821360e-01 4.633707e-01 2.658826e-01
<GCONST> 1.278397e+02
<STATE> 3
<MEAN> 39
 -5.763731e+00 -2.305741e+00 -9.373590e+00 -6.971142e+00 -6.932117e+00 -2.435272e+00 2.317434e+00 -2.663256e+00 -1.968262e+00 -1.630937e+00 -7.653238e-01 -2.323637e+00 6.938732e+01 1.797003e+00 -4.504636e-01 -2.191219e-01 -1.051583e+00 -6.422960e-01 1.421863e-01 3.672831e-01 -1.808155e-01 -6.175964e-01 -7.607286e-02 -2.040799e-01 -4.193885e-01 5.162349e-01 -4.575646e-02 -3.329529e-03 2.041527e-02 1.032002e-01 6.076497e-02 -1.255235e-02 -8.376814e-02 -6.321953e-02 6.003762e-02 7.053737e-02 4.779776e-02 -3.203538e-02 -2.600797e-02
<VARIANCE> 39
 9.790836e+01 4.327859e+01 5.382801e+01 8.106470e+01 5.726013e+01 5.809831e+01 5.453755e+01 5.498658e+01 4.573284e+01 4.460879e+01 4.571418e+01 5.057944e+01 3.300210e+01 5.931498e+00 2.516327e+00 2.562504e+00 4.066345e+00 4.190437e+00 2.987906e+00 2.954593e+00 3.459990e+00 3.403533e+00 3.192873e+00 2.720256e+00 2.782048e+00 1.725736e+00 1.147077e+00 4.400280e-01 3.719307e-01 6.837005e-01 7.914091e-01 5.280687e-01 5.022930e-01 5.507440e-01 6.003886e-01 5.635142e-01 4.814793e-01 4.813601e-01 2.941607e-01
<GCONST> 1.302631e+02
<STATE> 4
<MEAN> 39
 -2.348114e+00 -3.528579e+00 -1.006493e+01 -8.879791e+00 -7.907473e+00 -1.959464e+00 2.931062e+00 -3.442075e+00 -2.983835e+00 -1.624226e+00 -1.263471e+00 -3.585291e+00 7.055975e+01 1.276140e+00 -3.954495e-01 -1.270509e-01 -5.670993e-01 -3.247441e-01 6.452407e-02 1.047256e-01 -2.567099e-01 -3.360007e-01 6.665289e-02 -1.085397e-01 -4.325625e-01 3.417337e-01 -2.390208e-01 4.403784e-02 5.723970e-02 2.263275e-01 1.472054e-01 -4.387664e-02 -1.364168e-01 -1.710321e-02 1.331239e-01 8.157708e-02 3.998317e-02 1.233747e-02 -1.000873e-01
<VARIANCE> 39
 7.647603e+01 4.928583e+01 6.300577e+01 7.553604e+01 5.755208e+01 6.583156e+01 5.710376e+01 6.377010e+01 4.461382e+01 5.154661e+01 5.404013e+01 5.984467e+01 3.511484e+01 5.288025e+00 2.429755e+00 2.380486e+00 3.975400e+00 3.921334e+00 2.952080e+00 2.926548e+00 2.997852e+00 3.388668e+00 2.992785e+00 2.613829e+00 2.777938e+00 1.764681e+00 8.422308e-01 4.103822e-01 3.627206e-01 5.840455e-01 7.320721e-01 5.114408e-01 4.968362e-01 5.161965e-01 5.762705e-01 5.447793e-01 4.734035e-01 4.808029e-01 2.860293e-01
<GCONST> 1.296409e+02
<TRANSP> 5
 0.000000e+00 1.000000e+00 0.000000e+00 0.000000e+00 0.000000e+00
 0.000000e+00 4.720485e-01 5.279515e-01 0.000000e+00 0.000000e+00
 0.000000e+00 0.000000e+00 4.720488e-01 5.279512e-01 0.000000e+00
 0.000000e+00 0.000000e+00 0.000000e+00 5.599766e-01 4.400234e-01
 0.000000e+00 0.000000e+00 0.000000e+00 0.000000e+00 0.000000e+00
<ENDHMM>
~h "h"
<BEGINHMM>
<NUMSTATES> 5
<STATE> 2
<MEAN> 39
 -2.099139e+00 -8.984327e-03 -3.966943e+00 -6.722372e+00 -8.864578e+00 -6.125562e+00 1.610472e+00 -3.632620e+00 -2.366712e+00 -2.046975e+00 -1.891868e+00 -2.745173e+00 6.957945e+01 3.876350e-02 2.418069e-01 4.103178e-01 1.418127e-01 -3.996191e-01 -4.334931e-01 -2.009644e-01 -1.944276e-01 -2.116768e-01 -1.612383e-01 9.309261e-02 1.277640e-02 1.145814e-01 -7.905895e-04 2.122776e-02 3.251095e-02 4.716597e-02 -1.867408e-02 -4.465407e-02 -5.266923e-02 -4.453161e-02 -1.389887e-02 -2.149644e-02 4.393524e-02 2.381383e-02 -6.291308e-02
<VARIANCE> 39
 3.194939e+01 5.795349e+01 7.932693e+01 7.425021e+01 8.080457e+01 8.902463e+01 6.847829e+01 7.248266e+01 6.254816e+01 5.715425e+01 5.517369e+01 6.231013e+01 4.061201e+01 1.414952e+00 1.893890e+00 2.208400e+00 2.834616e+00 3.726953e+00 3.597040e+00 3.414123e+00 3.544546e+00 3.438780e+00 2.902707e+00 3.278861e+00 2.892405e+00 1.134306e+00 2.033216e-01 2.984892e-01 3.041928e-01 3.855364e-01 5.807250e-01 5.672096e-01 5.588716e-01 5.942895e-01 5.959129e-01 5.340008e-01 5.883602e-01 5.455579e-01 1.306093e-01
<GCONST> 1.264117e+02
<STATE> 3
<MEAN> 39
 -1.835381e+00 5.240674e-01 -3.059932e+00 -6.356455e+00 -9.882237e+00 -7.309555e+00 9.040205e-01 -4.340142e+00 -2.905724e+00 -2.497169e+00 -1.623355e+00 -2.690457e+00 6.991965e+01 1.956950e-02 2.645061e-01 4.525893e-01 2.518694e-01 -3.822163e-01 -4.771819e-01 -2.657992e-01 -2.589669e-01 -2.119251e-01 -1.953864e-01 1.673497e-01 4.518425e-02 -3.173247e-02 8.965244e-03 1.328339e-02 5.994687e-03 3.076201e-02 1.449101e-03 -1.451469e-02 -3.386172e-02 -4.460913e-02 -5.781226e-03 -1.793589e-02 2.521867e-02 1.153273e-02 -5.680432e-02
<VARIANCE> 39
 2.938782e+01 5.725706e+01 8.454929e+01 7.732877e+01 8.090402e+01 9.185757e+01 7.075198e+01 7.524561e+01 6.410826e+01 5.867211e+01 5.621392e+01 6.145374e+01 3.803217e+01 1.272975e+00 1.758831e+00 2.113606e+00 2.713258e+00 3.428071e+00 3.389958e+00 3.256660e+00 3.482641e+00 3.384899e+00 2.893482e+00 3.239213e+00 2.859550e+00 1.042778e+00 1.839161e-01 2.716814e-01 2.898942e-01 3.709488e-01 5.518175e-01 5.568972e-01 5.476384e-01 5.810161e-01 5.874831e-01 5.318133e-01 5.840959e-01 5.354282e-01 1.219494e-01
<GCONST> 1.254048e+02
<STATE> 4
<MEAN> 39
 -1.714725e+00 1.131144e+00 -1.708400e+00 -5.835951e+00 -1.137099e+01 -9.077463e+00 -6.046769e-01 -5.755779e+00 -3.635134e+00 -3.644886e+00 -9.776589e-01 -2.476502e+00 6.994493e+01 1.655901e-02 2.682568e-01 3.959158e-01 3.076488e-01 -2.583761e-01 -3.958543e-01 -2.706645e-01 -2.767260e-01 -1.912136e-01 -1.922830e-01 1.536119e-01 2.221290e-02 -1.577943e-01 7.843056e-03 9.076918e-03 -1.783958e-02 1.078848e-02 2.995758e-02 2.568809e-02 -7.785339e-03 -1.577676e-02 -2.928961e-03 -5.509007e-03 -3.545379e-03 -2.034167e-03 -4.475296e-02
<VARIANCE> 39
 2.751036e+01 5.548306e+01 8.852415e+01 8.059355e+01 7.941924e+01 9.489997e+01 7.509496e+01 7.729228e+01 6.538799e+01 6.165642e+01 5.591198e+01 6.193704e+01 3.638450e+01 1.027636e+00 1.564388e+00 1.888685e+00 2.443369e+00 3.027271e+00 3.110109e+00 2.996049e+00 3.189912e+00 3.076773e+00 2.763056e+00 3.011026e+00 2.740923e+00 9.080189e-01 1.502363e-01 2.356030e-01 2.552920e-01 3.401602e-01 4.834617e-01 5.140156e-01 5.120767e-01 5.346781e-01 5.448919e-01 5.026460e-01 5.506692e-01 5.046258e-01 1.021511e-01
<GCONST> 1.228490e+02
<TRANSP> 5
 0.000000e+00 1.000000e+00 0.000000e+00 0.000000e+00 0.000000e+00
 0.000000e+00 5.360411e-01 4.639588e-01 0.000000e+00 0.000000e+00
 0.000000e+00 0.000000e+00 5.360416e-01 4.639583e-01 0.000000e+00
 0.000000e+00 0.000000e+00 0.000000e+00 6.719812e-01 3.280188e-01
 0.000000e+00 0.000000e+00 0.000000e+00 0.000000e+00 0.000000e+00
<ENDHMM>
~h "i"
<BEGINHMM>
<NUMSTATES> 5
<STATE> 2
<MEAN> 39
 -3.902061e+00 2.279745e+00 3.478395e+00 1.792442e+00 -1.031224e+01 -1.127083e+01 -2.905436e+00 -6.480885e+00 -4.559793e+00 -5.619244e+00 -6.207978e-01 -2.723752e+00 6.714900e+01 2.716454e-02 3.052365e-01 2.714213e-01 1.926461e-01 -8.693985e-02 -1.487709e-01 -3.784113e-02 -7.183222e-02 -2.291095e-01 -2.230734e-01 6.988180e-02 6.009242e-02 -2.139849e-01 2.062907e-02 -1.940057e-02 -1.552218e-01 -1.091212e-01 8.753406e-02 1.041885e-01 1.021941e-02 4.202010e-02 3.259772e-02 8.708310e-02 2.756318e-03 9.420585e-03 -2.678420e-02
<VARIANCE> 39
 3.613918e+01 4.219743e+01 6.725632e+01 5.807583e+01 7.429080e+01 6.993868e+01 5.554802e+01 6.387328e+01 6.609812e+01 6.097885e+01 4.778723e+01 4.521571e+01 3.267485e+01 1.747905e+00 1.803898e+00 3.317572e+00 2.688974e+00 4.039040e+00 4.563675e+00 3.290068e+00 3.578229e+00 3.899728e+00 3.534225e+00 3.094860e+00 2.824300e+00 1.362352e+00 2.801682e-01 3.094117e-01 4.400042e-01 4.163771e-01 7.137312e-01 7.739989e-01 6.254332e-01 6.498956e-01 7.071801e-01 6.501021e-01 5.927287e-01 5.339532e-01 2.247698e-01
<GCONST> 1.282343e+02
<STATE> 3
<MEAN> 39
 -3.805660e+00 2.763096e+00 3.718266e+00 1.975330e+00 -1.032354e+01 -1.139935e+01 -2.966634e+00 -6.562352e+00 -4.911370e+00 -5.847260e+00 -5.005201e-01 -2.641920e+00 6.675452e+01 7.123571e-02 2.561490e-01 2.961364e-02 1.588024e-02 5.391731e-02 1.707096e-02 -2.955777e-02 -8.552206e-03 -1.629894e-01 -8.552001e-02 6.254517e-02 6.080287e-02 -2.442837e-01 2.178379e-02 -4.114314e-02 -1.474699e-01 -1.086408e-01 8.298536e-02 1.071593e-01 8.925124e-03 4.495769e-02 5.242646e-02 9.891485e-02 -5.611689e-03 4.339717e-03 -1.366953e-02
<VARIANCE> 39
 3.468119e+01 4.081932e+01 6.402999e+01 5.849853e+01 7.392272e+01 6.906831e+01 5.472791e+01 6.223277e+01 6.475206e+01 5.848167e+01 4.666314e+01 4.433449e+01 3.262421e+01 1.608463e+00 1.792123e+00 3.170624e+00 2.572101e+00 3.889775e+00 4.448591e+00 3.141177e+00 3.433834e+00 3.822848e+00 3.496109e+00 2.954808e+00 2.776738e+00 1.341728e+00 2.593591e-01 2.973102e-01 4.312754e-01 4.137356e-01 6.651664e-01 7.365737e-01 5.984926e-01 6.303434e-01 6.870889e-01 6.178735e-01 5.660747e-01 5.252293e-01 2.234180e-01
<GCONST> 1.270264e+02
<STATE> 4
<MEAN> 39
 -3.638634e+00 3.151244e+00 3.565125e+00 1.817688e+00 -1.010608e+01 -1.120152e+01 -2.977535e+00 -6.533521e+00 -5.096179e+00 -5.835622e+00 -4.384869e-01 -2.604960e+00 6.632508e+01 1.010871e-01 1.667565e-01 -1.887204e-01 -1.443581e-01 1.847348e-01 1.912250e-01 -1.066720e-02 6.576227e-02 -5.611081e-02 7.769989e-02 4.093859e-02 5.228522e-02 -2.533410e-01 5.332549e-03 -5.655507e-02 -1.173942e-01 -8.250371e-02 6.953204e-02 9.540016e-02 1.725089e-02 4.266851e-02 6.976584e-02 9.696876e-02 -1.439790e-02 2.810073e-03 -5.739117e-03
<VARIANCE> 39
 3.424911e+01 4.039962e+01 6.264312e+01 6.002575e+01 7.470336e+01 6.888185e+01 5.361708e+01 6.111644e+01 6.379203e+01 5.698280e+01 4.560648e+01 4.431461e+01 3.340347e+01 1.556481e+00 1.759327e+00 2.856529e+00 2.510592e+00 3.695476e+00 4.202923e+00 2.991989e+00 3.310856e+00 3.687153e+00 3.410876e+00 2.840518e+00 2.695864e+00 1.325256e+00 2.432845e-01 2.819078e-01 4.087759e-01 4.065239e-01 6.222482e-01 7.016613e-01 5.658574e-01 6.009837e-01 6.645086e-01 5.933716e-01 5.363932e-01 5.188225e-01 2.166949e-01
<GCONST> 1.258428e+02
<TRANSP> 5
 0.000000e+00 1.000000e+00 0.000000e+00 0.000000e+00 0.000000e+00
 0.000000e+00 3.839907e-01 6.160093e-01 0.000000e+00 0.000000e+00
 0.000000e+00 0.000000e+00 3.839899e-01 6.160101e-01 0.000000e+00
 0.000000e+00 0.000000e+00 0.000000e+00 4.562686e-01 5.437315e-01
 0.000000e+00 0.000000e+00 0.000000e+00 0.000000e+00 0.000000e+00
<ENDHMM>
~h "k"
<BEGINHMM>
<NUMSTATES> 5
<STATE> 2
<MEAN> 39
 -4.292192e+00 -3.640089e-01 -4.464547e+00 -6.480845e+00 -7.351063e+00 -5.929487e+00 -2.290767e+00 -4.681232e+00 -1.431035e+00 -1.497722e+00 3.975904e-01 -2.260730e+00 6.779465e+01 7.705327e-01 9.341995e-02 2.567423e-01 -2.762859e-02 -6.889895e-01 -4.811926e-01 3.946598e-02 -3.599961e-01 -4.410440e-01 -3.433520e-02 -2.909415e-01 -3.101046e-01 4.963699e-01 3.381061e-03 4.670973e-03 2.986757e-02 8.619713e-02 -2.666967e-02 -5.331170e-02 -3.027641e-02 -3.466796e-03 1.395308e-02 -2.100187e-02 1.861785e-02 2.754528e-02 -5.693699e-02
<VARIANCE> 39
 4.615628e+01 5.860157e+01 8.039125e+01 6.607418e+01 7.959586e+01 8.244807e+01 5.350093e+01 6.126804e+01 6.220299e+01 5.991599e+01 5.384947e+01 5.742507e+01 4.845117e+01 3.379818e+00 2.918011e+00 3.347543e+00 3.544600e+00 4.596700e+00 4.721854e+00 4.075871e+00 4.316702e+00 4.421017e+00 3.982183e+00 3.867067e+00 3.588673e+00 2.038338e+00 5.758524e-01 5.481515e-01 5.855263e-01 5.916500e-01 8.561118e-01 8.275708e-01 7.000369e-01 7.629936e-01 7.915936e-01 7.271212e-01 7.262616e-01 6.511658e-01 3.775124e-01
<GCONST> 1.366402e+02
<STATE> 3
<MEAN> 39
 -3.056141e+00 -1.446934e-01 -3.941972e+00 -6.363501e+00 -8.590082e+00 -6.846946e+00 -2.350304e+00 -5.330126e+00 -2.135113e+00 -1.685070e+00 -1.992965e-02 -2.714056e+00 6.852438e+01 6.502568e-01 1.045047e-01 2.858550e-01 1.171100e-01 -6.293117e-01 -4.956325e-01 -1.560859e-02 -3.227542e-01 -3.589044e-01 -7.398012e-02 -2.211264e-01 -2.365608e-01 3.536782e-01 -7.498766e-02 8.054094e-03 2.049583e-02 8.992583e-02 4.702807e-02 -5.087611e-03 -2.426889e-02 2.938828e-02 4.516402e-02 -2.908849e-02 3.408691e-02 4.530996e-02 -8.813412e-02
<VARIANCE> 39
 4.507526e+01 6.388828e+01 8.631637e+01 6.784623e+01 8.020164e+01 8.459219e+01 5.431789e+01 6.470764e+01 6.556648e+01 6.380798e+01 5.613822e+01 6.001262e+01 4.486338e+01 2.908084e+00 2.648844e+00 2.889521e+00 3.264834e+00 4.313207e+00 4.339138e+00 3.847716e+00 4.005155e+00 4.134223e+00 3.771447e+00 3.600945e+00 3.444097e+00 1.734643e+00 5.133373e-01 4.828371e-01 5.048952e-01 5.452912e-01 7.879693e-01 7.958122e-01 6.691997e-01 7.427381e-01 7.599005e-01 6.970664e-01 6.904278e-01 6.239442e-01 3.008455e-01
<GCONST> 1.348065e+02
<STATE> 4
<MEAN> 39
 -2.264415e+00 1.650097e-01 -2.724660e+00 -5.718462e+00 -9.940136e+00 -8.128623e+00 -2.480851e+00 -6.127327e+00 -2.930113e+00 -2.317852e+00 -3.172369e-01 -3.072358e+00 6.908894e+01 4.257129e-01 1.264795e-01 3.011811e-01 2.636600e-01 -4.268130e-01 -4.233544e-01 -4.541831e-02 -2.191074e-01 -2.476798e-01 -1.261476e-01 -1.532963e-01 -1.351711e-01 1.341750e-01 -9.420295e-02 6.957710e-03 3.335634e-03 7.036372e-02 8.911784e-02 3.038948e-02 -1.147561e-02 4.769888e-02 4.204407e-02 -2.837608e-02 2.861672e-02 5.067128e-02 -9.425973e-02
<VARIANCE> 39
 4.042017e+01 6.511813e+01 9.369168e+01 6.895659e+01 8.158791e+01 8.700967e+01 5.526140e+01 6.881886e+01 6.840021e+01 6.859545e+01 5.875543e+01 6.267307e+01 4.097126e+01 2.263016e+00 2.198445e+00 2.449466e+00 2.843830e+00 3.902705e+00 3.976855e+00 3.416142e+00 3.626587e+00 3.734435e+00 3.457096e+00 3.285345e+00 3.183517e+00 1.459530e+00 3.934586e-01 3.846233e-01 4.088983e-01 4.694123e-01 6.849369e-01 6.978156e-01 6.186083e-01 6.653104e-01 6.876850e-01 6.416010e-01 6.182382e-01 5.794105e-01 2.245877e-01
<GCONST> 1.314001e+02
<TRANSP> 5
 0.000000e+00 1.000000e+00 0.000000e+00 0.000000e+00 0.000000e+00
 0.000000e+00 4.271823e-01 5.728176e-01 0.000000e+00 0.000000e+00
 0.000000e+00 0.000000e+00 4.271836e-01 5.728164e-01 0.000000e+00
 0.000000e+00 0.000000e+00 0.000000e+00 5.269849e-01 4.730152e-01
 0.000000e+00 0.000000e+00 0.000000e+00 0.000000e+00 0.000000e+00
<ENDHMM>
~h "m"
<BEGINHMM>
<NUMSTATES> 5
<STATE> 2
<MEAN> 39
 1.555272e+00 3.068351e+00 -4.676319e+00 -5.302327e+00 -7.198769e+00 -3.787304e+00 4.525381e-01 -6.427622e+00 -6.489708e+00 -5.944002e+00 -3.467273e+00 -3.172838e+00 6.728557e+01 1.483673e-01 -5.298402e-01 -7.396432e-01 -8.390144e-01 -4.389642e-01 1.987670e-01 3.598164e-01 7.158678e-03 4.706541e-01 5.797032e-01 7.304139e-02 -1.423691e-01 5.190649e-01 -5.313194e-02 -8.054772e-02 -1.693655e-02 -2.945278e-03 -4.071927e-02 -3.523036e-02 -3.188607e-02 2.482415e-02 1.236647e-01 1.237828e-01 6.307214e-02 -8.629519e-05 1.993269e-02
<VARIANCE> 39
 1.633232e+01 5.607010e+01 5.691564e+01 7.515426e+01 6.070173e+01 6.311893e+01 6.580958e+01 6.336833e+01 6.207558e+01 6.775667e+01 5.059003e+01 4.916075e+01 3.989973e+01 7.788212e-01 2.071873e+00 2.941739e+00 4.008779e+00 3.387080e+00 3.236397e+00 3.492594e+00 3.277266e+00 4.231526e+00 4.762506e+00 3.238606e+00 2.977151e+00 1.376199e+00 1.196713e-01 3.276165e-01 5.208992e-01 6.966801e-01 5.923460e-01 5.418681e-01 6.336549e-01 5.692392e-01 7.579570e-01 8.647741e-01 5.875823e-01 5.488444e-01 2.058408e-01
<GCONST> 1.271177e+02
<STATE> 3
<MEAN> 39
 1.761117e+00 1.909145e+00 -6.103391e+00 -6.954628e+00 -8.094754e+00 -3.455729e+00 1.010706e+00 -6.407818e+00 -5.389001e+00 -4.668606e+00 -3.246122e+00 -3.464028e+00 6.833383e+01 3.555162e-02 -5.783949e-01 -6.679577e-01 -7.284418e-01 -4.213223e-01 1.281903e-01 2.595641e-01 5.012011e-02 5.996423e-01 7.039629e-01 1.675486e-01 -1.241455e-01 4.533249e-01 -5.890127e-02 -1.047923e-02 7.011004e-02 9.298733e-02 2.819180e-02 -3.950949e-02 -6.223799e-02 1.953223e-02 3.898548e-02 3.699590e-02 3.836254e-02 2.916955e-03 -4.264694e-02
<VARIANCE> 39
 1.590913e+01 5.985357e+01 5.726104e+01 7.494332e+01 5.995955e+01 6.703227e+01 6.857884e+01 6.737473e+01 6.406548e+01 6.955140e+01 5.399943e+01 5.285207e+01 3.923924e+01 7.934692e-01 2.094088e+00 3.096937e+00 4.162630e+00 3.345248e+00 3.467960e+00 3.664667e+00 3.394137e+00 4.218857e+00 4.662741e+00 3.424713e+00 3.179407e+00 1.477514e+00 1.215142e-01 3.482094e-01 5.176136e-01 6.829674e-01 5.813553e-01 5.787612e-01 6.454039e-01 5.830325e-01 7.547289e-01 8.640181e-01 6.169533e-01 5.773981e-01 2.176249e-01
<GCONST> 1.282052e+02
<STATE> 4
<MEAN> 39
 1.566237e+00 6.090534e-01 -7.443071e+00 -8.644934e+00 -8.605630e+00 -2.935903e+00 1.315464e+00 -6.322870e+00 -3.927380e+00 -3.380756e+00 -2.840043e+00 -3.763306e+00 6.915962e+01 -8.298925e-02 -4.109907e-01 -3.712653e-01 -3.881440e-01 -2.593372e-01 1.449416e-02 7.109204e-02 8.003522e-02 4.968854e-01 5.734673e-01 1.893547e-01 -8.194716e-02 2.091660e-01 -5.086574e-02 5.339404e-02 1.219866e-01 1.393821e-01 6.319213e-02 -3.984008e-02 -6.693189e-02 1.633005e-02 -3.950459e-02 -4.821175e-02 9.993423e-03 1.338121e-02 -8.738808e-02
<VARIANCE> 39
 1.812587e+01 5.857259e+01 5.564705e+01 7.277195e+01 6.006709e+01 7.214573e+01 7.083089e+01 7.193572e+01 6.492919e+01 6.915430e+01 5.729790e+01 5.695348e+01 3.988088e+01 8.526264e-01 2.128709e+00 2.914065e+00 3.766512e+00 2.936351e+00 3.504870e+00 3.540342e+00 3.257935e+00 3.947938e+00 4.319512e+00 3.347516e+00 3.183313e+00 1.633996e+00 1.302192e-01 3.325417e-01 4.519514e-01 5.872505e-01 5.260184e-01 5.919595e-01 6.207778e-01 5.632987e-01 6.924867e-01 7.718701e-01 6.099178e-01 5.788494e-01 2.214063e-01
<GCONST> 1.276506e+02
<TRANSP> 5
 0.000000e+00 1.000000e+00 0.000000e+00 0.000000e+00 0.000000e+00
 0.000000e+00 4.788933e-01 5.211066e-01 0.000000e+00 0.000000e+00
 0.000000e+00 0.000000e+00 4.788947e-01 5.211053e-01 0.000000e+00
 0.000000e+00 0.000000e+00 0.000000e+00 5.963981e-01 4.036019e-01
 0.000000e+00 0.000000e+00 0.000000e+00 0.000000e+00 0.000000e+00
<ENDHMM>
~h "n"
<BEGINHMM>
<NUMSTATES> 5
<STATE> 2
<MEAN> 39
 1.532966e+00 1.268831e+00 -4.414441e+00 -3.689297e+00 -8.619403e+00 -6.939031e+00 -3.014015e+00 -6.968547e+00 -4.845127e+00 -3.396274e+00 -2.559248e+00 -4.507934e+00 6.826550e+01 2.823861e-02 3.056826e-01 2.626050e-01 3.307795e-01 2.038671e-01 -2.027062e-01 -3.401122e-01 -2.129612e-01 -7.351090e-02 9.541100e-02 8.328270e-02 -7.492560e-02 -2.520376e-01 -3.665587e-02 -3.323063e-02 -5.661250e-02 -8.673695e-02 -8.598141e-02 -1.500697e-02 9.334917e-02 1.060639e-01 1.066639e-01 4.469221e-02 -2.298150e-02 -5.078259e-03 2.840571e-02
<VARIANCE> 39
 1.420999e+01 5.645658e+01 5.815473e+01 6.242777e+01 6.904365e+01 6.700977e+01 7.016344e+01 5.762670e+01 5.917525e+01 6.392273e+01 5.384329e+01 6.057957e+01 3.507386e+01 6.598924e-01 2.224991e+00 2.587261e+00 2.745186e+00 3.650665e+00 2.885669e+00 4.146698e+00 3.517978e+00 3.771548e+00 3.391005e+00 3.018130e+00 3.113626e+00 1.198816e+00 1.072582e-01 3.735614e-01 4.300306e-01 3.959922e-01 6.046795e-01 4.833591e-01 6.673843e-01 6.055107e-01 6.819002e-01 6.262633e-01 5.427126e-01 5.835432e-01 1.899856e-01
<GCONST> 1.247565e+02
<STATE> 3
<MEAN> 39
 1.469859e+00 1.809006e+00 -3.928230e+00 -3.209785e+00 -8.545070e+00 -7.454138e+00 -3.451388e+00 -7.093072e+00 -4.778571e+00 -3.152209e+00 -2.396774e+00 -4.598180e+00 6.782309e+01 -3.692603e-02 1.812067e-01 1.043508e-01 1.398879e-01 2.479739e-02 -1.827138e-01 -9.418318e-02 -3.600695e-03 1.153594e-01 1.633002e-01 2.799609e-02 -7.934517e-02 -1.485199e-01 -3.237433e-02 -7.163014e-02 -1.020418e-01 -1.113954e-01 -9.886673e-02 2.594597e-02 1.469708e-01 1.152293e-01 1.023509e-01 3.630427e-02 -2.913531e-02 -2.728369e-03 6.034442e-02
<VARIANCE> 39
 1.394883e+01 5.278614e+01 5.484439e+01 5.660496e+01 6.926194e+01 6.066170e+01 6.822050e+01 5.714074e+01 5.971677e+01 6.241449e+01 5.238354e+01 5.853787e+01 3.431481e+01 5.565968e-01 2.265190e+00 2.855169e+00 2.847061e+00 3.637421e+00 2.833150e+00 4.394884e+00 3.578333e+00 3.739106e+00 3.468941e+00 2.997241e+00 3.119091e+00 1.216965e+00 9.107212e-02 3.800158e-01 4.714929e-01 4.161826e-01 6.133280e-01 4.869880e-01 7.010019e-01 6.217222e-01 6.810392e-01 6.439351e-01 5.590474e-01 5.723070e-01 1.903782e-01
<GCONST> 1.244740e+02
<STATE> 4
<MEAN> 39
 1.085064e+00 1.742126e+00 -3.595213e+00 -3.122135e+00 -9.272151e+00 -7.996266e+00 -3.324111e+00 -6.739430e+00 -4.147986e+00 -2.956932e+00 -2.389087e+00 -4.777489e+00 6.782556e+01 -1.044290e-01 2.757185e-02 -6.842639e-02 -5.458617e-02 -1.612488e-01 -8.940251e-02 2.057770e-01 1.718082e-01 2.438377e-01 2.058305e-01 -1.652467e-02 -6.515121e-02 -3.937575e-02 -2.494264e-02 -5.463794e-02 -7.610291e-02 -8.809873e-02 -7.084639e-02 5.011491e-02 1.219614e-01 7.424761e-02 5.492953e-02 1.848942e-02 -1.858241e-02 5.173393e-03 4.005325e-02
<VARIANCE> 39
 1.559585e+01 5.014201e+01 5.624238e+01 5.249750e+01 7.569485e+01 5.782800e+01 6.845170e+01 5.866152e+01 6.015702e+01 6.557703e+01 5.420449e+01 5.813413e+01 3.398341e+01 4.836607e-01 2.180562e+00 2.873233e+00 2.707419e+00 3.446578e+00 2.797750e+00 4.264981e+00 3.488232e+00 3.678780e+00 3.549693e+00 3.055290e+00 2.985424e+00 1.160698e+00 7.879709e-02 3.716241e-01 4.802494e-01 4.208103e-01 6.006548e-01 4.762062e-01 7.171944e-01 6.123200e-01 6.730400e-01 6.452463e-01 5.715660e-01 5.377000e-01 1.829151e-01
<GCONST> 1.239560e+02
<TRANSP> 5
 0.000000e+00 1.000000e+00 0.000000e+00 0.000000e+00 0.000000e+00
 0.000000e+00 4.960440e-01 5.039561e-01 0.000000e+00 0.000000e+00
 0.000000e+00 0.000000e+00 4.960432e-01 5.039567e-01 0.000000e+00
 0.000000e+00 0.000000e+00 0.000000e+00 5.966295e-01 4.033705e-01
 0.000000e+00 0.000000e+00 0.000000e+00 0.000000e+00 0.000000e+00
<ENDHMM>
~h "o"
<BEGINHMM>
<NUMSTATES> 5
<STATE> 2
<MEAN> 39
 1.853940e+00 3.921840e+00 -6.765375e+00 -8.664550e+00 -1.092867e+01 -6.387635e+00 7.985869e-01 -5.128393e+00 -4.314511e+00 -2.513092e+00 -1.774527e+00 -2.352415e+00 6.701569e+01 4.106428e-02 7.509693e-02 -7.790180e-02 1.373702e-02 2.133169e-02 2.007598e-02 1.500415e-01 7.172278e-02 -4.358882e-02 -3.603864e-02 5.730656e-02 8.423072e-02 -1.626855e-01 -7.659445e-02 -4.954318e-02 7.120336e-02 1.154464e-01 1.069075e-01 2.253456e-02 -4.751467e-02 -2.449095e-02 -6.426750e-04 -2.131417e-03 7.309272e-03 -1.886247e-02 -2.933678e-02
<VARIANCE> 39
 1.751761e+01 4.778841e+01 3.834261e+01 6.592229e+01 6.776970e+01 6.255376e+01 7.066993e+01 6.257434e+01 5.718567e+01 5.356163e+01 5.179938e+01 4.880038e+01 3.368713e+01 1.165084e+00 1.651354e+00 2.131316e+00 3.623334e+00 4.683592e+00 3.407499e+00 3.938395e+00 3.366016e+00 3.560895e+00 3.263706e+00 3.179658e+00 2.901531e+00 9.110513e-01 2.055382e-01 2.828036e-01 3.803425e-01 5.155910e-01 8.333821e-01 5.618460e-01 6.735411e-01 6.058944e-01 6.677224e-01 6.087630e-01 6.248164e-01 5.702398e-01 1.544311e-01
<GCONST> 1.250734e+02
<STATE> 3
<MEAN> 39
 1.824849e+00 3.995816e+00 -6.786020e+00 -8.502127e+00 -1.079375e+01 -6.331337e+00 9.832502e-01 -5.030869e+00 -4.414697e+00 -2.572443e+00 -1.683126e+00 -2.269696e+00 6.671626e+01 -6.827283e-02 1.314752e-02 5.927606e-02 1.862724e-01 1.544441e-01 4.393657e-02 4.972566e-02 9.951586e-03 -4.579573e-02 -3.643047e-02 6.448764e-02 5.078676e-02 -2.037484e-01 -7.094517e-02 -4.006369e-02 8.807072e-02 1.101767e-01 7.951561e-02 6.712249e-03 -6.893591e-02 -3.833276e-02 6.695340e-03 2.476682e-03 2.063941e-03 -2.321318e-02 -2.025537e-02
<VARIANCE> 39
 1.790144e+01 4.598853e+01 3.741590e+01 6.189845e+01 6.587466e+01 6.006263e+01 6.888148e+01 6.211462e+01 5.562431e+01 5.310623e+01 5.158672e+01 4.914841e+01 3.438839e+01 1.125015e+00 1.676200e+00 2.255964e+00 3.754647e+00 4.745875e+00 3.442538e+00 4.043727e+00 3.456338e+00 3.558173e+00 3.273899e+00 3.315831e+00 2.954969e+00 9.196701e-01 1.936928e-01 2.772999e-01 3.852373e-01 5.153326e-01 8.253493e-01 5.710087e-01 6.601049e-01 6.031595e-01 6.541844e-01 6.126506e-01 6.250010e-01 5.715073e-01 1.573482e-01
<GCONST> 1.249974e+02
<STATE> 4
<MEAN> 39
 1.606543e+00 4.002683e+00 -6.511506e+00 -8.079466e+00 -1.053456e+01 -6.283514e+00 9.461191e-01 -5.082734e+00 -4.487119e+00 -2.650719e+00 -1.632786e+00 -2.277391e+00 6.633828e+01 -1.693438e-01 -3.691439e-02 2.044927e-01 3.386766e-01 2.394015e-01 4.157509e-02 -6.782737e-02 -4.795915e-02 -2.741845e-02 -3.451574e-02 6.387090e-02 2.545668e-02 -2.272787e-01 -5.175684e-02 -2.567013e-02 7.307056e-02 8.643701e-02 3.870060e-02 -1.249874e-02 -6.750849e-02 -2.459251e-02 1.277361e-02 -1.169112e-03 -3.646283e-03 -1.287095e-02 -9.413287e-03
<VARIANCE> 39
 1.858044e+01 4.458408e+01 3.802165e+01 6.051509e+01 6.475470e+01 5.875496e+01 6.806161e+01 6.291206e+01 5.279721e+01 5.266625e+01 5.158505e+01 4.932235e+01 3.551887e+01 1.103643e+00 1.702369e+00 2.309364e+00 3.638726e+00 4.584087e+00 3.423522e+00 4.026084e+00 3.420231e+00 3.548738e+00 3.253231e+00 3.318719e+00 3.000124e+00 9.610261e-01 1.917137e-01 2.826896e-01 3.809614e-01 5.016715e-01 8.126686e-01 5.742757e-01 6.420747e-01 6.029053e-01 6.354120e-01 6.076394e-01 6.186337e-01 5.704215e-01 1.611672e-01
<GCONST> 1.248260e+02
<TRANSP> 5
 0.000000e+00 1.000000e+00 0.000000e+00 0.000000e+00 0.000000e+00
 0.000000e+00 3.819117e-01 6.180883e-01 0.000000e+00 0.000000e+00
 0.000000e+00 0.000000e+00 3.819118e-01 6.180882e-01 0.000000e+00
 0.000000e+00 0.000000e+00 0.000000e+00 4.497027e-01 5.502974e-01
 0.000000e+00 0.000000e+00 0.000000e+00 0.000000e+00 0.000000e+00
<ENDHMM>
~h "p"
<BEGINHMM>
<NUMSTATES> 5
<STATE> 2
<MEAN> 39
 -1.558982e+00 4.586487e-01 -6.500358e+00 -1.040826e+01 -9.017052e+00 -3.442314e+00 7.308825e-01 -2.866958e+00 -1.790584e+00 -1.389262e+00 -1.665931e+00 -2.541130e+00 6.758118e+01 1.907140e-01 1.522481e-03 6.366470e-02 -7.676557e-02 -3.655997e-01 -3.224321e-01 -2.182835e-01 -2.660338e-01 -8.744054e-02 -1.525231e-01 -8.547776e-02 -4.594892e-02 3.813502e-01 -1.400155e-02 3.935942e-02 2.054106e-02 6.263369e-02 1.862915e-02 -4.547651e-02 -4.322412e-02 -5.060043e-03 -6.886143e-04 -9.053896e-03 2.638264e-02 2.569365e-02 -3.511752e-02
<VARIANCE> 39
 3.536977e+01 6.191576e+01 3.790569e+01 6.544073e+01 7.795070e+01 8.259389e+01 6.692597e+01 6.225975e+01 5.556746e+01 5.057388e+01 4.391386e+01 4.911045e+01 7.015961e+01 2.194438e+00 2.688661e+00 1.625718e+00 2.812760e+00 3.524910e+00 3.409495e+00 3.161033e+00 3.200902e+00 3.178061e+00 3.052998e+00 2.828626e+00 2.554923e+00 2.279461e+00 3.551337e-01 4.605553e-01 2.789935e-01 4.192701e-01 5.766748e-01 5.697101e-01 5.565441e-01 5.689264e-01 5.472260e-01 5.572697e-01 5.087785e-01 4.578855e-01 3.726522e-01
<GCONST> 1.274770e+02
<STATE> 3
<MEAN> 39
 -9.936402e-01 7.029831e-01 -6.202881e+00 -1.046012e+01 -1.011602e+01 -4.575695e+00 -7.504749e-02 -3.623541e+00 -1.857380e+00 -1.883278e+00 -1.803138e+00 -2.633484e+00 6.835611e+01 1.391253e-01 1.309001e-01 1.375279e-01 1.264811e-01 -2.799620e-01 -4.344205e-01 -2.875257e-01 -2.724299e-01 -8.598437e-02 -1.779894e-01 -3.830043e-02 5.599746e-03 2.149265e-01 1.254993e-02 5.502649e-02 2.075627e-02 5.079470e-02 8.180417e-03 -3.205068e-02 -2.036284e-02 -1.880342e-03 -1.626951e-02 -5.550635e-03 2.537951e-02 7.093161e-03 -4.871508e-02
<VARIANCE> 39
 3.351358e+01 6.925001e+01 4.183044e+01 6.940231e+01 8.241698e+01 9.069231e+01 7.263409e+01 6.786517e+01 6.258498e+01 5.909052e+01 4.704306e+01 5.209763e+01 6.184490e+01 1.904159e+00 2.590836e+00 1.557905e+00 2.508775e+00 3.090264e+00 3.264921e+00 3.144827e+00 3.219042e+00 3.251817e+00 3.027396e+00 2.809999e+00 2.499651e+00 2.009455e+00 3.260536e-01 4.317192e-01 2.548964e-01 3.797644e-01 5.310841e-01 5.297279e-01 5.435458e-01 5.407830e-01 5.555602e-01 5.584801e-01 5.092582e-01 4.483140e-01 2.969553e-01
<GCONST> 1.268367e+02
<STATE> 4
<MEAN> 39
 -3.442997e-01 9.974897e-01 -5.853909e+00 -1.029418e+01 -1.152752e+01 -5.840104e+00 -1.268578e+00 -4.327116e+00 -1.957881e+00 -3.369660e+00 -1.788171e+00 -2.947826e+00 6.884679e+01 7.914691e-02 2.639900e-01 2.191074e-01 2.792230e-01 -1.933366e-01 -4.279665e-01 -2.619380e-01 -1.987042e-01 -1.107923e-01 -1.768569e-01 -2.696219e-03 1.482948e-02 -4.583745e-02 2.463721e-04 3.218172e-02 1.988398e-02 3.024383e-02 1.632883e-02 6.143822e-03 1.472660e-03 1.245579e-02 -1.708479e-02 1.988937e-03 1.548691e-02 6.934705e-04 -5.546050e-02
<VARIANCE> 39
 2.935162e+01 7.716369e+01 4.956915e+01 7.808868e+01 8.637276e+01 9.588651e+01 8.194833e+01 7.179228e+01 6.776675e+01 7.005627e+01 4.937243e+01 5.565263e+01 4.870957e+01 1.413481e+00 2.097892e+00 1.389952e+00 2.185785e+00 2.731437e+00 2.959207e+00 2.995329e+00 3.019548e+00 3.044988e+00 2.804281e+00 2.649348e+00 2.399059e+00 1.471628e+00 2.373415e-01 3.353168e-01 2.100567e-01 3.159163e-01 4.388995e-01 4.549424e-01 4.975503e-01 4.785307e-01 5.075877e-01 4.883704e-01 4.657845e-01 4.177397e-01 1.836705e-01
<GCONST> 1.234896e+02
<TRANSP> 5
 0.000000e+00 1.000000e+00 0.000000e+00 0.000000e+00 0.000000e+00
 0.000000e+00 6.162122e-01 3.837878e-01 0.000000e+00 0.000000e+00
 0.000000e+00 0.000000e+00 6.162114e-01 3.837887e-01 0.000000e+00
 0.000000e+00 0.000000e+00 0.000000e+00 7.595146e-01 2.404854e-01
 0.000000e+00 0.000000e+00 0.000000e+00 0.000000e+00 0.000000e+00
<ENDHMM>
~h "r"
<BEGINHMM>
<NUMSTATES> 5
<STATE> 2
<MEAN> 39
 1.196538e+00 -1.445651e-01 -4.892014e+00 -2.208499e+00 -9.535303e+00 -9.668432e+00 -3.748150e+00 -7.465385e+00 -3.849761e+00 -1.863985e+00 -1.816375e-01 -2.337496e+00 6.848671e+01 -1.022519e-01 9.036400e-02 2.567065e-01 4.052120e-01 3.313821e-03 -7.460484e-02 -2.078305e-01 -1.148125e-01 -8.324684e-02 -1.921635e-01 8.076069e-02 1.238479e-01 -2.203110e-01 -5.794388e-02 3.007804e-02 1.554170e-02 -7.471145e-02 -8.674486e-03 5.746118e-02 7.533234e-02 5.825299e-02 2.309510e-02 -7.912218e-03 -2.651647e-02 1.856489e-04 -2.126998e-02
<VARIANCE> 39
 2.044287e+01 5.112591e+01 6.635673e+01 7.174979e+01 6.912254e+01 7.234730e+01 6.501232e+01 5.940306e+01 6.118468e+01 6.511488e+01 4.824180e+01 5.607598e+01 3.080585e+01 1.237414e+00 1.778711e+00 2.572865e+00 3.519214e+00 5.199273e+00 4.211966e+00 4.211839e+00 3.470809e+00 4.087337e+00 4.217331e+00 3.672198e+00 3.595833e+00 1.267362e+00 2.117538e-01 3.090042e-01 4.015955e-01 4.719736e-01 9.620492e-01 7.258174e-01 7.304126e-01 6.457291e-01 7.612622e-01 7.690213e-01 6.988757e-01 6.621922e-01 2.333455e-01
<GCONST> 1.296582e+02
<STATE> 3
<MEAN> 39
 9.340844e-01 7.726908e-03 -4.470899e+00 -1.695962e+00 -9.515521e+00 -9.716669e+00 -3.949135e+00 -7.566892e+00 -3.931708e+00 -2.140743e+00 -7.803202e-02 -2.165115e+00 6.812314e+01 -1.733604e-01 1.320100e-01 2.677384e-01 2.728819e-01 -2.636283e-02 -2.041650e-02 -9.438398e-02 -2.065447e-02 -5.139317e-02 -1.761500e-01 4.014204e-02 1.061130e-01 -2.318065e-01 -4.021573e-02 2.645579e-02 4.964008e-03 -9.510817e-02 -1.897311e-02 3.764008e-02 7.869928e-02 6.944132e-02 2.070422e-02 1.858765e-02 -1.880225e-02 -4.226070e-03 -7.358206e-03
<VARIANCE> 39
 2.212373e+01 5.080268e+01 6.576918e+01 6.821169e+01 6.799985e+01 7.264352e+01 6.249216e+01 5.955499e+01 6.297781e+01 6.482763e+01 4.703950e+01 5.479695e+01 3.169721e+01 1.125769e+00 1.772602e+00 2.514263e+00 3.395419e+00 4.997068e+00 4.137109e+00 4.105180e+00 3.371331e+00 3.927419e+00 4.146175e+00 3.591858e+00 3.456674e+00 1.239762e+00 1.958780e-01 3.052215e-01 3.861501e-01 4.323031e-01 9.292296e-01 7.088869e-01 6.971629e-01 6.263854e-01 7.491302e-01 7.420267e-01 6.855195e-01 6.381994e-01 2.243048e-01
<GCONST> 1.287170e+02
<STATE> 4
<MEAN> 39
 5.170410e-01 2.371831e-01 -3.961504e+00 -1.426246e+00 -9.621317e+00 -9.754589e+00 -3.947191e+00 -7.412853e+00 -3.949841e+00 -2.405884e+00 -3.417873e-02 -2.033838e+00 6.775185e+01 -2.191515e-01 1.661494e-01 2.618844e-01 1.168742e-01 -5.447569e-02 2.394936e-02 3.041355e-02 9.551404e-02 -2.069255e-02 -1.250312e-01 9.552552e-03 9.096401e-02 -2.302676e-01 -2.770226e-02 1.731308e-02 -2.318145e-03 -9.427366e-02 -3.679095e-03 3.627284e-02 7.036735e-02 6.428789e-02 1.768699e-02 2.898993e-02 -8.019853e-03 -3.420155e-03 -2.783593e-03
<VARIANCE> 39
 2.503980e+01 5.034514e+01 6.486327e+01 6.663221e+01 6.703088e+01 7.362397e+01 6.105772e+01 6.035947e+01 6.434499e+01 6.396152e+01 4.645655e+01 5.389741e+01 3.316817e+01 1.071281e+00 1.779308e+00 2.413687e+00 3.081770e+00 4.639647e+00 3.966123e+00 3.831288e+00 3.197754e+00 3.814719e+00 4.015735e+00 3.498476e+00 3.269002e+00 1.218475e+00 1.860554e-01 2.996913e-01 3.642033e-01 4.062030e-01 8.590330e-01 6.684474e-01 6.558490e-01 5.995916e-01 7.160355e-01 7.089278e-01 6.511378e-01 6.159076e-01 2.152115e-01
<GCONST> 1.275737e+02
<TRANSP> 5
 0.000000e+00 1.000000e+00 0.000000e+00 0.000000e+00 0.000000e+00
 0.000000e+00 3.689161e-01 6.310840e-01 0.000000e+00 0.000000e+00
 0.000000e+00 0.000000e+00 3.689165e-01 6.310835e-01 0.000000e+00
 0.000000e+00 0.000000e+00 0.000000e+00 4.380695e-01 5.619305e-01
 0.000000e+00 0.000000e+00 0.000000e+00 0.000000e+00 0.000000e+00
<ENDHMM>
~h "t"
<BEGINHMM>
<NUMSTATES> 5
<STATE> 2
<MEAN> 39
 -4.666025e+00 -5.284710e-01 -3.728226e+00 -5.979486e+00 -6.901131e+00 -6.699415e+00 -2.786263e+00 -4.886891e+00 -1.205961e+00 -1.525298e+00 -9.889543e-01 -2.347372e+00 6.877939e+01 5.603455e-01 1.307482e-01 1.821899e-01 2.108146e-01 -3.035894e-01 -2.688742e-01 -1.834739e-01 -2.698726e-01 -3.136540e-01 -2.511103e-01 -7.124507e-02 -5.691131e-02 -5.060388e-02 -4.495970e-02 2.491337e-02 -7.249188e-03 5.166512e-02 6.770161e-02 1.684398e-02 -1.693928e-02 1.355355e-02 4.450087e-03 -3.382651e-02 1.537732e-02 4.590217e-02 -1.145698e-01
<VARIANCE> 39
 6.316580e+01 4.252854e+01 6.159850e+01 6.382389e+01 6.269389e+01 7.960649e+01 5.672552e+01 6.175732e+01 5.731055e+01 6.128495e+01 5.292828e+01 6.075570e+01 5.567569e+01 4.313509e+00 2.468105e+00 2.719928e+00 3.329458e+00 3.969497e+00 4.316105e+00 3.487965e+00 3.871133e+00 4.050733e+00 3.883877e+00 3.439611e+00 3.771744e+00 3.319860e+00 6.976948e-01 4.394417e-01 4.885519e-01 5.651068e-01 7.214307e-01 7.711650e-01 6.539813e-01 6.792746e-01 7.128736e-01 7.207989e-01 6.635664e-01 7.193821e-01 5.958464e-01
<GCONST> 1.355269e+02
<STATE> 3
<MEAN> 39
 -3.866333e+00 -2.418761e-01 -3.358947e+00 -5.541537e+00 -7.426356e+00 -7.318875e+00 -3.263587e+00 -5.365899e+00 -1.690939e+00 -2.079761e+00 -1.036369e+00 -2.343320e+00 6.862423e+01 3.852013e-01 1.518268e-01 1.428698e-01 2.590750e-01 -1.541504e-01 -2.434639e-01 -2.045085e-01 -2.211011e-01 -2.388136e-01 -2.683156e-01 -5.114772e-02 6.514160e-03 -1.309784e-01 -8.768441e-02 -1.694525e-03 -3.412900e-02 1.193731e-02 8.691618e-02 3.236293e-02 -3.097646e-03 2.134238e-02 4.274218e-02 1.221144e-02 1.058100e-02 2.261017e-02 -2.548192e-02
<VARIANCE> 39
 5.451226e+01 4.387343e+01 6.379610e+01 6.729046e+01 6.659089e+01 8.159630e+01 5.730666e+01 6.326217e+01 6.024952e+01 6.457836e+01 5.388632e+01 6.073187e+01 5.394541e+01 3.838200e+00 2.291369e+00 2.634269e+00 3.148756e+00 3.942796e+00 4.202136e+00 3.427546e+00 3.675315e+00 3.883066e+00 3.819338e+00 3.369067e+00 3.503384e+00 3.028936e+00 6.021204e-01 4.122802e-01 4.801119e-01 5.415386e-01 7.196327e-01 7.335824e-01 6.263937e-01 6.658947e-01 6.940644e-01 7.030990e-01 6.374140e-01 6.717325e-01 5.240228e-01
<GCONST> 1.344039e+02
<STATE> 4
<MEAN> 39
 -3.091988e+00 -1.044550e-01 -3.289886e+00 -5.281291e+00 -8.019947e+00 -7.910325e+00 -3.725412e+00 -5.937178e+00 -1.969005e+00 -2.849728e+00 -1.041760e+00 -2.367116e+00 6.862770e+01 2.018909e-01 1.251770e-01 8.354008e-02 2.453532e-01 -2.458066e-02 -1.785544e-01 -1.663006e-01 -1.494188e-01 -1.200584e-01 -1.894597e-01 -3.395415e-02 1.073123e-02 -1.061886e-01 -4.935241e-02 -1.156370e-02 -3.478013e-02 -1.393704e-02 5.116989e-02 3.708953e-02 1.650388e-02 1.360883e-02 3.483628e-02 3.938349e-02 7.437870e-03 -3.638573e-03 1.754334e-02
<VARIANCE> 39
 4.763155e+01 4.592009e+01 6.393827e+01 7.107324e+01 7.219041e+01 8.491500e+01 6.014312e+01 6.479839e+01 6.227034e+01 6.795978e+01 5.475888e+01 5.996064e+01 4.966830e+01 2.971098e+00 2.149465e+00 2.522847e+00 2.961710e+00 3.696094e+00 3.864258e+00 3.242030e+00 3.457160e+00 3.597182e+00 3.622128e+00 3.181869e+00 3.197015e+00 2.611190e+00 4.903004e-01 3.687336e-01 4.166073e-01 4.814669e-01 6.663725e-01 6.738169e-01 5.960504e-01 6.174119e-01 6.583804e-01 6.610544e-01 5.973980e-01 6.129895e-01 4.285617e-01
<GCONST> 1.321172e+02
<TRANSP> 5
 0.000000e+00 1.000000e+00 0.000000e+00 0.000000e+00 0.000000e+00
 0.000000e+00 5.027698e-01 4.972303e-01 0.000000e+00 0.000000e+00
 0.000000e+00 0.000000e+00 5.027696e-01 4.972304e-01 0.000000e+00
 0.000000e+00 0.000000e+00 0.000000e+00 6.269726e-01 3.730274e-01
 0.000000e+00 0.000000e+00 0.000000e+00 0.000000e+00 0.000000e+00
<ENDHMM>
~h "u"
<BEGINHMM>
<NUMSTATES> 5
<STATE> 2
<MEAN> 39
 -1.608634e+00 3.216130e+00 -2.807546e+00 -1.700827e+00 -8.355954e+00 -9.012094e+00 -5.283892e+00 -9.111315e+00 -5.588746e+00 -4.451131e+00 2.472568e-01 -1.391310e+00 6.662749e+01 8.926544e-02 -1.302465e-02 1.992820e-01 -2.754583e-02 -4.828932e-01 -1.162001e-01 -4.501523e-02 -1.862920e-02 9.369936e-02 9.885402e-02 1.886291e-01 -2.663391e-03 1.210167e-01 -1.803179e-02 -4.586850e-02 -7.311565e-03 -5.174443e-02 9.821016e-02 1.108630e-01 4.981655e-02 8.023607e-02 9.109934e-02 9.703940e-02 1.338445e-02 -6.229797e-03 -5.267413e-02
<VARIANCE> 39
 5.157639e+01 4.000354e+01 5.338142e+01 6.427246e+01 6.993006e+01 6.796516e+01 5.813108e+01 6.080681e+01 6.811330e+01 6.429279e+01 4.775866e+01 4.942281e+01 3.332618e+01 2.594391e+00 2.278549e+00 2.512033e+00 3.260995e+00 4.016307e+00 3.766455e+00 3.717903e+00 3.669769e+00 3.913620e+00 3.814353e+00 3.505265e+00 3.266428e+00 1.359287e+00 4.505101e-01 4.084816e-01 3.357822e-01 4.934582e-01 6.953534e-01 6.604992e-01 6.863747e-01 6.774191e-01 7.478511e-01 6.918080e-01 6.587613e-01 6.248565e-01 2.310940e-01
<GCONST> 1.303564e+02
<STATE> 3
<MEAN> 39
 -1.440914e+00 3.141504e+00 -2.555411e+00 -1.784870e+00 -8.966051e+00 -8.993943e+00 -5.289037e+00 -9.036955e+00 -5.320014e+00 -4.188647e+00 5.490668e-01 -1.427312e+00 6.672131e+01 6.466692e-02 -6.289808e-02 1.649470e-01 -1.161149e-01 -2.861832e-01 8.251706e-02 3.167563e-02 7.929112e-02 1.897788e-01 2.454322e-01 1.740109e-01 -1.429519e-02 2.902472e-02 -2.988653e-02 -3.206429e-02 -2.646536e-02 -4.091516e-02 1.516154e-01 1.080059e-01 3.935356e-02 7.157721e-02 5.483936e-02 8.386731e-02 -8.248150e-03 6.361930e-03 -8.155925e-02
<VARIANCE> 39
 4.682377e+01 3.966170e+01 5.692702e+01 6.557961e+01 7.251782e+01 6.754335e+01 6.051272e+01 6.020010e+01 6.931071e+01 6.657597e+01 4.964530e+01 4.971659e+01 3.394634e+01 2.492689e+00 2.094303e+00 2.329039e+00 2.814265e+00 3.876896e+00 3.436755e+00 3.503807e+00 3.521239e+00 4.032053e+00 3.834401e+00 3.383406e+00 3.271771e+00 1.279389e+00 4.044679e-01 3.529711e-01 3.244583e-01 4.562022e-01 6.456336e-01 6.272117e-01 6.363692e-01 6.306199e-01 7.105892e-01 6.588182e-01 6.415995e-01 6.028091e-01 2.043436e-01
<GCONST> 1.289521e+02
<STATE> 4
<MEAN> 39
 -1.473863e+00 2.970583e+00 -2.387273e+00 -2.044284e+00 -9.027487e+00 -8.500698e+00 -5.072885e+00 -8.677668e+00 -4.718494e+00 -3.555042e+00 7.995987e-01 -1.520630e+00 6.659763e+01 2.605499e-02 -1.037137e-01 8.333409e-02 -1.619722e-01 -4.021790e-02 2.358912e-01 9.205003e-02 1.673322e-01 2.240609e-01 3.538710e-01 1.328778e-01 4.432457e-03 -9.949835e-02 -3.336275e-02 -2.521254e-02 -4.306773e-02 -1.094947e-02 1.477331e-01 6.074323e-02 3.135727e-02 6.548322e-02 2.725147e-02 4.404215e-02 -1.983125e-02 2.005370e-02 -9.123047e-02
<VARIANCE> 39
 4.240028e+01 4.049692e+01 6.008074e+01 6.682943e+01 7.686644e+01 6.786893e+01 6.278699e+01 6.049181e+01 7.063641e+01 6.970742e+01 5.127805e+01 5.122709e+01 3.628072e+01 2.289029e+00 1.837711e+00 2.083676e+00 2.473356e+00 3.650340e+00 3.151814e+00 3.238563e+00 3.352048e+00 3.940141e+00 3.623135e+00 3.192247e+00 3.142792e+00 1.297614e+00 3.633341e-01 3.082887e-01 3.164414e-01 4.090297e-01 5.837751e-01 5.574269e-01 5.833619e-01 5.877630e-01 6.777554e-01 6.342245e-01 5.924529e-01 5.893063e-01 1.770370e-01
<GCONST> 1.272660e+02
<TRANSP> 5
 0.000000e+00 1.000000e+00 0.000000e+00 0.000000e+00 0.000000e+00
 0.000000e+00 3.828628e-01 6.171372e-01 0.000000e+00 0.000000e+00
 0.000000e+00 0.000000e+00 3.828633e-01 6.171367e-01 0.000000e+00
 0.000000e+00 0.000000e+00 0.000000e+00 4.624004e-01 5.375996e-01
 0.000000e+00 0.000000e+00 0.000000e+00 0.000000e+00 0.000000e+00
<ENDHMM>
~h "w"
<BEGINHMM>
<NUMSTATES> 5
<STATE> 2
<MEAN> 39
 2.606920e+00 2.376300e+00 -6.166962e+00 -9.770499e+00 -1.304064e+01 -5.751217e+00 1.551270e+00 -5.337870e+00 -4.021501e+00 -3.126751e+00 -1.142481e+00 -1.733170e+00 6.851145e+01 -1.487234e-01 -7.393734e-01 -5.216725e-01 -1.309164e-01 5.386887e-01 5.828605e-01 2.318878e-01 -2.130603e-02 -3.074559e-03 2.330721e-01 1.613113e-01 -2.839898e-02 3.407732e-01 -1.054968e-01 3.907144e-02 1.545439e-01 1.890396e-01 1.094556e-01 -6.644303e-02 -1.286554e-01 -1.213039e-02 6.923098e-03 2.943054e-03 -3.152706e-02 -3.128054e-02 -8.559809e-02
<VARIANCE> 39
 1.788369e+01 6.335689e+01 5.880610e+01 1.103720e+02 6.949557e+01 7.100655e+01 8.169788e+01 7.235384e+01 5.328827e+01 6.140257e+01 5.327291e+01 5.340184e+01 3.648429e+01 8.971152e-01 2.807655e+00 2.338923e+00 3.407266e+00 4.176063e+00 4.931510e+00 4.987761e+00 3.784808e+00 3.782552e+00 3.448236e+00 3.539130e+00 3.585965e+00 1.417366e+00 1.270571e-01 3.670786e-01 3.337249e-01 5.415450e-01 7.786483e-01 8.195176e-01 9.082743e-01 7.312073e-01 7.372151e-01 6.634424e-01 7.118270e-01 6.487321e-01 1.743207e-01
<GCONST> 1.298710e+02
<STATE> 3
<MEAN> 39
 2.192227e+00 1.263738e+00 -6.725424e+00 -9.627908e+00 -1.197224e+01 -4.923394e+00 1.705295e+00 -5.383640e+00 -4.024744e+00 -2.741395e+00 -1.018022e+00 -1.904890e+00 6.889806e+01 -2.624930e-01 -5.690127e-01 -2.428938e-01 1.284373e-01 5.601911e-01 3.505659e-01 1.949593e-02 -3.299665e-02 3.586606e-02 2.299093e-01 7.380895e-02 -6.408960e-02 1.807746e-01 -6.210972e-02 8.850722e-02 1.462864e-01 1.446356e-01 8.266001e-03 -1.383160e-01 -1.175541e-01 -1.458146e-03 3.178197e-02 -1.488520e-03 -3.790051e-02 -8.859890e-03 -8.759253e-02
<VARIANCE> 39
 1.813633e+01 6.652789e+01 5.981712e+01 1.083683e+02 6.903416e+01 7.711755e+01 8.461066e+01 7.370276e+01 5.370451e+01 6.199047e+01 5.505301e+01 6.075195e+01 3.857188e+01 8.555633e-01 2.163039e+00 2.140523e+00 3.130889e+00 3.727365e+00 4.758732e+00 4.469499e+00 3.507947e+00 3.620210e+00 3.494158e+00 3.421384e+00 3.397037e+00 1.121012e+00 1.188013e-01 3.324636e-01 3.069620e-01 4.768184e-01 6.790810e-01 7.478940e-01 8.392041e-01 6.848865e-01 6.964568e-01 6.629106e-01 6.765139e-01 6.249583e-01 1.675233e-01
<GCONST> 1.281915e+02
<STATE> 4
<MEAN> 39
 1.625754e+00 3.255980e-01 -6.972271e+00 -9.246292e+00 -1.099067e+01 -4.470570e+00 1.618900e+00 -5.370934e+00 -3.931384e+00 -2.300704e+00 -1.045231e+00 -2.210044e+00 6.910054e+01 -3.065030e-01 -3.724681e-01 -3.469310e-02 3.062603e-01 4.870865e-01 8.221859e-02 -1.275664e-01 -1.943447e-02 1.200526e-01 2.262937e-01 2.589034e-02 -5.772031e-02 3.200370e-02 -2.936297e-02 8.651921e-02 9.786872e-02 9.568696e-02 -1.526987e-02 -1.192541e-01 -7.582983e-02 1.555348e-02 4.392123e-02 1.787462e-03 -1.475816e-02 5.543584e-03 -7.652586e-02
<VARIANCE> 39
 1.943845e+01 6.631584e+01 6.400320e+01 1.071130e+02 6.836754e+01 8.621519e+01 8.443447e+01 7.328126e+01 5.470459e+01 6.154946e+01 5.730226e+01 6.826507e+01 3.968097e+01 8.252975e-01 1.727410e+00 1.958473e+00 2.837926e+00 3.477273e+00 4.183323e+00 3.977837e+00 3.281613e+00 3.339186e+00 3.480056e+00 3.338714e+00 3.149038e+00 9.825723e-01 1.124552e-01 2.847428e-01 2.811877e-01 4.193426e-01 5.868222e-01 6.843196e-01 7.438086e-01 6.153415e-01 6.542444e-01 6.272094e-01 6.239260e-01 5.978454e-01 1.491007e-01
<GCONST> 1.262092e+02
<TRANSP> 5
 0.000000e+00 1.000000e+00 0.000000e+00 0.000000e+00 0.000000e+00
 0.000000e+00 4.330874e-01 5.669125e-01 0.000000e+00 0.000000e+00
 0.000000e+00 0.000000e+00 4.330911e-01 5.669090e-01 0.000000e+00
 0.000000e+00 0.000000e+00 0.000000e+00 5.132527e-01 4.867473e-01
 0.000000e+00 0.000000e+00 0.000000e+00 0.000000e+00 0.000000e+00
<ENDHMM>
~h "aa"
<BEGINHMM>
<NUMSTATES> 5
<STATE> 2
<MEAN> 39
 1.638958e+00 -4.235503e+00 -1.118296e+01 -1.178667e+01 -7.682478e+00 4.828405e-02 4.510669e+00 -4.461421e+00 -3.020638e+00 -6.737926e-01 -3.734335e+00 -5.629360e+00 7.165046e+01 -5.076005e-02 -1.105819e-01 5.297085e-02 2.984244e-01 1.486804e-01 -1.961417e-01 -2.155627e-01 2.138456e-02 2.167317e-01 1.656321e-01 -3.485626e-02 -1.441836e-01 -6.640078e-02 -7.429971e-02 1.433177e-01 1.304172e-01 1.448514e-01 1.773698e-02 -1.265429e-01 -1.173970e-01 1.450522e-02 3.134756e-02 -3.001945e-02 5.095500e-02 6.988881e-02 -1.149888e-01
<VARIANCE> 39
 1.853984e+01 5.500266e+01 4.159064e+01 5.605238e+01 5.846356e+01 6.316404e+01 6.391397e+01 8.137421e+01 5.924283e+01 5.997185e+01 6.568441e+01 7.020325e+01 3.575250e+01 1.042813e+00 1.645743e+00 1.660992e+00 2.384398e+00 2.349952e+00 2.876788e+00 2.797041e+00 2.665546e+00 2.775928e+00 2.514193e+00 2.569960e+00 2.569787e+00 1.064252e+00 1.632514e-01 2.162097e-01 2.254457e-01 3.233826e-01 3.797621e-01 4.265310e-01 4.693642e-01 4.478137e-01 4.924487e-01 4.406506e-01 4.351508e-01 4.534874e-01 1.206937e-01
<GCONST> 1.184394e+02
<STATE> 3
<MEAN> 39
 1.373554e+00 -4.095394e+00 -1.076542e+01 -1.091805e+01 -7.409375e+00 -6.408401e-01 3.838904e+00 -4.363457e+00 -2.558693e+00 -4.012414e-01 -3.647437e+00 -5.733073e+00 7.119563e+01 -1.599334e-01 1.523190e-01 2.915445e-01 5.187164e-01 1.430099e-01 -4.023531e-01 -3.824269e-01 4.386254e-02 2.255224e-01 1.067220e-01 7.005702e-02 -1.085923e-02 -2.623883e-01 -4.810136e-02 1.303847e-01 1.192096e-01 9.995274e-02 -8.588351e-03 -9.202286e-02 -7.836842e-02 6.084517e-03 -3.052081e-03 -3.634254e-02 5.993880e-02 6.824892e-02 -1.003309e-01
<VARIANCE> 39
 1.874625e+01 5.308729e+01 4.472038e+01 5.902934e+01 5.693958e+01 6.869116e+01 6.643956e+01 7.982807e+01 5.918832e+01 6.070806e+01 6.537417e+01 7.046489e+01 3.764172e+01 8.682158e-01 1.594120e+00 1.657268e+00 2.077996e+00 2.354868e+00 2.849933e+00 2.786806e+00 2.712905e+00 2.850042e+00 2.535713e+00 2.648860e+00 2.626505e+00 1.096474e+00 1.371716e-01 2.135549e-01 2.259927e-01 2.959934e-01 3.702134e-01 4.352311e-01 4.822290e-01 4.588440e-01 5.001544e-01 4.474231e-01 4.462477e-01 4.630633e-01 1.324171e-01
<GCONST> 1.183899e+02
<STATE> 4
<MEAN> 39
 7.445168e-01 -3.340848e+00 -9.731209e+00 -9.683980e+00 -7.103369e+00 -1.751205e+00 2.605057e+00 -4.385196e+00 -2.127885e+00 -4.007374e-01 -3.219748e+00 -5.568845e+00 7.021041e+01 -2.075139e-01 3.522980e-01 4.697682e-01 5.974699e-01 6.840272e-02 -5.005931e-01 -4.466633e-01 3.300205e-02 1.540263e-01 3.476016e-02 1.845203e-01 1.040847e-01 -3.966606e-01 -2.416048e-02 7.804494e-02 7.810886e-02 4.443907e-02 -2.099667e-02 -3.397954e-02 -3.151289e-02 -7.401651e-03 -2.835408e-02 -3.374539e-02 5.173565e-02 4.822307e-02 -6.772617e-02
<VARIANCE> 39
 2.199403e+01 5.112452e+01 5.029472e+01 6.327616e+01 5.648098e+01 7.278649e+01 6.859981e+01 7.464558e+01 5.745794e+01 6.186157e+01 6.252150e+01 6.810234e+01 4.172112e+01 1.022595e+00 1.662012e+00 1.723458e+00 2.052484e+00 2.487483e+00 2.903525e+00 2.928257e+00 2.901501e+00 3.065853e+00 2.697710e+00 2.767223e+00 2.760177e+00 1.370054e+00 1.538280e-01 2.411467e-01 2.474201e-01 2.947896e-01 3.885255e-01 4.666096e-01 5.102627e-01 4.830111e-01 5.312986e-01 4.765438e-01 4.707687e-01 4.853013e-01 1.738812e-01
<GCONST> 1.206449e+02
<TRANSP> 5
 0.000000e+00 1.000000e+00 0.000000e+00 0.000000e+00 0.000000e+00
 0.000000e+00 5.156573e-01 4.843427e-01 0.000000e+00 0.000000e+00
 0.000000e+00 0.000000e+00 5.156579e-01 4.843421e-01 0.000000e+00
 0.000000e+00 0.000000e+00 0.000000e+00 6.221908e-01 3.778091e-01
 0.000000e+00 0.000000e+00 0.000000e+00 0.000000e+00 0.000000e+00
<ENDHMM>
~h "ae"
<BEGINHMM>
<NUMSTATES> 5
<STATE> 2
<MEAN> 39
 6.775563e-01 -5.751059e+00 -8.962604e+00 -7.135031e+00 -9.511043e+00 -7.264505e+00 -2.542382e-01 -2.206157e+00 9.030802e-01 4.822710e-01 -2.882540e+00 -5.621636e+00 7.182281e+01 -1.888768e-01 1.720050e-01 5.082927e-01 5.697591e-01 -1.154831e-01 -7.819784e-01 -5.665500e-01 1.488565e-01 3.330997e-01 -1.289512e-01 -5.031022e-02 1.113311e-01 -2.679076e-01 -1.875247e-02 1.083770e-01 8.066244e-02 7.389019e-02 -7.054584e-03 -2.258432e-02 6.793988e-03 -2.116050e-02 -6.580465e-02 -5.715198e-02 4.617236e-02 7.014631e-02 -9.724155e-02
<VARIANCE> 39
 1.987235e+01 4.674135e+01 5.011954e+01 5.467609e+01 6.082862e+01 9.508393e+01 6.386558e+01 6.981841e+01 7.120429e+01 5.863528e+01 6.543314e+01 6.380308e+01 3.393684e+01 6.180022e-01 1.363224e+00 1.620773e+00 1.953882e+00 2.563439e+00 3.452928e+00 2.803095e+00 2.911897e+00 3.457010e+00 2.902031e+00 3.164211e+00 3.097326e+00 7.213701e-01 8.531241e-02 1.848858e-01 2.494046e-01 2.940536e-01 3.965253e-01 5.625871e-01 4.830491e-01 4.708509e-01 5.680409e-01 4.859541e-01 5.454605e-01 5.217914e-01 9.436799e-02
<GCONST> 1.185662e+02
<STATE> 3
<MEAN> 39
 2.006817e-01 -5.122270e+00 -7.746582e+00 -5.742348e+00 -9.835856e+00 -8.945942e+00 -1.238156e+00 -1.884179e+00 1.396190e+00 1.187584e-01 -2.815378e+00 -5.188692e+00 7.098512e+01 -2.251265e-01 3.653906e-01 6.192428e-01 6.522873e-01 -1.083177e-01 -7.252468e-01 -4.909564e-01 8.825114e-02 1.710601e-01 -2.212302e-01 4.231904e-02 2.210420e-01 -4.492387e-01 -1.974962e-02 9.096070e-02 4.622150e-02 2.037884e-02 1.018336e-02 5.832754e-02 4.753982e-02 -3.277553e-02 -9.726629e-02 -4.229660e-02 4.846773e-02 5.239492e-02 -8.496092e-02
<VARIANCE> 39
 2.178870e+01 4.741866e+01 5.464252e+01 5.481049e+01 6.222942e+01 9.031369e+01 6.292073e+01 6.773669e+01 6.932050e+01 5.889578e+01 6.318776e+01 6.431282e+01 3.713879e+01 5.869243e-01 1.357880e+00 1.623094e+00 1.846761e+00 2.480759e+00 3.362552e+00 2.838545e+00 2.764562e+00 3.514157e+00 2.925119e+00 3.087209e+00 3.068338e+00 7.282192e-01 8.109330e-02 1.886688e-01 2.669591e-01 2.938705e-01 3.920306e-01 5.323623e-01 4.652440e-01 4.533653e-01 5.656111e-01 5.040942e-01 5.340240e-01 5.294057e-01 9.820154e-02
<GCONST> 1.184795e+02
<STATE> 4
<MEAN> 39
 -8.781148e-01 -3.788822e+00 -5.944098e+00 -4.202332e+00 -1.017639e+01 -1.037991e+01 -1.900860e+00 -1.473550e+00 1.342805e+00 -9.043930e-01 -2.438746e+00 -4.408971e+00 6.936333e+01 -2.753843e-01 4.590056e-01 5.852776e-01 5.775796e-01 2.936080e-03 -4.203047e-01 -2.931912e-01 1.646275e-02 -1.173531e-02 -2.167508e-01 1.237635e-01 2.790740e-01 -6.056706e-01 -1.765824e-02 3.469599e-02 -1.552297e-02 -3.914815e-02 4.095764e-02 1.237431e-01 6.101784e-02 -2.724862e-02 -8.042605e-02 -2.357273e-03 3.201079e-02 2.602518e-02 -5.618612e-02
<VARIANCE> 39
 2.606167e+01 4.671465e+01 5.691801e+01 5.267598e+01 6.503307e+01 8.089699e+01 5.930429e+01 6.295020e+01 6.459252e+01 6.141024e+01 5.858339e+01 6.224671e+01 4.379413e+01 5.319172e-01 1.262000e+00 1.649782e+00 1.711417e+00 2.401353e+00 3.347732e+00 2.695288e+00 2.555595e+00 3.249180e+00 2.779814e+00 2.885808e+00 2.862793e+00 7.341832e-01 7.560501e-02 1.866821e-01 2.685425e-01 2.716737e-01 3.688492e-01 4.744214e-01 4.396440e-01 4.280616e-01 5.333328e-01 4.969051e-01 5.062221e-01 5.147620e-01 9.853318e-02
<GCONST> 1.172223e+02
<TRANSP> 5
 0.000000e+00 1.000000e+00 0.000000e+00 0.000000e+00 0.000000e+00
 0.000000e+00 5.014534e-01 4.985466e-01 0.000000e+00 0.000000e+00
 0.000000e+00 0.000000e+00 5.014533e-01 4.985467e-01 0.000000e+00
 0.000000e+00 0.000000e+00 0.000000e+00 6.222805e-01 3.777194e-01
 0.000000e+00 0.000000e+00 0.000000e+00 0.000000e+00 0.000000e+00
<ENDHMM>
~h "ai"
<BEGINHMM>
<NUMSTATES> 5
<STATE> 2
<MEAN> 39
 -1.005989e+00 -1.888251e+00 -3.020449e+00 -3.809006e+00 -1.089129e+01 -1.122089e+01 -3.083573e+00 -5.473722e+00 -1.071114e+00 -2.033600e+00 -1.799880e+00 -2.627666e+00 7.086521e+01 -2.410417e-01 -3.685497e-02 4.806771e-01 5.445897e-01 -1.538827e-01 -6.009969e-01 -2.733840e-01 3.155766e-03 2.321845e-01 -1.107015e-02 -5.465225e-02 -3.267144e-02 -4.291331e-02 4.937151e-04 8.413398e-02 1.108866e-02 -7.448893e-03 3.236590e-02 9.079968e-02 2.201594e-02 -1.044716e-02 -5.826136e-02 1.334412e-02 3.048125e-02 1.018122e-02 -1.150622e-01
<VARIANCE> 39
 2.307940e+01 5.667990e+01 8.487755e+01 7.695110e+01 6.529851e+01 1.048521e+02 6.468147e+01 6.571774e+01 6.664313e+01 7.425320e+01 5.977726e+01 6.468194e+01 3.800278e+01 7.906152e-01 2.196179e+00 3.268570e+00 2.964543e+00 3.225077e+00 4.947761e+00 4.081273e+00 3.937098e+00 5.371181e+00 5.136000e+00 4.280071e+00 3.456314e+00 1.527831e+00 1.298270e-01 3.086712e-01 5.052425e-01 4.759842e-01 5.494334e-01 7.945979e-01 7.186127e-01 7.138079e-01 9.327223e-01 9.612137e-01 8.410773e-01 6.862233e-01 1.711382e-01
<GCONST> 1.314712e+02
<STATE> 3
<MEAN> 39
 -1.530652e+00 -1.612981e+00 -2.063527e+00 -2.708284e+00 -1.103666e+01 -1.204729e+01 -3.469865e+00 -5.575288e+00 -9.169637e-01 -2.096143e+00 -1.805345e+00 -2.625515e+00 7.032623e+01 -2.507439e-01 8.306303e-02 4.380669e-01 5.067179e-01 -1.569857e-02 -3.634591e-01 -2.291972e-01 8.624876e-03 1.425936e-01 3.733997e-02 1.295482e-02 -4.041071e-03 -2.586492e-01 -6.002089e-03 8.591093e-02 -5.713897e-03 -1.254029e-02 7.903978e-02 1.292463e-01 1.336917e-02 -1.549572e-03 -6.773137e-02 9.527376e-03 5.195636e-02 3.023705e-02 -1.337259e-01
<VARIANCE> 39
 2.325829e+01 5.841092e+01 8.717231e+01 7.327310e+01 6.738402e+01 9.646058e+01 6.470693e+01 6.274374e+01 6.879968e+01 7.228638e+01 5.724405e+01 6.135431e+01 3.890728e+01 7.283393e-01 2.052364e+00 3.086948e+00 2.604272e+00 3.234820e+00 4.657174e+00 3.651117e+00 3.762815e+00 4.975393e+00 4.640172e+00 4.094031e+00 3.354806e+00 1.403916e+00 1.195148e-01 2.999858e-01 4.712355e-01 4.246146e-01 5.207797e-01 7.105619e-01 6.520017e-01 6.733218e-01 8.732377e-01 8.699671e-01 7.872434e-01 6.568626e-01 1.605458e-01
<GCONST> 1.294781e+02
<STATE> 4
<MEAN> 39
 -2.620143e+00 -9.354091e-01 -1.044811e+00 -1.723055e+00 -1.061397e+01 -1.160724e+01 -3.683294e+00 -5.589162e+00 -1.219566e+00 -2.516292e+00 -1.527972e+00 -2.705173e+00 6.858849e+01 -2.664211e-01 1.908775e-01 3.062034e-01 4.032799e-01 2.092813e-01 -1.562955e-02 -1.453105e-01 6.409219e-02 5.103687e-02 7.903931e-02 9.271522e-02 7.932681e-02 -5.065725e-01 -8.742318e-03 5.904550e-02 -2.796827e-02 -3.504845e-02 8.114533e-02 1.301742e-01 1.907743e-02 1.411178e-02 -4.607434e-02 4.314175e-03 4.622883e-02 3.546223e-02 -1.115040e-01
<VARIANCE> 39
 2.441592e+01 5.819522e+01 8.252504e+01 6.399036e+01 7.159308e+01 8.772781e+01 6.174526e+01 5.843589e+01 6.987791e+01 6.980802e+01 5.164875e+01 5.597810e+01 4.747697e+01 6.698938e-01 1.779612e+00 2.696770e+00 2.217129e+00 3.142873e+00 4.108575e+00 3.158120e+00 3.419207e+00 4.274571e+00 3.795774e+00 3.627060e+00 3.099878e+00 1.207262e+00 1.096137e-01 2.764846e-01 3.810760e-01 3.535251e-01 4.735542e-01 6.067615e-01 5.733939e-01 6.250007e-01 7.606918e-01 7.024373e-01 6.669555e-01 5.820063e-01 1.447453e-01
<GCONST> 1.257827e+02
<TRANSP> 5
 0.000000e+00 1.000000e+00 0.000000e+00 0.000000e+00 0.000000e+00
 0.000000e+00 4.928277e-01 5.071723e-01 0.000000e+00 0.000000e+00
 0.000000e+00 0.000000e+00 4.928276e-01 5.071725e-01 0.000000e+00
 0.000000e+00 0.000000e+00 0.000000e+00 6.182779e-01 3.817220e-01
 0.000000e+00 0.000000e+00 0.000000e+00 0.000000e+00 0.000000e+00
<ENDHMM>
~h "ao"
<BEGINHMM>
<NUMSTATES> 5
<STATE> 2
<MEAN> 39
 2.172285e+00 6.620262e-01 -8.266562e+00 -1.802343e+01 -1.575773e+01 -1.189471e+00 5.335179e+00 -2.443884e+00 -2.146175e+00 -3.923510e+00 -4.969594e+00 -3.170273e+00 7.017704e+01 3.462055e-02 4.415891e-01 1.509995e-01 -9.918179e-03 -2.227022e-01 -3.241748e-01 -1.789529e-01 2.107449e-02 1.523897e-01 1.287993e-01 -4.871788e-02 1.916097e-02 -4.245338e-01 -2.964612e-02 2.227798e-02 1.799843e-02 6.550643e-02 5.972420e-02 -7.903996e-03 -2.124308e-02 7.402841e-03 -6.501937e-03 -1.799210e-03 1.752350e-02 -1.331710e-03 -5.403366e-02
<VARIANCE> 39
 1.794671e+01 5.280178e+01 4.379047e+01 4.315965e+01 8.498471e+01 7.741748e+01 5.720007e+01 8.746556e+01 6.075901e+01 6.767863e+01 4.260020e+01 4.284441e+01 4.116932e+01 7.262471e-01 1.203535e+00 8.592638e-01 1.710299e+00 1.920207e+00 1.996964e+00 2.049111e+00 2.187560e+00 2.372829e+00 2.154166e+00 1.881249e+00 1.801842e+00 9.569992e-01 1.142240e-01 1.468542e-01 1.337098e-01 2.209917e-01 2.758302e-01 3.215652e-01 3.403133e-01 3.520297e-01 4.081292e-01 3.584311e-01 3.438558e-01 3.045191e-01 1.031849e-01
<GCONST> 1.102327e+02
<STATE> 3
<MEAN> 39
 2.113030e+00 2.358117e+00 -7.604932e+00 -1.763938e+01 -1.623995e+01 -2.467959e+00 4.564799e+00 -2.215400e+00 -1.688627e+00 -3.482467e+00 -5.063309e+00 -3.111100e+00 6.839761e+01 -9.190257e-02 4.642642e-01 2.007885e-01 2.345118e-01 1.711620e-02 -3.289763e-01 -2.445564e-01 7.437108e-02 1.304593e-01 1.103554e-01 2.061857e-02 1.649156e-02 -5.870952e-01 -4.113948e-02 -1.499230e-02 5.647718e-03 6.606303e-02 7.734413e-02 1.675337e-02 -1.148155e-02 1.761318e-02 -4.671064e-03 -6.951715e-03 2.645402e-02 5.263168e-03 -3.651530e-02
<VARIANCE> 39
 1.729062e+01 5.293986e+01 4.252992e+01 4.369374e+01 8.199252e+01 7.518402e+01 5.764220e+01 7.602068e+01 5.586027e+01 6.557537e+01 4.122074e+01 4.151229e+01 4.454669e+01 6.661292e-01 1.133732e+00 7.812848e-01 1.588080e+00 2.080349e+00 1.879987e+00 1.959451e+00 2.156177e+00 2.302541e+00 2.107885e+00 1.886677e+00 1.834518e+00 7.467726e-01 9.734190e-02 1.389400e-01 1.213314e-01 1.998291e-01 2.724287e-01 2.910413e-01 3.299668e-01 3.476236e-01 3.997782e-01 3.524182e-01 3.365643e-01 3.083864e-01 7.839906e-02
<GCONST> 1.083584e+02
<STATE> 4
<MEAN> 39
 1.055659e+00 3.985783e+00 -6.875264e+00 -1.563815e+01 -1.493497e+01 -3.517934e+00 3.184260e+00 -1.812958e+00 -1.200211e+00 -3.679033e+00 -4.565443e+00 -3.077913e+00 6.547594e+01 -2.783452e-01 2.866922e-01 2.088915e-01 5.063525e-01 3.525114e-01 -2.050002e-01 -2.586971e-01 1.724668e-01 1.194611e-01 1.040055e-01 1.174660e-01 5.645985e-02 -6.453829e-01 -4.119242e-02 -4.909870e-02 -5.781217e-03 4.672900e-02 7.062547e-02 4.263477e-02 5.467358e-03 1.416739e-02 4.389316e-03 4.100939e-04 2.673511e-02 1.730022e-02 -9.491660e-03
<VARIANCE> 39
 2.074059e+01 4.395190e+01 3.963992e+01 5.533739e+01 8.324915e+01 6.338499e+01 5.403831e+01 5.933824e+01 4.786806e+01 6.465929e+01 3.835549e+01 4.114420e+01 4.738062e+01 5.697937e-01 1.056636e+00 7.459337e-01 1.431508e+00 2.070708e+00 1.850680e+00 1.863211e+00 2.049689e+00 2.222017e+00 2.077963e+00 1.933742e+00 1.922137e+00 5.365914e-01 7.739615e-02 1.205205e-01 1.139239e-01 1.864768e-01 2.570205e-01 2.690670e-01 3.146399e-01 3.402038e-01 3.947359e-01 3.531298e-01 3.341320e-01 3.209716e-01 5.313555e-02
<GCONST> 1.059809e+02
<TRANSP> 5
 0.000000e+00 1.000000e+00 0.000000e+00 0.000000e+00 0.000000e+00
 0.000000e+00 7.323328e-01 2.676672e-01 0.000000e+00 0.000000e+00
 0.000000e+00 0.000000e+00 7.323325e-01 2.676675e-01 0.000000e+00
 0.000000e+00 0.000000e+00 0.000000e+00 8.572478e-01 1.427521e-01
 0.000000e+00 0.000000e+00 0.000000e+00 0.000000e+00 0.000000e+00
<ENDHMM>
~h "au"
<BEGINHMM>
<NUMSTATES> 5
<STATE> 2
<MEAN> 39
 1.418431e+00 1.249124e+00 -6.357316e+00 -6.343446e+00 -8.805118e+00 -6.653658e+00 -4.114376e+00 -8.185504e+00 -2.948745e+00 -1.381604e+00 2.433343e-01 -3.272907e+00 6.899843e+01 4.696145e-02 3.485937e-01 1.682773e-01 2.402178e-01 -9.571759e-02 -1.318888e-01 7.775389e-04 -1.640996e-01 -1.064479e-01 -2.390095e-01 -9.071492e-02 -3.560343e-03 -2.986162e-01 -5.170255e-02 1.249634e-02 1.652213e-02 2.234692e-02 6.557427e-02 4.039970e-02 2.359076e-02 3.840491e-02 5.068257e-06 -4.645161e-02 -2.672167e-02 8.350298e-03 -5.725097e-02
<VARIANCE> 39
 1.569705e+01 6.047500e+01 3.762704e+01 5.685920e+01 5.259039e+01 6.635023e+01 7.052386e+01 6.624606e+01 7.260812e+01 7.465438e+01 5.585371e+01 6.858780e+01 3.862062e+01 8.125417e-01 1.949329e+00 1.638207e+00 1.989524e+00 2.457654e+00 2.648213e+00 3.040392e+00 3.317114e+00 3.461028e+00 3.715460e+00 2.836973e+00 2.766318e+00 1.117569e+00 1.305973e-01 2.698618e-01 2.686022e-01 3.093446e-01 3.886143e-01 4.281075e-01 5.079725e-01 5.337611e-01 5.952638e-01 6.095117e-01 4.737175e-01 4.865123e-01 1.307908e-01
<GCONST> 1.204140e+02
<STATE> 3
<MEAN> 39
 1.336456e+00 2.112362e+00 -5.866994e+00 -5.690125e+00 -8.805377e+00 -6.893635e+00 -4.111761e+00 -8.373890e+00 -3.225936e+00 -2.009851e+00 -8.300853e-02 -3.244308e+00 6.806691e+01 -3.590738e-02 3.517354e-01 1.956217e-01 2.544763e-01 1.838585e-02 -4.196724e-02 5.833002e-02 -5.795307e-02 -1.171103e-01 -3.071433e-01 -1.453919e-01 1.847133e-02 -3.973149e-01 -3.342283e-02 8.925427e-03 2.378342e-02 6.207612e-03 5.980749e-02 4.161545e-02 7.980446e-03 4.970048e-02 -1.239003e-02 -2.987498e-02 -1.670330e-02 2.069234e-02 -4.588030e-02
<VARIANCE> 39
 1.517460e+01 6.016990e+01 3.657740e+01 5.620388e+01 5.366742e+01 6.561488e+01 6.937832e+01 6.415131e+01 7.285133e+01 7.504786e+01 5.529141e+01 6.548667e+01 4.011529e+01 6.389288e-01 1.785874e+00 1.539455e+00 1.880035e+00 2.308674e+00 2.593499e+00 2.809443e+00 3.178863e+00 3.392309e+00 3.585860e+00 2.749831e+00 2.713711e+00 9.624956e-01 9.928951e-02 2.372487e-01 2.469618e-01 2.928400e-01 3.652775e-01 4.120357e-01 4.758445e-01 5.125289e-01 5.727905e-01 5.934153e-01 4.621707e-01 4.793440e-01 1.047350e-01
<GCONST> 1.183042e+02
<STATE> 4
<MEAN> 39
 6.810529e-01 3.096569e+00 -5.141034e+00 -4.910521e+00 -8.339911e+00 -6.855099e+00 -4.219965e+00 -8.132020e+00 -3.486713e+00 -3.026649e+00 -6.550169e-01 -3.045995e+00 6.643160e+01 -1.277565e-01 2.851496e-01 2.105008e-01 2.255638e-01 1.445769e-01 7.289648e-02 9.005149e-02 9.289320e-02 -9.995207e-02 -2.518565e-01 -1.485716e-01 6.595591e-02 -4.655932e-01 -2.500714e-02 -1.652769e-02 1.037281e-02 -1.141835e-02 4.551753e-02 3.888150e-02 3.036891e-03 4.420024e-02 2.954293e-03 1.509635e-02 1.718038e-03 2.159658e-02 -2.318683e-02
<VARIANCE> 39
 1.836854e+01 5.613658e+01 3.484671e+01 5.535594e+01 5.555341e+01 6.458630e+01 6.893072e+01 6.060226e+01 6.958529e+01 6.987042e+01 5.214483e+01 5.955038e+01 4.451072e+01 5.798799e-01 1.602982e+00 1.392573e+00 1.794931e+00 2.152661e+00 2.512010e+00 2.537874e+00 2.846109e+00 3.176680e+00 3.300633e+00 2.560945e+00 2.604235e+00 8.356096e-01 8.155674e-02 1.976352e-01 2.112851e-01 2.712418e-01 3.376296e-01 3.880977e-01 4.162838e-01 4.699600e-01 5.194264e-01 5.282223e-01 4.329740e-01 4.482844e-01 8.135384e-02
<GCONST> 1.155124e+02
<TRANSP> 5
 0.000000e+00 1.000000e+00 0.000000e+00 0.000000e+00 0.000000e+00
 0.000000e+00 5.804571e-01 4.195429e-01 0.000000e+00 0.000000e+00
 0.000000e+00 0.000000e+00 5.804546e-01 4.195453e-01 0.000000e+00
 0.000000e+00 0.000000e+00 0.000000e+00 7.048449e-01 2.951551e-01
 0.000000e+00 0.000000e+00 0.000000e+00 0.000000e+00 0.000000e+00
<ENDHMM>
~h "ee"
<BEGINHMM>
<NUMSTATES> 5
<STATE> 2
<MEAN> 39
 -3.345742e+00 -4.077315e-01 4.895747e+00 -1.912239e+00 -1.815821e+01 -1.719591e+01 -5.173651e+00 -7.836017e+00 -5.686292e+00 -6.590669e+00 -5.321264e-02 -1.646609e+00 7.319321e+01 9.613586e-02 2.887799e-02 -1.549727e-01 -1.475410e-02 1.811295e-01 1.241173e-01 -4.184576e-03 7.942718e-02 4.526173e-02 -3.165206e-02 -7.532741e-02 -8.995512e-02 -2.206922e-01 -1.710045e-02 -4.481691e-03 -2.201091e-02 -4.795521e-03 3.492643e-02 3.080879e-02 2.916493e-02 1.539757e-02 1.842586e-02 3.005148e-02 -8.598058e-03 2.718559e-03 -2.921162e-02
<VARIANCE> 39
 1.579680e+01 2.786338e+01 5.380611e+01 5.429311e+01 8.536620e+01 7.457436e+01 4.101546e+01 5.032866e+01 5.068990e+01 5.506603e+01 7.062936e+01 7.544891e+01 2.078518e+01 4.809205e-01 9.753805e-01 9.699637e-01 1.029693e+00 2.081023e+00 1.518924e+00 1.822626e+00 1.678861e+00 2.005521e+00 2.056692e+00 1.928970e+00 1.669845e+00 6.741641e-01 7.717334e-02 1.600664e-01 1.464390e-01 1.725806e-01 2.814535e-01 2.450561e-01 3.049510e-01 2.823299e-01 3.773451e-01 3.539630e-01 3.356893e-01 2.926770e-01 8.297086e-02
<GCONST> 1.053673e+02
<STATE> 3
<MEAN> 39
 -3.138162e+00 -3.021693e-01 4.361938e+00 -1.913627e+00 -1.737593e+01 -1.672816e+01 -5.079018e+00 -7.370936e+00 -5.417005e+00 -6.562620e+00 -3.754976e-01 -1.903326e+00 7.223067e+01 3.197317e-02 2.502481e-02 -2.089711e-01 -1.332219e-02 2.908786e-01 2.271439e-01 9.669681e-02 1.470862e-01 1.074646e-01 5.877959e-02 -9.242156e-02 -7.302358e-02 -3.286239e-01 -2.291858e-02 -5.273440e-03 -1.223204e-02 1.117624e-03 2.120537e-02 2.470452e-02 2.880069e-02 1.564016e-02 1.942078e-02 2.931292e-02 -1.009122e-03 1.129027e-02 -2.797998e-02
<VARIANCE> 39
 1.526652e+01 2.882633e+01 5.745970e+01 5.271410e+01 8.614204e+01 7.771815e+01 4.185564e+01 5.093958e+01 5.116334e+01 5.871650e+01 7.302963e+01 7.249146e+01 2.588760e+01 4.416136e-01 1.049561e+00 9.906896e-01 1.084481e+00 2.005564e+00 1.544415e+00 1.897756e+00 1.748765e+00 2.168241e+00 2.156223e+00 2.034967e+00 1.796375e+00 7.363867e-01 7.010363e-02 1.648617e-01 1.489717e-01 1.749457e-01 2.754472e-01 2.508881e-01 3.175350e-01 2.987357e-01 4.091275e-01 3.723871e-01 3.532921e-01 3.149300e-01 8.145642e-02
<GCONST> 1.065351e+02
<STATE> 4
<MEAN> 39
 -3.437357e+00 -4.063120e-01 3.364548e+00 -2.019235e+00 -1.589476e+01 -1.547012e+01 -4.197673e+00 -6.452220e+00 -4.843113e+00 -6.385633e+00 -5.129611e-01 -2.149445e+00 7.022849e+01 -7.558494e-02 2.740674e-02 -2.354744e-01 2.244257e-02 4.102607e-01 3.336773e-01 1.854714e-01 2.454950e-01 1.794302e-01 1.583929e-01 -7.765011e-02 5.676467e-03 -4.665311e-01 -2.582585e-02 -2.824814e-03 -6.400481e-03 5.316534e-03 1.682502e-02 2.198459e-02 1.738805e-02 1.084687e-02 1.378060e-02 2.216931e-02 1.217275e-02 2.030820e-02 -2.473632e-02
<VARIANCE> 39
 1.516087e+01 2.843443e+01 5.575529e+01 4.766048e+01 8.731133e+01 8.221655e+01 4.345409e+01 5.758934e+01 5.043803e+01 6.203641e+01 6.944662e+01 6.557525e+01 3.797233e+01 4.255048e-01 1.057180e+00 9.245847e-01 1.062121e+00 1.972786e+00 1.608853e+00 1.925267e+00 1.853069e+00 2.235500e+00 2.204502e+00 2.165296e+00 1.951667e+00 8.102187e-01 6.697688e-02 1.630546e-01 1.406441e-01 1.680256e-01 2.627745e-01 2.588163e-01 3.278528e-01 3.204704e-01 4.137558e-01 3.767552e-01 3.668536e-01 3.461749e-01 7.923695e-02
<GCONST> 1.072162e+02
<TRANSP> 5
 0.000000e+00 1.000000e+00 0.000000e+00 0.000000e+00 0.000000e+00
 0.000000e+00 7.115837e-01 2.884162e-01 0.000000e+00 0.000000e+00
 0.000000e+00 0.000000e+00 7.115838e-01 2.884162e-01 0.000000e+00
 0.000000e+00 0.000000e+00 0.000000e+00 8.374892e-01 1.625107e-01
 0.000000e+00 0.000000e+00 0.000000e+00 0.000000e+00 0.000000e+00
<ENDHMM>
~h "ei"
<BEGINHMM>
<NUMSTATES> 5
<STATE> 2
<MEAN> 39
 -4.021640e+00 5.600085e-01 5.840418e+00 -1.379870e+00 -1.697071e+01 -1.528297e+01 -3.032246e+00 -6.921713e+00 -5.350214e+00 -6.097506e+00 -5.653048e-02 -2.619282e+00 7.104020e+01 -1.167722e-01 4.180372e-01 3.498695e-01 2.304475e-01 1.425850e-01 2.673655e-01 1.059940e-01 -3.571245e-01 -3.241860e-01 -4.324202e-02 -2.989935e-02 -1.523503e-02 -4.670300e-01 -1.021200e-02 -1.381283e-03 -4.464928e-02 4.970002e-03 7.701002e-02 4.843580e-02 1.559735e-02 4.318436e-02 1.980293e-02 5.995838e-03 -2.304647e-02 -4.947288e-04 -5.300435e-02
<VARIANCE> 39
 1.316397e+01 4.736139e+01 7.027803e+01 5.105149e+01 6.579590e+01 8.288348e+01 4.386854e+01 7.012016e+01 6.883812e+01 6.284888e+01 4.704023e+01 6.040523e+01 3.215635e+01 3.991195e-01 8.771712e-01 1.132381e+00 1.020581e+00 1.837867e+00 1.664307e+00 1.684057e+00 2.276531e+00 1.887328e+00 1.956124e+00 1.844382e+00 1.873425e+00 6.436608e-01 6.302198e-02 1.207490e-01 1.518365e-01 1.668749e-01 2.318344e-01 2.403557e-01 2.927184e-01 3.431156e-01 2.915064e-01 3.260825e-01 2.982760e-01 3.095786e-01 5.802790e-02
<GCONST> 1.050691e+02
<STATE> 3
<MEAN> 39
 -4.462958e+00 1.996477e+00 6.803528e+00 -5.981996e-01 -1.610076e+01 -1.416143e+01 -2.651860e+00 -7.914853e+00 -6.318097e+00 -6.175828e+00 -2.881989e-01 -2.641376e+00 6.923251e+01 -1.482553e-01 3.796256e-01 1.643547e-01 2.268668e-01 3.988959e-01 4.186361e-01 1.443371e-01 -1.806015e-01 -2.278541e-01 -3.193454e-03 -9.571536e-02 -1.552521e-02 -6.199996e-01 -8.827087e-03 -2.651489e-02 -6.974324e-02 -7.699001e-03 7.392884e-02 3.671548e-02 5.851273e-03 6.002677e-02 3.768881e-02 1.879061e-02 -1.174746e-02 3.658285e-03 -3.657588e-02
<VARIANCE> 39
 1.218318e+01 4.631095e+01 6.582042e+01 4.790200e+01 7.153907e+01 8.417636e+01 4.112138e+01 6.279629e+01 6.225454e+01 6.179197e+01 4.409869e+01 5.633616e+01 3.629534e+01 3.198789e-01 7.941778e-01 1.186455e+00 9.871726e-01 1.810043e+00 1.548392e+00 1.566440e+00 2.284566e+00 1.782888e+00 1.858016e+00 1.707564e+00 1.800450e+00 5.090301e-01 5.129497e-02 1.067755e-01 1.446873e-01 1.598615e-01 2.362546e-01 2.398926e-01 2.810547e-01 3.442407e-01 2.663555e-01 3.113166e-01 2.840200e-01 2.990379e-01 4.692474e-02
<GCONST> 1.028369e+02
<STATE> 4
<MEAN> 39
 -5.066122e+00 2.995251e+00 6.292348e+00 -1.413209e-01 -1.359605e+01 -1.192614e+01 -2.110816e+00 -8.002129e+00 -6.623202e+00 -6.210856e+00 -5.800936e-01 -2.809184e+00 6.652390e+01 -1.815227e-01 2.163394e-01 -1.326996e-01 1.665338e-01 6.467394e-01 5.279246e-01 1.555870e-01 9.176262e-02 -2.871147e-02 1.049801e-01 -1.043320e-01 2.495418e-02 -6.926768e-01 -1.132530e-02 -4.850175e-02 -7.344405e-02 -1.905397e-02 5.343929e-02 2.145151e-02 3.811656e-03 6.414991e-02 4.800242e-02 2.762504e-02 9.791529e-03 1.242771e-02 -1.291780e-02
<VARIANCE> 39
 1.161187e+01 4.113950e+01 6.330989e+01 4.141706e+01 8.168156e+01 8.360062e+01 3.948201e+01 5.708218e+01 5.401525e+01 5.903059e+01 4.059515e+01 4.965282e+01 4.054996e+01 2.884549e-01 8.121145e-01 1.268563e+00 1.000255e+00 1.815348e+00 1.508842e+00 1.661241e+00 2.282397e+00 1.777638e+00 1.858396e+00 1.687112e+00 1.764175e+00 4.490232e-01 4.718852e-02 1.041593e-01 1.497631e-01 1.609056e-01 2.550028e-01 2.511472e-01 3.070242e-01 3.476480e-01 2.685593e-01 3.102053e-01 2.901914e-01 2.943543e-01 4.620083e-02
<GCONST> 1.022111e+02
<TRANSP> 5
 0.000000e+00 1.000000e+00 0.000000e+00 0.000000e+00 0.000000e+00
 0.000000e+00 7.135386e-01 2.864614e-01 0.000000e+00 0.000000e+00
 0.000000e+00 0.000000e+00 7.135381e-01 2.864619e-01 0.000000e+00
 0.000000e+00 0.000000e+00 0.000000e+00 8.349237e-01 1.650763e-01
 0.000000e+00 0.000000e+00 0.000000e+00 0.000000e+00 0.000000e+00
<ENDHMM>
~h "ii"
<BEGINHMM>
<NUMSTATES> 5
<STATE> 2
<MEAN> 39
 -4.689743e+00 4.134055e+00 7.691810e+00 2.925110e-02 -1.261155e+01 -1.187389e+01 -3.465389e+00 -1.067377e+01 -8.314061e+00 -8.164480e+00 -2.222437e+00 -4.446365e+00 6.857825e+01 6.235595e-01 1.426444e-01 -5.239993e-01 -8.829199e-02 4.175423e-01 3.847578e-01 -5.644533e-02 2.037466e-02 -4.934711e-02 5.885505e-02 -1.021777e-01 4.941169e-02 -4.491318e-01 -1.425262e-01 -1.765271e-02 -1.041977e-01 -1.246871e-01 1.722829e-01 1.989291e-01 1.000243e-01 9.161113e-02 4.281358e-02 7.113919e-02 2.920818e-03 5.564813e-02 -3.256852e-02
<VARIANCE> 39
 2.400486e+01 4.345844e+01 6.709506e+01 5.319387e+01 7.372390e+01 7.124133e+01 4.980662e+01 5.620065e+01 4.647193e+01 4.925627e+01 3.957845e+01 5.360426e+01 3.111357e+01 1.433029e+00 1.227180e+00 1.806493e+00 1.741489e+00 3.340229e+00 3.080121e+00 2.655677e+00 2.528743e+00 2.437443e+00 2.611433e+00 2.136149e+00 2.270701e+00 7.811387e-01 1.742142e-01 2.276903e-01 3.146746e-01 3.128679e-01 5.886508e-01 5.803656e-01 4.851058e-01 4.707498e-01 4.702909e-01 4.964249e-01 4.153421e-01 4.174636e-01 1.279007e-01
<GCONST> 1.179135e+02
<STATE> 3
<MEAN> 39
 -3.914097e+00 4.455087e+00 6.499115e+00 -1.843796e-01 -1.126464e+01 -1.072634e+01 -3.353666e+00 -1.031305e+01 -8.222305e+00 -8.002596e+00 -2.439213e+00 -4.276686e+00 6.740857e+01 4.120951e-01 7.947892e-02 -6.636618e-01 -2.495559e-01 6.111243e-01 6.384430e-01 1.072181e-01 1.300248e-01 2.168640e-03 1.317990e-01 -1.187023e-01 1.241918e-01 -4.768429e-01 -1.055999e-01 -4.498647e-02 -5.678029e-02 -8.538470e-02 3.942463e-02 9.822264e-02 8.746780e-02 2.516089e-02 3.359103e-02 5.843506e-02 5.807059e-04 1.889475e-02 3.039975e-02
<VARIANCE> 39
 2.359128e+01 4.531051e+01 7.202294e+01 5.047446e+01 7.165582e+01 7.273409e+01 5.052997e+01 5.558644e+01 4.676889e+01 4.816586e+01 3.976421e+01 5.208453e+01 3.437215e+01 9.814756e-01 1.224808e+00 1.691747e+00 1.747978e+00 2.785620e+00 2.617456e+00 2.513158e+00 2.334285e+00 2.497219e+00 2.652118e+00 2.167128e+00 2.242212e+00 8.243288e-01 1.235679e-01 2.198105e-01 2.947395e-01 3.023946e-01 5.100031e-01 4.940745e-01 4.563888e-01 4.449172e-01 4.706014e-01 4.762669e-01 4.190350e-01 4.166820e-01 1.387700e-01
<GCONST> 1.163326e+02
<STATE> 4
<MEAN> 39
 -4.181251e+00 4.523626e+00 5.141203e+00 -7.183871e-01 -9.227705e+00 -9.001438e+00 -2.629791e+00 -9.629892e+00 -7.643753e+00 -7.411620e+00 -2.647620e+00 -4.017674e+00 6.579071e+01 1.511113e-01 -9.634626e-02 -6.952688e-01 -2.563073e-01 5.536608e-01 6.332001e-01 2.107748e-01 2.112456e-01 1.563918e-01 2.351043e-01 -8.165056e-02 1.625066e-01 -3.957482e-01 -6.289802e-02 -7.101847e-02 -4.290380e-02 -5.093759e-02 -4.175276e-02 1.870685e-02 4.669369e-02 4.283112e-03 6.172169e-02 7.195413e-02 1.719036e-02 -5.770407e-03 5.923337e-02
<VARIANCE> 39
 2.593184e+01 4.597534e+01 7.760925e+01 4.750767e+01 6.388260e+01 6.748994e+01 4.981473e+01 5.948815e+01 4.956532e+01 4.701357e+01 3.941721e+01 5.001239e+01 3.671391e+01 7.033924e-01 1.157470e+00 1.580079e+00 1.716517e+00 2.271806e+00 2.156135e+00 2.188987e+00 2.289264e+00 2.511757e+00 2.505958e+00 2.246820e+00 2.223910e+00 8.238286e-01 9.387664e-02 1.973525e-01 2.701309e-01 2.807955e-01 3.866100e-01 3.778468e-01 4.020279e-01 4.046725e-01 4.612662e-01 4.488339e-01 4.334297e-01 4.098815e-01 1.278579e-01
<GCONST> 1.138605e+02
<TRANSP> 5
 0.000000e+00 1.000000e+00 0.000000e+00 0.000000e+00 0.000000e+00
 0.000000e+00 5.653705e-01 4.346295e-01 0.000000e+00 0.000000e+00
 0.000000e+00 0.000000e+00 5.653712e-01 4.346289e-01 0.000000e+00
 0.000000e+00 0.000000e+00 0.000000e+00 7.058805e-01 2.941195e-01
 0.000000e+00 0.000000e+00 0.000000e+00 0.000000e+00 0.000000e+00
<ENDHMM>
~h "oe"
<BEGINHMM>
<NUMSTATES> 5
<STATE> 2
<MEAN> 39
 -1.648628e+00 -4.619088e-01 -2.140677e+00 -5.293075e+00 -1.173534e+01 -1.344293e+01 -6.528987e+00 -7.032068e+00 -1.810502e+00 -2.599122e+00 4.031441e-01 5.864513e-01 6.945289e+01 -1.925742e-01 -6.567771e-02 3.173369e-01 5.052422e-01 9.240808e-02 -3.469381e-01 -7.199416e-02 1.713088e-01 6.952389e-02 -8.276016e-02 2.013682e-02 1.815258e-02 -2.217350e-01 -2.686344e-02 2.871064e-02 -1.590632e-02 -3.204125e-02 2.170195e-02 7.323935e-02 6.048843e-02 2.988264e-02 -7.412110e-03 -7.196636e-03 -1.676900e-02 -9.584403e-03 -4.809958e-02
<VARIANCE> 39
 2.714297e+01 3.785419e+01 5.067533e+01 7.497154e+01 6.388745e+01 8.620757e+01 6.148632e+01 6.184585e+01 5.473390e+01 6.304869e+01 5.553727e+01 4.515143e+01 4.253434e+01 1.486338e+00 2.058400e+00 1.907500e+00 2.970362e+00 3.493772e+00 4.278749e+00 4.057429e+00 4.076259e+00 4.112893e+00 3.943766e+00 3.792260e+00 3.264923e+00 1.933580e+00 2.343873e-01 3.195108e-01 2.821989e-01 3.860245e-01 5.903158e-01 6.372663e-01 6.778644e-01 7.515255e-01 7.779462e-01 7.595381e-01 7.027780e-01 6.687321e-01 2.264989e-01
<GCONST> 1.285336e+02
<STATE> 3
<MEAN> 39
 -2.380776e+00 -5.261989e-01 -1.258270e+00 -3.890992e+00 -1.132968e+01 -1.410420e+01 -6.432136e+00 -6.378257e+00 -1.708343e+00 -2.817470e+00 3.668208e-01 5.869581e-01 6.858315e+01 -2.491221e-01 1.522174e-02 2.327350e-01 3.656270e-01 1.612670e-01 -9.136486e-02 1.058469e-01 2.194372e-01 3.492206e-02 -7.882006e-02 -2.079023e-02 -3.327008e-03 -3.318354e-01 -1.055031e-02 2.399106e-02 -4.063967e-02 -5.074595e-02 2.356619e-02 9.630989e-02 4.820766e-02 9.041318e-03 -1.519937e-02 1.041271e-02 -5.145153e-03 -8.400704e-04 -2.922103e-02
<VARIANCE> 39
 2.727913e+01 3.589213e+01 4.984122e+01 6.799100e+01 6.180791e+01 8.360641e+01 5.945263e+01 5.949960e+01 5.215088e+01 5.954531e+01 5.300751e+01 4.365723e+01 4.333291e+01 1.384362e+00 1.866211e+00 1.757533e+00 2.661883e+00 3.135278e+00 4.016038e+00 3.583281e+00 3.652170e+00 3.633437e+00 3.512121e+00 3.398839e+00 3.007146e+00 1.905029e+00 2.250001e-01 2.944566e-01 2.549741e-01 3.406351e-01 5.315662e-01 5.787812e-01 6.012411e-01 6.785798e-01 6.839041e-01 6.699234e-01 6.242660e-01 6.119455e-01 2.264153e-01
<GCONST> 1.256207e+02
<STATE> 4
<MEAN> 39
 -3.437158e+00 -3.856010e-01 -8.070265e-01 -3.082242e+00 -1.057242e+01 -1.348308e+01 -5.477231e+00 -5.411680e+00 -1.899495e+00 -3.211253e+00 4.250050e-01 3.540392e-01 6.716742e+01 -2.399186e-01 6.703292e-02 7.135038e-02 1.811096e-01 2.400504e-01 2.221404e-01 2.251999e-01 1.975241e-01 5.784096e-03 1.654185e-03 -2.517825e-02 8.948358e-03 -3.730572e-01 4.033891e-03 7.476490e-03 -4.228292e-02 -3.918761e-02 1.859343e-02 7.334512e-02 1.093473e-02 -1.778982e-03 -1.233693e-03 2.487303e-02 7.500390e-03 9.802748e-03 -1.072354e-02
<VARIANCE> 39
 2.891215e+01 3.356580e+01 4.731452e+01 6.245356e+01 6.275534e+01 8.150403e+01 5.784676e+01 5.659881e+01 4.923030e+01 5.665521e+01 4.716027e+01 4.366031e+01 4.378658e+01 1.374328e+00 1.702872e+00 1.515605e+00 2.307211e+00 2.979998e+00 3.561023e+00 3.071254e+00 3.224392e+00 3.238316e+00 3.094095e+00 2.951185e+00 2.838437e+00 1.757825e+00 2.185337e-01 2.693472e-01 2.195739e-01 3.029358e-01 4.926337e-01 5.089828e-01 5.267214e-01 5.909159e-01 5.969322e-01 5.809987e-01 5.408146e-01 5.729250e-01 2.091809e-01
<GCONST> 1.223852e+02
<TRANSP> 5
 0.000000e+00 1.000000e+00 0.000000e+00 0.000000e+00 0.000000e+00
 0.000000e+00 6.941557e-01 3.058444e-01 0.000000e+00 0.000000e+00
 0.000000e+00 0.000000e+00 6.941549e-01 3.058451e-01 0.000000e+00
 0.000000e+00 0.000000e+00 0.000000e+00 8.152187e-01 1.847813e-01
 0.000000e+00 0.000000e+00 0.000000e+00 0.000000e+00 0.000000e+00
<ENDHMM>
~h "oi"
<BEGINHMM>
<NUMSTATES> 5
<STATE> 2
<MEAN> 39
 -1.110641e+00 1.803782e+00 -4.242017e-01 -3.643991e+00 -1.154526e+01 -1.221104e+01 -5.430320e+00 -9.864096e+00 -5.045559e+00 -6.200887e+00 -1.251684e-01 -4.837498e-01 6.922289e+01 -2.841055e-01 6.679972e-02 3.942009e-01 5.769013e-01 2.014894e-01 -1.361597e-01 4.578501e-02 9.394175e-02 -7.741063e-03 -1.079355e-01 -2.365261e-02 -1.017613e-01 -2.992440e-01 -1.085744e-02 2.962658e-02 -3.697539e-02 -6.824355e-02 2.650859e-02 9.562794e-02 5.643287e-02 3.766470e-02 6.255763e-03 2.910872e-02 -2.023656e-02 1.097513e-02 -5.040010e-02
<VARIANCE> 39
 2.221724e+01 3.442918e+01 7.213504e+01 9.401852e+01 7.961115e+01 9.194151e+01 6.592637e+01 6.213060e+01 5.907495e+01 5.811768e+01 5.599572e+01 5.799641e+01 2.682331e+01 8.968152e-01 1.864066e+00 2.965410e+00 4.791667e+00 4.757084e+00 5.998066e+00 5.046913e+00 4.094614e+00 4.297164e+00 4.608832e+00 4.613852e+00 3.839578e+00 7.622132e-01 1.204859e-01 2.724430e-01 3.951780e-01 6.046482e-01 7.852250e-01 9.709544e-01 9.281064e-01 7.858633e-01 8.481444e-01 9.159600e-01 9.049731e-01 7.816642e-01 7.759009e-02
<GCONST> 1.304175e+02
<STATE> 3
<MEAN> 39
 -2.000965e+00 2.118317e+00 5.568164e-01 -2.243287e+00 -1.083460e+01 -1.216101e+01 -5.024024e+00 -9.446613e+00 -5.016767e+00 -6.370595e+00 -3.097929e-01 -7.827663e-01 6.812214e+01 -2.792169e-01 1.345996e-01 2.417286e-01 3.243842e-01 2.591084e-01 1.507912e-01 1.904793e-01 1.795148e-01 1.576224e-02 -6.842604e-03 -7.556746e-02 -4.375746e-02 -4.214753e-01 1.135717e-02 7.092599e-03 -6.314343e-02 -8.854160e-02 1.038873e-02 8.241892e-02 3.139897e-02 2.339075e-02 1.048156e-02 3.620531e-02 -2.182959e-03 2.352220e-02 -2.780077e-02
<VARIANCE> 39
 2.214594e+01 3.369124e+01 7.158155e+01 8.521783e+01 7.967373e+01 8.636128e+01 6.218211e+01 5.828021e+01 5.689875e+01 5.564279e+01 5.241713e+01 5.594232e+01 2.937084e+01 7.835473e-01 1.688940e+00 2.756377e+00 4.185832e+00 4.386544e+00 5.455262e+00 4.461469e+00 3.689682e+00 3.875999e+00 4.188257e+00 4.013903e+00 3.464785e+00 6.920837e-01 1.050760e-01 2.488907e-01 3.533173e-01 5.148306e-01 7.049005e-01 8.531595e-01 8.274738e-01 7.076348e-01 7.467490e-01 8.202929e-01 7.759325e-01 6.888753e-01 6.569724e-02
<GCONST> 1.269861e+02
<STATE> 4
<MEAN> 39
 -2.945727e+00 2.308029e+00 5.516998e-01 -2.057766e+00 -9.791174e+00 -1.059764e+01 -4.167731e+00 -8.377811e+00 -4.700054e+00 -6.419806e+00 -5.030497e-01 -1.235071e+00 6.626445e+01 -2.102687e-01 8.862962e-02 2.033478e-02 5.685122e-02 2.707152e-01 3.260856e-01 2.260633e-01 2.293185e-01 7.497308e-02 1.114865e-01 -6.108081e-02 4.509056e-02 -4.301093e-01 1.243524e-02 -2.163919e-02 -5.146634e-02 -5.045385e-02 2.390187e-03 2.866208e-02 -1.736528e-03 1.263861e-02 1.800206e-02 2.392367e-02 1.400624e-02 1.898821e-02 -2.165524e-03
<VARIANCE> 39
 2.279280e+01 3.236940e+01 6.510931e+01 7.773438e+01 8.000909e+01 7.857507e+01 5.515457e+01 5.291237e+01 5.199369e+01 5.307566e+01 4.718726e+01 5.382869e+01 3.412102e+01 6.999006e-01 1.550608e+00 2.321285e+00 3.336859e+00 4.034739e+00 4.440341e+00 3.667433e+00 3.280256e+00 3.339707e+00 3.481156e+00 3.323547e+00 3.095906e+00 6.525642e-01 9.404417e-02 2.286001e-01 2.973635e-01 4.205096e-01 6.096464e-01 7.027660e-01 6.775467e-01 6.174819e-01 6.161084e-01 6.702188e-01 6.217986e-01 5.909328e-01 5.876518e-02
<GCONST> 1.223298e+02
<TRANSP> 5
 0.000000e+00 1.000000e+00 0.000000e+00 0.000000e+00 0.000000e+00
 0.000000e+00 6.985367e-01 3.014633e-01 0.000000e+00 0.000000e+00
 0.000000e+00 0.000000e+00 6.985364e-01 3.014636e-01 0.000000e+00
 0.000000e+00 0.000000e+00 0.000000e+00 8.239095e-01 1.760906e-01
 0.000000e+00 0.000000e+00 0.000000e+00 0.000000e+00 0.000000e+00
<ENDHMM>
~h "oo"
<BEGINHMM>
<NUMSTATES> 5
<STATE> 2
<MEAN> 39
 2.739271e+00 8.496731e+00 -3.961877e+00 -1.179021e+01 -1.692185e+01 -1.023582e+01 -2.726460e+00 -6.144942e+00 -2.420383e+00 -2.362309e+00 -2.805985e+00 -3.012542e+00 6.647019e+01 2.564309e-01 -3.183748e-01 -8.994519e-02 4.933164e-01 2.880902e-01 -1.233545e-01 4.067788e-02 -3.697537e-01 -5.578876e-01 -4.715838e-02 1.537064e-01 1.399873e-01 1.414607e-01 -1.726376e-01 -1.722781e-01 -1.295267e-01 1.690869e-01 3.555542e-01 1.167753e-01 -2.085533e-02 3.988636e-02 3.155121e-02 1.296134e-02 1.471796e-01 1.121632e-01 -6.049141e-02
<VARIANCE> 39
 1.875154e+01 4.323534e+01 3.766272e+01 5.109451e+01 8.431978e+01 5.068819e+01 5.928122e+01 5.952285e+01 6.066896e+01 6.601016e+01 4.573087e+01 4.487378e+01 2.447643e+01 1.440924e+00 2.082862e+00 1.981025e+00 2.735526e+00 6.298327e+00 2.970737e+00 4.225118e+00 3.393316e+00 3.721995e+00 3.495622e+00 3.942099e+00 3.687026e+00 6.886341e-01 2.111212e-01 3.204265e-01 3.882861e-01 4.508710e-01 1.051269e+00 5.732160e-01 7.917525e-01 6.212182e-01 6.973492e-01 6.574916e-01 7.715231e-01 7.497255e-01 9.756177e-02
<GCONST> 1.255296e+02
<STATE> 3
<MEAN> 39
 2.763929e+00 7.733471e+00 -4.255914e+00 -1.061102e+01 -1.573880e+01 -1.016981e+01 -2.574866e+00 -6.544066e+00 -3.240865e+00 -2.443565e+00 -2.263902e+00 -2.618403e+00 6.641412e+01 -2.760904e-03 -5.652946e-01 -2.316558e-01 8.040646e-01 8.454981e-01 1.729773e-02 -7.612321e-02 -3.187939e-01 -4.782603e-01 1.449478e-02 3.521833e-01 2.833358e-01 4.080246e-02 -1.317343e-01 -1.147577e-01 -5.605141e-02 1.796175e-01 2.673880e-01 3.983816e-02 -1.110696e-01 1.742509e-02 8.655895e-02 6.154300e-02 9.882410e-02 4.600563e-02 -5.052013e-02
<VARIANCE> 39
 1.791784e+01 4.487953e+01 3.680244e+01 6.041066e+01 9.285638e+01 5.083192e+01 6.264987e+01 5.906927e+01 6.441376e+01 6.547250e+01 4.719695e+01 4.614756e+01 2.639669e+01 1.195590e+00 1.754839e+00 1.940588e+00 2.855941e+00 6.375381e+00 3.237480e+00 4.504842e+00 3.419165e+00 4.148043e+00 3.758100e+00 3.843107e+00 3.868366e+00 6.475921e-01 1.757132e-01 2.770998e-01 3.531739e-01 4.538521e-01 1.191312e+00 5.994982e-01 8.514777e-01 6.307331e-01 7.587630e-01 6.957022e-01 7.810181e-01 8.069504e-01 9.669045e-02
<GCONST> 1.260342e+02
<STATE> 4
<MEAN> 39
 1.789712e+00 6.507123e+00 -4.503514e+00 -8.808081e+00 -1.347645e+01 -9.608975e+00 -2.737867e+00 -6.431813e+00 -3.194345e+00 -2.103993e+00 -1.428551e+00 -2.049623e+00 6.551786e+01 -2.180283e-01 -6.477997e-01 -2.180309e-01 9.958173e-01 1.099165e+00 5.781484e-02 -2.522980e-01 -2.177344e-01 -2.339509e-01 1.378653e-01 3.988242e-01 2.922760e-01 -8.908024e-02 -7.079592e-02 -3.676701e-02 1.489521e-02 1.124905e-01 7.678276e-02 -3.570854e-02 -1.202999e-01 1.084143e-02 1.129474e-01 7.675906e-02 2.666790e-02 -2.546469e-02 -2.536678e-02
<VARIANCE> 39
 2.335702e+01 4.500138e+01 3.555588e+01 6.809189e+01 1.048549e+02 5.535881e+01 6.268682e+01 5.781129e+01 6.281958e+01 6.106017e+01 4.362567e+01 4.555517e+01 3.272403e+01 9.885666e-01 1.419694e+00 1.837566e+00 2.740385e+00 5.975840e+00 3.291855e+00 4.278762e+00 3.227246e+00 4.014250e+00 3.607999e+00 3.463909e+00 3.635845e+00 6.353055e-01 1.569344e-01 2.340998e-01 3.162092e-01 4.332281e-01 1.179270e+00 5.894568e-01 8.004334e-01 5.824913e-01 7.386704e-01 6.488212e-01 6.946436e-01 7.323731e-01 9.744965e-02
<GCONST> 1.247777e+02
<TRANSP> 5
 0.000000e+00 1.000000e+00 0.000000e+00 0.000000e+00 0.000000e+00
 0.000000e+00 4.668249e-01 5.331751e-01 0.000000e+00 0.000000e+00
 0.000000e+00 0.000000e+00 4.668245e-01 5.331755e-01 0.000000e+00
 0.000000e+00 0.000000e+00 0.000000e+00 5.881523e-01 4.118477e-01
 0.000000e+00 0.000000e+00 0.000000e+00 0.000000e+00 0.000000e+00
<ENDHMM>
~h "ou"
<BEGINHMM>
<NUMSTATES> 5
<STATE> 2
<MEAN> 39
 1.624188e+00 6.647251e+00 -4.032399e+00 -8.852900e+00 -1.218225e+01 -6.775653e+00 -2.447129e+00 -8.458853e+00 -5.869164e+00 -5.731853e+00 -1.269872e+00 -5.703267e-01 6.719508e+01 -6.799398e-02 1.791343e-01 2.059924e-01 4.224801e-01 1.878152e-01 -9.062997e-02 -2.534501e-01 -9.423106e-02 -7.983015e-02 -1.641611e-01 -3.493832e-02 -6.318991e-02 -3.185992e-01 -4.504792e-02 -1.131688e-02 1.649771e-02 4.592572e-02 7.698850e-02 3.120223e-02 1.254002e-02 4.686909e-02 2.554263e-02 5.949073e-03 -1.036052e-02 -1.273332e-02 -5.833238e-02
<VARIANCE> 39
 1.904662e+01 5.562943e+01 3.697470e+01 7.079253e+01 6.724042e+01 5.366006e+01 7.718806e+01 6.099422e+01 6.566727e+01 6.151766e+01 6.023829e+01 5.503020e+01 3.301493e+01 8.004725e-01 1.235924e+00 1.054772e+00 2.022583e+00 2.145763e+00 2.094012e+00 2.436760e+00 2.425974e+00 2.344789e+00 2.460572e+00 2.493887e+00 2.147969e+00 9.772659e-01 1.123410e-01 1.836798e-01 1.669102e-01 2.786067e-01 3.014086e-01 3.261088e-01 3.988118e-01 3.764507e-01 4.075668e-01 4.097779e-01 4.240052e-01 3.788173e-01 1.100694e-01
<GCONST> 1.135121e+02
<STATE> 3
<MEAN> 39
 1.211952e+00 7.162549e+00 -3.351823e+00 -7.353201e+00 -1.127420e+01 -6.883159e+00 -3.103056e+00 -8.541994e+00 -5.984149e+00 -6.151893e+00 -1.442905e+00 -8.334208e-01 6.597314e+01 -1.969968e-01 1.146728e-01 2.302142e-01 4.994345e-01 3.796564e-01 9.098705e-03 -1.949489e-01 5.086956e-02 4.606923e-03 -1.205301e-01 -5.769879e-02 -8.961743e-02 -4.559483e-01 -4.080991e-02 -2.698170e-02 3.001095e-03 1.325973e-02 5.260221e-02 2.551251e-02 2.089733e-02 4.830775e-02 3.141921e-02 1.729718e-02 -8.226335e-03 -4.542685e-03 -3.544471e-02
<VARIANCE> 39
 1.934459e+01 5.406430e+01 3.500777e+01 6.789720e+01 6.689813e+01 4.955361e+01 7.337955e+01 6.043808e+01 6.246301e+01 5.995361e+01 5.876711e+01 5.356385e+01 3.697086e+01 6.549224e-01 1.111896e+00 1.002099e+00 1.772302e+00 1.882553e+00 1.977693e+00 2.304677e+00 2.316933e+00 2.269072e+00 2.404648e+00 2.386349e+00 2.077275e+00 8.512257e-01 8.906216e-02 1.585426e-01 1.577274e-01 2.500267e-01 2.761886e-01 3.096871e-01 3.719754e-01 3.507396e-01 3.886592e-01 3.916702e-01 4.054333e-01 3.677249e-01 9.868409e-02
<GCONST> 1.110929e+02
<STATE> 4
<MEAN> 39
 8.699894e-03 6.949781e+00 -2.827953e+00 -5.210033e+00 -9.193370e+00 -6.540892e+00 -3.762088e+00 -7.847024e+00 -5.304703e+00 -6.417948e+00 -1.653103e+00 -1.237039e+00 6.403074e+01 -3.165834e-01 -2.305808e-02 1.872236e-01 4.451521e-01 4.912259e-01 1.197901e-01 -7.131435e-02 2.029388e-01 1.186653e-01 8.571073e-03 -4.809995e-02 -7.803467e-02 -4.977841e-01 -3.090659e-02 -3.748707e-02 -1.153699e-02 -1.663296e-02 1.980050e-02 1.592098e-02 2.336122e-02 3.617962e-02 3.332524e-02 3.134863e-02 4.089408e-03 8.703444e-03 -6.108705e-03
<VARIANCE> 39
 2.226958e+01 5.256635e+01 3.161493e+01 5.887046e+01 6.525666e+01 4.567812e+01 6.701935e+01 5.771793e+01 5.899527e+01 5.563161e+01 5.279469e+01 4.846519e+01 4.115972e+01 5.687965e-01 1.002110e+00 9.733574e-01 1.597703e+00 1.718885e+00 1.853233e+00 2.170761e+00 2.125739e+00 2.175664e+00 2.360897e+00 2.261273e+00 2.026231e+00 7.841614e-01 7.667422e-02 1.365872e-01 1.527076e-01 2.274407e-01 2.632094e-01 2.948794e-01 3.419414e-01 3.249944e-01 3.649035e-01 3.787346e-01 3.870065e-01 3.590267e-01 9.352919e-02
<GCONST> 1.086811e+02
<TRANSP> 5
 0.000000e+00 1.000000e+00 0.000000e+00 0.000000e+00 0.000000e+00
 0.000000e+00 6.858324e-01 3.141676e-01 0.000000e+00 0.000000e+00
 0.000000e+00 0.000000e+00 6.858318e-01 3.141682e-01 0.000000e+00
 0.000000e+00 0.000000e+00 0.000000e+00 8.090145e-01 1.909855e-01
 0.000000e+00 0.000000e+00 0.000000e+00 0.000000e+00 0.000000e+00
<ENDHMM>
~h "uu"
<BEGINHMM>
<NUMSTATES> 5
<STATE> 2
<MEAN> 39
 -1.606625e+00 3.975346e+00 -8.619328e-01 -8.622060e-01 -6.995196e+00 -1.157684e+01 -7.531333e+00 -1.063335e+01 -4.814472e+00 -6.349184e+00 -2.775107e+00 -1.540014e+00 6.743101e+01 6.635973e-01 5.215610e-01 6.163486e-02 1.154597e-02 -3.625666e-01 -1.268554e-01 -1.693126e-01 -3.285448e-01 -4.708913e-01 -3.388244e-01 -9.803737e-02 -5.885969e-02 -1.315110e-01 -7.906985e-02 -4.600907e-02 -5.616892e-02 -3.043093e-02 1.437576e-03 4.412758e-02 7.668376e-02 1.149558e-01 7.776557e-02 6.969917e-02 2.231524e-02 3.534220e-02 -5.684885e-02
<VARIANCE> 39
