~o
<STREAMINFO> 1 39
<VECSIZE> 39<NULLD><MFCC_D_A_0><DIAGC>
~s "silst"
<MEAN> 39
 -7.057680e+00 -6.179137e-01 -4.570528e+00 -4.062387e+00 -5.121340e+00 -4.800300e+00 -1.913864e+00 -2.944566e+00 7.037172e-02 -6.821109e-01 1.375237e+00 -6.566940e-01 6.422604e+01 4.403250e-02 -1.452158e-01 -1.846003e-01 -3.955613e-01 -3.149165e-02 1.499980e-01 6.933843e-02 -2.083964e-02 -3.576835e-02 1.545883e-03 7.023552e-02 -5.946462e-02 5.136596e-01 1.972330e-01 1.477266e-01 1.363733e-01 5.279243e-02 -5.089010e-02 -1.720193e-03 8.859300e-02 -6.552983e-03 -1.395709e-01 -3.528574e-02 -1.288653e-01 -4.537819e-02 -1.323395e-01
<VARIANCE> 39
 4.602707e+01 5.024252e+01 6.393685e+01 7.223196e+01 7.435352e+01 8.576189e+01 6.155891e+01 5.757488e+01 5.958023e+01 5.914792e+01 4.908314e+01 4.798892e+01 6.301641e+01 3.016978e+00 3.229847e+00 3.521737e+00 4.301595e+00 4.888800e+00 5.081790e+00 4.250678e+00 4.265864e+00 4.418393e+00 4.448678e+00 3.726004e+00 3.469779e+00 5.041782e+00 5.142399e-01 5.676632e-01 6.029170e-01 7.523856e-01 8.273904e-01 8.311673e-01 7.647784e-01 7.936587e-01 8.327815e-01 8.378455e-01 7.231444e-01 6.786568e-01 6.217682e-01
<GCONST> 1.386880e+02
~h "N"
<BEGINHMM>
<NUMSTATES> 5
<STATE> 2
<MEAN> 39
 1.472058e+00 4.749240e+00 -9.214523e-01 -2.336668e+00 -7.631687e+00 -9.105976e+00 -3.316772e+00 -4.555194e+00 -5.402968e+00 -4.951232e+00 -2.823388e+00 -3.334397e+00 6.537717e+01 1.170200e-01 6.476961e-01 -2.777290e-02 -2.615488e-01 2.856410e-01 4.679716e-01 5.752014e-02 -3.388784e-01 -3.402684e-01 5.543526e-02 -1.119504e-01 5.756514e-02 -4.313254e-01 -1.119918e-01 -4.442546e-01 -2.459328e-01 -2.223070e-01 -1.228389e-01 3.705378e-02 9.274903e-02 -3.891792e-02 4.383170e-01 2.833320e-01 -1.181788e-02 -1.182996e-01 3.768234e-01
<VARIANCE> 39
 8.516936e+00 3.925264e+01 2.188446e+01 3.900957e+01 4.195815e+01 4.920888e+01 5.144604e+01 5.913691e+01 4.272820e+01 5.621191e+01 5.261314e+01 5.064869e+01 2.561479e+01 4.310996e-01 1.173993e+00 1.267225e+00 1.728260e+00 2.132971e+00 2.705297e+00 2.454775e+00 2.918588e+00 3.345544e+00 2.990452e+00 2.597272e+00 2.015746e+00 6.779405e-01 7.746911e-02 1.524292e-01 2.399487e-01 3.001495e-01 4.024284e-01 5.445255e-01 4.644906e-01 5.463052e-01 6.306312e-01 5.567660e-01 5.649174e-01 4.370069e-01 7.373866e-02
<GCONST> 1.111897e+02
<STATE> 3
<MEAN> 39
 9.838883e-01 4.624171e+00 -2.102410e+00 -4.015642e+00 -6.955347e+00 -7.433876e+00 -2.700814e+00 -5.948850e+00 -3.973243e+00 -3.723861e+00 -2.833783e+00 -3.278179e+00 6.583992e+01 -2.075328e-01 -7.614565e-01 -6.252457e-01 -7.180577e-01 -3.199291e-02 6.387324e-01 3.115531e-01 -2.233901e-01 1.101541e+00 7.608583e-01 -3.830178e-01 -4.821956e-01 5.900608e-01 -2.009995e-02 -3.916661e-01 -2.064029e-01 -4.291303e-02 -7.831806e-02 8.126831e-02 1.606061e-01 6.496433e-02 2.210585e-01 2.195162e-01 -1.584039e-02 -2.898690e-01 2.179468e-01
<VARIANCE> 39
 9.976841e+00 3.621023e+01 2.712477e+01 4.508356e+01 5.069908e+01 6.430621e+01 5.455268e+01 6.290171e+01 5.389720e+01 6.340759e+01 5.606296e+01 5.566892e+01 2.559301e+01 4.319610e-01 1.694649e+00 1.994452e+00 2.245488e+00 2.728369e+00 3.639942e+00 2.831752e+00 3.550887e+00 4.531330e+00 3.488879e+00 3.919060e+00 2.717667e+00 6.897806e-01 7.981526e-02 1.841201e-01 2.505416e-01 2.893414e-01 4.151323e-01 5.169603e-01 5.422630e-01 5.940468e-01 6.007248e-01 5.563841e-01 6.029008e-01 4.767825e-01 8.817787e-02
<GCONST> 1.165896e+02
<STATE> 4
<MEAN> 39
 9.683770e-01 -7.342662e-01 -5.356429e+00 -6.217011e+00 -6.366596e+00 -4.482512e+00 4.276051e-01 -6.534441e+00 7.281934e-01 -1.681767e+00 -4.890883e+00 -6.385510e+00 6.954875e+01 -5.832844e-02 -6.390638e-01 -6.240889e-01 -2.592687e-01 8.527476e-02 4.396934e-01 4.389409e-01 6.752536e-02 4.066901e-01 5.609197e-01 -1.044049e-01 -6.515139e-01 2.449436e-01 -7.840998e-03 1.231422e-01 1.154713e-01 1.401226e-01 -5.251355e-04 -1.216834e-01 -4.070330e-02 8.375933e-02 -2.072763e-01 -9.302018e-02 1.275589e-01 9.675734e-02 -1.312484e-01
<VARIANCE> 39
 1.129941e+01 5.144156e+01 6.995335e+01 6.296893e+01 7.514130e+01 9.118079e+01 7.299244e+01 9.363833e+01 7.976928e+01 9.090742e+01 7.687617e+01 6.876386e+01 3.971910e+01 3.070202e-01 1.543358e+00 1.626978e+00 1.586265e+00 1.928706e+00 2.468926e+00 2.637551e+00 2.713984e+00 3.169726e+00 2.543106e+00 3.053466e+00 2.728629e+00 6.168286e-01 5.422776e-02 1.957961e-01 2.138155e-01 2.607276e-01 3.416749e-01 4.548085e-01 4.469997e-01 5.118248e-01 5.184724e-01 4.620996e-01 4.352929e-01 4.078615e-01 6.940033e-02
<GCONST> 1.160984e+02
<TRANSP> 5
 0.000000e+00 1.000000e+00 0.000000e+00 0.000000e+00 0.000000e+00
 0.000000e+00 6.241291e-01 3.758709e-01 0.000000e+00 0.000000e+00
 0.000000e+00 0.000000e+00 4.558368e-01 5.441632e-01 0.000000e+00
 0.000000e+00 0.000000e+00 0.000000e+00 6.916606e-01 3.083393e-01
 0.000000e+00 0.000000e+00 0.000000e+00 0.000000e+00 0.000000e+00
<ENDHMM>
~h "a"
<BEGINHMM>
<NUMSTATES> 5
<STATE> 2
<MEAN> 39
 1.743924e+00 -4.061297e+00 -9.471716e+00 -9.392784e+00 -1.025610e+01 -5.904125e+00 -1.417592e+00 -6.128683e+00 -3.636293e-01 1.364635e+00 -1.302894e+00 -5.088634e+00 7.172726e+01 -8.528605e-03 3.542555e-01 3.240112e-01 5.563400e-01 4.600524e-01 -9.893914e-02 -5.122645e-01 1.383937e-01 1.923826e-01 2.559722e-01 -5.991340e-02 -7.587031e-02 -6.520250e-01 -1.653504e-01 3.734982e-01 3.743612e-01 2.913665e-01 1.773007e-01 -4.967449e-02 -1.083334e-01 3.552429e-02 -1.988190e-01 -3.114623e-01 -7.172361e-03 1.828162e-01 -3.834539e-01
<VARIANCE> 39
 1.414607e+01 4.968362e+01 3.936013e+01 5.370046e+01 5.905632e+01 8.165131e+01 6.987732e+01 7.107762e+01 6.633488e+01 6.718211e+01 7.207601e+01 8.743147e+01 2.941904e+01 8.450111e-01 2.083011e+00 2.287708e+00 2.969959e+00 2.884510e+00 3.914145e+00 3.768947e+00 3.418443e+00 3.916349e+00 3.726964e+00 3.605713e+00 3.656284e+00 1.249780e+00 1.647267e-01 2.768372e-01 2.894521e-01 3.642141e-01 5.212476e-01 6.099262e-01 6.245603e-01 6.235143e-01 7.372312e-01 7.146946e-01 7.138461e-01 7.210688e-01 1.884530e-01
<GCONST> 1.259560e+02
<STATE> 3
<MEAN> 39
 9.809789e-01 -1.724936e-01 -7.032650e+00 -6.474607e+00 -7.547081e+00 -5.869021e+00 -2.657680e+00 -5.244841e+00 -9.408393e-01 1.167687e+00 -6.644452e-01 -3.959702e+00 6.748673e+01 -5.381017e-01 5.982552e-01 7.544250e-01 8.906072e-01 7.964936e-01 1.549507e-01 -2.592016e-01 3.732717e-01 -2.868185e-02 -1.905688e-01 1.193355e-01 2.983027e-01 -1.249703e+00 -1.585658e-01 -5.737486e-02 2.208805e-02 -5.676686e-02 -7.371636e-02 4.449468e-02 1.545063e-01 2.135205e-02 -4.804321e-02 -1.693558e-01 -6.786888e-03 1.148095e-01 1.171477e-03
<VARIANCE> 39
 1.552452e+01 3.888164e+01 3.681940e+01 4.927908e+01 5.247867e+01 6.752795e+01 5.958647e+01 6.104856e+01 5.539035e+01 5.837157e+01 6.331023e+01 6.879845e+01 3.083030e+01 9.916384e-01 1.695113e+00 2.171641e+00 2.443959e+00 2.659534e+00 3.070075e+00 3.205938e+00 3.208093e+00 3.568051e+00 3.628000e+00 3.203649e+00 3.121525e+00 1.364084e+00 1.363485e-01 2.585772e-01 3.152100e-01 3.742809e-01 4.634230e-01 5.160652e-01 5.573525e-01 5.443355e-01 5.988526e-01 6.127369e-01 5.537122e-01 5.539860e-01 2.450687e-01
<GCONST> 1.219412e+02
<STATE> 4
<MEAN> 39
 -1.386843e+00 5.752339e-01 -5.496356e+00 -5.066427e+00 -5.978971e+00 -4.781109e+00 -2.008859e+00 -3.585153e+00 -7.136756e-01 8.618346e-01 3.239380e-01 -2.189229e+00 6.431343e+01 -7.257570e-01 1.318645e-01 4.936550e-01 4.780736e-01 3.680664e-01 6.988731e-02 -3.599317e-02 1.678072e-01 -4.751644e-02 -3.374981e-01 4.121205e-02 3.486038e-01 -6.713979e-01 -2.952552e-02 -1.341606e-01 -8.543625e-02 -1.922793e-01 -2.307237e-01 -6.169740e-02 8.346463e-02 -1.255495e-01 -4.014862e-02 -7.285438e-02 -3.167819e-02 -3.018055e-02 3.388724e-01
<VARIANCE> 39
 2.422993e+01 3.883261e+01 3.609991e+01 4.575460e+01 4.715223e+01 6.017802e+01 5.189691e+01 5.534151e+01 5.031657e+01 5.298949e+01 5.239359e+01 5.563432e+01 4.750343e+01 1.166794e+00 1.677678e+00 1.970887e+00 2.162295e+00 2.586044e+00 2.989397e+00 3.044119e+00 2.970655e+00 3.277995e+00 3.472112e+00 3.012537e+00 2.930616e+00 1.711258e+00 2.129972e-01 3.087043e-01 3.675112e-01 4.289503e-01 5.547981e-01 5.894076e-01 6.098770e-01 6.012868e-01 6.458633e-01 6.441406e-01 5.924571e-01 5.837106e-01 3.800624e-01
<GCONST> 1.234932e+02
<TRANSP> 5
 0.000000e+00 1.000000e+00 0.000000e+00 0.000000e+00 0.000000e+00
 0.000000e+00 4.827911e-01 5.172089e-01 0.000000e+00 0.000000e+00
 0.000000e+00 0.000000e+00 3.179778e-01 6.820222e-01 0.000000e+00
 0.000000e+00 0.000000e+00 0.000000e+00 3.008575e-01 6.991425e-01
 0.000000e+00 0.000000e+00 0.000000e+00 0.000000e+00 0.000000e+00
<ENDHMM>
~h "e"
<BEGINHMM>
<NUMSTATES> 5
<STATE> 2
<MEAN> 39
 -1.368461e+00 -2.067897e-01 -8.694881e-01 1.731412e+00 -1.147694e+01 -1.457222e+01 -6.803123e+00 -5.344782e+00 -2.373617e+00 -1.791392e+00 8.959506e-02 -4.384510e-01 6.859345e+01 -5.414176e-02 2.196719e-01 2.980477e-01 3.845208e-01 2.389194e-01 5.679941e-02 9.727331e-02 1.470997e-01 5.623145e-02 -1.205958e-01 -3.952534e-02 1.837564e-01 -4.789490e-01 -9.987358e-02 5.083057e-02 -1.320786e-01 -1.507338e-01 4.032586e-01 3.769182e-01 1.016086e-01 -3.740757e-02 3.169648e-03 3.265362e-03 2.954624e-02 -7.184882e-02 -2.213275e-01
<VARIANCE> 39
 2.282055e+01 3.522684e+01 5.378640e+01 4.630844e+01 7.887340e+01 6.902844e+01 5.008976e+01 5.634975e+01 5.504721e+01 5.818442e+01 4.636789e+01 4.747578e+01 2.946930e+01 1.061497e+00 1.463006e+00 1.836446e+00 1.791975e+00 3.508651e+00 3.550386e+00 2.660366e+00 2.727494e+00 3.395793e+00 3.608337e+00 2.925004e+00 2.560619e+00 2.536940e+00 2.024349e-01 2.865041e-01 3.694861e-01 4.347944e-01 6.517367e-01 6.313877e-01 5.483255e-01 5.310486e-01 6.593681e-01 6.295981e-01 5.369660e-01 5.416839e-01 2.964479e-01
<GCONST> 1.233450e+02
<STATE> 3
<MEAN> 39
 -7.390467e-01 -1.041101e+00 -8.220894e-01 2.842326e+00 -1.232607e+01 -1.536984e+01 -7.270165e+00 -5.438054e+00 -1.713699e+00 -1.967741e+00 -9.539974e-02 1.384820e-01 6.865837e+01 -6.919377e-02 5.234984e-01 7.745554e-02 1.916220e-01 9.626579e-01 7.118281e-01 1.746233e-01 -4.570807e-02 -2.414666e-01 -9.008873e-02 3.376216e-02 -1.177469e-01 -8.461353e-01 -6.333792e-02 1.078476e-01 -1.115923e-01 -1.875048e-01 3.654328e-01 3.516595e-01 4.184209e-02 -5.355558e-02 -7.544668e-02 -2.249944e-02 -6.217973e-03 -1.408338e-01 -1.330349e-01
<VARIANCE> 39
 1.908083e+01 3.507598e+01 5.437257e+01 4.726620e+01 8.167526e+01 6.503811e+01 5.391236e+01 5.812251e+01 4.862277e+01 5.844836e+01 5.267012e+01 5.031137e+01 2.667000e+01 7.714183e-01 1.112808e+00 1.520759e+00 1.565180e+00 3.048450e+00 2.824805e+00 2.245261e+00 2.440775e+00 2.487845e+00 3.042052e+00 2.752191e+00 2.560205e+00 1.233652e+00 1.193780e-01 2.582893e-01 3.056654e-01 3.200784e-01 4.828010e-01 4.601462e-01 5.196314e-01 5.680239e-01 5.573624e-01 5.509508e-01 5.261928e-01 4.897915e-01 2.944228e-01
<GCONST> 1.182485e+02
<STATE> 4
<MEAN> 39
 -2.392472e+00 1.416292e+00 -2.474625e-01 2.517765e+00 -8.156003e+00 -1.241159e+01 -4.901581e+00 -4.607685e+00 -2.514632e+00 -2.199030e+00 5.743424e-01 -5.855278e-01 6.493187e+01 -2.854773e-01 3.773789e-01 -1.782160e-01 -2.607892e-01 1.167793e+00 1.084392e+00 2.365490e-01 -7.615075e-03 -8.416075e-02 -7.658519e-03 -1.889445e-03 -1.186934e-01 -8.101263e-01 2.681985e-03 -1.131428e-01 -1.802175e-01 -2.017702e-01 -4.783676e-02 2.544932e-02 -2.364371e-03 -3.179312e-03 5.623519e-02 -4.901364e-05 -5.301065e-02 -1.825001e-02 2.267195e-01
<VARIANCE> 39
 2.415120e+01 2.420141e+01 3.784563e+01 3.869458e+01 6.495216e+01 6.357352e+01 4.716655e+01 5.159070e+01 4.482439e+01 5.105259e+01 4.970217e+01 4.292116e+01 3.354671e+01 6.571483e-01 1.221703e+00 1.559611e+00 1.490856e+00 2.540816e+00 2.300348e+00 2.353636e+00 2.536925e+00 3.013339e+00 3.187184e+00 2.589787e+00 2.566382e+00 9.118696e-01 1.100741e-01 1.845678e-01 2.648222e-01 2.595139e-01 4.630123e-01 4.290393e-01 3.652564e-01 4.224339e-01 4.623697e-01 4.987140e-01 4.646781e-01 4.410405e-01 2.629121e-01
<GCONST> 1.141675e+02
<TRANSP> 5
 0.000000e+00 1.000000e+00 0.000000e+00 0.000000e+00 0.000000e+00
 0.000000e+00 2.379341e-01 7.620659e-01 0.000000e+00 0.000000e+00
 0.000000e+00 0.000000e+00 3.391940e-01 6.608060e-01 0.000000e+00
 0.000000e+00 0.000000e+00 0.000000e+00 5.016649e-01 4.983352e-01
 0.000000e+00 0.000000e+00 0.000000e+00 0.000000e+00 0.000000e+00
<ENDHMM>
~h "f"
<BEGINHMM>
<NUMSTATES> 5
<STATE> 2
<MEAN> 39
 -1.074761e+01 3.683164e-01 -9.267338e+00 -4.644075e+00 -5.389524e+00 -3.275720e+00 1.372176e+00 -1.757314e+00 -4.630578e-01 -1.670784e+00 -2.901662e-01 -1.177263e+00 6.723118e+01 3.457872e+00 -2.249207e-01 -6.818188e-01 -2.353058e+00 -1.495661e+00 -3.040688e-02 8.153107e-01 -1.209061e-01 -1.180331e+00 -3.593218e-01 -3.861200e-01 -5.596166e-01 8.911993e-01 4.494450e-01 -2.522223e-01 -1.810075e-01 -2.357843e-01 -2.497128e-01 5.670708e-02 1.022417e-01 -9.237341e-02 -1.266541e-01 1.173088e-01 9.922641e-02 -1.455171e-01 3.166517e-01
<VARIANCE> 39
 7.993678e+01 2.365521e+01 2.815675e+01 5.121328e+01 4.506005e+01 3.060351e+01 3.952191e+01 3.610029e+01 3.363568e+01 2.772746e+01 2.920046e+01 3.428627e+01 2.049316e+01 5.906951e+00 2.551059e+00 2.253027e+00 3.593309e+00 4.022614e+00 2.698035e+00 2.903316e+00 4.339048e+00 3.468864e+00 2.884496e+00 2.780309e+00 3.177870e+00 1.571930e+00 1.461914e+00 5.005335e-01 3.214635e-01 7.327247e-01 7.223272e-01 4.964525e-01 5.058017e-01 6.106694e-01 6.112037e-01 5.552504e-01 4.937617e-01 4.897957e-01 2.162411e-01
<GCONST> 1.244213e+02
<STATE> 3
<MEAN> 39
 -1.022865e+00 -1.880442e+00 -1.165047e+01 -1.101917e+01 -1.021678e+01 -3.460363e+00 3.629173e+00 -1.929620e+00 -3.399090e+00 -1.615305e+00 1.320761e-01 -2.145676e+00 7.079297e+01 1.996861e+00 -1.643420e+00 -8.882805e-01 -1.395751e+00 -8.316768e-01 2.835009e-01 7.057611e-01 -2.589267e-01 -6.950765e-01 4.241022e-01 1.565616e-01 -7.633295e-01 1.479146e+00 -9.285069e-01 -2.431064e-01 2.953804e-01 8.547755e-01 6.717219e-01 1.176146e-01 -3.337006e-01 -7.983975e-02 4.196320e-01 2.467488e-01 7.814865e-03 -6.493495e-02 -2.361142e-01
<VARIANCE> 39
 7.831346e+01 3.260575e+01 4.396190e+01 7.032307e+01 5.040583e+01 4.657758e+01 4.905318e+01 5.767450e+01 4.091124e+01 4.099781e+01 4.050701e+01 5.606335e+01 2.679233e+01 3.991782e+00 2.640816e+00 2.493171e+00 2.824892e+00 3.215859e+00 3.322633e+00 3.363542e+00 3.428493e+00 3.373344e+00 3.379038e+00 3.015464e+00 3.140948e+00 1.433521e+00 1.247353e+00 4.303327e-01 3.466178e-01 6.714322e-01 7.756308e-01 5.887687e-01 5.588508e-01 7.171633e-01 7.562036e-01 5.760525e-01 5.568063e-01 5.793977e-01 1.856795e-01
<GCONST> 1.284478e+02
<STATE> 4
<MEAN> 39
 1.431472e-01 -5.848481e+00 -1.224859e+01 -1.246700e+01 -9.503895e+00 -1.434720e+00 5.053781e+00 -2.595829e+00 -4.639222e+00 -6.230899e-01 -6.050165e-01 -4.333716e+00 7.304021e+01 3.745365e-01 -1.386531e+00 -7.779688e-02 1.639911e-01 5.062485e-01 4.432743e-01 -6.839231e-02 -4.856709e-01 -2.599983e-02 7.561180e-01 -2.674886e-01 -7.614002e-01 5.820557e-01 -5.668105e-01 3.378071e-01 4.228259e-01 7.321225e-01 4.132535e-01 -1.266605e-01 -4.537569e-01 -7.036100e-02 3.760308e-01 5.907882e-03 -1.262364e-01 1.039618e-01 -5.123832e-01
<VARIANCE> 39
 5.312177e+01 4.353898e+01 4.232073e+01 6.019867e+01 4.707623e+01 5.795902e+01 5.932096e+01 6.214413e+01 4.783403e+01 4.866972e+01 5.438879e+01 6.233014e+01 3.393045e+01 2.577502e+00 2.012658e+00 1.708432e+00 1.975725e+00 2.710017e+00 3.509748e+00 3.016819e+00 2.969201e+00 3.527250e+00 3.469273e+00 2.992083e+00 2.807244e+00 1.044607e+00 7.393713e-01 3.356102e-01 3.014320e-01 4.913732e-01 6.510999e-01 4.639237e-01 6.276600e-01 6.556775e-01 5.699016e-01 6.178722e-01 5.615706e-01 5.453880e-01 1.892257e-01
<GCONST> 1.254997e+02
<TRANSP> 5
 0.000000e+00 1.000000e+00 0.000000e+00 0.000000e+00 0.000000e+00
 0.000000e+00 6.904297e-01 3.095703e-01 0.000000e+00 0.000000e+00
 0.000000e+00 0.000000e+00 2.062210e-01 7.937790e-01 0.000000e+00
 0.000000e+00 0.000000e+00 0.000000e+00 3.669097e-01 6.330903e-01
 0.000000e+00 0.000000e+00 0.000000e+00 0.000000e+00 0.000000e+00
<ENDHMM>
~h "h"
<BEGINHMM>
<NUMSTATES> 5
<STATE> 2
<MEAN> 39
 -5.306546e+00 -5.250682e-01 -4.176622e+00 -6.268952e+00 -4.701346e+00 -2.085524e+00 5.082113e+00 -3.148535e-01 -6.111252e-01 -1.373875e+00 -2.093942e+00 -2.811727e+00 6.716120e+01 7.681617e-01 9.135810e-01 5.639709e-01 -1.988877e-01 -1.086474e+00 -9.671432e-01 -3.049992e-01 -6.738197e-01 -7.956052e-01 -6.210069e-01 -3.773249e-01 -2.963833e-01 4.661757e-01 3.708989e-01 1.720038e-01 -2.087393e-02 -1.896404e-01 -4.960124e-01 -3.641496e-01 -3.156999e-01 -3.447372e-01 -2.124580e-01 -6.625254e-02 4.864052e-02 4.661958e-02 1.524852e-01
<VARIANCE> 39
 2.476530e+01 6.010271e+01 5.554646e+01 6.786220e+01 5.652214e+01 6.518043e+01 5.014152e+01 5.669029e+01 4.961874e+01 4.447491e+01 4.678220e+01 5.174191e+01 3.191603e+01 2.300910e+00 2.322724e+00 2.498087e+00 2.619190e+00 3.347836e+00 3.584010e+00 3.106372e+00 3.696135e+00 3.438288e+00 2.888572e+00 3.274414e+00 2.999563e+00 1.192431e+00 2.004780e-01 3.886397e-01 3.097997e-01 3.948343e-01 4.470964e-01 5.210291e-01 5.087790e-01 6.232449e-01 5.961183e-01 4.991371e-01 5.776838e-01 5.546241e-01 1.145615e-01
<GCONST> 1.237964e+02
<STATE> 3
<MEAN> 39
 5.965909e-02 1.891792e+00 -3.974021e+00 -8.750329e+00 -1.184537e+01 -8.550315e+00 1.443030e+00 -4.021007e+00 -3.107090e+00 -3.565547e+00 -4.731686e+00 -4.115672e+00 7.101473e+01 7.854489e-01 -4.357995e-02 1.042153e-02 -7.485727e-01 -1.796138e+00 -1.041904e+00 -6.838192e-01 -8.699654e-01 -6.014702e-01 -2.256891e-01 5.005966e-01 4.927187e-01 7.932090e-01 -3.253213e-01 -3.198839e-01 -1.048541e-01 1.376880e-01 3.371064e-01 3.765729e-01 7.345569e-02 1.584714e-02 1.316721e-01 2.220148e-01 3.785221e-01 1.719521e-01 -1.847231e-01
<VARIANCE> 39
 2.210605e+01 7.012699e+01 7.381584e+01 7.858134e+01 7.958289e+01 6.699430e+01 5.950310e+01 6.215896e+01 5.749345e+01 5.483268e+01 5.428952e+01 5.973862e+01 3.322899e+01 1.450990e+00 2.362620e+00 2.590556e+00 2.794251e+00 3.697414e+00 3.884447e+00 3.963887e+00 3.791923e+00 3.768449e+00 2.763859e+00 3.242595e+00 2.924440e+00 1.660653e+00 2.661702e-01 4.346463e-01 2.933881e-01 4.292758e-01 6.103294e-01 5.529219e-01 6.448292e-01 6.829809e-01 6.520386e-01 5.126137e-01 5.932634e-01 5.010623e-01 1.718790e-01
<GCONST> 1.276110e+02
<STATE> 4
<MEAN> 39
 -4.482650e-02 1.689463e+00 -2.203565e+00 -8.038518e+00 -1.381729e+01 -9.217766e+00 9.143494e-01 -6.855180e+00 -5.050947e+00 -3.735831e+00 -1.131480e+00 -2.396780e+00 7.120387e+01 3.851821e-02 -8.250660e-02 2.037873e-01 1.231524e-01 -3.988236e-01 -1.990277e-01 -4.771031e-01 -7.909349e-01 -4.640228e-01 1.426181e-01 8.620157e-01 2.538086e-01 4.697194e-02 -1.093818e-01 -1.046750e-02 1.717529e-02 2.709450e-01 3.315718e-01 5.598205e-02 -7.254450e-02 7.753626e-02 1.727770e-01 8.009231e-02 -8.170249e-02 -1.904120e-01 -1.352853e-01
<VARIANCE> 39
 2.370506e+01 4.766635e+01 9.119131e+01 9.619901e+01 7.285196e+01 7.148656e+01 6.572281e+01 7.710076e+01 7.052606e+01 5.882401e+01 5.252649e+01 6.309751e+01 2.828170e+01 4.000183e-01 1.512847e+00 1.648060e+00 1.580980e+00 2.849578e+00 2.166785e+00 2.483681e+00 2.741694e+00 2.727084e+00 2.429700e+00 3.301520e+00 2.319447e+00 5.191357e-01 1.084189e-01 1.904346e-01 2.357415e-01 3.220257e-01 3.880640e-01 4.729172e-01 4.961503e-01 4.666239e-01 5.060655e-01 4.312977e-01 5.111431e-01 4.817400e-01 1.012702e-01
<GCONST> 1.172887e+02
<TRANSP> 5
 0.000000e+00 1.000000e+00 0.000000e+00 0.000000e+00 0.000000e+00
 0.000000e+00 6.313873e-01 3.686127e-01 0.000000e+00 0.000000e+00
 0.000000e+00 0.000000e+00 4.351986e-01 5.648013e-01 0.000000e+00
 0.000000e+00 0.000000e+00 0.000000e+00 5.124468e-01 4.875532e-01
 0.000000e+00 0.000000e+00 0.000000e+00 0.000000e+00 0.000000e+00
<ENDHMM>
~h "i"
<BEGINHMM>
<NUMSTATES> 5
<STATE> 2
<MEAN> 39
 -7.418770e+00 1.808175e+00 4.773426e+00 1.359155e+00 -9.619926e+00 -9.878871e+00 -1.639673e+00 -5.609380e+00 -3.211594e+00 -4.381699e+00 6.469567e-01 -1.950223e+00 6.682132e+01 4.651437e-02 5.969090e-01 1.098167e+00 5.716152e-01 -3.566426e-01 -4.436031e-01 2.509749e-01 -2.188833e-01 -7.071372e-01 -7.407805e-01 1.237196e-01 7.387921e-04 -1.061909e-01 2.994831e-01 1.036888e-01 -1.618290e-01 6.179619e-02 5.916925e-02 -8.430520e-02 -1.401139e-01 -2.311575e-02 -9.906746e-02 -4.789995e-02 -1.206972e-01 -4.164318e-02 -7.323878e-02
<VARIANCE> 39
 5.375208e+01 3.372939e+01 4.523277e+01 5.201581e+01 7.329936e+01 7.411224e+01 5.649376e+01 5.957440e+01 5.823896e+01 5.366785e+01 4.105452e+01 3.945718e+01 2.851761e+01 2.514140e+00 2.028279e+00 2.516907e+00 2.405391e+00 3.796781e+00 3.979836e+00 2.888387e+00 3.466658e+00 3.555614e+00 3.144044e+00 3.013513e+00 2.730434e+00 1.491699e+00 4.162276e-01 3.046738e-01 4.182927e-01 4.432805e-01 7.707469e-01 8.533671e-01 6.110425e-01 5.832687e-01 6.791076e-01 6.314756e-01 5.663171e-01 5.160617e-01 2.270143e-01
<GCONST> 1.270631e+02
<STATE> 3
<MEAN> 39
 -4.169411e+00 3.721056e+00 7.428378e+00 3.580134e+00 -1.269198e+01 -1.308675e+01 -2.609264e+00 -7.810322e+00 -6.693385e+00 -7.583009e+00 1.066536e-01 -2.723976e+00 6.733492e+01 5.030386e-01 5.281773e-01 4.072515e-01 5.033544e-01 -5.273912e-01 -7.687633e-01 -7.263972e-02 -1.711051e-01 -7.383245e-01 -7.356005e-01 6.041937e-02 2.268542e-01 -1.479046e-01 -4.313052e-02 -1.837631e-01 -5.341615e-01 -2.141005e-01 3.636593e-01 2.725496e-01 -9.418863e-02 2.119674e-01 3.587609e-01 3.432370e-01 -6.567460e-02 5.746270e-02 -1.131033e-01
<VARIANCE> 39
 2.079332e+01 3.280676e+01 4.719565e+01 5.081557e+01 7.299308e+01 5.634492e+01 4.913367e+01 6.110350e+01 5.646423e+01 4.630517e+01 4.087901e+01 4.202963e+01 2.397244e+01 2.127387e+00 1.715124e+00 2.483119e+00 1.940834e+00 4.334256e+00 4.790063e+00 3.190188e+00 3.737750e+00 3.573662e+00 3.241974e+00 2.885583e+00 2.816184e+00 1.458632e+00 2.239244e-01 2.569520e-01 3.315130e-01 3.543906e-01 6.571965e-01 6.429601e-01 5.544378e-01 6.025924e-01 6.035331e-01 5.399678e-01 5.766011e-01 5.097868e-01 1.664889e-01
<GCONST> 1.230169e+02
<STATE> 4
<MEAN> 39
 -3.411633e+00 4.456640e+00 6.667634e+00 5.006061e+00 -1.222861e+01 -1.451754e+01 -3.413551e+00 -7.421357e+00 -7.013164e+00 -8.327732e+00 1.247171e-01 -1.807690e+00 6.634789e+01 1.474135e-01 8.858939e-02 -8.224590e-01 -2.170372e-01 9.222494e-01 6.734615e-01 -2.996785e-01 2.974414e-01 3.807312e-01 4.575972e-01 -9.648542e-02 2.949347e-02 -5.978357e-01 -5.412171e-02 -7.974514e-02 -2.470903e-01 -2.592757e-01 2.403101e-01 3.959671e-01 2.663563e-02 1.821730e-02 1.446986e-01 2.571670e-01 -3.418322e-02 -6.605594e-02 -6.890748e-02
<VARIANCE> 39
 1.798304e+01 3.138911e+01 3.947416e+01 4.826508e+01 6.843134e+01 5.382205e+01 4.921624e+01 5.665419e+01 6.114703e+01 4.876628e+01 4.401443e+01 4.162698e+01 2.566133e+01 9.286086e-01 1.227614e+00 2.275696e+00 1.625520e+00 2.973884e+00 3.545976e+00 2.744815e+00 3.051585e+00 3.403790e+00 2.986385e+00 2.488493e+00 2.294006e+00 9.673805e-01 1.366089e-01 2.002184e-01 2.891261e-01 3.016354e-01 5.167517e-01 5.836082e-01 5.103481e-01 5.428181e-01 5.883428e-01 5.242683e-01 4.913131e-01 4.761778e-01 1.563563e-01
<GCONST> 1.174115e+02
<TRANSP> 5
 0.000000e+00 1.000000e+00 0.000000e+00 0.000000e+00 0.000000e+00
 0.000000e+00 3.312218e-01 6.687781e-01 0.000000e+00 0.000000e+00
 0.000000e+00 0.000000e+00 2.830740e-01 7.169260e-01 0.000000e+00
 0.000000e+00 0.000000e+00 0.000000e+00 6.387904e-01 3.612096e-01
 0.000000e+00 0.000000e+00 0.000000e+00 0.000000e+00 0.000000e+00
<ENDHMM>
~h "k"
<BEGINHMM>
<NUMSTATES> 5
<STATE> 2
<MEAN> 39
 -6.540296e+00 -5.229607e-01 -5.418529e+00 -6.276471e+00 -4.557320e+00 -4.472128e+00 -3.395962e+00 -4.719037e+00 -6.398439e-01 -2.079925e+00 5.982700e-01 -1.823741e+00 6.675169e+01 1.466359e+00 2.231372e-01 5.129097e-01 -1.702924e-01 -1.246957e+00 -9.949706e-01 -2.494823e-01 -7.800839e-01 -7.396373e-01 -2.001738e-01 -6.010636e-01 -8.086955e-01 1.159370e+00 2.501107e-01 -9.899363e-03 3.676990e-02 -2.155114e-03 -3.861947e-01 -2.456126e-01 4.163916e-02 -4.929759e-03 -3.600104e-02 2.919338e-02 4.185159e-02 5.002863e-02 5.177844e-02
<VARIANCE> 39
 4.352913e+01 5.722676e+01 6.738758e+01 6.240475e+01 7.504129e+01 7.077583e+01 5.791432e+01 5.706988e+01 6.078273e+01 5.841241e+01 5.080002e+01 5.137840e+01 3.860503e+01 4.830332e+00 4.404317e+00 5.010260e+00 4.958535e+00 6.205675e+00 6.466772e+00 5.449911e+00 5.616178e+00 5.768210e+00 5.197010e+00 4.813468e+00 4.455228e+00 2.027264e+00 7.311607e-01 8.082610e-01 7.940367e-01 7.264969e-01 9.669747e-01 1.017169e+00 8.960685e-01 9.197291e-01 9.715905e-01 8.591056e-01 8.725299e-01 7.786412e-01 4.482657e-01
<GCONST> 1.421183e+02
<STATE> 3
<MEAN> 39
 -7.069873e-01 -7.237440e-01 -4.236852e+00 -7.710787e+00 -1.110672e+01 -8.920326e+00 -3.514411e+00 -5.923404e+00 -2.780321e+00 -1.842082e+00 -2.870862e-01 -3.670968e+00 7.078254e+01 7.781435e-01 -5.807773e-01 -1.232789e-01 -4.347472e-01 -1.502362e+00 -5.100706e-01 5.454618e-01 -5.161701e-02 -1.695517e-01 3.633910e-01 1.581909e-01 3.827164e-02 7.336291e-01 -5.964473e-01 -1.133024e-01 -1.235576e-01 1.917155e-01 5.506230e-01 4.379752e-01 9.497279e-02 1.296860e-01 2.254353e-01 8.908598e-02 1.884758e-01 2.046142e-01 -3.290897e-01
<VARIANCE> 39
 3.067746e+01 6.181781e+01 7.751409e+01 6.792876e+01 7.183501e+01 8.478687e+01 5.853320e+01 6.358245e+01 6.526714e+01 7.005478e+01 5.674950e+01 6.384245e+01 3.800693e+01 2.187459e+00 2.192688e+00 2.909307e+00 3.079051e+00 3.643288e+00 4.662476e+00 3.949059e+00 3.797593e+00 3.822352e+00 3.434704e+00 3.728388e+00 3.161453e+00 1.072547e+00 3.967491e-01 4.693108e-01 4.757473e-01 5.612111e-01 6.964480e-01 7.779367e-01 7.564494e-01 8.799182e-01 8.430762e-01 8.151697e-01 7.018585e-01 6.512408e-01 2.104563e-01
<GCONST> 1.326656e+02
<STATE> 4
<MEAN> 39
 -9.824214e-01 -7.489614e-01 -3.834861e+00 -7.462954e+00 -1.159239e+01 -8.331752e+00 -2.293519e+00 -5.803092e+00 -2.595520e+00 -1.327001e+00 2.297935e-01 -3.259181e+00 7.043651e+01 8.105703e-02 -1.731123e-01 4.623510e-02 1.386235e-01 -4.697975e-01 5.346210e-02 4.474799e-01 -1.077121e-01 -5.715067e-02 2.207095e-01 4.978596e-02 3.450686e-02 4.759240e-02 -3.426246e-01 1.508585e-01 6.908514e-02 2.942348e-01 5.432634e-01 2.041749e-01 -9.959915e-02 3.664413e-02 6.786954e-02 -1.123821e-01 -7.318556e-04 8.203512e-02 -3.415263e-01
<VARIANCE> 39
 3.607084e+01 6.745043e+01 8.810037e+01 7.290572e+01 7.119047e+01 8.085265e+01 5.512448e+01 6.422409e+01 6.829498e+01 7.240257e+01 6.001086e+01 6.744806e+01 3.839326e+01 1.096608e+00 1.602640e+00 1.909551e+00 2.322200e+00 2.633297e+00 3.150112e+00 2.928493e+00 2.885857e+00 3.101120e+00 2.783053e+00 2.952365e+00 2.563987e+00 9.419987e-01 3.670792e-01 3.995685e-01 4.498503e-01 4.992805e-01 5.920629e-01 7.056172e-01 6.596403e-01 7.200959e-01 7.501597e-01 6.903813e-01 6.532004e-01 5.761809e-01 1.875990e-01
<GCONST> 1.276156e+02
<TRANSP> 5
 0.000000e+00 1.000000e+00 0.000000e+00 0.000000e+00 0.000000e+00
 0.000000e+00 7.155872e-01 2.844128e-01 0.000000e+00 0.000000e+00
 0.000000e+00 0.000000e+00 2.477916e-01 7.522084e-01 0.000000e+00
 0.000000e+00 0.000000e+00 0.000000e+00 1.213999e-01 8.786001e-01
 0.000000e+00 0.000000e+00 0.000000e+00 0.000000e+00 0.000000e+00
<ENDHMM>
~h "m"
<BEGINHMM>
<NUMSTATES> 5
<STATE> 2
<MEAN> 39
 1.647667e+00 7.354672e+00 -2.962867e-01 -4.653678e-01 -4.788899e+00 -4.944042e+00 -1.502621e+00 -7.300160e+00 -1.059089e+01 -1.085604e+01 -4.522836e+00 -1.941783e+00 6.431622e+01 5.311821e-01 -4.512188e-01 -1.274057e+00 -1.489687e+00 -1.026929e+00 7.899470e-02 5.857714e-01 -8.443587e-02 5.191260e-01 5.499737e-01 -9.935038e-03 1.998797e-02 8.944623e-01 -1.167737e-02 -4.295803e-01 -5.199925e-01 -5.316910e-01 -3.072543e-01 1.167839e-01 2.367052e-01 9.856034e-02 5.847693e-01 7.077221e-01 1.868062e-01 -1.246560e-01 2.677590e-01
<VARIANCE> 39
 8.770640e+00 2.834206e+01 2.902216e+01 3.700189e+01 4.792556e+01 4.307922e+01 5.202277e+01 5.079740e+01 4.330037e+01 4.868002e+01 4.295290e+01 3.950277e+01 2.150278e+01 6.969939e-01 1.435140e+00 2.531397e+00 3.533701e+00 2.928253e+00 2.385268e+00 2.933566e+00 3.055278e+00 4.109724e+00 4.830246e+00 3.006183e+00 2.535376e+00 8.625200e-01 1.060404e-01 2.166527e-01 3.075612e-01 4.591327e-01 4.506923e-01 4.674366e-01 5.589767e-01 5.559084e-01 6.409888e-01 6.844714e-01 6.648229e-01 5.727330e-01 1.117423e-01
<GCONST> 1.166037e+02
<STATE> 3
<MEAN> 39
 3.740143e+00 2.050449e+00 -9.714675e+00 -1.158750e+01 -1.162487e+01 -3.120313e+00 3.430333e+00 -6.157842e+00 -4.500702e+00 -3.323382e+00 -3.456103e+00 -2.758756e+00 6.974255e+01 8.969840e-02 -2.031502e+00 -2.111275e+00 -2.081609e+00 -6.937738e-01 1.248416e+00 1.385430e+00 -8.828571e-02 1.469271e+00 2.222595e+00 3.325813e-01 -8.019680e-01 1.494329e+00 -2.725779e-01 2.482909e-02 6.892972e-01 9.208899e-01 6.105745e-01 -6.917202e-02 -4.455331e-01 -7.205646e-02 -2.631832e-01 -3.380838e-01 -5.995564e-02 -1.127503e-01 -2.825098e-01
<VARIANCE> 39
 8.045154e+00 4.710754e+01 3.384232e+01 4.421027e+01 5.041488e+01 5.764152e+01 6.312424e+01 7.286982e+01 4.557561e+01 5.645418e+01 4.937672e+01 5.204583e+01 2.265001e+01 7.233894e-01 1.900463e+00 2.347626e+00 4.307901e+00 4.485241e+00 4.659163e+00 4.570709e+00 5.118880e+00 6.267152e+00 5.745861e+00 5.942423e+00 4.914644e+00 8.753243e-01 8.075381e-02 2.887761e-01 3.499975e-01 4.842157e-01 5.392301e-01 7.580571e-01 7.211647e-01 7.240500e-01 7.595366e-01 7.706910e-01 7.029037e-01 5.846997e-01 1.257900e-01
<GCONST> 1.252319e+02
<STATE> 4
<MEAN> 39
 2.449378e+00 -2.239860e+00 -1.114784e+01 -1.186507e+01 -9.777354e+00 -7.161055e-01 3.835622e+00 -7.183468e+00 -3.213226e+00 -1.413502e+00 -3.531645e+00 -5.968224e+00 7.225995e+01 -2.778080e-01 -9.054507e-01 -1.638043e-02 2.938087e-01 2.241131e-01 -5.322873e-02 -4.392674e-01 -9.214865e-03 6.637018e-01 6.650977e-01 1.228410e-01 -4.551544e-01 3.803858e-01 -5.439402e-02 4.766036e-01 5.940348e-01 5.606292e-01 1.055692e-01 -4.833655e-01 -4.587821e-01 1.436090e-01 -2.449898e-01 -4.700250e-01 -3.575762e-02 2.992955e-01 -4.107682e-01
<VARIANCE> 39
 1.049122e+01 5.675793e+01 3.652065e+01 5.012668e+01 5.852612e+01 6.773208e+01 7.231847e+01 8.920087e+01 6.086272e+01 7.003949e+01 6.751981e+01 6.325751e+01 2.660380e+01 3.601134e-01 1.139772e+00 1.185220e+00 2.035591e+00 2.251396e+00 3.694895e+00 3.048581e+00 3.221442e+00 3.984403e+00 3.264691e+00 3.423148e+00 2.904747e+00 4.122311e-01 9.992940e-02 2.742259e-01 3.734906e-01 4.059578e-01 5.406736e-01 5.576804e-01 6.173025e-01 6.748777e-01 7.375994e-01 8.277063e-01 7.485982e-01 6.427447e-01 1.340557e-01
<GCONST> 1.202114e+02
<TRANSP> 5
 0.000000e+00 1.000000e+00 0.000000e+00 0.000000e+00 0.000000e+00
 0.000000e+00 7.321007e-01 2.678993e-01 0.000000e+00 0.000000e+00
 0.000000e+00 0.000000e+00 5.299025e-01 4.700976e-01 0.000000e+00
 0.000000e+00 0.000000e+00 0.000000e+00 4.362141e-01 5.637860e-01
 0.000000e+00 0.000000e+00 0.000000e+00 0.000000e+00 0.000000e+00
<ENDHMM>
~h "n"
<BEGINHMM>
<NUMSTATES> 5
<STATE> 2
<MEAN> 39
 2.032665e+00 5.402605e+00 -3.775680e-01 -2.901399e-01 -6.167612e+00 -8.932271e+00 -6.856426e+00 -7.748681e+00 -6.790538e+00 -5.833559e+00 -3.088204e+00 -4.986978e+00 6.553530e+01 -1.647897e-02 4.294841e-01 1.644216e-01 2.063680e-01 5.301186e-01 -2.055684e-01 -4.426859e-01 -9.101780e-02 -3.259638e-01 -6.740563e-02 2.283259e-01 -1.279310e-01 -2.895095e-01 -3.469540e-03 -4.665021e-01 -4.664698e-01 -3.187779e-01 -3.689233e-01 5.087953e-02 3.335981e-01 7.355596e-02 3.603984e-01 2.703220e-01 -2.427395e-03 9.037077e-02 3.779757e-01
<VARIANCE> 39
 8.006572e+00 2.822447e+01 2.960000e+01 3.835462e+01 3.965494e+01 3.935324e+01 5.006813e+01 4.413579e+01 4.060034e+01 5.126717e+01 3.877228e+01 4.567819e+01 1.733968e+01 2.839684e-01 1.183506e+00 1.837476e+00 1.632749e+00 1.790714e+00 1.763893e+00 2.260725e+00 2.045178e+00 2.323768e+00 2.475644e+00 2.010369e+00 1.995463e+00 4.694797e-01 5.914583e-02 2.045440e-01 3.010474e-01 2.950239e-01 4.240164e-01 3.798646e-01 5.287707e-01 5.201763e-01 4.761634e-01 5.437903e-01 4.788052e-01 4.976903e-01 7.211680e-02
<GCONST> 1.068637e+02
<STATE> 3
<MEAN> 39
 1.850396e+00 1.673371e+00 -4.861101e+00 -2.139769e+00 -7.672116e+00 -8.507442e+00 -4.818374e+00 -8.065576e+00 -4.953470e+00 -2.119133e+00 -2.228557e+00 -4.612959e+00 6.787757e+01 -1.103471e-01 -1.189366e+00 -1.483818e+00 -1.247394e+00 -1.270306e+00 4.413339e-01 1.632112e+00 5.432671e-01 1.239244e+00 9.227459e-01 -3.976734e-01 2.025811e-02 1.132071e+00 -4.536214e-02 1.214455e-01 7.820768e-02 -1.805434e-01 -1.942979e-01 7.743036e-02 3.061942e-01 2.929383e-01 1.139511e-01 -7.216487e-02 -1.328115e-01 -6.339625e-02 -4.355945e-02
<VARIANCE> 39
 1.198907e+01 4.426765e+01 5.059183e+01 5.085804e+01 6.010681e+01 4.881717e+01 6.542522e+01 5.835127e+01 7.349094e+01 7.010214e+01 5.288083e+01 5.811473e+01 2.935330e+01 5.709941e-01 2.483871e+00 3.357488e+00 3.480906e+00 4.162113e+00 3.990430e+00 5.635149e+00 4.987994e+00 5.302788e+00 5.251435e+00 4.454346e+00 4.593498e+00 7.498213e-01 6.944944e-02 5.176695e-01 7.466120e-01 5.754560e-01 7.694798e-01 6.402044e-01 1.013464e+00 7.997946e-01 1.068681e+00 8.862463e-01 7.882261e-01 7.405280e-01 2.608736e-01
<GCONST> 1.299793e+02
<STATE> 4
<MEAN> 39
 5.635291e-01 1.326015e+00 -4.890654e+00 -6.053482e+00 -1.296319e+01 -8.482504e+00 5.858995e-01 -4.340448e+00 -2.361752e+00 -2.514921e+00 -4.073167e+00 -4.223457e+00 6.992583e+01 -1.662722e-01 2.139617e-01 1.275202e-01 -3.201631e-01 -3.583362e-01 2.176099e-02 5.846907e-01 5.860999e-01 2.289946e-01 5.762716e-02 -1.209472e-01 -1.003932e-01 -1.702778e-01 -1.142200e-02 1.661522e-01 2.389174e-01 2.200768e-01 2.655950e-01 -3.674274e-02 -3.534675e-01 -1.228719e-01 -1.456275e-01 -1.113986e-01 1.359162e-01 3.613366e-02 -2.232319e-01
<VARIANCE> 39
 1.720914e+01 5.529225e+01 6.226304e+01 5.322091e+01 8.239669e+01 6.297977e+01 6.200426e+01 6.185307e+01 6.845925e+01 7.041991e+01 6.957096e+01 5.426343e+01 2.485995e+01 2.534703e-01 1.013467e+00 1.434447e+00 1.768517e+00 2.310961e+00 2.249158e+00 2.482555e+00 2.720900e+00 3.251993e+00 2.530193e+00 2.995259e+00 2.169974e+00 4.294863e-01 6.344027e-02 2.308621e-01 3.403330e-01 3.602930e-01 4.543475e-01 4.541146e-01 5.807551e-01 4.757492e-01 6.627178e-01 5.371969e-01 5.597053e-01 5.017937e-01 9.781720e-02
<GCONST> 1.158278e+02
<TRANSP> 5
 0.000000e+00 1.000000e+00 0.000000e+00 0.000000e+00 0.000000e+00
 0.000000e+00 7.319699e-01 2.680301e-01 0.000000e+00 0.000000e+00
 0.000000e+00 0.000000e+00 6.947446e-01 3.052554e-01 0.000000e+00
 0.000000e+00 0.000000e+00 0.000000e+00 5.889819e-01 4.110181e-01
 0.000000e+00 0.000000e+00 0.000000e+00 0.000000e+00 0.000000e+00
<ENDHMM>
~h "o"
<BEGINHMM>
<NUMSTATES> 5
<STATE> 2
<MEAN> 39
 3.068412e+00 5.841165e+00 -7.220354e+00 -1.126416e+01 -1.427253e+01 -7.156693e+00 2.010125e+00 -3.872182e+00 -4.223515e+00 -2.331399e+00 -1.783605e+00 -1.428643e+00 6.655278e+01 -1.033142e-01 2.442543e-01 3.161564e-01 2.372593e-01 2.574121e-01 2.503950e-01 2.913187e-01 1.261523e-01 1.268260e-02 -7.390782e-02 -1.800913e-01 -1.327298e-01 -4.173401e-01 -2.374478e-01 -2.216500e-01 1.085056e-01 3.787299e-01 5.176894e-01 1.207597e-01 -1.730861e-01 -9.511217e-02 -6.737226e-03 -1.712046e-02 5.568173e-02 -4.741737e-02 -6.735137e-02
<VARIANCE> 39
 1.287238e+01 4.305466e+01 2.761225e+01 4.616272e+01 6.315740e+01 4.883791e+01 5.866612e+01 5.746767e+01 5.333926e+01 4.893492e+01 5.070835e+01 4.968647e+01 2.857042e+01 9.127173e-01 1.508462e+00 1.734560e+00 3.196033e+00 4.401578e+00 3.022087e+00 3.768737e+00 3.390080e+00 3.763209e+00 3.478874e+00 3.163862e+00 2.803683e+00 9.580630e-01 1.421079e-01 2.251986e-01 2.927437e-01 4.299635e-01 6.868773e-01 5.456339e-01 6.571952e-01 5.627266e-01 6.655555e-01 6.521993e-01 6.484475e-01 5.646822e-01 1.103245e-01
<GCONST> 1.206994e+02
<STATE> 3
<MEAN> 39
 2.250771e+00 5.473166e+00 -6.705161e+00 -9.722661e+00 -1.212841e+01 -5.961473e+00 2.324749e+00 -4.002984e+00 -4.279475e+00 -2.511451e+00 -1.652683e+00 -1.861051e+00 6.576765e+01 -5.039709e-01 -3.049796e-01 3.362094e-01 8.762004e-01 1.170173e+00 3.872893e-01 -1.373042e-01 -1.452739e-01 -3.520405e-02 -7.664923e-02 9.503163e-02 2.157127e-02 -4.469388e-01 -1.423211e-01 -1.717633e-01 7.056831e-02 2.529258e-01 2.386516e-01 -6.198307e-02 -2.798735e-01 -1.174421e-01 2.369919e-02 6.437130e-03 5.063582e-02 -8.283447e-03 1.713370e-02
<VARIANCE> 39
 1.431792e+01 4.030326e+01 2.844895e+01 4.743225e+01 6.014148e+01 4.940929e+01 5.860663e+01 5.663488e+01 5.017899e+01 4.883009e+01 4.971960e+01 4.836207e+01 3.203284e+01 1.040788e+00 1.568831e+00 2.063456e+00 3.290712e+00 4.236201e+00 3.323586e+00 3.712533e+00 3.574368e+00 3.946779e+00 3.473701e+00 3.606863e+00 3.092109e+00 9.015949e-01 1.411190e-01 2.390490e-01 3.347777e-01 4.595340e-01 7.623619e-01 5.424176e-01 6.163020e-01 5.768677e-01 6.246752e-01 6.329942e-01 6.337531e-01 5.644737e-01 1.637822e-01
<GCONST> 1.220217e+02
<STATE> 4
<MEAN> 39
 5.580382e-01 4.359911e+00 -6.281238e+00 -7.570114e+00 -8.832617e+00 -4.996179e+00 1.398407e+00 -4.743161e+00 -4.432701e+00 -2.541549e+00 -1.050796e+00 -1.548216e+00 6.444745e+01 -6.538244e-01 -4.839008e-01 3.947773e-01 1.091604e+00 1.209020e+00 1.738212e-01 -6.524773e-01 -3.151627e-01 7.366183e-02 3.205061e-03 1.262971e-01 -3.562653e-02 -3.226829e-01 6.120849e-02 3.369872e-02 5.994026e-02 -1.195949e-02 -2.417244e-01 -1.987696e-01 -1.448995e-01 2.146187e-02 1.548167e-02 -3.139551e-02 -5.284401e-02 -5.679793e-02 1.129931e-01
<VARIANCE> 39
 2.186706e+01 3.967637e+01 3.324440e+01 4.739842e+01 5.490221e+01 4.849147e+01 5.990017e+01 5.935896e+01 4.983736e+01 4.780296e+01 4.579253e+01 4.463398e+01 4.378554e+01 1.099413e+00 1.763224e+00 2.374867e+00 3.474519e+00 4.274560e+00 3.564485e+00 4.062633e+00 3.749668e+00 3.412844e+00 3.381645e+00 3.356743e+00 3.069419e+00 1.129512e+00 2.091560e-01 2.963426e-01 4.104927e-01 4.624356e-01 7.147720e-01 5.872502e-01 5.812037e-01 6.686916e-01 6.630739e-01 6.247732e-01 6.552975e-01 5.753431e-01 2.225671e-01
<GCONST> 1.245511e+02
<TRANSP> 5
 0.000000e+00 1.000000e+00 0.000000e+00 0.000000e+00 0.000000e+00
 0.000000e+00 3.605152e-01 6.394848e-01 0.000000e+00 0.000000e+00
 0.000000e+00 0.000000e+00 2.605323e-01 7.394677e-01 0.000000e+00
 0.000000e+00 0.000000e+00 0.000000e+00 3.725902e-01 6.274098e-01
 0.000000e+00 0.000000e+00 0.000000e+00 0.000000e+00 0.000000e+00
<ENDHMM>
~h "p"
<BEGINHMM>
<NUMSTATES> 5
<STATE> 2
<MEAN> 39
 -4.072573e+00 4.020169e-01 -7.378171e+00 -8.820593e+00 -6.010520e+00 -3.121611e+00 1.389956e+00 -3.416843e+00 -2.637891e+00 -3.025733e+00 -2.222615e+00 -1.843558e+00 6.683616e+01 1.782889e+00 5.633323e-01 -3.913814e-01 -1.343126e+00 -1.626371e+00 -6.216190e-01 5.986087e-02 -9.059157e-01 -1.234217e+00 -6.855801e-01 -5.435880e-01 -3.558050e-01 1.635011e+00 1.359493e-01 9.543620e-02 1.307337e-01 7.058521e-02 -1.965800e-01 -7.731266e-02 -1.798144e-01 1.424582e-02 6.444292e-02 2.004107e-01 1.889798e-01 5.941571e-02 -2.424541e-01
<VARIANCE> 39
 3.705770e+01 4.769133e+01 2.723767e+01 6.008372e+01 6.468475e+01 6.665259e+01 5.677662e+01 4.472823e+01 4.379566e+01 4.421959e+01 3.621768e+01 3.810431e+01 3.295345e+01 3.657969e+00 6.082296e+00 2.887417e+00 4.154727e+00 6.210636e+00 5.167828e+00 5.219956e+00 4.755378e+00 4.003205e+00 4.942910e+00 3.992084e+00 3.632086e+00 3.092130e+00 8.776650e-01 1.151822e+00 4.535314e-01 7.695591e-01 1.120541e+00 9.528655e-01 8.843228e-01 8.510155e-01 7.861592e-01 8.298323e-01 6.992384e-01 6.194375e-01 5.597920e-01
<GCONST> 1.370081e+02
<STATE> 3
<MEAN> 39
 1.199645e+00 -1.623481e+00 -8.408484e+00 -1.417103e+01 -1.256587e+01 -4.874047e+00 2.951506e+00 -2.827324e+00 -4.743189e+00 -2.651290e+00 -2.066623e+00 -3.164549e+00 7.301848e+01 3.556280e-01 -2.593292e-01 4.464386e-02 3.679782e-03 -6.194229e-01 -3.018811e-01 -6.432440e-01 -4.545720e-01 1.985015e-01 5.204636e-01 3.104066e-01 -2.677972e-01 3.301225e-01 -3.776963e-01 -4.932767e-02 1.586367e-01 4.398761e-01 3.938379e-01 -2.026850e-02 -1.866799e-01 9.100125e-02 4.092691e-01 1.436951e-01 -3.415254e-02 3.091909e-03 -3.532968e-01
<VARIANCE> 39
 1.692360e+01 6.904350e+01 2.995997e+01 5.101152e+01 5.801931e+01 8.545799e+01 1.101366e+02 8.163173e+01 7.184622e+01 6.700692e+01 4.952138e+01 6.262199e+01 3.906836e+01 1.509962e+00 3.422033e+00 1.148651e+00 2.320035e+00 3.068224e+00 3.312481e+00 4.913567e+00 3.347205e+00 4.577561e+00 3.662748e+00 3.167227e+00 3.220040e+00 1.503341e+00 3.416416e-01 5.709376e-01 3.132695e-01 4.897451e-01 6.895422e-01 6.545466e-01 9.609138e-01 7.627361e-01 8.642499e-01 7.278048e-01 6.403227e-01 6.176002e-01 2.218449e-01
<GCONST> 1.296478e+02
<STATE> 4
<MEAN> 39
 2.295300e+00 -3.091326e-01 -8.543221e+00 -1.366628e+01 -1.270238e+01 -2.155325e+00 -3.933577e-01 -5.873376e+00 -3.403646e+00 -1.760446e+00 -6.000504e-01 -4.894377e+00 7.194469e+01 -4.377160e-03 -2.027007e-01 2.367064e-01 6.262479e-01 4.196576e-02 -5.191164e-01 -8.248481e-01 -2.296491e-01 6.329130e-01 4.268852e-01 -5.803023e-02 -2.664817e-01 -2.965721e-02 -2.304356e-01 1.165174e-02 1.712231e-01 2.646941e-01 2.549862e-01 -7.292700e-02 -1.576890e-02 1.629852e-01 1.118110e-01 -1.231051e-01 -7.958712e-02 7.154511e-02 -2.053160e-01
<VARIANCE> 39
 1.087361e+01 8.092523e+01 4.989235e+01 5.984444e+01 8.704794e+01 9.240057e+01 7.047687e+01 5.911174e+01 7.723317e+01 8.302652e+01 6.025580e+01 7.982590e+01 3.189389e+01 5.157567e-01 1.264951e+00 1.032737e+00 1.899028e+00 2.256696e+00 2.751752e+00 3.033996e+00 2.728389e+00 2.864125e+00 2.169876e+00 2.866639e+00 2.493156e+00 5.259700e-01 1.546774e-01 3.455978e-01 2.637808e-01 2.733650e-01 5.647492e-01 4.749332e-01 4.879926e-01 4.367490e-01 4.785195e-01 6.248075e-01 5.555719e-01 5.441419e-01 1.071918e-01
<GCONST> 1.187731e+02
<TRANSP> 5
 0.000000e+00 1.000000e+00 0.000000e+00 0.000000e+00 0.000000e+00
 0.000000e+00 7.608822e-01 2.391177e-01 0.000000e+00 0.000000e+00
 0.000000e+00 0.000000e+00 5.203497e-01 4.796503e-01 0.000000e+00
 0.000000e+00 0.000000e+00 0.000000e+00 4.816922e-01 5.183078e-01
 0.000000e+00 0.000000e+00 0.000000e+00 0.000000e+00 0.000000e+00
<ENDHMM>
~h "r"
<BEGINHMM>
<NUMSTATES> 5
<STATE> 2
<MEAN> 39
 7.889056e-01 2.993265e-01 -3.590348e+00 6.805222e-01 -7.452739e+00 -1.115090e+01 -5.841793e+00 -8.684854e+00 -4.229221e+00 -2.377522e+00 -2.423770e-01 -2.534415e+00 6.787308e+01 1.011447e-02 -2.580751e-01 -8.806404e-03 5.872973e-01 -2.528073e-01 -3.522027e-01 -5.198722e-01 -3.047729e-01 -5.668381e-02 -2.384731e-01 1.953655e-01 1.338593e-01 1.638730e-01 6.651299e-02 5.603516e-02 -8.775944e-02 -3.422399e-01 -4.810763e-01 5.811640e-02 2.616763e-01 1.104556e-01 7.686876e-04 -6.096184e-03 -3.489666e-04 3.350738e-02 1.228284e-01
<VARIANCE> 39
 1.898872e+01 3.917989e+01 6.210545e+01 5.817221e+01 6.936974e+01 6.079405e+01 5.231018e+01 5.297231e+01 5.133270e+01 5.943294e+01 4.621216e+01 4.848789e+01 2.602968e+01 1.676319e+00 2.364916e+00 3.695585e+00 4.392817e+00 8.145774e+00 5.406388e+00 4.857428e+00 4.289122e+00 4.536300e+00 5.806662e+00 4.296543e+00 4.346203e+00 1.461772e+00 3.011010e-01 4.278762e-01 5.387365e-01 5.724630e-01 1.315958e+00 9.787406e-01 8.882242e-01 8.601552e-01 8.867577e-01 9.642597e-01 8.952568e-01 8.414918e-01 2.952138e-01
<GCONST> 1.344148e+02
<STATE> 3
<MEAN> 39
 1.446770e+00 -4.077413e-01 -4.548277e+00 9.275245e-01 -9.244587e+00 -1.156314e+01 -6.026181e+00 -8.390824e+00 -3.670544e+00 -2.041282e+00 3.530765e-01 -9.326694e-01 6.833649e+01 1.976213e-02 1.983127e-01 1.902535e-01 -1.598520e-01 -1.201697e+00 -9.992532e-02 4.120761e-01 1.286282e-01 -3.869001e-01 -5.054320e-01 2.404329e-01 3.994502e-01 1.248688e-01 -5.138520e-02 1.624595e-01 6.206135e-02 -3.014262e-01 -2.331374e-02 2.357785e-01 3.625267e-01 1.656082e-01 -8.629712e-02 -3.697105e-03 -8.869626e-03 -1.058616e-01 -8.673900e-02
<VARIANCE> 39
 1.578362e+01 4.026006e+01 6.596542e+01 5.551607e+01 7.684621e+01 7.186517e+01 5.868264e+01 5.562585e+01 6.199453e+01 5.844314e+01 4.419487e+01 5.102589e+01 2.547494e+01 1.185593e+00 1.778580e+00 2.960078e+00 3.453593e+00 5.368573e+00 4.910899e+00 4.305646e+00 3.648213e+00 5.071952e+00 4.918663e+00 4.081937e+00 4.427523e+00 1.002392e+00 1.710000e-01 2.653691e-01 4.157070e-01 3.645489e-01 1.091254e+00 7.377656e-01 7.739398e-01 6.845315e-01 8.677267e-01 7.419704e-01 7.086919e-01 7.661099e-01 1.721187e-01
<GCONST> 1.287666e+02
<STATE> 4
<MEAN> 39
 1.611914e+00 1.817977e-01 -3.699325e+00 -1.482710e+00 -1.246144e+01 -1.181011e+01 -5.013338e+00 -8.204481e+00 -5.247253e+00 -4.381305e+00 8.299046e-01 -1.772757e+00 6.899141e+01 -1.162298e-01 3.752160e-01 2.065022e-01 -4.367031e-01 -3.642867e-01 3.760866e-01 5.435230e-01 2.238721e-01 -2.308536e-01 -2.573356e-01 -1.379530e-02 4.511967e-03 -1.732838e-01 -8.743439e-02 5.125380e-02 2.688823e-02 -2.541462e-02 3.071749e-01 1.232626e-01 1.487119e-02 2.998074e-02 7.315134e-02 9.015884e-02 -7.744749e-02 -7.201060e-02 -1.176519e-01
<VARIANCE> 39
 1.528475e+01 4.056712e+01 6.703913e+01 6.434513e+01 6.767116e+01 6.915674e+01 5.781922e+01 5.106227e+01 5.573034e+01 5.917477e+01 4.512081e+01 4.892063e+01 2.194569e+01 5.896893e-01 1.117470e+00 1.656788e+00 1.999661e+00 3.126104e+00 2.530116e+00 2.812373e+00 2.555204e+00 2.829348e+00 2.993587e+00 2.735164e+00 2.826314e+00 6.299594e-01 9.971593e-02 1.813473e-01 2.726914e-01 2.719589e-01 5.441095e-01 4.836366e-01 4.542504e-01 4.290775e-01 5.286791e-01 5.706259e-01 4.981211e-01 5.082093e-01 1.038739e-01
<GCONST> 1.159264e+02
<TRANSP> 5
 0.000000e+00 1.000000e+00 0.000000e+00 0.000000e+00 0.000000e+00
 0.000000e+00 5.057189e-01 4.942811e-01 0.000000e+00 0.000000e+00
 0.000000e+00 0.000000e+00 2.460412e-01 7.539588e-01 0.000000e+00
 0.000000e+00 0.000000e+00 0.000000e+00 4.878728e-01 5.121272e-01
 0.000000e+00 0.000000e+00 0.000000e+00 0.000000e+00 0.000000e+00
<ENDHMM>
~h "t"
<BEGINHMM>
<NUMSTATES> 5
<STATE> 2
<MEAN> 39
 -1.284233e+01 -6.863453e-01 -2.490713e+00 -4.662079e+00 -3.056473e+00 -5.546947e+00 -2.289184e+00 -1.745886e+00 1.645564e+00 -1.648950e+00 3.121762e-01 -4.245940e-01 6.686617e+01 8.960305e-01 -3.966317e-02 2.552159e-01 -2.053059e-01 -6.697333e-01 -8.129182e-01 -4.855922e-01 -8.917560e-01 -4.188269e-01 -3.974289e-01 -5.771018e-01 -7.246329e-01 1.547090e+00 7.454213e-01 2.137533e-01 -4.887125e-02 3.959825e-02 -3.376081e-01 -1.035028e-01 -8.714380e-02 -2.999659e-01 -3.043052e-01 1.105033e-03 -4.905031e-02 -1.268082e-01 -1.485714e-01
<VARIANCE> 39
 5.494175e+01 3.880680e+01 5.020217e+01 4.275130e+01 3.817651e+01 5.761580e+01 4.258757e+01 4.073769e+01 4.082869e+01 4.013106e+01 3.720004e+01 3.835584e+01 5.536299e+01 8.106153e+00 3.952355e+00 4.268590e+00 4.861948e+00 4.429197e+00 5.359737e+00 4.243693e+00 4.682109e+00 4.893503e+00 4.618671e+00 3.950952e+00 4.343097e+00 5.338854e+00 9.045416e-01 6.780245e-01 6.389627e-01 7.518154e-01 7.445516e-01 9.471616e-01 8.289676e-01 7.596450e-01 8.117954e-01 8.003612e-01 7.449777e-01 8.070948e-01 1.003164e+00
<GCONST> 1.381679e+02
<STATE> 3
<MEAN> 39
 -1.912166e+00 6.553595e-01 -2.811622e+00 -6.907017e+00 -1.024390e+01 -9.676046e+00 -4.606617e+00 -8.088402e+00 -3.332647e+00 -2.974839e+00 -2.219865e+00 -4.244322e+00 7.156325e+01 2.497642e+00 1.463268e-01 -6.048155e-01 -5.307252e-01 -1.862763e+00 -6.163998e-01 -6.358987e-02 -1.018353e+00 -1.054314e+00 4.346420e-02 7.287045e-02 -1.478819e-01 4.905177e-01 -6.976171e-01 -2.861459e-01 -9.697863e-02 1.380234e-01 4.963123e-01 4.710447e-01 2.980752e-01 5.256281e-01 3.366269e-01 1.722441e-01 3.471029e-01 4.565643e-01 -4.760521e-01
<VARIANCE> 39
 2.810418e+01 3.735213e+01 7.448444e+01 7.341555e+01 6.584121e+01 7.756592e+01 5.605663e+01 5.316281e+01 5.200322e+01 7.389400e+01 5.182461e+01 5.958475e+01 2.507053e+01 2.702500e+00 3.065228e+00 2.572445e+00 3.757650e+00 5.009319e+00 5.236766e+00 4.580681e+00 4.428816e+00 4.708850e+00 4.911535e+00 4.170842e+00 4.990097e+00 1.800099e+00 4.505347e-01 4.661133e-01 5.870597e-01 6.590322e-01 8.645103e-01 8.522534e-01 7.629782e-01 6.860079e-01 7.291504e-01 9.179609e-01 7.306665e-01 7.565302e-01 4.273973e-01
<GCONST> 1.354062e+02
<STATE> 4
<MEAN> 39
 -2.452018e-01 -1.614121e+00 -5.524680e+00 -9.049019e+00 -1.123262e+01 -8.119308e+00 -3.381815e+00 -7.326396e+00 -3.445634e+00 -2.505547e+00 -1.405768e+00 -3.404806e+00 7.243257e+01 5.179638e-01 -1.557548e-01 -2.361189e-01 3.057245e-01 5.324943e-02 2.022820e-01 5.375116e-02 -1.016428e-01 -2.270269e-01 1.313019e-01 3.022535e-01 2.563123e-01 -2.963130e-01 -4.874163e-01 6.749045e-02 2.067658e-01 3.251410e-01 5.078943e-01 9.634466e-02 -6.846601e-02 1.715605e-01 1.928662e-01 -2.443833e-02 -6.619256e-03 3.940614e-02 -3.052234e-01
<VARIANCE> 39
 2.527351e+01 4.511879e+01 6.815376e+01 7.739079e+01 7.194085e+01 8.409493e+01 6.305000e+01 5.938450e+01 6.618306e+01 8.171136e+01 6.175837e+01 7.671134e+01 2.721889e+01 1.264865e+00 1.721794e+00 1.565223e+00 2.137605e+00 3.010637e+00 3.239625e+00 3.029927e+00 2.898716e+00 3.071436e+00 3.245624e+00 3.184679e+00 3.126690e+00 1.384633e+00 3.734627e-01 3.549946e-01 4.211891e-01 5.091177e-01 6.833410e-01 7.852858e-01 6.704180e-01 6.482570e-01 7.055060e-01 7.655474e-01 6.554142e-01 7.620483e-01 2.244257e-01
<GCONST> 1.281245e+02
<TRANSP> 5
 0.000000e+00 1.000000e+00 0.000000e+00 0.000000e+00 0.000000e+00
 0.000000e+00 7.220458e-01 2.779542e-01 0.000000e+00 0.000000e+00
 0.000000e+00 0.000000e+00 4.478054e-01 5.521947e-01 0.000000e+00
 0.000000e+00 0.000000e+00 0.000000e+00 4.394507e-01 5.605493e-01
 0.000000e+00 0.000000e+00 0.000000e+00 0.000000e+00 0.000000e+00
<ENDHMM>
~h "u"
<BEGINHMM>
<NUMSTATES> 5
<STATE> 2
<MEAN> 39
 8.667474e-01 5.731239e+00 -1.804063e+00 -1.303967e+00 -1.115905e+01 -9.903639e+00 -4.503772e+00 -1.198054e+01 -8.942837e+00 -5.537540e+00 8.688334e-01 2.985930e-02 6.694396e+01 4.065122e-02 1.903424e-01 3.796699e-02 -6.735367e-01 -5.634654e-01 4.939603e-01 6.752343e-01 -1.948379e-02 9.947810e-02 2.126185e-01 2.947077e-01 2.922900e-01 -1.444738e-01 -1.686845e-01 -2.176238e-01 -6.077473e-02 5.784956e-03 3.656605e-01 6.851818e-02 -1.054937e-01 2.166510e-01 3.485524e-01 2.440544e-01 -2.112041e-02 -9.381636e-02 -1.959154e-02
<VARIANCE> 39
 1.964064e+01 3.761345e+01 5.126116e+01 5.922222e+01 5.950529e+01 5.921144e+01 6.601366e+01 4.985832e+01 5.951670e+01 6.861982e+01 5.221205e+01 5.313955e+01 2.397067e+01 6.958631e-01 1.150479e+00 1.853381e+00 2.683276e+00 3.199712e+00 2.632840e+00 3.005382e+00 2.883919e+00 2.822180e+00 2.918352e+00 3.207839e+00 3.054645e+00 8.319388e-01 1.532602e-01 2.048757e-01 2.490791e-01 3.519337e-01 4.705207e-01 5.045654e-01 5.455433e-01 5.338668e-01 5.835831e-01 6.754907e-01 6.600010e-01 5.988671e-01 1.049797e-01
<GCONST> 1.191857e+02
<STATE> 3
<MEAN> 39
 9.406663e-01 5.213304e+00 -1.919691e+00 -1.858150e+00 -1.096084e+01 -9.063400e+00 -5.583211e+00 -1.080677e+01 -7.808809e+00 -5.692904e+00 6.398368e-01 -5.713170e-01 6.647313e+01 -1.369531e-01 -1.745346e-01 -1.016669e-02 -5.034301e-01 6.630971e-02 4.832998e-01 3.061513e-01 3.276695e-01 3.863454e-01 6.752528e-01 3.084303e-01 6.395228e-02 -1.784879e-01 -1.320059e-01 -2.221929e-01 -5.980930e-02 3.577077e-02 2.902507e-01 -4.697840e-03 -5.097092e-02 1.752301e-01 1.544810e-01 2.187326e-01 -5.694298e-03 -4.612778e-02 1.883937e-03
<VARIANCE> 39
 2.310802e+01 3.534330e+01 5.366449e+01 7.052450e+01 6.337528e+01 5.783371e+01 5.957754e+01 4.993398e+01 6.256007e+01 6.127275e+01 5.011264e+01 4.529149e+01 2.745125e+01 6.296973e-01 1.273499e+00 1.775485e+00 1.981866e+00 3.105202e+00 2.379198e+00 2.429427e+00 2.561860e+00 2.940797e+00 3.573262e+00 3.396897e+00 2.896414e+00 1.022595e+00 1.253940e-01 1.777892e-01 2.416291e-01 3.329774e-01 4.120736e-01 4.525717e-01 5.032228e-01 4.880013e-01 5.758642e-01 5.605479e-01 5.786418e-01 5.125689e-01 1.142041e-01
<GCONST> 1.177207e+02
<STATE> 4
<MEAN> 39
 1.898718e-01 4.937743e+00 -2.040544e+00 -2.319226e+00 -9.471512e+00 -7.965525e+00 -4.857417e+00 -1.036572e+01 -6.799577e+00 -3.627366e+00 1.223913e+00 -5.969898e-01 6.596535e+01 -3.185898e-01 -5.026740e-01 -1.044321e-01 -3.036204e-01 4.352402e-01 4.942332e-01 3.408200e-01 6.288503e-01 5.575882e-01 8.019137e-01 1.764324e-01 -6.731454e-02 -1.930446e-01 -7.217221e-02 -1.145967e-01 -4.980072e-02 6.917698e-02 1.475118e-01 -7.208398e-02 -5.149584e-02 1.445391e-01 1.153043e-01 1.546342e-02 -5.109490e-02 -3.614181e-02 -1.415554e-02
<VARIANCE> 39
 2.188998e+01 3.424506e+01 5.559478e+01 6.924233e+01 7.641916e+01 5.587738e+01 6.283063e+01 5.063238e+01 5.943692e+01 6.456304e+01 4.760812e+01 4.651888e+01 3.305399e+01 5.936989e-01 1.233569e+00 1.442899e+00 1.624722e+00 2.430639e+00 2.336990e+00 2.518070e+00 2.318683e+00 3.056148e+00 3.643623e+00 2.798685e+00 2.609337e+00 1.027033e+00 8.638036e-02 1.553995e-01 2.470302e-01 2.798668e-01 4.119242e-01 3.947276e-01 4.408790e-01 4.352483e-01 4.962681e-01 4.668944e-01 4.617783e-01 4.805034e-01 1.080518e-01
<GCONST> 1.152548e+02
<TRANSP> 5
 0.000000e+00 1.000000e+00 0.000000e+00 0.000000e+00 0.000000e+00
 0.000000e+00 3.232516e-01 6.767483e-01 0.000000e+00 0.000000e+00
 0.000000e+00 0.000000e+00 2.492976e-01 7.507024e-01 0.000000e+00
 0.000000e+00 0.000000e+00 0.000000e+00 3.900863e-01 6.099138e-01
 0.000000e+00 0.000000e+00 0.000000e+00 0.000000e+00 0.000000e+00
<ENDHMM>
~h "w"
<BEGINHMM>
<NUMSTATES> 5
<STATE> 2
<MEAN> 39
 4.052230e+00 8.260963e+00 -3.487039e+00 -9.204532e+00 -1.520828e+01 -8.142180e+00 -1.122259e+00 -5.241191e+00 -3.918319e+00 -3.490334e+00 -2.620106e+00 -2.051257e+00 6.489846e+01 3.835281e-01 -3.900189e-01 -1.028647e+00 -1.808718e+00 -1.084258e+00 5.788783e-01 1.508747e+00 4.390890e-01 -1.757976e-01 1.529909e-01 -3.569171e-02 4.400960e-01 6.037846e-01 -1.920408e-01 -4.612548e-01 -8.401905e-02 1.385109e-01 2.905209e-01 2.295431e-01 1.813428e-01 -2.020612e-02 -1.078207e-01 -2.975060e-02 1.578543e-01 1.570936e-01 2.195069e-01
<VARIANCE> 39
 1.062345e+01 3.188920e+01 3.037259e+01 7.739061e+01 6.934453e+01 3.828076e+01 5.648890e+01 5.456811e+01 3.937474e+01 4.769534e+01 3.789029e+01 3.313515e+01 2.195424e+01 7.676688e-01 2.930740e+00 2.072929e+00 2.775751e+00 4.665802e+00 4.239013e+00 4.069866e+00 3.843177e+00 3.666103e+00 2.924917e+00 3.251675e+00 2.951897e+00 1.794544e+00 9.062135e-02 2.528282e-01 3.015004e-01 4.942895e-01 9.280319e-01 7.830941e-01 7.911513e-01 6.701227e-01 6.522461e-01 6.145023e-01 5.803208e-01 5.697334e-01 1.061368e-01
<GCONST> 1.215611e+02
<STATE> 3
<MEAN> 39
 4.199022e+00 4.447645e+00 -7.338483e+00 -1.380248e+01 -1.656443e+01 -5.273652e+00 4.758659e+00 -3.560625e+00 -4.748277e+00 -3.768473e+00 -2.273091e+00 8.257673e-01 6.782657e+01 -3.267297e-01 -1.854435e+00 -1.204319e+00 -5.399305e-01 9.766654e-01 1.578388e+00 1.022154e+00 -5.202553e-01 -6.325235e-01 3.172722e-01 1.083514e+00 7.515043e-01 1.085822e+00 -2.623204e-01 -1.190806e-01 2.910274e-01 7.459059e-01 6.627198e-01 -1.653722e-01 -7.025809e-01 -2.886719e-01 2.209290e-01 2.499267e-01 1.771906e-01 -3.681476e-01 -1.105954e-01
<VARIANCE> 39
 1.093785e+01 3.800949e+01 3.591983e+01 7.757306e+01 7.157141e+01 4.931105e+01 7.350863e+01 7.595084e+01 4.700064e+01 4.981831e+01 5.545641e+01 4.402201e+01 2.651330e+01 7.295907e-01 2.785001e+00 1.545456e+00 2.465434e+00 3.419570e+00 3.811599e+00 4.971933e+00 4.650729e+00 3.731141e+00 4.161433e+00 3.958907e+00 3.748820e+00 1.285454e+00 1.173913e-01 3.551915e-01 2.780743e-01 4.496635e-01 8.124901e-01 9.026229e-01 9.218768e-01 7.989402e-01 8.695908e-01 6.983908e-01 7.928919e-01 6.934580e-01 1.792331e-01
<GCONST> 1.260304e+02
<STATE> 4
<MEAN> 39
 2.800379e+00 3.475332e-02 -9.504490e+00 -1.352785e+01 -1.250382e+01 -2.061913e+00 4.207382e+00 -5.893276e+00 -5.688246e+00 -1.553186e+00 1.026496e+00 -9.083986e-03 7.004049e+01 -5.607529e-01 -1.321413e+00 -3.450522e-01 8.147087e-01 1.469149e+00 3.276304e-01 -6.885017e-01 -4.898107e-01 5.437607e-01 9.193698e-01 4.281770e-01 -7.407014e-01 5.092955e-01 -5.755455e-02 3.049524e-01 3.566133e-01 3.929256e-01 -6.972740e-02 -5.476139e-01 -3.628097e-01 2.491688e-01 3.258247e-01 -6.590588e-02 -4.282188e-01 -2.805357e-01 -2.679814e-01
<VARIANCE> 39
 1.436800e+01 5.068069e+01 3.988285e+01 8.308160e+01 6.074047e+01 5.147356e+01 8.211140e+01 8.762529e+01 4.624675e+01 5.883896e+01 6.013652e+01 5.985172e+01 3.281155e+01 6.075001e-01 1.617980e+00 1.239524e+00 2.361273e+00 2.803129e+00 4.756575e+00 4.529546e+00 3.328155e+00 3.995900e+00 3.755238e+00 3.721152e+00 3.760375e+00 7.879254e-01 1.160277e-01 2.758920e-01 2.741230e-01 3.526824e-01 5.245238e-01 6.096355e-01 7.680913e-01 7.482894e-01 6.330835e-01 7.121806e-01 7.631166e-01 6.463161e-01 1.306915e-01
<GCONST> 1.233487e+02
<TRANSP> 5
 0.000000e+00 1.000000e+00 0.000000e+00 0.000000e+00 0.000000e+00
 0.000000e+00 6.165047e-01 3.834953e-01 0.000000e+00 0.000000e+00
 0.000000e+00 0.000000e+00 4.207710e-01 5.792290e-01 0.000000e+00
 0.000000e+00 0.000000e+00 0.000000e+00 5.724564e-01 4.275436e-01
 0.000000e+00 0.000000e+00 0.000000e+00 0.000000e+00 0.000000e+00
<ENDHMM>
~h "aa"
<BEGINHMM>
<NUMSTATES> 5
<STATE> 2
<MEAN> 39
 2.411797e+00 -6.171195e+00 -1.307769e+01 -1.394834e+01 -7.437613e+00 2.965657e+00 5.833476e+00 -6.298331e+00 -3.673622e+00 -5.398073e-01 -4.737887e+00 -6.694063e+00 7.332484e+01 -8.486267e-02 -1.240165e-01 2.612361e-02 3.817429e-01 2.384368e-01 -2.570782e-01 -3.281389e-01 8.050516e-02 3.225099e-01 1.774147e-01 -1.116965e-01 -2.965934e-01 -5.962764e-02 -4.868593e-03 2.096018e-01 1.152931e-01 9.401061e-02 -1.028842e-01 -2.544424e-01 -1.435935e-01 9.735546e-02 7.227851e-02 -1.401979e-02 5.691428e-02 9.146024e-02 -1.073832e-01
<VARIANCE> 39
 1.182364e+01 4.301595e+01 2.578826e+01 4.047918e+01 5.681506e+01 5.027733e+01 5.482538e+01 8.150815e+01 5.760021e+01 5.724480e+01 6.867825e+01 6.848906e+01 2.295580e+01 1.655146e-01 5.619396e-01 5.080909e-01 7.545231e-01 1.197046e+00 1.497889e+00 1.437667e+00 1.678205e+00 1.567426e+00 1.444982e+00 1.741460e+00 1.570397e+00 1.664229e-01 3.781978e-02 9.749298e-02 1.005244e-01 1.405328e-01 1.858245e-01 2.310574e-01 2.672735e-01 2.920673e-01 2.891731e-01 2.707650e-01 2.835201e-01 3.015212e-01 2.825499e-02
<GCONST> 9.493957e+01
<STATE> 3
<MEAN> 39
 1.889776e+00 -5.485050e+00 -1.157681e+01 -9.790549e+00 -7.063046e+00 -3.252435e+00 2.131457e+00 -3.323098e+00 -5.603868e-01 1.410849e+00 -4.444298e+00 -7.401205e+00 7.204769e+01 -2.776231e-01 9.703001e-01 1.046980e+00 1.414012e+00 7.038067e-02 -1.324260e+00 -1.145427e+00 2.969225e-01 5.136576e-01 -6.321347e-02 3.078511e-01 4.910460e-01 -8.557451e-01 -1.234128e-01 2.145781e-01 2.698231e-01 1.524047e-01 3.583644e-02 8.891018e-02 6.004678e-02 -5.562398e-02 -2.197485e-01 -1.953456e-01 1.654226e-01 2.165260e-01 -2.581749e-01
<VARIANCE> 39
 1.118279e+01 4.555328e+01 3.425403e+01 5.093679e+01 5.088021e+01 7.503603e+01 6.681655e+01 7.567181e+01 6.415009e+01 6.235048e+01 7.031625e+01 7.864228e+01 2.401271e+01 7.313352e-01 1.332476e+00 1.592658e+00 1.874268e+00 3.255732e+00 3.224516e+00 3.328553e+00 3.391380e+00 3.426569e+00 3.204098e+00 3.538296e+00 3.323403e+00 7.610555e-01 8.883277e-02 1.952662e-01 2.231957e-01 2.638427e-01 4.248513e-01 5.581262e-01 5.851184e-01 5.509896e-01 5.979379e-01 5.139779e-01 5.548997e-01 5.766898e-01 8.664457e-02
<GCONST> 1.184486e+02
<STATE> 4
<MEAN> 39
 -1.484285e+00 -2.324882e-01 -7.481519e+00 -6.157269e+00 -4.979576e+00 -2.812518e+00 7.519171e-01 -2.278871e+00 -1.881362e-01 9.801250e-01 -1.174709e+00 -3.909489e+00 6.460843e+01 -8.588515e-01 5.102447e-01 8.211918e-01 8.503525e-01 1.864284e-01 -2.674187e-01 -2.089258e-01 3.407261e-01 -3.533605e-02 -3.872676e-01 5.070280e-01 6.055195e-01 -1.168988e+00 -6.263217e-02 -1.563434e-01 -2.708758e-02 -1.604655e-01 -6.608525e-02 4.146782e-02 5.048185e-02 -1.052900e-01 -1.081169e-01 -4.720276e-02 -2.233003e-02 -4.442019e-02 2.427722e-01
<VARIANCE> 39
 1.915161e+01 3.311925e+01 3.163308e+01 4.271868e+01 4.380773e+01 5.678180e+01 4.961967e+01 4.815044e+01 4.273263e+01 4.499543e+01 4.954171e+01 4.462029e+01 5.079493e+01 9.177654e-01 1.639903e+00 2.014247e+00 1.848631e+00 2.379661e+00 3.019533e+00 3.013044e+00 3.099479e+00 3.324341e+00 3.149290e+00 2.794125e+00 3.001749e+00 1.389381e+00 1.571876e-01 2.337610e-01 2.721083e-01 3.083238e-01 4.263669e-01 5.172433e-01 5.390689e-01 5.168180e-01 5.450230e-01 5.350997e-01 5.461944e-01 5.062228e-01 2.589758e-01
<GCONST> 1.184200e+02
<TRANSP> 5
 0.000000e+00 1.000000e+00 0.000000e+00 0.000000e+00 0.000000e+00
 0.000000e+00 8.401486e-01 1.598514e-01 0.000000e+00 0.000000e+00
 0.000000e+00 0.000000e+00 6.965270e-01 3.034730e-01 0.000000e+00
 0.000000e+00 0.000000e+00 0.000000e+00 5.528826e-01 4.471174e-01
 0.000000e+00 0.000000e+00 0.000000e+00 0.000000e+00 0.000000e+00
<ENDHMM>
~h "ae"
<BEGINHMM>
<NUMSTATES> 5
<STATE> 2
<MEAN> 39
 1.842126e+00 -7.997303e+00 -1.219925e+01 -1.052530e+01 -8.250034e+00 -2.099384e+00 2.116079e+00 -3.889264e+00 6.711543e-03 2.032043e+00 -3.302631e+00 -8.115376e+00 7.364358e+01 -2.827839e-01 -2.274566e-01 4.749252e-01 6.049687e-01 6.143313e-02 -1.033186e+00 -9.301277e-01 5.535921e-01 1.110565e+00 3.540860e-02 -6.560103e-01 -4.078246e-01 5.263493e-02 -2.579179e-02 1.987102e-01 1.976070e-01 1.966863e-01 -1.064554e-01 -3.377047e-01 -9.944754e-02 7.787974e-02 -2.987316e-02 -1.827815e-01 9.393020e-02 3.026977e-01 -1.235554e-01
<VARIANCE> 39
 1.359792e+01 3.897822e+01 2.846185e+01 4.078483e+01 5.205155e+01 7.286070e+01 4.968124e+01 7.376588e+01 7.533542e+01 6.255370e+01 6.758149e+01 5.629776e+01 2.579705e+01 3.272680e-01 6.197111e-01 9.165791e-01 1.635960e+00 1.875223e+00 3.520544e+00 2.448294e+00 2.792943e+00 2.394450e+00 2.442960e+00 2.670697e+00 2.597510e+00 2.367438e-01 4.853897e-02 1.097418e-01 1.411413e-01 1.949975e-01 3.003793e-01 4.024011e-01 4.339799e-01 4.226848e-01 4.937076e-01 4.164478e-01 4.493884e-01 4.473018e-01 4.047773e-02
<GCONST> 1.072586e+02
<STATE> 3
<MEAN> 39
 -6.940845e-02 -6.794059e+00 -6.342036e+00 -4.646009e+00 -1.253652e+01 -1.359044e+01 -3.163432e+00 3.071910e-01 4.438277e+00 -3.884593e-01 -4.314814e+00 -5.463383e+00 7.298269e+01 -2.977491e-01 8.820500e-01 1.269421e+00 9.379758e-01 -5.814010e-01 -1.165035e+00 -4.368038e-01 -1.793809e-01 -4.824647e-01 -5.018237e-01 6.001644e-01 9.886146e-01 -6.670704e-01 -1.692853e-02 1.557856e-01 2.127048e-02 -6.125375e-02 1.742975e-01 3.881181e-01 1.358065e-01 -2.295679e-01 -3.207045e-01 -1.154462e-02 9.098485e-02 -2.142219e-02 -1.638307e-01
<VARIANCE> 39
 1.202958e+01 3.381663e+01 4.471155e+01 3.949727e+01 6.327740e+01 6.475392e+01 5.275855e+01 5.642284e+01 5.387030e+01 6.192214e+01 5.241500e+01 5.870973e+01 2.130390e+01 3.917615e-01 6.843225e-01 1.118747e+00 1.359459e+00 1.881674e+00 2.257508e+00 2.221190e+00 2.261648e+00 2.552985e+00 2.283564e+00 2.434729e+00 2.550286e+00 2.950133e-01 5.005378e-02 1.153098e-01 1.709423e-01 2.042834e-01 2.893852e-01 3.134475e-01 3.234816e-01 3.671086e-01 4.260379e-01 3.894846e-01 4.097320e-01 4.006344e-01 5.387888e-02
<GCONST> 1.056492e+02
<STATE> 4
<MEAN> 39
 -3.223410e+00 -2.071414e+00 -1.978456e+00 -5.172728e-01 -1.022578e+01 -1.363665e+01 -1.848059e+00 -1.954288e-01 2.141240e+00 -6.595452e-01 -2.288827e+00 -2.463441e+00 6.625325e+01 -4.276789e-01 6.555732e-01 5.082034e-01 5.007710e-01 4.408142e-01 3.118762e-01 2.346691e-02 -1.350749e-01 -2.457590e-01 -2.043025e-01 3.054912e-01 4.064644e-01 -1.147596e+00 1.530053e-02 -7.388978e-02 -2.099632e-01 -1.723183e-01 1.027011e-01 2.791765e-01 7.755017e-02 3.866623e-02 -1.041039e-02 9.996545e-02 3.310587e-02 -7.242459e-02 -5.109339e-02
<VARIANCE> 39
 2.343952e+01 3.689002e+01 5.176942e+01 3.349160e+01 5.769453e+01 6.290415e+01 7.734513e+01 6.351659e+01 6.313036e+01 5.753800e+01 5.990722e+01 6.648772e+01 4.099989e+01 4.988584e-01 1.037818e+00 1.409543e+00 1.334585e+00 1.949023e+00 2.642062e+00 2.378926e+00 2.410783e+00 2.546856e+00 2.607396e+00 2.834650e+00 2.528546e+00 5.078689e-01 6.116449e-02 1.577359e-01 2.082967e-01 2.170478e-01 2.933662e-01 4.024523e-01 4.153324e-01 4.189059e-01 4.714024e-01 4.456078e-01 5.219760e-01 5.201655e-01 7.801607e-02
<GCONST> 1.123016e+02
<TRANSP> 5
 0.000000e+00 1.000000e+00 0.000000e+00 0.000000e+00 0.000000e+00
 0.000000e+00 8.210927e-01 1.789072e-01 0.000000e+00 0.000000e+00
 0.000000e+00 0.000000e+00 6.689101e-01 3.310899e-01 0.000000e+00
 0.000000e+00 0.000000e+00 0.000000e+00 6.771365e-01 3.228635e-01
 0.000000e+00 0.000000e+00 0.000000e+00 0.000000e+00 0.000000e+00
<ENDHMM>
~h "ai"
<BEGINHMM>
<NUMSTATES> 5
<STATE> 2
<MEAN> 39
 -2.200803e-01 -5.977654e+00 -5.811718e+00 -4.336426e+00 -1.047018e+01 -1.387225e+01 -6.031589e+00 -3.666016e+00 4.676596e+00 7.677364e-02 -4.003083e+00 -4.399889e+00 7.437112e+01 -6.185630e-01 2.887251e-01 2.135469e+00 1.731113e+00 -1.174800e+00 -2.534541e+00 -6.536281e-01 8.779838e-01 7.413128e-02 -1.617654e+00 -2.633679e-01 1.080396e+00 -2.157935e-01 3.695482e-02 4.657980e-01 1.765155e-01 -2.725015e-01 -2.379764e-01 5.137236e-01 5.901511e-01 -3.346043e-01 -9.300757e-01 -2.886194e-01 4.143079e-01 3.309454e-01 -2.648019e-01
<VARIANCE> 39
 1.405745e+01 4.437461e+01 5.491424e+01 6.177061e+01 5.874741e+01 7.547099e+01 5.947606e+01 7.612135e+01 5.278856e+01 8.549706e+01 6.468120e+01 7.786749e+01 2.051598e+01 4.049128e-01 1.226063e+00 1.759469e+00 2.054619e+00 2.407843e+00 3.658695e+00 3.861658e+00 4.237849e+00 5.597392e+00 4.134735e+00 5.680501e+00 3.386040e+00 3.615255e-01 6.612631e-02 1.835555e-01 3.477561e-01 3.241709e-01 5.066845e-01 7.049887e-01 6.380070e-01 7.990327e-01 6.372374e-01 1.047452e+00 7.630038e-01 7.898746e-01 6.094080e-02
<GCONST> 1.216486e+02
<STATE> 3
<MEAN> 39
 -1.963782e+00 -1.848929e+00 2.581334e+00 -1.170523e+00 -1.582470e+01 -1.799158e+01 -5.478130e+00 -6.065532e+00 -2.618289e+00 -5.462208e+00 -2.124694e-01 -8.895905e-01 7.201476e+01 -3.191109e-01 9.368353e-01 1.017208e+00 5.850657e-01 -9.056345e-02 1.806397e-01 2.680759e-01 -6.212666e-01 -9.439001e-01 -3.684672e-01 3.914313e-02 -8.243082e-02 -7.388034e-01 8.605493e-02 5.459338e-04 -3.799155e-01 -1.963082e-01 4.211004e-01 4.024398e-01 -1.989101e-02 5.426285e-02 2.429485e-01 3.541813e-01 -1.276491e-01 -2.571997e-01 -1.219519e-01
<VARIANCE> 39
 1.348277e+01 3.856684e+01 6.711359e+01 5.828106e+01 6.555302e+01 7.037177e+01 5.409009e+01 6.628139e+01 6.718851e+01 6.548085e+01 6.044740e+01 5.882796e+01 1.787076e+01 3.177841e-01 8.625220e-01 1.645625e+00 1.331669e+00 2.181698e+00 2.295022e+00 2.183582e+00 2.975961e+00 3.411007e+00 2.540243e+00 2.948740e+00 2.328294e+00 4.424748e-01 5.565676e-02 1.421463e-01 2.272263e-01 2.263008e-01 3.770069e-01 4.642105e-01 4.257468e-01 5.122929e-01 5.546225e-01 6.354731e-01 6.276673e-01 4.804417e-01 6.153812e-02
<GCONST> 1.124132e+02
<STATE> 4
<MEAN> 39
 -4.714949e+00 3.156351e+00 4.458106e+00 1.744444e+00 -1.129389e+01 -1.345230e+01 -2.681421e+00 -7.889613e+00 -3.791014e+00 -3.517377e+00 -2.606654e+00 -2.341988e+00 6.609953e+01 -2.554973e-01 1.564262e-01 -1.543617e-01 1.486085e-01 9.111130e-01 7.362183e-01 1.271459e-01 3.867179e-01 2.142481e-01 3.254715e-01 1.215057e-01 -3.313924e-02 -9.511440e-01 2.536160e-02 -1.298990e-01 -2.554653e-01 -1.451361e-01 1.615097e-01 1.656220e-01 -5.900706e-02 1.325162e-01 1.572954e-01 1.614303e-01 1.113473e-01 4.235330e-02 -1.022460e-02
<VARIANCE> 39
 2.483320e+01 5.593404e+01 6.463477e+01 4.718118e+01 5.981311e+01 6.299629e+01 6.555792e+01 5.294802e+01 7.318686e+01 5.943411e+01 4.424128e+01 5.361842e+01 3.942670e+01 5.013568e-01 1.182013e+00 1.909154e+00 1.449437e+00 2.458161e+00 2.551895e+00 2.290714e+00 2.563394e+00 2.993087e+00 2.913763e+00 2.808148e+00 2.423634e+00 6.727585e-01 7.386443e-02 1.830792e-01 2.264721e-01 2.173110e-01 3.441727e-01 3.818469e-01 4.499555e-01 4.370844e-01 5.424201e-01 4.231209e-01 5.032608e-01 4.366744e-01 7.249015e-02
<GCONST> 1.143531e+02
<TRANSP> 5
 0.000000e+00 1.000000e+00 0.000000e+00 0.000000e+00 0.000000e+00
 0.000000e+00 6.966023e-01 3.033977e-01 0.000000e+00 0.000000e+00
 0.000000e+00 0.000000e+00 6.489353e-01 3.510648e-01 0.000000e+00
 0.000000e+00 0.000000e+00 0.000000e+00 6.331368e-01 3.668632e-01
 0.000000e+00 0.000000e+00 0.000000e+00 0.000000e+00 0.000000e+00
<ENDHMM>
~h "ao"
<BEGINHMM>
<NUMSTATES> 5
<STATE> 2
<MEAN> 39
 7.405328e-01 -5.168763e+00 -1.041741e+01 -1.819185e+01 -1.401043e+01 9.734436e-01 8.324685e+00 3.503594e-01 -5.569823e+00 -7.683842e+00 -4.044445e+00 -4.094060e+00 7.575004e+01 1.597758e-01 4.247915e-01 1.438067e-01 -3.013817e-01 -7.339393e-01 -1.506546e-01 -1.635561e-02 -1.647970e-01 2.296209e-01 1.524249e-01 -2.287161e-01 1.203734e-01 -4.161575e-01 1.311162e-02 1.743296e-01 4.615567e-02 5.663869e-03 -1.017380e-02 -1.204106e-01 -7.979084e-02 -5.861019e-02 4.124767e-02 6.352119e-02 -7.546660e-02 -1.976060e-02 -1.067734e-01
<VARIANCE> 39
 1.338839e+01 3.513449e+01 2.271489e+01 2.139662e+01 7.699685e+01 7.506553e+01 4.723251e+01 9.633920e+01 5.192080e+01 6.644483e+01 3.603416e+01 5.098054e+01 2.049432e+01 5.405411e-01 1.009214e+00 5.036966e-01 7.591187e-01 1.357107e+00 1.727042e+00 1.549742e+00 2.212348e+00 2.140799e+00 2.613864e+00 1.883717e+00 2.045073e+00 6.348581e-01 9.156667e-02 1.056059e-01 9.468428e-02 1.318015e-01 2.590297e-01 3.518270e-01 2.799226e-01 3.400610e-01 3.977909e-01 4.130508e-01 2.949713e-01 3.180430e-01 6.031653e-02
<GCONST> 1.021668e+02
<STATE> 3
<MEAN> 39
 4.432271e+00 3.326430e-01 -9.693074e+00 -2.091437e+01 -1.662490e+01 2.389481e+00 6.475309e+00 -5.294775e+00 -1.723046e+00 -4.288149e+00 -5.203270e+00 -2.325774e+00 7.097992e+01 2.724356e-02 6.739486e-01 2.516257e-01 3.262469e-02 -3.962659e-01 -6.511970e-01 -2.837126e-01 3.333175e-01 1.129416e-01 2.452632e-02 -1.219708e-01 -8.824638e-02 -4.281273e-01 -3.370856e-02 4.346628e-02 2.538791e-02 8.720235e-02 6.377924e-02 -6.834181e-02 -5.531973e-02 2.356381e-02 3.347651e-03 -1.554593e-02 1.819659e-02 -3.412000e-02 -3.507639e-02
<VARIANCE> 39
 6.247874e+00 3.699755e+01 5.193393e+01 2.667991e+01 8.194154e+01 6.084426e+01 3.724894e+01 8.352369e+01 6.606702e+01 6.134525e+01 4.551952e+01 4.375918e+01 1.319537e+01 9.936596e-02 4.705259e-01 4.500693e-01 6.274951e-01 7.394127e-01 1.038182e+00 1.089284e+00 1.178591e+00 1.281165e+00 1.006279e+00 1.122346e+00 1.140833e+00 1.442456e-01 1.799251e-02 4.916930e-02 6.541939e-02 8.788493e-02 1.304967e-01 1.547426e-01 1.515241e-01 1.832266e-01 2.093556e-01 1.757297e-01 2.042706e-01 1.878826e-01 1.039110e-02
<GCONST> 8.281334e+01
<STATE> 4
<MEAN> 39
 2.845080e-01 8.279912e+00 -4.756634e+00 -1.349511e+01 -1.596012e+01 -7.071893e+00 1.464171e+00 -1.084078e-01 -1.063801e+00 -1.790821e+00 -4.689288e+00 -3.966589e+00 6.149245e+01 -6.797577e-01 -9.030585e-02 2.460764e-01 1.063277e+00 1.096949e+00 5.039728e-02 -3.552826e-01 1.147171e-01 2.007151e-01 1.160866e-01 3.702143e-01 2.667154e-01 -8.210434e-01 -5.256156e-02 -1.539778e-01 -3.299459e-02 2.396138e-02 1.094829e-01 1.371313e-01 7.166338e-02 8.405802e-03 1.992068e-02 3.703931e-02 8.200465e-02 1.013680e-01 2.670029e-02
<VARIANCE> 39
 1.264847e+01 2.206937e+01 2.930987e+01 3.633158e+01 5.810954e+01 3.439318e+01 4.662626e+01 3.505482e+01 4.462007e+01 5.335470e+01 3.324592e+01 3.838489e+01 3.251633e+01 3.425574e-01 8.158513e-01 7.246128e-01 1.184927e+00 1.567240e+00 1.741274e+00 1.599166e+00 2.006101e+00 2.308248e+00 1.992735e+00 1.924670e+00 2.058095e+00 2.353289e-01 4.634951e-02 9.498586e-02 1.133026e-01 1.972548e-01 2.313086e-01 2.554927e-01 2.606304e-01 3.421049e-01 4.159606e-01 3.693917e-01 3.136722e-01 3.453489e-01 2.577077e-02
<GCONST> 9.765881e+01
<TRANSP> 5
 0.000000e+00 1.000000e+00 0.000000e+00 0.000000e+00 0.000000e+00
 0.000000e+00 8.184188e-01 1.815812e-01 0.000000e+00 0.000000e+00
 0.000000e+00 0.000000e+00 9.085206e-01 9.147938e-02 0.000000e+00
 0.000000e+00 0.000000e+00 0.000000e+00 9.109132e-01 8.908678e-02
 0.000000e+00 0.000000e+00 0.000000e+00 0.000000e+00 0.000000e+00
<ENDHMM>
~h "au"
<BEGINHMM>
<NUMSTATES> 5
<STATE> 2
<MEAN> 39
 1.967036e+00 -3.986929e+00 -9.598640e+00 -8.459229e+00 -1.116146e+01 -9.203228e+00 -6.107141e+00 -5.914319e+00 1.981537e+00 5.893096e-01 -4.422107e-02 -6.434742e+00 7.355070e+01 3.235018e-02 8.162069e-01 5.032858e-01 6.907862e-01 -2.418180e-01 -7.523664e-01 -8.065118e-01 -7.196283e-01 -2.802581e-01 -3.373277e-01 5.022827e-01 5.752842e-01 -5.030271e-01 -1.063392e-02 2.350550e-01 1.052416e-01 7.648841e-02 1.402746e-01 1.115673e-01 1.738705e-02 -1.483630e-01 -2.922875e-01 -2.164778e-01 -3.631057e-02 1.108910e-01 -1.634279e-01
<VARIANCE> 39
 9.258517e+00 2.942020e+01 2.632650e+01 5.404513e+01 4.566315e+01 7.195473e+01 6.920418e+01 5.197167e+01 6.405956e+01 8.076725e+01 6.391933e+01 7.653883e+01 1.678006e+01 2.307648e-01 6.946737e-01 6.433789e-01 9.844901e-01 1.317441e+00 2.118492e+00 1.693254e+00 2.611443e+00 2.438354e+00 2.310423e+00 2.134364e+00 2.110055e+00 2.370129e-01 4.126373e-02 1.014007e-01 1.170593e-01 1.680540e-01 2.218090e-01 3.392167e-01 3.245725e-01 3.259964e-01 4.160311e-01 4.182228e-01 3.794564e-01 3.879797e-01 3.333572e-02
<GCONST> 1.014127e+02
<STATE> 3
<MEAN> 39
 2.853725e+00 3.558713e+00 -5.743521e+00 -5.952760e+00 -1.106712e+01 -8.227928e+00 -6.384924e+00 -1.347210e+01 -5.716265e+00 -1.167621e+00 3.450576e+00 -3.470042e-02 6.874767e+01 5.034364e-02 1.352204e+00 5.900980e-01 4.778080e-01 3.438554e-01 3.432976e-01 1.783254e-01 -2.157348e-01 -1.141549e+00 -1.331070e+00 -5.439214e-01 3.040069e-01 -1.053111e+00 -6.522824e-02 -6.103665e-02 5.393947e-02 -1.213293e-02 1.282083e-01 8.383186e-02 1.448976e-01 4.402195e-01 1.853272e-01 -4.982919e-03 -2.354326e-01 -2.237349e-01 -6.277254e-02
<VARIANCE> 39
 8.590764e+00 2.868061e+01 2.277644e+01 5.478416e+01 4.454885e+01 6.258415e+01 7.477253e+01 7.057869e+01 7.753884e+01 7.459848e+01 4.573982e+01 5.866531e+01 1.799679e+01 2.588996e-01 7.310656e-01 7.763522e-01 1.311357e+00 1.556762e+00 2.037423e+00 2.222036e+00 3.016519e+00 2.580378e+00 2.949950e+00 2.673405e+00 2.555573e+00 2.791075e-01 4.095600e-02 9.871414e-02 1.329094e-01 2.127181e-01 2.862872e-01 3.442371e-01 3.965242e-01 4.511831e-01 4.674392e-01 4.888435e-01 4.348954e-01 4.143862e-01 3.557920e-02
<GCONST> 1.047102e+02
<STATE> 4
<MEAN> 39
 4.464351e-01 8.934137e+00 -1.686310e+00 -2.701036e+00 -6.795369e+00 -6.275352e+00 -3.843271e+00 -8.955828e+00 -6.951145e+00 -5.823558e+00 -1.616651e+00 -1.511319e+00 6.237030e+01 -4.603189e-01 8.401761e-02 4.701017e-01 5.600349e-01 7.816022e-01 3.256451e-01 2.608121e-01 6.202418e-01 1.766336e-01 -2.606835e-01 -3.726476e-01 -1.547848e-01 -7.620879e-01 -5.694592e-02 -2.256843e-01 -1.204913e-01 -7.804254e-02 1.903985e-02 3.396429e-02 3.264921e-02 -1.493402e-03 1.150132e-01 1.950033e-01 1.272223e-01 8.365314e-02 9.251469e-02
<VARIANCE> 39
 1.148174e+01 3.115738e+01 2.363731e+01 3.682320e+01 3.872960e+01 4.263881e+01 5.082288e+01 4.156244e+01 4.914055e+01 5.024115e+01 4.234298e+01 4.345274e+01 3.056766e+01 4.103719e-01 9.661403e-01 9.820565e-01 1.313681e+00 1.630320e+00 1.922349e+00 2.151284e+00 2.597174e+00 2.562986e+00 2.920306e+00 2.248612e+00 2.400929e+00 3.741302e-01 5.185973e-02 1.172410e-01 1.465237e-01 1.937832e-01 2.644394e-01 3.083810e-01 3.243900e-01 4.123325e-01 4.051815e-01 4.423109e-01 3.541150e-01 3.732497e-01 3.636390e-02
<GCONST> 1.028085e+02
<TRANSP> 5
 0.000000e+00 1.000000e+00 0.000000e+00 0.000000e+00 0.000000e+00
 0.000000e+00 7.541792e-01 2.458208e-01 0.000000e+00 0.000000e+00
 0.000000e+00 0.000000e+00 7.278272e-01 2.721728e-01 0.000000e+00
 0.000000e+00 0.000000e+00 0.000000e+00 7.821579e-01 2.178421e-01
 0.000000e+00 0.000000e+00 0.000000e+00 0.000000e+00 0.000000e+00
<ENDHMM>
~h "ee"
<BEGINHMM>
<NUMSTATES> 5
<STATE> 2
<MEAN> 39
 -3.878582e+00 -7.819924e-01 6.603212e+00 -3.346490e+00 -2.157037e+01 -1.961493e+01 -4.697728e+00 -1.023117e+01 -7.949670e+00 -5.766622e+00 2.388937e+00 -1.826272e+00 7.549132e+01 -1.112641e-03 -5.032216e-02 -2.866777e-02 -3.056576e-02 2.562949e-02 -1.015465e-02 2.905535e-02 1.037211e-01 6.931176e-02 -3.288418e-02 3.560047e-02 -2.234259e-02 -9.710978e-02 3.990241e-03 3.568098e-02 -2.143681e-02 1.112690e-02 5.305496e-02 2.912690e-02 7.225358e-03 2.894542e-02 1.350088e-02 -2.868372e-02 -2.727978e-02 -7.841003e-03 -4.761316e-02
<VARIANCE> 39
 8.309770e+00 2.398934e+01 4.545676e+01 5.433087e+01 4.528606e+01 5.535589e+01 3.947482e+01 5.069615e+01 3.080394e+01 4.924498e+01 6.692635e+01 8.885103e+01 8.931704e+00 8.663400e-02 2.893479e-01 3.438239e-01 4.403090e-01 6.476755e-01 7.056457e-01 7.001855e-01 7.714674e-01 7.867712e-01 8.860288e-01 8.936530e-01 8.546318e-01 1.021036e-01 1.644715e-02 5.173291e-02 6.543048e-02 8.009610e-02 1.317035e-01 1.359290e-01 1.419273e-01 1.368246e-01 1.492112e-01 1.695217e-01 1.689524e-01 1.579044e-01 1.831813e-02
<GCONST> 7.694614e+01
<STATE> 3
<MEAN> 39
 -3.009531e+00 -3.053143e-01 5.711770e+00 -9.246823e-01 -1.958072e+01 -2.146704e+01 -6.378146e+00 -5.686250e+00 -5.487819e+00 -7.249214e+00 -3.891159e-01 8.269162e-01 7.199098e+01 5.006442e-02 1.963932e-01 -2.287762e-01 1.053202e-01 2.841408e-01 1.625434e-01 1.939406e-01 2.368003e-01 2.445374e-01 -2.334631e-01 -3.364115e-01 -2.049176e-01 -5.943861e-01 1.039630e-03 8.970858e-02 -2.340920e-02 9.002334e-02 1.779258e-01 9.281863e-02 1.772863e-02 4.910767e-03 -4.613749e-02 3.407274e-02 -9.894086e-02 -5.213270e-02 -1.289320e-01
<VARIANCE> 39
 1.022377e+01 2.206787e+01 3.649718e+01 4.048983e+01 8.291084e+01 5.367866e+01 3.321558e+01 4.815042e+01 5.404779e+01 4.564560e+01 5.489022e+01 6.258625e+01 1.485382e+01 2.442500e-01 5.819248e-01 6.035870e-01 1.065417e+00 1.276242e+00 1.117483e+00 1.779458e+00 1.316991e+00 1.808646e+00 1.677813e+00 1.934887e+00 1.962533e+00 2.417856e-01 4.424402e-02 1.171934e-01 1.059340e-01 2.043467e-01 2.615680e-01 2.175824e-01 3.052987e-01 2.835705e-01 3.404647e-01 3.310502e-01 3.497255e-01 3.052001e-01 4.235534e-02
<GCONST> 9.667238e+01
<STATE> 4
<MEAN> 39
 -4.795604e+00 9.291278e-01 4.218177e+00 -7.225916e-02 -1.429384e+01 -1.462067e+01 -2.369045e+00 -4.547930e+00 -4.106830e+00 -6.284343e+00 -1.091153e+00 -1.618983e+00 6.487201e+01 -1.910142e-01 2.978463e-01 -5.545769e-01 3.386578e-01 1.463397e+00 1.136179e+00 1.749969e-01 4.142466e-01 2.301834e-01 3.846162e-01 -1.061403e-01 2.352448e-01 -1.307122e+00 -3.254744e-02 -3.227314e-02 -5.617012e-02 -5.030150e-02 1.225508e-01 6.309593e-02 -3.575216e-02 -2.299212e-04 -9.752752e-03 6.676879e-02 1.074872e-01 5.075518e-02 3.434982e-02
<VARIANCE> 39
 1.162045e+01 2.266886e+01 3.198557e+01 3.299297e+01 6.020734e+01 5.538800e+01 4.129768e+01 4.470609e+01 5.279512e+01 7.064181e+01 5.894920e+01 6.140370e+01 3.878860e+01 5.199876e-01 1.149933e+00 8.887525e-01 1.307073e+00 1.926759e+00 2.037310e+00 2.171010e+00 2.690840e+00 3.073564e+00 3.128826e+00 3.345618e+00 2.868079e+00 5.671878e-01 5.403117e-02 1.592413e-01 1.349977e-01 1.879566e-01 2.635473e-01 3.357254e-01 3.755476e-01 4.403582e-01 6.021209e-01 5.018706e-01 5.189579e-01 5.182692e-01 8.264913e-02
<GCONST> 1.089906e+02
<TRANSP> 5
 0.000000e+00 1.000000e+00 0.000000e+00 0.000000e+00 0.000000e+00
 0.000000e+00 9.183576e-01 8.164245e-02 0.000000e+00 0.000000e+00
 0.000000e+00 0.000000e+00 8.073090e-01 1.926910e-01 0.000000e+00
 0.000000e+00 0.000000e+00 0.000000e+00 8.340645e-01 1.659355e-01
 0.000000e+00 0.000000e+00 0.000000e+00 0.000000e+00 0.000000e+00
<ENDHMM>
~h "ei"
<BEGINHMM>
<NUMSTATES> 5
<STATE> 2
<MEAN> 39
 -2.472225e+00 -4.215647e+00 1.670277e+00 -4.286510e+00 -1.801892e+01 -1.988428e+01 -3.676253e+00 -8.967990e-01 -2.314461e+00 -7.706841e+00 1.009642e+00 -2.815774e+00 7.582234e+01 -1.143364e-01 5.170420e-01 7.353143e-01 2.462425e-01 -3.550287e-01 -1.502905e-01 -3.065648e-02 -8.768657e-01 -8.017958e-01 4.803861e-02 5.495312e-01 2.168348e-01 -3.317241e-01 6.617134e-04 1.098433e-01 -1.191743e-03 6.812723e-02 7.722181e-02 9.571549e-02 -4.104212e-03 -1.150427e-01 -7.908666e-02 1.094746e-02 -9.870356e-02 -7.440910e-02 -8.882868e-02
<VARIANCE> 39
 7.199078e+00 2.455678e+01 3.990579e+01 5.097635e+01 5.193310e+01 7.301016e+01 4.657000e+01 5.250706e+01 4.335548e+01 7.054575e+01 5.076567e+01 6.328981e+01 8.949608e+00 1.345024e-01 4.139358e-01 5.721164e-01 6.507996e-01 8.571311e-01 9.617566e-01 1.000305e+00 1.617704e+00 1.175461e+00 1.542932e+00 1.175574e+00 1.380738e+00 1.896163e-01 2.325182e-02 6.526101e-02 8.633255e-02 1.078550e-01 1.317591e-01 1.490931e-01 1.943666e-01 2.412206e-01 1.946983e-01 2.404481e-01 2.095763e-01 2.300619e-01 2.503234e-02
<GCONST> 8.669521e+01
<STATE> 3
<MEAN> 39
 -3.335808e+00 2.931014e+00 8.900495e+00 -1.458307e+00 -1.880398e+01 -1.572921e+01 -2.782462e+00 -1.077549e+01 -9.414014e+00 -4.776618e+00 1.201528e+00 -3.186970e+00 7.026893e+01 -1.414958e-01 7.758813e-01 3.621170e-01 2.910123e-01 4.753137e-01 6.126890e-01 1.556303e-01 -3.696447e-01 -2.939534e-01 -1.038183e-01 -5.207320e-01 -4.669644e-01 -7.265393e-01 -1.585445e-02 -3.451845e-02 -7.043426e-02 8.440150e-03 1.456431e-01 5.363663e-02 8.315849e-03 1.413779e-01 1.128776e-01 -5.818795e-02 -4.032452e-02 3.036903e-02 -3.135155e-02
<VARIANCE> 39
 6.508119e+00 2.318380e+01 3.125872e+01 5.222035e+01 5.097346e+01 7.469587e+01 2.971723e+01 4.474618e+01 3.759645e+01 6.560569e+01 4.777538e+01 4.864434e+01 1.288912e+01 1.354085e-01 4.293795e-01 6.573591e-01 8.685827e-01 9.598044e-01 1.110034e+00 1.160638e+00 1.556301e+00 1.013744e+00 1.263930e+00 1.269915e+00 1.281489e+00 1.738044e-01 2.263488e-02 5.015960e-02 9.349212e-02 1.455106e-01 1.685331e-01 1.908451e-01 2.041956e-01 2.450560e-01 1.672748e-01 2.144438e-01 2.149537e-01 2.312410e-01 1.456719e-02
<GCONST> 8.581284e+01
<STATE> 4
<MEAN> 39
 -6.660829e+00 6.709039e+00 9.915025e+00 2.799199e+00 -1.194190e+01 -9.420980e+00 -1.557791e+00 -9.875169e+00 -8.395592e+00 -6.420290e+00 -2.673559e+00 -3.263613e+00 6.308530e+01 -3.232380e-01 -1.235846e-01 -6.474916e-01 1.766110e-01 1.221847e+00 9.206281e-01 2.206386e-01 4.376637e-01 2.117796e-01 2.320270e-01 2.187345e-02 2.291266e-01 -9.847272e-01 -3.103917e-02 -1.609554e-01 -1.584409e-01 -1.025710e-01 7.530089e-03 1.442546e-02 4.686465e-02 1.659015e-01 1.138206e-01 1.473104e-01 1.057563e-01 7.507052e-02 1.531042e-02
<VARIANCE> 39
 1.151611e+01 2.930119e+01 4.920632e+01 2.628252e+01 7.803351e+01 5.824616e+01 4.001104e+01 4.199443e+01 4.806507e+01 4.638429e+01 2.999116e+01 5.322465e+01 3.084865e+01 3.249030e-01 9.321037e-01 1.313512e+00 1.050249e+00 1.978664e+00 1.640482e+00 1.869540e+00 2.593531e+00 2.111660e+00 2.159602e+00 1.916973e+00 2.158270e+00 3.528223e-01 5.537805e-02 1.217846e-01 1.615571e-01 1.622408e-01 3.420224e-01 3.044948e-01 3.533040e-01 4.142447e-01 3.288234e-01 3.424552e-01 3.179415e-01 3.686201e-01 4.517131e-02
<GCONST> 1.025556e+02
<TRANSP> 5
 0.000000e+00 1.000000e+00 0.000000e+00 0.000000e+00 0.000000e+00
 0.000000e+00 8.708667e-01 1.291333e-01 0.000000e+00 0.000000e+00
 0.000000e+00 0.000000e+00 8.695936e-01 1.304064e-01 0.000000e+00
 0.000000e+00 0.000000e+00 0.000000e+00 8.935513e-01 1.064487e-01
 0.000000e+00 0.000000e+00 0.000000e+00 0.000000e+00 0.000000e+00
<ENDHMM>
~h "ii"
<BEGINHMM>
<NUMSTATES> 5
<STATE> 2
<MEAN> 39
 -4.099714e+00 3.269743e+00 9.049556e+00 -2.620677e+00 -1.538705e+01 -1.349987e+01 -4.935746e+00 -1.338999e+01 -1.062628e+01 -7.954766e+00 -1.929744e+00 -5.119016e+00 7.122983e+01 1.793050e-01 3.375913e-01 -1.347088e-01 -4.702628e-03 4.215676e-01 4.739297e-01 2.025453e-01 4.976086e-02 -7.947396e-02 -2.154225e-02 -1.277201e-02 -2.191048e-02 -4.697908e-01 -6.624749e-02 3.152668e-02 -3.035971e-02 5.754866e-02 9.762971e-02 4.402920e-02 6.897928e-02 8.649649e-02 2.068783e-02 -3.792837e-02 -2.745878e-02 8.370024e-03 -2.779153e-02
<VARIANCE> 39
 1.237029e+01 2.112503e+01 4.248496e+01 7.176050e+01 5.260394e+01 7.133492e+01 4.725178e+01 5.716040e+01 3.880909e+01 4.423079e+01 4.119323e+01 7.017201e+01 1.936618e+01 2.936649e-01 5.510756e-01 7.200452e-01 9.528092e-01 1.503416e+00 1.592733e+00 1.498459e+00 1.292555e+00 1.275181e+00 1.268941e+00 1.369483e+00 1.362894e+00 3.428032e-01 5.602938e-02 8.520618e-02 1.180693e-01 1.595428e-01 2.580577e-01 2.408841e-01 2.505640e-01 2.373222e-01 2.208301e-01 2.509866e-01 2.745906e-01 2.290814e-01 5.134923e-02
<GCONST> 9.560393e+01
<STATE> 3
<MEAN> 39
 -4.334684e+00 8.523294e+00 9.829447e+00 4.165297e-01 -1.058468e+01 -1.170731e+01 -1.270465e+00 -1.166164e+01 -9.557831e+00 -7.272058e+00 -3.588651e+00 -3.796340e+00 6.769214e+01 1.994736e-02 2.429964e-01 -1.907534e-01 7.430573e-02 5.537292e-01 3.490192e-01 1.411873e-01 2.111912e-01 2.630655e-02 -1.131756e-02 -3.007434e-02 1.192330e-01 -4.819007e-01 -4.798486e-02 -1.154771e-01 -5.601837e-02 1.158102e-02 -4.835799e-02 -2.562568e-02 -3.328910e-03 2.729799e-02 3.776471e-02 -1.083887e-02 -1.762150e-02 2.747426e-02 5.162802e-02
<VARIANCE> 39
 1.752922e+01 2.246371e+01 8.002190e+01 2.835005e+01 4.236786e+01 4.761258e+01 3.442368e+01 4.417006e+01 3.723458e+01 3.820349e+01 3.957303e+01 4.205313e+01 1.398213e+01 2.272408e-01 5.217016e-01 6.878151e-01 8.202456e-01 1.083223e+00 1.453726e+00 1.428666e+00 1.483450e+00 1.565719e+00 1.289527e+00 1.503836e+00 1.441500e+00 2.861030e-01 3.322348e-02 7.633688e-02 1.096759e-01 1.131906e-01 2.407635e-01 2.292377e-01 2.323948e-01 2.360818e-01 2.453636e-01 2.358992e-01 2.492069e-01 2.360559e-01 6.310935e-02
<GCONST> 9.174527e+01
<STATE> 4
<MEAN> 39
 -6.704890e+00 7.762280e+00 8.086440e+00 2.594754e+00 -5.813983e+00 -7.331338e+00 -1.054603e+00 -9.743964e+00 -8.450530e+00 -6.664932e+00 -3.496449e+00 -3.163575e+00 6.123265e+01 -1.120675e-01 -4.486900e-01 -9.838809e-01 4.284552e-02 8.215400e-01 8.303963e-01 3.877590e-01 6.641647e-01 3.114676e-01 1.939777e-01 -4.843725e-02 2.431313e-01 -6.469308e-01 -9.564071e-03 -1.688216e-01 -1.675189e-01 -2.024242e-01 -1.732083e-01 2.975037e-02 5.184615e-02 7.225578e-02 1.703162e-01 1.639940e-01 7.349098e-02 -5.516696e-03 1.408845e-01
<VARIANCE> 39
 3.066550e+01 3.211515e+01 5.974094e+01 2.601564e+01 3.985928e+01 4.822888e+01 5.563926e+01 3.974494e+01 3.618606e+01 4.419041e+01 2.880375e+01 3.949881e+01 2.952169e+01 4.757364e-01 7.684889e-01 9.295490e-01 1.010407e+00 1.735575e+00 1.472078e+00 1.957984e+00 2.195598e+00 2.521498e+00 2.406116e+00 2.189399e+00 2.137720e+00 3.487812e-01 6.726065e-02 1.555432e-01 1.925370e-01 2.154719e-01 3.067459e-01 2.949249e-01 4.010932e-01 3.721298e-01 4.543945e-01 4.073723e-01 4.579341e-01 4.106584e-01 8.819764e-02
<GCONST> 1.047673e+02
<TRANSP> 5
 0.000000e+00 1.000000e+00 0.000000e+00 0.000000e+00 0.000000e+00
 0.000000e+00 7.546398e-01 2.453602e-01 0.000000e+00 0.000000e+00
 0.000000e+00 0.000000e+00 7.532412e-01 2.467587e-01 0.000000e+00
 0.000000e+00 0.000000e+00 0.000000e+00 6.953773e-01 3.046227e-01
 0.000000e+00 0.000000e+00 0.000000e+00 0.000000e+00 0.000000e+00
<ENDHMM>
~h "oe"
<BEGINHMM>
<NUMSTATES> 5
<STATE> 2
<MEAN> 39
 1.290180e+00 -3.228377e+00 -6.957919e+00 -8.542702e+00 -1.091243e+01 -1.174061e+01 -1.100458e+01 -1.347123e+01 -9.481957e-01 2.593194e+00 2.842140e+00 -5.387849e-01 7.439991e+01 -6.914352e-01 -1.082032e+00 1.193017e+00 2.463552e+00 4.377721e-01 -2.615605e+00 -1.814388e+00 1.210869e+00 2.142522e+00 1.851787e-01 -9.840070e-01 -1.007239e+00 2.770587e-01 -3.151301e-02 3.755603e-01 4.171720e-01 -7.669434e-02 -5.311219e-01 -2.243668e-01 7.222388e-01 6.872335e-01 -3.393764e-01 -9.690239e-01 -5.228635e-01 3.781259e-01 -2.460330e-01
<VARIANCE> 39
 1.192776e+01 2.656780e+01 5.056891e+01 5.386586e+01 4.970760e+01 6.625797e+01 4.002522e+01 5.869395e+01 6.596626e+01 5.885312e+01 6.127886e+01 7.257832e+01 1.372629e+01 2.687411e-01 1.062857e+00 1.455222e+00 1.982992e+00 3.145896e+00 3.097040e+00 4.543846e+00 4.858508e+00 3.882582e+00 6.290949e+00 3.982756e+00 4.055184e+00 3.954970e-01 5.841815e-02 1.220231e-01 2.231676e-01 4.018752e-01 4.224265e-01 7.868944e-01 6.595241e-01 7.931787e-01 1.208005e+00 5.326334e-01 9.759659e-01 9.787320e-01 4.291244e-02
<GCONST> 1.179787e+02
<STATE> 3
<MEAN> 39
 -1.110018e+00 -3.504926e+00 4.516546e-01 -1.865000e+00 -1.448183e+01 -2.114466e+01 -1.005755e+01 -4.939146e+00 -7.992358e-01 -5.474274e+00 -1.144687e+00 3.656255e-01 7.232771e+01 -3.807331e-01 7.519480e-01 8.268536e-01 5.638861e-01 -2.328014e-02 -2.289410e-01 6.413185e-01 5.463843e-01 -6.831700e-01 -7.351364e-01 1.208469e-01 3.523897e-01 -1.002364e+00 1.358984e-02 1.758713e-01 -2.777374e-01 -2.238297e-01 2.676671e-01 5.515997e-01 5.358821e-02 -3.237193e-01 -5.452518e-02 4.303573e-01 2.732845e-01 -1.262266e-01 -2.287618e-01
<VARIANCE> 39
 1.031257e+01 2.388697e+01 5.087134e+01 4.915845e+01 5.480095e+01 5.176331e+01 3.969705e+01 4.416761e+01 4.670169e+01 6.592314e+01 6.102195e+01 4.151266e+01 1.641932e+01 3.972069e-01 9.108432e-01 1.447457e+00 1.467703e+00 2.379377e+00 2.987924e+00 2.538194e+00 2.716426e+00 2.390129e+00 3.000547e+00 2.963156e+00 2.454830e+00 9.777218e-01 7.262854e-02 1.589445e-01 2.318113e-01 2.706988e-01 3.235245e-01 4.472401e-01 4.138241e-01 4.861930e-01 5.096945e-01 4.591716e-01 5.068237e-01 4.008803e-01 7.777291e-02
<GCONST> 1.102901e+02
<STATE> 4
<MEAN> 39
 -5.101973e+00 2.005202e+00 1.342237e+00 1.013340e+00 -8.888037e+00 -1.436811e+01 -4.180563e+00 -3.606121e+00 -2.391710e+00 -3.252793e+00 8.282106e-01 1.153394e+00 6.295048e+01 -5.348498e-01 1.199848e-01 -2.311783e-01 9.386986e-02 7.321358e-01 1.125049e+00 5.236025e-01 2.497717e-01 2.411316e-01 3.806898e-01 9.631812e-02 1.538578e-01 -9.817259e-01 -1.760683e-02 -1.440218e-01 -6.295487e-02 -8.397476e-02 -1.413506e-04 2.861193e-02 -3.640635e-02 4.515296e-02 7.479351e-02 8.569527e-04 -6.364749e-02 1.614272e-02 1.617703e-01
<VARIANCE> 39
 1.576125e+01 2.114932e+01 2.906705e+01 2.852260e+01 3.975129e+01 4.762833e+01 5.659111e+01 5.044395e+01 4.073683e+01 4.586954e+01 3.539416e+01 3.516898e+01 3.560420e+01 3.968082e-01 7.397581e-01 9.228030e-01 9.673548e-01 1.591288e+00 2.029761e+00 1.700379e+00 1.896901e+00 1.996956e+00 2.106201e+00 2.034873e+00 1.859145e+00 6.143104e-01 6.403852e-02 1.283278e-01 1.505215e-01 1.706162e-01 2.843760e-01 2.950739e-01 2.981041e-01 3.504286e-01 3.545063e-01 3.557950e-01 3.698640e-01 3.767777e-01 1.007920e-01
<GCONST> 1.016895e+02
<TRANSP> 5
 0.000000e+00 1.000000e+00 0.000000e+00 0.000000e+00 0.000000e+00
 0.000000e+00 7.581769e-01 2.418231e-01 0.000000e+00 0.000000e+00
 0.000000e+00 0.000000e+00 8.302661e-01 1.697340e-01 0.000000e+00
 0.000000e+00 0.000000e+00 0.000000e+00 8.846183e-01 1.153816e-01
 0.000000e+00 0.000000e+00 0.000000e+00 0.000000e+00 0.000000e+00
<ENDHMM>
~h "oi"
<BEGINHMM>
<NUMSTATES> 5
<STATE> 2
<MEAN> 39
 2.690216e+00 2.383938e-01 -7.526836e+00 -1.016469e+01 -1.052224e+01 -8.183872e+00 -9.931617e+00 -1.612526e+01 -5.166447e+00 -4.494465e-01 4.394527e+00 1.624031e+00 7.274800e+01 -7.753367e-01 -1.220656e+00 1.059788e+00 3.507054e+00 1.196229e+00 -2.955217e+00 -2.535865e+00 4.115825e-01 1.910507e+00 4.394697e-01 -4.237382e-01 -1.809085e+00 2.722901e-01 -1.330107e-01 2.271354e-01 7.139599e-01 3.141648e-01 -7.092332e-01 -7.155750e-01 6.352019e-01 1.026771e+00 2.169861e-02 -1.039817e+00 -8.874875e-01 3.645678e-02 -1.874096e-01
<VARIANCE> 39
 1.174288e+01 3.013920e+01 4.057306e+01 7.346792e+01 4.528516e+01 6.715769e+01 6.507767e+01 5.801737e+01 7.521562e+01 5.930281e+01 5.801994e+01 8.247337e+01 1.287036e+01 3.490667e-01 9.738659e-01 2.366674e+00 2.250365e+00 3.908043e+00 4.360121e+00 3.999663e+00 6.343139e+00 4.075807e+00 7.216041e+00 7.442981e+00 3.642348e+00 3.728764e-01 6.073609e-02 1.650145e-01 2.022950e-01 7.270775e-01 5.524638e-01 1.035146e+00 1.221157e+00 6.764446e-01 1.692028e+00 8.819935e-01 1.068191e+00 1.513079e+00 5.272912e-02
<GCONST> 1.242595e+02
<STATE> 3
<MEAN> 39
 -1.927378e+00 -1.033858e+00 2.369652e+00 1.820764e+00 -1.220796e+01 -1.882377e+01 -9.485700e+00 -9.433723e+00 -4.659826e+00 -8.997786e+00 -9.214944e-01 -1.010249e+00 7.162409e+01 -5.271173e-01 4.365323e-01 9.380904e-01 6.230344e-01 -4.913589e-02 1.762966e-01 1.259115e+00 5.961099e-01 -8.250593e-01 -7.928014e-01 9.450572e-02 1.489644e-01 -6.805803e-01 6.533192e-02 2.018186e-01 -3.625644e-01 -5.854001e-01 1.315663e-01 7.377564e-01 2.338926e-01 -3.199728e-01 -1.324778e-01 4.076978e-01 2.349736e-01 3.920683e-02 -1.159957e-01
<VARIANCE> 39
 1.232788e+01 2.642429e+01 6.285960e+01 5.662175e+01 8.697759e+01 7.757479e+01 4.488713e+01 4.644317e+01 7.262794e+01 6.013737e+01 6.904365e+01 7.156086e+01 1.693641e+01 4.737165e-01 1.140366e+00 4.631767e+00 3.924565e+00 5.399478e+00 6.895945e+00 4.019014e+00 3.568352e+00 4.399294e+00 6.173331e+00 4.192075e+00 3.784899e+00 3.222923e-01 6.925350e-02 2.235299e-01 3.156805e-01 4.574276e-01 8.170134e-01 8.757695e-01 9.482311e-01 7.306864e-01 9.459257e-01 9.093767e-01 8.427218e-01 7.310811e-01 4.397604e-02
<GCONST> 1.247510e+02
<STATE> 4
<MEAN> 39
 -4.141052e+00 3.959063e+00 5.555304e+00 1.809912e+00 -1.148284e+01 -1.360136e+01 -2.878000e+00 -9.584645e+00 -7.143106e+00 -7.199616e+00 -4.759220e-01 -2.235936e+00 6.478164e+01 -4.231191e-01 2.106443e-01 -1.257495e-01 -8.352086e-02 8.307357e-01 1.000015e+00 4.209557e-01 3.198253e-01 2.217758e-01 4.245433e-01 -1.447945e-01 9.318946e-02 -8.686233e-01 1.843600e-02 -1.429866e-01 -1.808529e-01 -3.299420e-02 1.213365e-01 2.324839e-02 -1.113985e-01 1.100119e-01 1.816968e-01 5.706334e-02 -6.671824e-03 4.221224e-02 2.702620e-02
<VARIANCE> 39
 1.598755e+01 2.130947e+01 3.763718e+01 3.349530e+01 5.411415e+01 5.023276e+01 4.871431e+01 5.022616e+01 3.639915e+01 5.192723e+01 3.276407e+01 4.531927e+01 2.607163e+01 3.113647e-01 1.042729e+00 1.398579e+00 1.230942e+00 1.881697e+00 1.876690e+00 2.217422e+00 2.803114e+00 2.060930e+00 1.844571e+00 1.789916e+00 2.237092e+00 3.307517e-01 5.832279e-02 1.260297e-01 1.857359e-01 1.689185e-01 2.714517e-01 3.413059e-01 3.897812e-01 4.458632e-01 3.321407e-01 3.722987e-01 3.274094e-01 3.919900e-01 3.634365e-02
<GCONST> 1.026279e+02
<TRANSP> 5
 0.000000e+00 1.000000e+00 0.000000e+00 0.000000e+00 0.000000e+00
 0.000000e+00 7.474359e-01 2.525641e-01 0.000000e+00 0.000000e+00
 0.000000e+00 0.000000e+00 8.340727e-01 1.659273e-01 0.000000e+00
 0.000000e+00 0.000000e+00 0.000000e+00 8.816864e-01 1.183136e-01
 0.000000e+00 0.000000e+00 0.000000e+00 0.000000e+00 0.000000e+00
<ENDHMM>
~h "oo"
<BEGINHMM>
<NUMSTATES> 5
<STATE> 2
<MEAN> 39
 4.397402e+00 1.042913e+01 -2.047377e+00 -1.444898e+01 -2.054417e+01 -1.295963e+01 -5.605719e+00 -6.991397e+00 -8.719832e-01 -4.338754e-01 -3.866561e+00 -3.030459e+00 6.683064e+01 2.794725e-02 -7.730043e-02 -1.272634e-01 7.581238e-02 -3.589739e-02 2.054530e-01 4.648465e-01 1.501053e-02 -2.274209e-01 -6.730938e-02 5.304959e-02 5.504278e-03 -8.006191e-02 -1.350950e-01 -9.487154e-02 -1.062659e-01 1.510859e-01 3.428135e-01 1.242293e-01 1.279684e-01 9.573457e-02 -1.496518e-01 -1.638355e-01 8.851156e-02 1.177699e-01 -5.450816e-02
<VARIANCE> 39
 7.403590e+00 2.762774e+01 3.123691e+01 3.473510e+01 3.707707e+01 4.194521e+01 4.583219e+01 5.696266e+01 4.532221e+01 5.700104e+01 4.201477e+01 3.864336e+01 1.391103e+01 1.552743e-01 5.721368e-01 7.584615e-01 7.968256e-01 1.329040e+00 1.183265e+00 1.920849e+00 1.593994e+00 2.040033e+00 1.734558e+00 1.896817e+00 1.531952e+00 2.362191e-01 6.433521e-02 1.523563e-01 1.864403e-01 1.803633e-01 4.187663e-01 2.478499e-01 3.528223e-01 2.983478e-01 3.713244e-01 4.016837e-01 4.302046e-01 3.583125e-01 3.465693e-02
<GCONST> 9.695155e+01
<STATE> 3
<MEAN> 39
 3.230990e+00 1.155661e+01 -1.741103e+00 -1.260385e+01 -2.037525e+01 -1.103874e+01 -1.866792e+00 -5.323567e+00 -1.506779e+00 -1.166743e-02 -3.895416e+00 -3.898692e+00 6.534091e+01 -1.675975e-01 -5.657176e-01 -5.478895e-01 4.129972e-01 7.850806e-01 3.327796e-01 1.053943e+00 1.356709e-01 -1.105039e+00 -6.584859e-01 4.914816e-01 6.204621e-01 -1.679637e-02 -9.450706e-02 -2.704733e-01 -1.545422e-01 3.412210e-01 6.272402e-01 4.517088e-02 -1.613052e-01 -1.247123e-01 -2.146675e-01 -1.146283e-01 2.824919e-01 3.150490e-01 -1.083611e-02
<VARIANCE> 39
 1.034305e+01 4.144426e+01 3.608778e+01 4.375681e+01 5.024493e+01 4.570149e+01 5.042859e+01 4.850892e+01 5.578119e+01 8.243671e+01 3.730964e+01 3.008646e+01 2.142153e+01 3.030409e-01 9.134418e-01 1.183598e+00 1.736753e+00 1.814837e+00 2.331121e+00 3.975374e+00 2.912691e+00 4.228962e+00 3.231134e+00 3.458762e+00 2.945771e+00 4.901795e-01 7.027186e-02 1.362393e-01 2.212472e-01 3.441841e-01 5.858203e-01 4.584636e-01 6.231404e-01 4.054542e-01 5.740644e-01 5.118832e-01 6.384158e-01 5.937805e-01 3.718520e-02
<GCONST> 1.113151e+02
<STATE> 4
<MEAN> 39
 2.234366e+00 8.447790e+00 -3.690058e+00 -1.125112e+01 -1.616965e+01 -8.534116e+00 5.263811e-01 -4.815959e+00 -4.318552e+00 -3.324301e+00 -2.353662e+00 -1.672470e+00 6.417462e+01 -3.404387e-01 -1.151560e+00 -8.301649e-01 1.381882e+00 2.221869e+00 4.489531e-01 -4.029831e-02 -3.564553e-01 -1.271109e+00 -2.665260e-01 1.180117e+00 1.245299e+00 -1.665828e-01 -7.477963e-02 -1.253043e-01 3.154571e-02 4.084175e-01 5.285331e-01 -1.093948e-01 -6.548130e-01 -2.290618e-01 3.409553e-01 3.281245e-01 1.254552e-01 -1.078265e-01 -6.498949e-02
<VARIANCE> 39
 1.662195e+01 2.871904e+01 3.307082e+01 4.639059e+01 5.308417e+01 5.034418e+01 5.912556e+01 5.118496e+01 7.454437e+01 7.832861e+01 4.611732e+01 4.527709e+01 4.223707e+01 6.774310e-01 8.721999e-01 1.636975e+00 1.916845e+00 2.703387e+00 2.700019e+00 3.057671e+00 3.377796e+00 4.104600e+00 3.989614e+00 3.845084e+00 3.915165e+00 5.724102e-01 8.167247e-02 1.154825e-01 2.117258e-01 4.039045e-01 8.266207e-01 5.629955e-01 8.250790e-01 6.066517e-01 7.195618e-01 6.161390e-01 7.045510e-01 6.648502e-01 5.892042e-02
<GCONST> 1.180532e+02
<TRANSP> 5
 0.000000e+00 1.000000e+00 0.000000e+00 0.000000e+00 0.000000e+00
 0.000000e+00 7.077829e-01 2.922171e-01 0.000000e+00 0.000000e+00
 0.000000e+00 0.000000e+00 4.423269e-01 5.576731e-01 0.000000e+00
 0.000000e+00 0.000000e+00 0.000000e+00 5.567283e-01 4.432716e-01
 0.000000e+00 0.000000e+00 0.000000e+00 0.000000e+00 0.000000e+00
<ENDHMM>
~h "ou"
<BEGINHMM>
<NUMSTATES> 5
<STATE> 2
<MEAN> 39
 4.272094e+00 4.947970e+00 -6.351023e+00 -1.252145e+01 -1.511186e+01 -7.333447e+00 -4.599702e+00 -1.059243e+01 -7.902190e+00 -6.054484e+00 1.910850e+00 1.501940e+00 7.006639e+01 -4.559671e-02 3.906514e-01 3.492478e-01 6.484571e-01 1.973179e-01 -2.907261e-01 -3.244256e-01 -2.804164e-01 -3.742413e-01 -4.903418e-01 -1.226642e-01 2.165951e-03 -3.511757e-01 -4.115897e-02 6.711981e-02 6.419887e-02 9.047153e-02 1.196933e-01 1.835406e-02 4.156148e-02 1.222063e-01 2.301788e-02 -5.516323e-02 -1.060483e-01 -7.430907e-02 -9.510349e-02
<VARIANCE> 39
 6.517699e+00 2.899756e+01 2.214763e+01 6.907249e+01 5.242584e+01 4.704036e+01 9.178564e+01 6.220624e+01 7.235435e+01 5.689428e+01 6.092131e+01 5.539026e+01 1.163996e+01 1.292427e-01 5.589861e-01 6.096600e-01 1.118849e+00 1.052122e+00 1.313385e+00 1.296829e+00 1.715936e+00 1.448448e+00 1.736861e+00 1.597870e+00 1.712420e+00 2.114502e-01 2.679109e-02 7.589053e-02 8.469547e-02 1.697811e-01 1.893401e-01 2.227477e-01 2.193039e-01 2.792825e-01 2.699232e-01 2.983810e-01 2.709939e-01 2.576595e-01 2.562056e-02
<GCONST> 9.285782e+01
<STATE> 3
<MEAN> 39
 2.836036e+00 1.235847e+01 -1.480309e+00 -8.393266e+00 -1.403181e+01 -8.611182e+00 -1.713909e+00 -9.378101e+00 -8.469836e+00 -8.086479e+00 -4.197074e+00 -1.657073e+00 6.506588e+01 -3.030519e-01 3.272490e-01 4.420773e-01 8.627496e-01 8.055769e-01 1.140067e-01 -3.609367e-01 2.999176e-01 2.548253e-02 -3.580393e-01 -2.954776e-01 -3.329121e-01 -7.373568e-01 -7.911057e-02 -1.127619e-01 -2.633392e-03 1.230558e-02 1.179168e-01 1.345090e-01 9.540230e-03 -3.056300e-03 1.044948e-01 1.499449e-01 5.245281e-02 2.245773e-02 -3.677476e-02
<VARIANCE> 39
 4.988495e+00 3.192427e+01 2.443860e+01 4.219817e+01 4.715865e+01 5.825337e+01 7.535654e+01 5.797589e+01 4.592340e+01 6.396991e+01 4.701256e+01 5.528272e+01 2.029765e+01 1.958685e-01 5.156033e-01 7.353584e-01 1.081186e+00 1.278175e+00 1.529413e+00 1.888934e+00 1.951740e+00 1.795870e+00 2.040293e+00 2.042767e+00 1.790727e+00 2.745864e-01 3.159058e-02 6.854235e-02 1.052798e-01 1.664483e-01 1.979579e-01 2.473895e-01 3.078319e-01 2.823551e-01 3.082596e-01 3.336464e-01 3.393267e-01 3.305225e-01 2.370327e-02
<GCONST> 9.575842e+01
<STATE> 4
<MEAN> 39
 -1.830541e+00 9.052525e+00 1.680374e-01 -1.380521e+00 -4.320732e+00 -5.248984e+00 -4.121614e+00 -6.632401e+00 -5.777012e+00 -6.669713e+00 -3.702281e+00 -2.185777e+00 6.054794e+01 -6.906956e-01 -5.049621e-01 -5.180030e-02 2.746896e-01 7.457345e-01 5.086924e-01 2.784344e-01 5.426984e-01 4.963366e-01 4.751504e-01 1.629892e-01 1.259412e-01 -6.823125e-01 -2.840798e-02 -9.705298e-02 -9.376388e-02 -1.017362e-01 -5.694858e-02 1.338855e-02 1.128775e-01 5.030903e-02 6.423395e-02 8.030106e-02 6.160450e-02 6.081649e-02 5.439311e-02
<VARIANCE> 39
 9.832320e+00 3.393340e+01 1.902155e+01 2.518564e+01 2.782870e+01 2.789833e+01 3.409672e+01 4.180502e+01 3.171731e+01 3.852304e+01 3.594383e+01 4.015638e+01 3.462534e+01 3.858081e-01 7.053162e-01 6.834754e-01 1.214466e+00 1.495098e+00 1.358102e+00 1.948612e+00 1.978822e+00 1.682923e+00 2.052782e+00 1.954690e+00 1.789394e+00 3.499285e-01 5.024612e-02 1.035210e-01 1.335719e-01 2.000973e-01 2.291801e-01 2.339527e-01 3.169808e-01 3.236543e-01 2.939318e-01 3.396117e-01 3.538707e-01 3.309062e-01 4.512389e-02
<GCONST> 9.588415e+01
<TRANSP> 5
 0.000000e+00 1.000000e+00 0.000000e+00 0.000000e+00 0.000000e+00
 0.000000e+00 8.488283e-01 1.511718e-01 0.000000e+00 0.000000e+00
 0.000000e+00 0.000000e+00 8.392149e-01 1.607852e-01 0.000000e+00
