~o
<STREAMINFO> 1 39
<VECSIZE> 39<NULLD><MFCC_D_A_0><DIAGC>
~h "N"
<BEGINHMM>
<NUMSTATES> 5
<STATE> 2
<MEAN> 39
 1.568569e+00 3.099464e+00 -2.228809e+00 -3.179776e+00 -7.347924e+00 -8.898971e+00 -3.326863e+00 -5.584040e+00 -4.443367e+00 -3.503389e+00 -2.765957e+00 -3.326119e+00 6.665833e+01 1.352021e-01 1.161406e+00 4.873144e-01 2.335165e-01 3.513911e-01 1.903547e-01 4.331456e-02 -6.163611e-02 -8.730833e-01 -4.316922e-01 -9.094159e-02 1.267013e-01 -8.665882e-01 -7.394052e-02 -3.240427e-01 -1.922452e-01 -1.618591e-01 -1.516895e-01 -1.466199e-02 8.880483e-02 5.671627e-02 2.905668e-01 1.683008e-01 2.797877e-02 -9.640099e-02 3.004978e-01
<VARIANCE> 39
 8.967393e+00 4.162649e+01 2.738820e+01 4.183004e+01 4.269637e+01 5.915474e+01 5.243658e+01 6.715589e+01 4.949932e+01 6.415405e+01 5.560574e+01 5.873461e+01 2.438486e+01 3.701573e-01 1.090897e+00 1.348472e+00 1.825650e+00 2.164327e+00 2.878955e+00 2.721642e+00 3.277051e+00 3.340573e+00 3.334021e+00 2.888253e+00 2.364684e+00 5.503774e-01 7.431608e-02 1.586911e-01 2.247681e-01 3.064377e-01 3.843667e-01 4.959862e-01 4.471232e-01 5.357700e-01 5.904096e-01 5.577593e-01 5.246554e-01 4.168831e-01 8.491740e-02
<GCONST> 1.124401e+02
<STATE> 3
<MEAN> 39
 1.471910e+00 5.176397e+00 -1.551126e+00 -3.162886e+00 -7.152474e+00 -8.112270e+00 -2.507896e+00 -5.407992e+00 -5.495954e+00 -4.157857e+00 -2.483560e+00 -3.175146e+00 6.544787e+01 -1.140122e-01 1.043075e-01 -9.436041e-02 -3.095013e-01 4.185089e-02 3.650900e-01 1.362233e-01 -1.189604e-03 2.572112e-01 9.011582e-02 -1.854647e-01 -1.252940e-01 -1.242787e-02 -8.645521e-02 -4.498256e-01 -2.539193e-01 -1.873053e-01 -8.009841e-02 1.060316e-01 5.969698e-02 -3.187660e-02 4.213527e-01 2.472370e-01 -2.478931e-02 -1.462176e-01 3.335988e-01
<VARIANCE> 39
 9.177505e+00 3.772328e+01 2.543504e+01 4.106728e+01 4.319321e+01 5.801440e+01 4.852028e+01 6.171246e+01 4.947883e+01 5.830735e+01 5.086469e+01 5.541173e+01 2.362680e+01 3.306319e-01 1.194211e+00 1.323607e+00 1.643718e+00 1.886988e+00 2.490932e+00 2.154946e+00 2.782771e+00 3.348235e+00 2.911310e+00 2.904021e+00 2.097741e+00 5.683302e-01 6.681109e-02 1.692554e-01 2.388739e-01 3.021187e-01 3.832492e-01 5.258353e-01 4.855421e-01 5.836512e-01 6.143028e-01 5.587119e-01 5.537426e-01 4.692820e-01 7.758087e-02
<GCONST> 1.111387e+02
<STATE> 4
<MEAN> 39
 9.867791e-01 1.675642e+00 -4.510489e+00 -5.204175e+00 -6.884139e+00 -5.127207e+00 -1.253202e+00 -5.599728e+00 -1.255754e+00 -2.622458e+00 -4.679127e+00 -5.838470e+00 6.767123e+01 -1.352389e-01 -6.363388e-01 -6.358795e-01 -3.686919e-01 1.422873e-01 5.591991e-01 3.227971e-01 -2.000159e-02 6.231082e-01 5.353890e-01 -1.934623e-01 -5.416727e-01 3.287763e-01 -1.591294e-02 -8.112338e-02 -3.261544e-02 2.896681e-02 -4.680411e-03 -1.422920e-02 5.271297e-02 2.731153e-02 -3.873456e-02 7.476371e-02 8.844616e-02 -2.896208e-02 1.364343e-02
<VARIANCE> 39
 8.849648e+00 5.220943e+01 4.513727e+01 5.357286e+01 5.885947e+01 8.093587e+01 5.845251e+01 7.948222e+01 7.553392e+01 7.622002e+01 7.485243e+01 6.404619e+01 2.692988e+01 3.010709e-01 1.478704e+00 1.572402e+00 1.618355e+00 1.994555e+00 2.659342e+00 2.260289e+00 2.795112e+00 3.627037e+00 2.600032e+00 3.109405e+00 2.588886e+00 5.982258e-01 5.018035e-02 2.272954e-01 2.262086e-01 2.475776e-01 3.168762e-01 4.357904e-01 4.309987e-01 4.835487e-01 5.585510e-01 4.680225e-01 4.629757e-01 4.359263e-01 8.826724e-02
<GCONST> 1.141217e+02
<TRANSP> 5
 0.000000e+00 1.000000e+00 0.000000e+00 0.000000e+00 0.000000e+00
 0.000000e+00 5.495491e-01 4.504509e-01 0.000000e+00 0.000000e+00
 0.000000e+00 0.000000e+00 5.065698e-01 4.934301e-01 0.000000e+00
 0.000000e+00 0.000000e+00 0.000000e+00 7.240186e-01 2.759814e-01
 0.000000e+00 0.000000e+00 0.000000e+00 0.000000e+00 0.000000e+00
<ENDHMM>
~h "a"
<BEGINHMM>
<NUMSTATES> 5
<STATE> 2
<MEAN> 39
 9.803473e-01 -1.913530e+00 -8.125930e+00 -8.419462e+00 -9.392867e+00 -5.864844e+00 -1.181279e+00 -5.781143e+00 -1.366529e+00 4.112897e-01 -3.737789e-01 -3.333508e+00 7.033107e+01 6.898311e-02 -3.455528e-01 -3.315741e-01 -1.413322e-02 1.853729e-01 2.237913e-01 -4.024039e-02 1.840675e-01 5.291904e-01 7.226704e-01 7.910966e-02 -2.461637e-01 -6.518863e-02 -1.613134e-01 2.182051e-01 2.788928e-01 2.621375e-01 1.562491e-01 -4.591667e-02 -9.254300e-02 4.455560e-02 -1.214715e-01 -1.932011e-01 -5.955968e-02 6.742405e-02 -3.114333e-01
<VARIANCE> 39
 1.813319e+01 5.143794e+01 4.259778e+01 5.598664e+01 6.220673e+01 7.982985e+01 6.620077e+01 7.052570e+01 6.205978e+01 6.400304e+01 6.700890e+01 7.999831e+01 3.467932e+01 1.449486e+00 2.219496e+00 2.505934e+00 3.234365e+00 3.301563e+00 4.093038e+00 4.071836e+00 3.791695e+00 4.444692e+00 4.591982e+00 4.007981e+00 4.006041e+00 1.649912e+00 2.629027e-01 3.586890e-01 4.130495e-01 4.720331e-01 6.155559e-01 6.764839e-01 6.857052e-01 6.961520e-01 7.474692e-01 7.974868e-01 7.569042e-01 7.882925e-01 2.559026e-01
<GCONST> 1.305572e+02
<STATE> 3
<MEAN> 39
 9.903674e-01 -2.095105e+00 -8.386918e+00 -8.234886e+00 -8.929630e+00 -5.557820e+00 -1.401688e+00 -5.591229e+00 -7.181150e-01 1.337435e+00 -4.808890e-01 -3.818323e+00 6.981660e+01 -1.206615e-01 1.362020e-01 2.019778e-01 4.358433e-01 3.871520e-01 7.276450e-02 -2.047775e-01 2.023347e-01 1.948139e-01 2.868143e-01 6.680632e-03 -5.017134e-02 -6.199837e-01 -1.446989e-01 2.298911e-01 2.806139e-01 2.136475e-01 9.370466e-02 -5.549574e-02 -4.999723e-02 4.062778e-03 -1.884245e-01 -2.862479e-01 -3.192668e-02 1.321833e-01 -2.665120e-01
<VARIANCE> 39
 1.815672e+01 5.052893e+01 4.019925e+01 5.459172e+01 5.957203e+01 7.421204e+01 6.553300e+01 6.733650e+01 6.303627e+01 6.499072e+01 6.705096e+01 8.049794e+01 3.662319e+01 1.129763e+00 1.945489e+00 2.294481e+00 2.824378e+00 2.923478e+00 3.643133e+00 3.782738e+00 3.427659e+00 3.667711e+00 3.902977e+00 3.487381e+00 3.517799e+00 1.517486e+00 2.032452e-01 3.415784e-01 3.771947e-01 4.343707e-01 5.611838e-01 6.121413e-01 6.354207e-01 6.499669e-01 7.335125e-01 7.536631e-01 6.882924e-01 7.100877e-01 2.760845e-01
<GCONST> 1.276360e+02
<STATE> 4
<MEAN> 39
 4.403721e-01 -1.479717e+00 -7.825083e+00 -7.372016e+00 -7.870536e+00 -5.108894e+00 -1.903770e+00 -5.137655e+00 -3.864239e-01 1.692294e+00 -5.942394e-01 -4.216069e+00 6.780894e+01 -3.779977e-01 4.378431e-01 5.402352e-01 6.392720e-01 4.564214e-01 5.390491e-03 -1.955275e-01 2.373968e-01 -5.603367e-02 -1.315182e-01 5.237305e-02 2.207209e-01 -9.556130e-01 -1.142618e-01 6.209110e-02 1.220623e-01 2.888019e-02 -3.180971e-02 -3.896543e-02 2.148510e-02 -1.466195e-02 -1.002121e-01 -1.985890e-01 -3.666081e-03 9.511047e-02 -1.609354e-02
<VARIANCE> 39
 2.014935e+01 4.707484e+01 3.925307e+01 5.022549e+01 5.461628e+01 6.809894e+01 6.156158e+01 6.252055e+01 5.842736e+01 6.317225e+01 6.625941e+01 7.508559e+01 4.221183e+01 1.005118e+00 1.725535e+00 1.958913e+00 2.299878e+00 2.649005e+00 3.013579e+00 3.169180e+00 3.132058e+00 3.190406e+00 3.388007e+00 3.005329e+00 3.059851e+00 1.446666e+00 1.618785e-01 2.989030e-01 3.371323e-01 4.086578e-01 5.081548e-01 5.459661e-01 5.913081e-01 5.877075e-01 6.302783e-01 6.403804e-01 5.901170e-01 5.912486e-01 3.019124e-01
<GCONST> 1.239531e+02
<TRANSP> 5
 0.000000e+00 1.000000e+00 0.000000e+00 0.000000e+00 0.000000e+00
 0.000000e+00 2.408247e-01 7.591754e-01 0.000000e+00 0.000000e+00
 0.000000e+00 0.000000e+00 2.586167e-01 7.413833e-01 0.000000e+00
 0.000000e+00 0.000000e+00 0.000000e+00 4.229142e-01 5.770858e-01
 0.000000e+00 0.000000e+00 0.000000e+00 0.000000e+00 0.000000e+00
<ENDHMM>
~h "e"
<BEGINHMM>
<NUMSTATES> 5
<STATE> 2
<MEAN> 39
 -1.879407e+00 -1.147512e-01 -3.461905e-01 2.495567e+00 -9.877718e+00 -1.389956e+01 -7.534773e+00 -5.155621e+00 -1.514914e+00 -2.466654e+00 -3.713400e-02 -4.649770e-01 6.704705e+01 -2.619030e-01 -6.792814e-02 1.336986e-01 1.742930e-01 1.579589e-01 -8.403465e-02 -6.442682e-02 1.206712e-01 8.935708e-02 -5.667715e-02 -4.455670e-02 2.549347e-01 -2.638116e-01 6.461646e-03 -2.609711e-02 -2.769930e-01 -2.540697e-01 1.146241e-01 2.202179e-01 1.647488e-01 -4.368875e-02 -8.610450e-02 3.284171e-02 4.187996e-02 -7.806224e-02 8.844861e-02
<VARIANCE> 39
 2.296768e+01 3.204261e+01 4.400048e+01 4.068603e+01 8.483356e+01 7.030255e+01 4.358538e+01 4.810628e+01 4.937029e+01 5.066071e+01 4.259003e+01 4.692306e+01 4.164084e+01 1.122404e+00 2.019790e+00 2.291797e+00 2.089213e+00 4.907413e+00 4.852656e+00 2.773403e+00 2.790230e+00 3.562494e+00 3.838626e+00 2.842083e+00 2.988411e+00 2.769464e+00 2.062627e-01 3.455122e-01 3.914532e-01 4.157885e-01 9.265247e-01 8.002275e-01 5.500001e-01 5.233557e-01 6.526214e-01 6.041458e-01 5.454016e-01 6.041887e-01 5.127334e-01
<GCONST> 1.259283e+02
<STATE> 3
<MEAN> 39
 -1.852163e+00 -2.808399e-01 -6.731687e-01 2.533118e+00 -9.597839e+00 -1.384745e+01 -7.338148e+00 -5.400626e+00 -1.557310e+00 -2.417030e+00 -2.781924e-03 -3.434826e-01 6.735130e+01 -1.448799e-01 1.008307e-01 -2.271883e-01 -2.008049e-01 4.235307e-01 4.258904e-01 2.363603e-01 -1.857501e-02 -2.099830e-01 -1.179802e-01 1.021253e-01 2.833908e-02 -1.475118e-01 8.325423e-02 6.179754e-02 -2.102565e-01 -2.184544e-01 6.725071e-02 2.471388e-01 1.376019e-01 -5.671561e-02 -1.161697e-01 -3.065731e-03 3.507745e-02 -1.062678e-01 4.235240e-02
<VARIANCE> 39
 2.412503e+01 3.237151e+01 4.729542e+01 4.188874e+01 9.031625e+01 7.267888e+01 4.423194e+01 5.074848e+01 4.790568e+01 5.220757e+01 4.504647e+01 4.803542e+01 4.001314e+01 1.048101e+00 1.855840e+00 2.344471e+00 2.095096e+00 4.085140e+00 3.842996e+00 2.556426e+00 2.883285e+00 3.407363e+00 3.371357e+00 2.847179e+00 2.807430e+00 1.912660e+00 2.130625e-01 3.481007e-01 4.268175e-01 3.748205e-01 8.367001e-01 6.822205e-01 5.180702e-01 5.390486e-01 6.567911e-01 6.197877e-01 5.457680e-01 5.770432e-01 5.018895e-01
<GCONST> 1.247907e+02
<STATE> 4
<MEAN> 39
 -1.880135e+00 1.401774e-01 -1.213021e-01 1.739675e+00 -1.001034e+01 -1.340530e+01 -6.585383e+00 -5.406878e+00 -2.536930e+00 -3.166150e+00 7.223825e-01 -3.802966e-01 6.734116e+01 -3.260623e-02 2.735673e-01 -4.118057e-01 -3.876086e-01 5.688481e-01 7.315153e-01 3.874398e-01 -5.701245e-02 -2.826529e-01 -1.045617e-01 5.181912e-02 -1.452917e-01 -2.692462e-01 9.029977e-02 3.030938e-02 -1.130194e-01 -1.383926e-01 -2.712258e-02 6.864724e-02 4.651272e-02 -1.886833e-02 -1.269873e-02 8.474175e-03 -3.300037e-02 -4.369358e-02 4.519546e-02
<VARIANCE> 39
 2.371654e+01 3.128120e+01 5.229849e+01 4.181493e+01 1.023125e+02 7.532768e+01 4.508813e+01 4.966644e+01 4.607771e+01 5.719569e+01 4.828341e+01 4.464626e+01 3.463790e+01 1.011870e+00 1.540529e+00 2.036108e+00 1.946135e+00 3.471219e+00 2.754463e+00 2.361195e+00 2.700272e+00 3.144738e+00 3.080399e+00 2.946650e+00 2.695238e+00 1.733787e+00 2.138154e-01 2.798277e-01 3.565688e-01 3.262172e-01 7.033296e-01 5.356753e-01 4.450660e-01 4.808941e-01 5.560653e-01 5.811749e-01 5.200465e-01 5.107035e-01 2.970679e-01
<GCONST> 1.214078e+02
<TRANSP> 5
 0.000000e+00 1.000000e+00 0.000000e+00 0.000000e+00 0.000000e+00
 0.000000e+00 3.851767e-01 6.148233e-01 0.000000e+00 0.000000e+00
 0.000000e+00 0.000000e+00 3.395663e-01 6.604337e-01 0.000000e+00
 0.000000e+00 0.000000e+00 0.000000e+00 5.160747e-01 4.839253e-01
 0.000000e+00 0.000000e+00 0.000000e+00 0.000000e+00 0.000000e+00
<ENDHMM>
~h "f"
<BEGINHMM>
<NUMSTATES> 5
<STATE> 2
<MEAN> 39
 -1.603840e+01 -1.212659e+00 -8.985314e+00 -1.024221e+00 -3.257720e+00 -2.803952e+00 7.986237e-01 -1.186649e+00 2.306553e+00 -5.265110e-01 1.118629e+00 -3.139509e-01 6.674981e+01 2.243836e+00 -1.705148e-01 -2.151938e-01 -1.511419e+00 -7.262216e-01 5.585217e-02 5.359443e-01 1.420102e-01 -6.956648e-01 -3.105575e-01 -4.169538e-01 -3.220813e-01 3.216332e-01 1.010613e+00 1.193193e-01 -2.856294e-02 -4.909605e-01 -4.785630e-01 -6.868028e-02 6.655325e-02 -1.311395e-01 -4.046416e-01 -8.001801e-02 -5.963828e-02 -1.364566e-01 1.996620e-01
<VARIANCE> 39
 3.540993e+01 2.610149e+01 3.004921e+01 3.463436e+01 3.595532e+01 3.308100e+01 3.465774e+01 3.051359e+01 3.073234e+01 2.757712e+01 2.665751e+01 2.661769e+01 2.019221e+01 6.339481e+00 1.974931e+00 1.938357e+00 3.387573e+00 3.188281e+00 2.646583e+00 2.517412e+00 3.025543e+00 2.987403e+00 2.727962e+00 2.341923e+00 2.397725e+00 1.234131e+00 5.862826e-01 3.861647e-01 3.713251e-01 4.563702e-01 5.054117e-01 4.704215e-01 4.966062e-01 5.873121e-01 4.931692e-01 5.380714e-01 4.668801e-01 4.549931e-01 2.347731e-01
<GCONST> 1.181631e+02
<STATE> 3
<MEAN> 39
 -3.100574e+00 3.900669e-01 -9.224478e+00 -8.869941e+00 -8.483379e+00 -3.589288e+00 2.658763e+00 -1.586900e+00 -2.863590e+00 -2.655625e+00 -9.472110e-01 -1.876591e+00 6.831034e+01 4.180015e+00 -3.955858e-01 -7.048176e-01 -2.570974e+00 -2.171993e+00 -1.906623e-01 8.509668e-01 -4.196965e-01 -1.834059e+00 -3.489282e-01 -1.622289e-01 -6.982892e-01 1.475955e+00 -6.642178e-01 -4.959139e-01 -7.911348e-02 4.451691e-01 2.576864e-01 9.802382e-02 -1.142445e-01 -1.400316e-01 2.329246e-01 3.212616e-01 2.234699e-01 -8.624262e-02 1.933890e-01
<VARIANCE> 39
 5.930966e+01 2.992538e+01 3.851577e+01 6.009393e+01 4.863311e+01 4.607911e+01 4.214307e+01 4.314632e+01 3.395867e+01 3.541389e+01 3.321068e+01 4.301241e+01 2.601630e+01 3.677284e+00 3.599985e+00 3.909308e+00 4.289171e+00 4.073631e+00 3.950907e+00 4.068610e+00 5.353555e+00 3.439664e+00 3.941113e+00 3.327318e+00 3.862215e+00 1.543395e+00 9.723084e-01 4.923303e-01 3.856205e-01 6.317800e-01 7.470660e-01 5.732824e-01 4.949875e-01 5.282391e-01 6.091312e-01 5.675284e-01 4.781272e-01 4.868992e-01 2.621719e-01
<GCONST> 1.284009e+02
<STATE> 4
<MEAN> 39
 1.498420e+00 -3.545907e+00 -1.154913e+01 -1.231518e+01 -1.093673e+01 -3.048261e+00 4.281365e+00 -2.863069e+00 -4.721649e+00 -1.802087e+00 -5.244887e-01 -3.693860e+00 7.251140e+01 1.494980e+00 -1.557612e+00 -5.028166e-01 -7.946532e-01 -5.832735e-01 3.008329e-01 3.188546e-01 -5.156369e-01 -4.875347e-01 4.757119e-01 6.526627e-03 -8.052813e-01 1.250203e+00 -1.126980e+00 -4.990353e-02 3.004635e-01 9.049327e-01 7.773691e-01 8.510213e-02 -3.944555e-01 2.320336e-02 5.735822e-01 2.501831e-01 -2.241212e-02 6.735766e-02 -4.390128e-01
<VARIANCE> 39
 3.232353e+01 4.128747e+01 5.339017e+01 6.200319e+01 4.407778e+01 5.985846e+01 5.386952e+01 6.191720e+01 3.691989e+01 4.837967e+01 4.264140e+01 6.412377e+01 2.871953e+01 3.555728e+00 2.835778e+00 2.903633e+00 2.859302e+00 4.078418e+00 3.527440e+00 3.099521e+00 3.240463e+00 3.966938e+00 3.958314e+00 3.101546e+00 3.017993e+00 1.534847e+00 5.577555e-01 4.941591e-01 3.574080e-01 5.609151e-01 6.192201e-01 6.267774e-01 5.996338e-01 7.343320e-01 5.319692e-01 5.883727e-01 5.261687e-01 5.881683e-01 2.079229e-01
<GCONST> 1.279796e+02
<TRANSP> 5
 0.000000e+00 1.000000e+00 0.000000e+00 0.000000e+00 0.000000e+00
 0.000000e+00 7.155381e-01 2.844619e-01 0.000000e+00 0.000000e+00
 0.000000e+00 0.000000e+00 3.427615e-01 6.572385e-01 0.000000e+00
 0.000000e+00 0.000000e+00 0.000000e+00 3.895810e-01 6.104190e-01
 0.000000e+00 0.000000e+00 0.000000e+00 0.000000e+00 0.000000e+00
<ENDHMM>
~h "h"
<BEGINHMM>
<NUMSTATES> 5
<STATE> 2
<MEAN> 39
 -3.489779e+00 -1.144352e+00 -6.125412e+00 -8.115439e+00 -5.635160e+00 -2.774742e+00 4.683863e+00 -8.621578e-01 -6.129488e-01 -1.340333e+00 -3.088582e+00 -3.093617e+00 6.885323e+01 3.450911e-01 4.667311e-01 5.971000e-01 3.814921e-02 -8.491299e-01 -8.370759e-01 -1.962154e-01 -2.141605e-01 -3.619118e-01 -3.799572e-01 -1.523253e-01 -9.679090e-02 4.508908e-01 1.550279e-01 1.070194e-01 5.291842e-02 -4.317671e-02 -2.961250e-01 -1.946595e-01 -1.962941e-01 -2.530753e-01 -1.794517e-01 -5.305907e-02 1.630420e-01 9.239077e-02 9.690173e-03
<VARIANCE> 39
 2.817478e+01 6.773952e+01 5.388665e+01 6.801167e+01 6.973578e+01 7.393050e+01 5.823779e+01 6.115177e+01 5.335559e+01 5.164920e+01 5.307553e+01 5.702377e+01 3.326121e+01 2.531122e+00 2.674871e+00 2.603805e+00 3.229770e+00 4.529099e+00 3.937365e+00 3.488003e+00 3.998031e+00 3.599468e+00 2.986206e+00 3.553590e+00 3.244000e+00 1.350538e+00 3.123861e-01 4.597864e-01 3.125454e-01 4.199441e-01 6.312699e-01 6.509921e-01 6.205384e-01 6.824715e-01 6.513926e-01 5.437431e-01 6.626561e-01 6.053497e-01 1.427964e-01
<GCONST> 1.286655e+02
<STATE> 3
<MEAN> 39
 -2.020809e+00 2.570269e-01 -3.409415e+00 -6.218735e+00 -8.395220e+00 -6.465261e+00 3.129802e+00 -1.701898e+00 -1.710363e+00 -2.057346e+00 -3.086643e+00 -3.625500e+00 7.041039e+01 3.340372e-01 5.284268e-01 7.447774e-01 4.592402e-02 -1.265839e+00 -9.489599e-01 -5.570141e-01 -7.241921e-01 -6.597463e-01 -3.895102e-01 4.933046e-01 2.513504e-01 1.955373e-01 1.249495e-02 -2.777249e-02 -8.109102e-02 -6.012660e-02 -3.952701e-02 4.529525e-02 -1.265606e-01 -2.386455e-01 -6.872059e-02 4.131547e-02 1.675746e-01 4.902224e-02 -8.114821e-02
<VARIANCE> 39
 2.496646e+01 5.744247e+01 6.385254e+01 7.453137e+01 7.273362e+01 7.223482e+01 5.754037e+01 6.619418e+01 5.903222e+01 5.696954e+01 5.330849e+01 5.749216e+01 3.128267e+01 1.520044e+00 1.884729e+00 2.490710e+00 2.678262e+00 3.091403e+00 3.164851e+00 3.096552e+00 3.674068e+00 3.314707e+00 2.907387e+00 3.455012e+00 2.975856e+00 1.126533e+00 2.449778e-01 3.448346e-01 2.554274e-01 3.798343e-01 6.407125e-01 5.655656e-01 5.412157e-01 6.751521e-01 6.516349e-01 5.138755e-01 6.003715e-01 5.301729e-01 1.295230e-01
<GCONST> 1.250856e+02
<STATE> 4
<MEAN> 39
 -1.591657e+00 1.952645e+00 -2.973264e-01 -5.460552e+00 -1.198279e+01 -9.617223e+00 1.575439e+00 -5.419662e+00 -4.182666e+00 -3.268823e+00 -1.433222e+00 -3.264707e+00 7.073660e+01 2.069556e-01 3.894832e-01 4.581512e-01 5.870554e-02 -7.660983e-01 -5.150245e-01 -5.350236e-01 -8.081915e-01 -5.987889e-01 -2.205775e-01 4.904840e-01 1.749901e-01 -4.004929e-02 -2.354149e-02 -6.857976e-02 -1.054379e-01 5.048092e-02 1.599080e-01 8.061936e-02 -1.650426e-02 2.089288e-02 6.203127e-02 3.593623e-02 -1.563437e-02 -4.031948e-02 -6.143760e-02
<VARIANCE> 39
 2.339637e+01 5.107375e+01 7.785801e+01 8.275623e+01 7.371041e+01 7.184180e+01 6.179076e+01 7.960402e+01 6.189710e+01 5.732898e+01 5.124634e+01 5.721075e+01 3.085924e+01 6.990891e-01 1.481298e+00 1.745322e+00 1.818319e+00 2.422569e+00 2.334415e+00 2.431806e+00 2.979192e+00 2.714972e+00 2.381137e+00 2.860900e+00 2.425526e+00 6.316239e-01 1.288594e-01 2.088541e-01 1.946421e-01 3.002922e-01 4.336565e-01 4.054040e-01 4.500598e-01 4.794502e-01 4.594733e-01 4.162891e-01 5.092997e-01 4.202790e-01 8.897991e-02
<GCONST> 1.171016e+02
<TRANSP> 5
 0.000000e+00 1.000000e+00 0.000000e+00 0.000000e+00 0.000000e+00
 0.000000e+00 5.641204e-01 4.358796e-01 0.000000e+00 0.000000e+00
 0.000000e+00 0.000000e+00 3.475281e-01 6.524720e-01 0.000000e+00
 0.000000e+00 0.000000e+00 0.000000e+00 5.589136e-01 4.410863e-01
 0.000000e+00 0.000000e+00 0.000000e+00 0.000000e+00 0.000000e+00
<ENDHMM>
~h "i"
<BEGINHMM>
<NUMSTATES> 5
<STATE> 2
<MEAN> 39
 -3.800904e+00 2.503012e+00 5.982498e+00 3.799491e+00 -1.205110e+01 -1.373938e+01 -3.533285e+00 -7.061481e+00 -4.940047e+00 -7.474652e+00 -5.999918e-01 -2.397950e+00 6.802011e+01 2.952610e-02 5.135329e-01 9.552774e-01 5.656743e-01 -7.183932e-01 -6.587677e-01 2.588333e-01 -1.574469e-01 -8.309621e-01 -7.941446e-01 3.995853e-01 2.571300e-01 -1.142410e-01 -2.008132e-02 -7.992337e-03 -4.002656e-01 -2.482612e-01 3.546622e-01 3.888471e-01 3.526643e-02 6.873736e-02 1.145904e-01 3.301205e-01 2.658734e-02 -3.317498e-02 -1.782175e-01
<VARIANCE> 39
 2.328616e+01 3.521212e+01 4.957343e+01 4.897340e+01 7.544149e+01 6.282697e+01 5.571291e+01 6.597814e+01 6.792051e+01 5.494297e+01 4.705606e+01 4.314818e+01 2.481292e+01 1.691601e+00 1.755336e+00 3.023355e+00 2.092628e+00 4.148048e+00 4.651654e+00 3.483438e+00 3.815134e+00 3.799030e+00 3.547655e+00 3.249108e+00 2.829580e+00 1.341255e+00 3.151345e-01 3.101525e-01 3.989102e-01 3.981820e-01 8.060769e-01 8.599529e-01 6.842882e-01 6.993158e-01 8.016455e-01 7.150109e-01 6.595770e-01 5.835661e-01 1.923405e-01
<GCONST> 1.270710e+02
<STATE> 3
<MEAN> 39
 -3.604747e+00 3.621898e+00 6.917068e+00 4.346158e+00 -1.269351e+01 -1.413406e+01 -3.121375e+00 -7.519364e+00 -6.562465e+00 -8.155896e+00 1.978921e-01 -2.238497e+00 6.735168e+01 7.634763e-02 3.990557e-01 -6.670360e-02 4.369170e-02 2.642868e-01 2.360978e-01 2.169880e-02 3.576773e-02 -2.666295e-01 -4.769728e-03 2.119688e-01 1.129502e-01 -5.169765e-01 -1.803144e-02 -9.850001e-02 -4.271771e-01 -2.615236e-01 3.790556e-01 3.763330e-01 -6.967648e-02 1.003700e-01 2.562979e-01 3.224455e-01 -1.021228e-01 -3.707727e-02 -1.238275e-01
<VARIANCE> 39
 1.938954e+01 3.228836e+01 4.425301e+01 5.006452e+01 7.281480e+01 5.848362e+01 5.057984e+01 6.089648e+01 6.158395e+01 5.208524e+01 4.427748e+01 4.342556e+01 2.372370e+01 1.131104e+00 1.435216e+00 2.758312e+00 1.771974e+00 3.788277e+00 4.179994e+00 3.114273e+00 3.154930e+00 3.498616e+00 3.160051e+00 2.602392e+00 2.528166e+00 1.189448e+00 1.845715e-01 2.536856e-01 3.418080e-01 3.582080e-01 6.106923e-01 7.025394e-01 5.814052e-01 6.193672e-01 6.455514e-01 5.985094e-01 5.398415e-01 5.058521e-01 1.684375e-01
<GCONST> 1.215301e+02
<STATE> 4
<MEAN> 39
 -3.457735e+00 4.683531e+00 5.833084e+00 3.956482e+00 -1.095977e+01 -1.258689e+01 -3.545471e+00 -7.367614e+00 -6.966973e+00 -7.356346e+00 3.646025e-01 -2.145192e+00 6.548685e+01 -2.251618e-03 7.546138e-02 -7.506780e-01 -4.292229e-01 7.813133e-01 7.628860e-01 -5.161033e-02 2.933146e-01 2.598566e-01 4.732496e-01 -2.370414e-02 1.198353e-01 -5.625719e-01 -3.731376e-02 -1.196983e-01 -1.637557e-01 -1.609702e-01 5.709730e-02 1.272109e-01 2.994473e-02 3.163366e-02 1.376286e-01 1.239277e-01 -5.748899e-02 -1.766454e-02 5.691267e-02
<VARIANCE> 39
 2.175807e+01 3.030062e+01 4.123481e+01 4.514323e+01 7.256965e+01 5.742741e+01 4.671755e+01 5.295508e+01 5.489060e+01 4.540222e+01 4.081660e+01 3.973882e+01 2.729329e+01 9.542676e-01 1.348135e+00 2.096260e+00 1.808013e+00 2.983609e+00 3.394438e+00 2.537390e+00 2.937574e+00 3.308473e+00 2.766981e+00 2.303241e+00 2.238844e+00 9.855436e-01 1.340419e-01 1.983766e-01 3.075627e-01 3.047462e-01 5.374994e-01 5.878971e-01 4.867447e-01 5.150933e-01 5.393392e-01 4.841859e-01 4.470918e-01 4.570828e-01 1.852865e-01
<GCONST> 1.169669e+02
<TRANSP> 5
 0.000000e+00 1.000000e+00 0.000000e+00 0.000000e+00 0.000000e+00
 0.000000e+00 4.003539e-01 5.996460e-01 0.000000e+00 0.000000e+00
 0.000000e+00 0.000000e+00 4.127508e-01 5.872491e-01 0.000000e+00
 0.000000e+00 0.000000e+00 0.000000e+00 6.510772e-01 3.489228e-01
 0.000000e+00 0.000000e+00 0.000000e+00 0.000000e+00 0.000000e+00
<ENDHMM>
~h "k"
<BEGINHMM>
<NUMSTATES> 5
<STATE> 2
<MEAN> 39
 -9.430614e+00 -2.021671e+00 -5.650863e+00 -6.288052e+00 -3.670382e+00 -3.004330e+00 -2.273046e+00 -3.196590e+00 8.769763e-01 -6.756744e-01 1.861189e+00 -8.441809e-01 6.568082e+01 7.594340e-01 -5.977765e-03 3.579991e-01 -4.415005e-01 -8.154853e-01 -4.542728e-01 3.125716e-02 -6.557791e-01 -6.218466e-01 -1.095370e-01 -4.778804e-01 -7.104969e-01 1.236094e+00 5.189500e-01 2.760169e-01 2.867554e-01 1.586397e-01 -3.995732e-01 -3.843893e-01 -4.441449e-02 -1.390441e-01 -2.496537e-01 -8.377795e-02 -1.232428e-01 -6.854757e-02 -6.497726e-04
<VARIANCE> 39
 3.796883e+01 5.015211e+01 6.771877e+01 5.939308e+01 6.895881e+01 6.313678e+01 5.310575e+01 4.728319e+01 5.038527e+01 4.907640e+01 4.641832e+01 4.498393e+01 5.040395e+01 5.234766e+00 4.439183e+00 5.060184e+00 4.589046e+00 5.527148e+00 5.712306e+00 4.819531e+00 4.935214e+00 5.041988e+00 4.684266e+00 4.556222e+00 3.952892e+00 3.117696e+00 6.410958e-01 8.411130e-01 8.481723e-01 8.066139e-01 1.053499e+00 9.746982e-01 8.899895e-01 8.864996e-01 8.869799e-01 8.259234e-01 8.369889e-01 7.427763e-01 7.412431e-01
<GCONST> 1.409216e+02
<STATE> 3
<MEAN> 39
 -4.043604e+00 -2.795607e-01 -4.259050e+00 -7.291589e+00 -7.339506e+00 -5.849968e+00 -2.617688e+00 -5.208213e+00 -1.814701e+00 -1.603006e+00 -3.449777e-01 -3.323935e+00 6.881236e+01 2.073598e+00 5.446508e-01 7.013135e-01 4.260860e-03 -1.799755e+00 -1.332596e+00 -2.931882e-02 -7.518091e-01 -9.945242e-01 -1.834917e-01 -5.274025e-01 -5.820232e-01 8.542918e-01 -1.415042e-01 -1.387444e-01 -1.447346e-01 1.314573e-01 -6.002437e-03 -1.786280e-02 -8.010091e-03 6.932902e-02 1.666141e-01 3.794068e-02 2.076342e-01 2.287649e-01 -1.429613e-01
<VARIANCE> 39
 4.678680e+01 5.599112e+01 7.508332e+01 5.607938e+01 6.611089e+01 6.963977e+01 5.313438e+01 5.687841e+01 5.361727e+01 5.852821e+01 5.308618e+01 5.349996e+01 3.692659e+01 3.066432e+00 3.661008e+00 3.666114e+00 4.096820e+00 4.657916e+00 5.504540e+00 5.141044e+00 5.099010e+00 5.024234e+00 4.835584e+00 4.432967e+00 4.233713e+00 1.299818e+00 7.194839e-01 5.983645e-01 5.836451e-01 6.168994e-01 8.962104e-01 9.497528e-01 7.448449e-01 8.649133e-01 8.389313e-01 8.005394e-01 7.740276e-01 6.550940e-01 2.940802e-01
<GCONST> 1.372101e+02
<STATE> 4
<MEAN> 39
 -1.400738e+00 -1.142264e-01 -3.622182e+00 -7.224919e+00 -1.022636e+01 -7.831656e+00 -2.726063e+00 -6.071294e+00 -2.757919e+00 -1.806836e+00 -4.161680e-01 -3.723035e+00 7.011771e+01 1.292858e+00 1.480293e-01 3.136171e-01 1.860219e-01 -1.394395e+00 -1.027044e+00 -1.535715e-02 -5.047798e-01 -4.871969e-01 -6.028167e-02 -8.225822e-02 -1.329272e-01 5.633725e-01 -4.910995e-01 -1.573529e-01 -1.813048e-01 1.292085e-01 3.628658e-01 2.544275e-01 1.760182e-02 1.602731e-01 2.597885e-01 4.870523e-02 1.854367e-01 2.178354e-01 -2.422927e-01
<VARIANCE> 39
 3.683727e+01 6.495495e+01 8.866178e+01 6.224231e+01 6.840377e+01 7.649025e+01 5.447713e+01 6.321888e+01 5.950381e+01 6.422060e+01 5.411325e+01 6.243484e+01 3.586130e+01 2.351191e+00 3.010523e+00 3.055964e+00 3.510138e+00 4.094632e+00 4.979175e+00 4.286955e+00 4.140604e+00 4.358159e+00 3.816206e+00 3.779681e+00 3.493954e+00 1.215940e+00 4.782118e-01 4.860554e-01 5.013912e-01 5.460583e-01 7.610185e-01 8.355783e-01 7.327589e-01 8.241654e-01 8.122153e-01 8.142922e-01 7.150504e-01 6.430584e-01 2.069998e-01
<GCONST> 1.340652e+02
<TRANSP> 5
 0.000000e+00 1.000000e+00 0.000000e+00 0.000000e+00 0.000000e+00
 0.000000e+00 6.476673e-01 3.523327e-01 0.000000e+00 0.000000e+00
 0.000000e+00 0.000000e+00 2.761727e-01 7.238272e-01 0.000000e+00
 0.000000e+00 0.000000e+00 0.000000e+00 2.105470e-01 7.894530e-01
 0.000000e+00 0.000000e+00 0.000000e+00 0.000000e+00 0.000000e+00
<ENDHMM>
~h "m"
<BEGINHMM>
<NUMSTATES> 5
<STATE> 2
<MEAN> 39
 1.860843e+00 6.969647e+00 -1.037532e+00 -1.287498e+00 -5.312369e+00 -4.472116e+00 -8.515675e-01 -7.209471e+00 -1.056072e+01 -1.087311e+01 -4.797322e+00 -2.044993e+00 6.475945e+01 4.603196e-01 -6.075447e-01 -1.425546e+00 -1.632898e+00 -1.060844e+00 2.214820e-01 7.381238e-01 -2.527303e-02 6.951723e-01 6.955554e-01 -2.553207e-02 -3.268545e-02 9.398758e-01 -1.981344e-02 -4.218387e-01 -4.902029e-01 -4.937421e-01 -2.716946e-01 1.098640e-01 1.780519e-01 7.659502e-02 5.813282e-01 7.312052e-01 2.171521e-01 -1.347212e-01 2.614409e-01
<VARIANCE> 39
 8.679815e+00 3.079174e+01 3.536494e+01 4.589852e+01 5.021395e+01 4.488586e+01 5.317691e+01 5.315467e+01 4.535464e+01 5.414351e+01 4.387708e+01 4.104759e+01 2.215225e+01 5.681838e-01 1.408436e+00 2.679718e+00 3.886347e+00 2.987664e+00 2.514874e+00 3.066367e+00 3.104690e+00 3.767663e+00 4.752940e+00 3.072868e+00 2.597018e+00 8.528461e-01 1.032448e-01 2.317348e-01 3.952150e-01 6.003039e-01 5.248381e-01 4.823342e-01 6.073405e-01 5.944933e-01 7.236897e-01 7.690795e-01 6.804494e-01 5.876883e-01 1.270131e-01
<GCONST> 1.187886e+02
<STATE> 3
<MEAN> 39
 3.300651e+00 3.440966e+00 -7.768068e+00 -9.137638e+00 -1.007474e+01 -3.879744e+00 2.024261e+00 -6.519546e+00 -6.008527e+00 -5.299457e+00 -3.743030e+00 -2.470619e+00 6.857722e+01 2.434869e-01 -1.749087e+00 -2.246526e+00 -2.318346e+00 -1.073425e+00 8.939011e-01 1.207259e+00 -2.760230e-02 1.664021e+00 2.291960e+00 4.267178e-01 -5.723716e-01 1.458268e+00 -2.146576e-01 -1.490794e-01 3.983965e-01 5.757222e-01 3.950141e-01 2.272369e-02 -2.596134e-01 -1.593351e-02 -2.877235e-02 -1.986301e-02 2.131432e-02 -1.730901e-01 -1.269214e-01
<VARIANCE> 39
 8.825200e+00 4.218502e+01 4.277880e+01 5.477251e+01 5.064443e+01 5.187217e+01 6.312983e+01 6.490104e+01 4.334866e+01 5.734909e+01 4.706767e+01 4.840538e+01 2.313832e+01 6.064657e-01 2.154340e+00 2.577427e+00 4.444242e+00 4.381870e+00 4.609283e+00 4.722306e+00 4.854988e+00 5.345432e+00 5.299609e+00 5.594975e+00 4.826419e+00 9.750247e-01 9.449961e-02 2.846687e-01 4.971800e-01 7.517066e-01 6.092855e-01 6.574345e-01 7.448166e-01 6.471996e-01 8.120971e-01 8.671263e-01 7.315902e-01 5.674565e-01 1.540754e-01
<GCONST> 1.263525e+02
<STATE> 4
<MEAN> 39
 2.867755e+00 -1.239139e+00 -1.088027e+01 -1.168343e+01 -9.994613e+00 -1.310526e+00 3.108624e+00 -7.391383e+00 -3.384624e+00 -2.065836e+00 -3.628100e+00 -5.013710e+00 7.139320e+01 -2.137147e-01 -1.246973e+00 -5.746688e-01 -3.378637e-01 -5.779041e-02 3.434632e-01 8.363815e-02 5.066381e-02 1.016044e+00 1.206307e+00 2.595895e-01 -6.062816e-01 6.596979e-01 -1.383600e-01 3.562812e-01 6.630177e-01 7.157131e-01 2.815602e-01 -3.677511e-01 -4.571102e-01 1.011667e-01 -2.979386e-01 -4.658237e-01 -3.139874e-02 1.390384e-01 -3.972266e-01
<VARIANCE> 39
 1.016851e+01 5.529803e+01 3.644027e+01 4.927313e+01 5.454665e+01 6.686503e+01 7.247855e+01 8.003224e+01 5.571925e+01 6.294150e+01 6.331956e+01 6.425442e+01 2.561556e+01 5.419160e-01 2.174764e+00 2.190276e+00 3.167227e+00 3.020810e+00 4.259449e+00 3.859087e+00 3.814478e+00 4.907957e+00 4.747609e+00 4.434403e+00 3.759869e+00 1.077284e+00 9.651397e-02 3.110420e-01 4.170603e-01 5.578935e-01 5.898967e-01 6.983345e-01 7.233584e-01 6.977699e-01 7.292980e-01 7.958761e-01 7.461804e-01 6.622229e-01 1.401951e-01
<GCONST> 1.257201e+02
<TRANSP> 5
 0.000000e+00 1.000000e+00 0.000000e+00 0.000000e+00 0.000000e+00
 0.000000e+00 6.489093e-01 3.510907e-01 0.000000e+00 0.000000e+00
 0.000000e+00 0.000000e+00 3.631413e-01 6.368587e-01 0.000000e+00
 0.000000e+00 0.000000e+00 0.000000e+00 4.395299e-01 5.604700e-01
 0.000000e+00 0.000000e+00 0.000000e+00 0.000000e+00 0.000000e+00
<ENDHMM>
~h "n"
<BEGINHMM>
<NUMSTATES> 5
<STATE> 2
<MEAN> 39
 2.318900e+00 2.638929e+00 -3.391690e+00 -1.853182e+00 -7.355210e+00 -7.353345e+00 -4.980489e+00 -8.313365e+00 -6.281854e+00 -4.284657e+00 -2.862062e+00 -4.490851e+00 6.694085e+01 -6.306383e-02 1.100532e+00 1.200597e+00 1.058083e+00 1.083636e+00 -3.373385e-01 -1.211480e+00 -4.134734e-01 -9.016704e-01 -4.455928e-01 1.196960e-01 -2.436282e-01 -9.820827e-01 -7.762394e-02 -1.397320e-01 -1.749837e-01 -3.030484e-01 -2.343606e-01 -4.021207e-02 2.359773e-01 1.948062e-01 1.986468e-01 7.726584e-02 -5.346499e-04 2.232153e-02 1.969709e-01
<VARIANCE> 39
 9.479953e+00 4.132281e+01 4.248119e+01 4.806530e+01 5.141744e+01 5.175795e+01 5.506731e+01 4.909853e+01 5.488208e+01 5.621227e+01 4.467385e+01 5.277390e+01 2.530684e+01 4.428957e-01 1.918689e+00 2.395746e+00 2.479739e+00 2.925319e+00 2.987996e+00 3.774076e+00 3.392358e+00 3.799672e+00 3.490992e+00 3.074206e+00 3.561148e+00 8.396678e-01 7.849605e-02 3.339013e-01 3.722552e-01 2.873406e-01 5.120499e-01 4.378767e-01 5.797610e-01 5.813709e-01 7.150611e-01 6.518660e-01 4.983886e-01 6.038109e-01 1.531458e-01
<GCONST> 1.189293e+02
<STATE> 3
<MEAN> 39
 2.130824e+00 4.932001e+00 -1.156187e+00 -2.320287e-01 -5.635590e+00 -8.394655e+00 -6.830695e+00 -8.499889e+00 -7.376658e+00 -4.549783e+00 -2.155564e+00 -4.870168e+00 6.517593e+01 -1.087642e-01 1.129028e-01 1.116436e-01 1.827164e-01 2.217700e-01 -3.131108e-01 -3.628835e-01 -2.353251e-02 1.179846e-01 1.085806e-01 1.210817e-01 -1.063869e-01 -7.155363e-02 4.395086e-03 -4.688334e-01 -5.598699e-01 -3.961130e-01 -4.319089e-01 9.161820e-02 4.847077e-01 1.744899e-01 4.009044e-01 2.627148e-01 -6.313966e-02 6.923963e-02 4.080406e-01
<VARIANCE> 39
 8.515139e+00 3.335746e+01 2.982193e+01 3.950321e+01 4.155613e+01 3.926608e+01 5.363652e+01 4.700795e+01 4.965517e+01 4.941680e+01 3.982387e+01 4.795762e+01 2.153839e+01 3.349222e-01 1.912272e+00 2.800277e+00 2.086381e+00 2.568669e+00 2.064810e+00 3.154546e+00 2.756763e+00 3.325961e+00 3.255791e+00 2.441046e+00 2.675150e+00 8.758084e-01 6.669926e-02 3.049720e-01 3.780725e-01 3.474521e-01 5.299057e-01 4.452357e-01 6.789976e-01 6.762464e-01 6.659315e-01 6.779774e-01 5.735524e-01 6.072915e-01 1.038978e-01
<GCONST> 1.150732e+02
<STATE> 4
<MEAN> 39
 1.633581e+00 2.288917e+00 -2.950359e+00 -1.386193e+00 -7.781844e+00 -9.054090e+00 -5.666680e+00 -7.873936e+00 -4.744967e+00 -3.339614e+00 -2.855087e+00 -5.645999e+00 6.746883e+01 -7.170215e-02 -8.858823e-01 -1.148636e+00 -7.732702e-01 -7.455428e-01 1.725178e-01 1.102011e+00 4.293084e-01 8.026892e-01 7.154320e-01 -1.610033e-01 -1.042553e-02 7.702268e-01 -5.879253e-03 -8.980628e-03 -1.269242e-01 -2.422706e-01 -2.074117e-01 1.265044e-01 3.030497e-01 1.718723e-01 9.889156e-02 4.675025e-03 -6.233642e-02 5.269198e-02 5.791107e-02
<VARIANCE> 39
 1.060607e+01 4.501020e+01 4.851958e+01 4.112127e+01 6.059212e+01 4.350879e+01 5.571233e+01 5.573406e+01 5.647726e+01 6.882693e+01 5.108766e+01 5.051333e+01 2.811308e+01 3.959635e-01 2.189286e+00 3.148681e+00 2.731241e+00 3.458078e+00 3.029402e+00 4.626314e+00 3.996194e+00 4.250290e+00 4.234658e+00 3.556772e+00 3.323178e+00 9.444739e-01 5.527777e-02 4.745028e-01 5.807154e-01 4.475865e-01 6.476409e-01 5.269892e-01 8.528691e-01 6.724564e-01 7.689075e-01 7.434686e-01 6.610627e-01 5.471346e-01 2.063938e-01
<GCONST> 1.236240e+02
<TRANSP> 5
 0.000000e+00 1.000000e+00 0.000000e+00 0.000000e+00 0.000000e+00
 0.000000e+00 4.908143e-01 5.091857e-01 0.000000e+00 0.000000e+00
 0.000000e+00 0.000000e+00 5.560209e-01 4.439791e-01 0.000000e+00
 0.000000e+00 0.000000e+00 0.000000e+00 7.100964e-01 2.899036e-01
 0.000000e+00 0.000000e+00 0.000000e+00 0.000000e+00 0.000000e+00
<ENDHMM>
~h "o"
<BEGINHMM>
<NUMSTATES> 5
<STATE> 2
<MEAN> 39
 3.119804e+00 5.249583e+00 -7.796668e+00 -1.149373e+01 -1.431335e+01 -7.194561e+00 1.765276e+00 -4.682665e+00 -4.427730e+00 -2.711034e+00 -2.104690e+00 -1.550199e+00 6.744669e+01 2.325708e-01 3.344292e-01 -1.768658e-01 -5.660489e-01 -6.806606e-01 1.526646e-01 8.285258e-01 3.251435e-01 -1.406208e-01 -1.920339e-01 -1.639530e-01 2.172131e-01 -1.295630e-01 -2.373324e-01 -1.528473e-01 1.923193e-01 4.235286e-01 5.269871e-01 1.642910e-01 -1.290119e-01 -5.466966e-02 4.513885e-03 1.240398e-03 3.693528e-02 -9.987208e-02 -1.335456e-01
<VARIANCE> 39
 1.124597e+01 4.322943e+01 2.984009e+01 4.560249e+01 6.643511e+01 5.166546e+01 5.952656e+01 5.639220e+01 5.636224e+01 4.939614e+01 5.319225e+01 4.844725e+01 2.586197e+01 8.019575e-01 1.435925e+00 1.690932e+00 3.629939e+00 4.392533e+00 3.292826e+00 4.263052e+00 3.381256e+00 3.557002e+00 3.126989e+00 3.325130e+00 2.746983e+00 7.749770e-01 1.577183e-01 2.665063e-01 3.613827e-01 4.358912e-01 7.527921e-01 5.931813e-01 6.920278e-01 6.152043e-01 7.478434e-01 6.282550e-01 6.782169e-01 6.089365e-01 1.139522e-01
<GCONST> 1.215504e+02
<STATE> 3
<MEAN> 39
 3.108032e+00 5.472408e+00 -7.794954e+00 -1.131290e+01 -1.389510e+01 -6.353069e+00 3.051033e+00 -4.152874e+00 -4.901574e+00 -2.982325e+00 -1.898916e+00 -1.364656e+00 6.684564e+01 -2.138739e-01 -3.074522e-02 2.107158e-01 4.616760e-01 6.231974e-01 3.531572e-01 1.682497e-01 -2.159478e-03 -1.129853e-01 -8.774161e-02 9.222084e-02 4.246035e-02 -3.714617e-01 -2.203335e-01 -1.738896e-01 1.960513e-01 4.471902e-01 5.361950e-01 4.116288e-02 -3.617236e-01 -1.408811e-01 7.943740e-02 7.429668e-02 5.129204e-02 -9.330385e-02 -9.974238e-02
<VARIANCE> 39
 1.203585e+01 3.918999e+01 2.799231e+01 4.238161e+01 5.793805e+01 4.842828e+01 5.926041e+01 5.649381e+01 5.292027e+01 5.037948e+01 5.451838e+01 4.854465e+01 2.666047e+01 7.461004e-01 1.598503e+00 1.813298e+00 3.454461e+00 4.627028e+00 3.313597e+00 4.069774e+00 3.617019e+00 3.706553e+00 3.190922e+00 3.554950e+00 2.983065e+00 7.638826e-01 1.302282e-01 2.195524e-01 3.202539e-01 4.149280e-01 6.411948e-01 5.478354e-01 6.139461e-01 5.720238e-01 6.488684e-01 6.003236e-01 6.707978e-01 5.757789e-01 1.091726e-01
<GCONST> 1.202383e+02
<STATE> 4
<MEAN> 39
 2.170539e+00 5.206752e+00 -6.900977e+00 -9.352814e+00 -1.125404e+01 -5.364532e+00 2.619474e+00 -4.307090e+00 -5.016244e+00 -2.905208e+00 -1.306581e+00 -1.439647e+00 6.556765e+01 -5.670503e-01 -3.464304e-01 4.811491e-01 1.116023e+00 1.343942e+00 2.979302e-01 -5.324718e-01 -2.443265e-01 9.458536e-02 1.345650e-01 1.580457e-01 -7.562932e-02 -4.913052e-01 -8.893178e-02 -7.735975e-02 9.416169e-02 1.554718e-01 6.553073e-02 -1.122857e-01 -2.460591e-01 -3.610723e-02 8.659853e-02 3.650854e-02 -4.209289e-02 -4.931189e-02 2.000136e-03
<VARIANCE> 39
 1.435484e+01 3.691118e+01 2.956084e+01 4.382911e+01 5.680301e+01 4.764816e+01 5.800460e+01 5.978841e+01 4.967355e+01 4.947923e+01 5.175285e+01 4.636232e+01 3.156685e+01 8.445375e-01 1.514036e+00 1.926552e+00 3.251651e+00 3.964371e+00 3.326483e+00 3.804214e+00 3.475083e+00 3.448049e+00 3.098617e+00 3.297609e+00 3.012111e+00 7.925403e-01 1.372829e-01 2.441365e-01 3.269409e-01 4.302044e-01 7.226813e-01 5.259404e-01 5.679730e-01 5.766029e-01 6.030200e-01 6.030254e-01 6.410490e-01 5.687273e-01 1.327951e-01
<GCONST> 1.204068e+02
<TRANSP> 5
 0.000000e+00 1.000000e+00 0.000000e+00 0.000000e+00 0.000000e+00
 0.000000e+00 4.233263e-01 5.766737e-01 0.000000e+00 0.000000e+00
 0.000000e+00 0.000000e+00 3.804775e-01 6.195225e-01 0.000000e+00
 0.000000e+00 0.000000e+00 0.000000e+00 4.573071e-01 5.426930e-01
 0.000000e+00 0.000000e+00 0.000000e+00 0.000000e+00 0.000000e+00
<ENDHMM>
~h "p"
<BEGINHMM>
<NUMSTATES> 5
<STATE> 2
<MEAN> 39
 -4.675595e+00 -5.040345e-01 -7.091579e+00 -8.705702e+00 -5.688760e+00 -1.249309e+00 2.549729e+00 -6.607134e-01 -4.418230e-01 -7.817002e-01 -6.517595e-01 -1.573872e+00 6.395790e+01 4.296407e-01 -3.511432e-01 -3.686433e-01 -8.085463e-01 -8.292828e-01 -2.613206e-01 1.434920e-01 -3.538842e-01 -4.162082e-01 -3.724748e-01 -2.643876e-01 -2.060761e-01 1.253541e+00 1.445251e-01 5.489692e-02 3.661957e-02 3.730299e-02 -1.394456e-01 -7.659550e-02 -1.482534e-01 -1.100173e-01 -1.085024e-01 -3.000445e-02 4.663409e-02 1.147196e-02 1.193635e-01
<VARIANCE> 39
 3.102114e+01 4.263398e+01 2.699214e+01 5.149887e+01 4.475225e+01 5.872181e+01 4.912891e+01 4.109900e+01 3.310543e+01 3.558783e+01 3.546528e+01 3.414996e+01 6.916714e+01 4.534316e+00 4.159190e+00 2.152288e+00 3.908611e+00 5.226551e+00 4.542400e+00 4.173166e+00 4.074022e+00 3.673264e+00 3.722289e+00 3.409285e+00 3.076860e+00 4.359658e+00 6.491411e-01 7.969249e-01 4.237536e-01 6.371805e-01 7.808250e-01 8.372816e-01 7.544957e-01 7.599073e-01 6.452583e-01 7.108313e-01 6.081191e-01 5.344064e-01 8.343946e-01
<GCONST> 1.324649e+02
<STATE> 3
<MEAN> 39
 -1.833588e+00 -1.411202e+00 -7.856026e+00 -1.144358e+01 -9.068132e+00 -2.760560e+00 2.706227e+00 -3.074744e+00 -2.669753e+00 -2.038388e+00 -1.949013e+00 -2.260257e+00 6.939551e+01 8.138769e-01 3.528965e-02 -5.238311e-02 -2.812696e-01 -8.590221e-01 -3.469052e-01 -4.735132e-01 -6.596378e-01 -5.332224e-01 -2.342603e-01 7.416415e-02 -1.106596e-01 8.274956e-01 -3.033679e-02 1.573602e-01 1.253075e-01 2.351578e-01 1.050929e-01 -8.975069e-02 -2.248488e-01 -7.433369e-02 1.090577e-01 1.016444e-01 1.114796e-01 2.979406e-02 -2.719057e-01
<VARIANCE> 39
 3.782547e+01 5.744157e+01 3.187180e+01 6.398634e+01 7.269381e+01 6.489781e+01 7.543281e+01 4.788939e+01 5.125193e+01 5.298064e+01 3.703927e+01 4.403983e+01 5.082847e+01 2.882013e+00 4.637477e+00 1.826163e+00 2.789870e+00 3.841233e+00 3.630534e+00 3.983161e+00 3.489044e+00 3.955942e+00 3.852088e+00 3.210793e+00 3.157473e+00 1.826383e+00 6.816601e-01 8.339014e-01 3.394916e-01 5.001321e-01 8.225522e-01 6.103617e-01 7.565293e-01 6.515585e-01 7.305221e-01 7.327976e-01 5.784047e-01 5.634192e-01 3.608237e-01
<GCONST> 1.314950e+02
<STATE> 4
<MEAN> 39
 5.913181e-01 -5.825831e-01 -7.521389e+00 -1.354296e+01 -1.330169e+01 -5.048118e+00 -8.983618e-01 -3.504160e+00 -1.700360e+00 -2.439202e+00 -2.072656e+00 -3.020493e+00 7.172448e+01 3.385881e-01 2.886381e-01 1.996674e-01 1.815071e-01 -4.371999e-01 -4.504072e-01 -5.197750e-01 -4.556321e-01 -3.193794e-02 1.208866e-01 4.351898e-02 -1.055583e-01 8.585557e-02 -6.670857e-02 1.080518e-01 8.971468e-02 1.584895e-01 8.795795e-02 -1.110607e-01 -1.037951e-01 -2.109128e-02 7.661285e-02 4.591512e-02 8.197892e-03 -1.629889e-03 -1.716600e-01
<VARIANCE> 39
 2.357279e+01 8.441334e+01 4.755013e+01 5.950919e+01 9.040166e+01 9.298449e+01 8.123109e+01 6.502768e+01 7.456123e+01 5.656897e+01 4.075251e+01 5.146264e+01 3.995284e+01 1.500213e+00 2.767568e+00 1.176490e+00 1.853734e+00 2.556604e+00 2.464383e+00 3.243060e+00 2.835215e+00 3.620049e+00 3.032678e+00 2.652180e+00 2.396607e+00 9.628051e-01 2.567236e-01 3.682138e-01 1.867925e-01 3.210816e-01 4.831114e-01 4.338941e-01 5.479778e-01 4.500368e-01 5.880050e-01 5.110865e-01 4.802904e-01 3.947130e-01 1.351158e-01
<GCONST> 1.219811e+02
<TRANSP> 5
 0.000000e+00 1.000000e+00 0.000000e+00 0.000000e+00 0.000000e+00
 0.000000e+00 7.759698e-01 2.240302e-01 0.000000e+00 0.000000e+00
 0.000000e+00 0.000000e+00 4.022626e-01 5.977374e-01 0.000000e+00
 0.000000e+00 0.000000e+00 0.000000e+00 5.961887e-01 4.038113e-01
 0.000000e+00 0.000000e+00 0.000000e+00 0.000000e+00 0.000000e+00
<ENDHMM>
~h "r"
<BEGINHMM>
<NUMSTATES> 5
<STATE> 2
<MEAN> 39
 2.168995e+00 -7.952427e-01 -5.805559e+00 -7.838831e-01 -8.232041e+00 -1.086005e+01 -5.733539e+00 -8.816463e+00 -3.834320e+00 -5.487990e-01 2.289104e-01 -2.744958e+00 6.875121e+01 -3.933419e-02 1.377793e-01 4.671562e-01 1.018064e+00 6.002856e-02 -3.056540e-01 -7.160227e-01 -2.571615e-01 -9.822682e-02 -3.722749e-01 -2.503823e-02 1.100512e-01 -3.648436e-01 -1.035242e-01 4.699429e-02 4.792360e-02 -3.101074e-01 -3.121666e-01 1.576839e-01 3.149463e-01 1.887046e-01 2.000218e-02 -2.160998e-01 -7.728188e-02 4.503266e-02 9.089336e-02
<VARIANCE> 39
 1.298432e+01 4.201074e+01 5.575953e+01 5.275440e+01 6.529149e+01 6.194225e+01 5.708535e+01 5.551141e+01 5.764033e+01 6.139069e+01 4.824695e+01 5.761928e+01 2.485373e+01 1.230919e+00 1.853511e+00 3.057162e+00 4.134132e+00 6.501835e+00 4.699543e+00 4.645933e+00 3.788661e+00 4.722526e+00 4.872867e+00 4.218794e+00 4.264531e+00 1.327618e+00 1.933862e-01 3.096188e-01 4.430897e-01 4.657640e-01 1.208382e+00 8.308900e-01 8.196658e-01 7.378615e-01 8.423471e-01 8.519570e-01 7.848060e-01 7.754255e-01 2.526111e-01
<GCONST> 1.305082e+02
<STATE> 3
<MEAN> 39
 1.849744e+00 -3.078622e-01 -4.879478e+00 3.414609e-01 -8.634097e+00 -1.110576e+01 -6.208287e+00 -8.774487e+00 -3.869117e+00 -1.548213e+00 2.161419e-01 -2.414869e+00 6.823465e+01 -2.224478e-01 1.987211e-01 5.009068e-01 3.267404e-01 -4.513039e-01 -4.168355e-02 -5.969840e-02 9.198178e-02 -8.895709e-02 -6.419319e-01 -7.411374e-02 2.571603e-01 -1.543584e-01 -7.728873e-02 2.597126e-02 3.886685e-03 -3.441652e-01 -2.118733e-01 1.164040e-01 3.394497e-01 1.695945e-01 4.587233e-03 -7.523935e-02 1.980916e-03 5.181032e-02 8.462125e-02
<VARIANCE> 39
 1.317860e+01 4.060904e+01 5.767527e+01 5.102922e+01 6.748843e+01 6.406544e+01 5.270811e+01 5.363493e+01 5.601713e+01 6.196273e+01 4.647711e+01 4.997729e+01 2.504935e+01 1.107186e+00 1.754910e+00 3.021738e+00 3.490508e+00 5.772316e+00 4.615542e+00 4.029946e+00 3.423934e+00 4.293531e+00 4.809799e+00 3.919510e+00 4.164123e+00 1.187349e+00 1.730871e-01 3.108055e-01 4.119256e-01 4.311156e-01 1.147089e+00 8.014728e-01 7.346308e-01 6.894578e-01 8.288015e-01 8.219010e-01 7.725411e-01 7.035699e-01 2.449407e-01
<GCONST> 1.284930e+02
<STATE> 4
<MEAN> 39
 1.380681e+00 3.774519e-02 -3.900524e+00 4.710850e-01 -9.781767e+00 -1.132452e+01 -5.966920e+00 -8.416676e+00 -4.055259e+00 -2.848179e+00 2.125117e-01 -1.833805e+00 6.815767e+01 -2.918645e-01 2.649283e-01 4.415701e-01 -1.503427e-01 -4.911846e-01 1.448604e-01 3.843324e-01 3.028983e-01 -1.267813e-01 -5.833691e-01 -2.627858e-02 3.037170e-01 -1.335079e-01 -2.973246e-02 1.955208e-02 -4.323322e-02 -2.094851e-01 1.218772e-02 7.538611e-02 1.863469e-01 7.452808e-02 8.438677e-04 7.357809e-02 3.122152e-02 -3.206906e-02 2.163551e-03
<VARIANCE> 39
 1.479984e+01 4.146333e+01 5.895993e+01 5.568154e+01 6.735413e+01 6.800729e+01 5.368934e+01 5.520431e+01 5.817078e+01 6.169743e+01 4.598617e+01 4.868881e+01 2.519728e+01 9.602912e-01 1.637235e+00 2.624685e+00 2.732955e+00 4.790778e+00 4.040966e+00 3.552388e+00 3.106339e+00 3.888153e+00 4.355320e+00 3.534774e+00 3.621181e+00 1.099335e+00 1.566546e-01 2.664359e-01 3.566632e-01 3.862269e-01 9.151789e-01 6.949354e-01 6.243990e-01 6.068128e-01 7.151568e-01 7.239817e-01 6.856946e-01 6.471690e-01 1.968712e-01
<GCONST> 1.253261e+02
<TRANSP> 5
 0.000000e+00 1.000000e+00 0.000000e+00 0.000000e+00 0.000000e+00
 0.000000e+00 3.174473e-01 6.825527e-01 0.000000e+00 0.000000e+00
 0.000000e+00 0.000000e+00 2.794096e-01 7.205904e-01 0.000000e+00
 0.000000e+00 0.000000e+00 0.000000e+00 3.485983e-01 6.514016e-01
 0.000000e+00 0.000000e+00 0.000000e+00 0.000000e+00 0.000000e+00
<ENDHMM>
~h "t"
<BEGINHMM>
<NUMSTATES> 5
<STATE> 2
<MEAN> 39
 -1.102526e+01 -5.586973e-01 -3.644147e+00 -5.814943e+00 -3.905956e+00 -4.899626e+00 -1.963010e+00 -2.028764e+00 1.353109e+00 -6.112895e-01 4.003378e-01 -8.935101e-01 6.652250e+01 4.488187e-01 -1.209951e-01 2.904374e-01 -1.751203e-01 -5.724057e-01 -6.166382e-01 -2.032460e-01 -5.556142e-01 -3.817159e-01 -3.838495e-01 -3.725350e-01 -3.969901e-01 1.109994e+00 5.176377e-01 1.559531e-01 1.889953e-02 9.444122e-02 -1.981283e-01 -9.299429e-02 -8.850427e-02 -2.254197e-01 -2.333412e-01 -8.495952e-02 -7.648532e-02 -8.954661e-02 -1.124241e-01
<VARIANCE> 39
 7.312321e+01 3.883398e+01 4.555782e+01 4.015096e+01 4.204908e+01 5.696079e+01 4.346495e+01 4.405755e+01 4.092170e+01 4.195367e+01 4.023354e+01 4.350284e+01 6.360789e+01 7.855660e+00 3.613311e+00 3.540076e+00 4.559022e+00 4.437826e+00 4.883150e+00 4.045418e+00 4.618248e+00 4.831419e+00 4.233438e+00 3.900999e+00 4.456367e+00 5.488384e+00 1.147787e+00 6.788589e-01 5.486507e-01 7.055541e-01 8.085644e-01 9.542432e-01 8.203100e-01 8.023368e-01 8.260555e-01 7.911583e-01 7.536498e-01 8.456808e-01 1.176120e+00
<GCONST> 1.386647e+02
<STATE> 3
<MEAN> 39
 -5.656894e+00 -3.112149e-01 -2.605381e+00 -5.702999e+00 -7.021837e+00 -7.916339e+00 -3.462787e+00 -5.020673e+00 -1.370009e+00 -2.190515e+00 -1.282968e+00 -2.849801e+00 6.940202e+01 1.998508e+00 4.231967e-01 8.373223e-02 1.195194e-01 -1.111420e+00 -7.473069e-01 -4.634780e-01 -1.023796e+00 -9.709632e-01 -4.817321e-01 -3.233155e-01 -3.696046e-01 3.560784e-01 -1.432078e-01 -3.670765e-02 -1.306956e-01 3.225446e-03 1.142705e-01 1.907080e-01 3.393858e-02 1.039557e-01 1.079122e-01 1.014209e-01 1.999242e-01 2.078801e-01 -2.553316e-01
<VARIANCE> 39
 5.628558e+01 3.708345e+01 6.423749e+01 6.323449e+01 5.925664e+01 6.736709e+01 5.020000e+01 5.079757e+01 5.310913e+01 5.976772e+01 4.774067e+01 5.467138e+01 4.275027e+01 5.415420e+00 3.208643e+00 3.058191e+00 4.421382e+00 5.668267e+00 5.593318e+00 4.498560e+00 4.670302e+00 4.708565e+00 4.741032e+00 3.877295e+00 4.839712e+00 3.284980e+00 9.829306e-01 5.623157e-01 6.078578e-01 7.140262e-01 9.226494e-01 8.985021e-01 7.528421e-01 7.871058e-01 8.360367e-01 8.604823e-01 7.634881e-01 8.505285e-01 6.520888e-01
<GCONST> 1.393122e+02
<STATE> 4
<MEAN> 39
 -2.948800e+00 6.040879e-02 -2.885942e+00 -6.210840e+00 -8.535549e+00 -8.910019e+00 -4.188001e+00 -6.240355e+00 -2.314631e+00 -2.776349e+00 -1.407058e+00 -3.064708e+00 7.020621e+01 1.306877e+00 1.949472e-01 -1.282983e-01 8.054692e-02 -6.737968e-01 -2.544712e-01 -2.153000e-01 -5.976536e-01 -5.417468e-01 -1.627865e-01 8.007844e-02 -1.542621e-02 1.582842e-02 -4.584393e-01 -1.259038e-01 -7.773834e-02 5.024005e-02 3.372078e-01 2.517855e-01 1.049256e-01 2.473754e-01 2.245777e-01 1.319846e-01 1.611746e-01 1.717392e-01 -2.009943e-01
<VARIANCE> 39
 4.069632e+01 3.897753e+01 6.964669e+01 7.730111e+01 7.100375e+01 7.559237e+01 5.519164e+01 5.402677e+01 5.607485e+01 6.938753e+01 5.015914e+01 6.038301e+01 3.800397e+01 3.649166e+00 2.698283e+00 2.391373e+00 3.225484e+00 4.780065e+00 4.705525e+00 3.792565e+00 3.855015e+00 3.872385e+00 4.147611e+00 3.697435e+00 4.084001e+00 2.751867e+00 6.657494e-01 4.433348e-01 5.563419e-01 6.755087e-01 8.738410e-01 8.332096e-01 7.098097e-01 7.097554e-01 7.484717e-01 7.830755e-01 6.616411e-01 7.885408e-01 3.962997e-01
<GCONST> 1.354627e+02
<TRANSP> 5
 0.000000e+00 1.000000e+00 0.000000e+00 0.000000e+00 0.000000e+00
 0.000000e+00 6.852775e-01 3.147225e-01 0.000000e+00 0.000000e+00
 0.000000e+00 0.000000e+00 3.003085e-01 6.996915e-01 0.000000e+00
 0.000000e+00 0.000000e+00 0.000000e+00 2.577463e-01 7.422537e-01
 0.000000e+00 0.000000e+00 0.000000e+00 0.000000e+00 0.000000e+00
<ENDHMM>
~h "u"
<BEGINHMM>
<NUMSTATES> 5
<STATE> 2
<MEAN> 39
 -1.103623e-01 4.966473e+00 -2.722837e+00 -6.237060e-01 -7.949656e+00 -9.662561e+00 -7.024976e+00 -1.127968e+01 -7.926690e+00 -6.264962e+00 -3.561549e-01 -1.107164e+00 6.662821e+01 5.799937e-01 2.073327e-01 5.307999e-02 -2.851503e-01 -1.114632e+00 -3.268140e-01 -2.030216e-02 -4.913974e-01 -3.367966e-01 7.865597e-02 4.355873e-01 1.852682e-01 2.821738e-01 -1.967042e-01 -1.975151e-01 -2.011025e-02 -6.572018e-02 9.274638e-02 1.734309e-01 2.257921e-01 2.795413e-01 2.706152e-01 2.758948e-01 1.156504e-01 3.750842e-02 -8.966605e-02
<VARIANCE> 39
 3.100791e+01 3.794827e+01 3.647778e+01 5.789865e+01 6.719553e+01 5.857056e+01 5.724590e+01 5.364055e+01 6.247150e+01 5.752721e+01 4.698721e+01 4.448154e+01 2.543470e+01 2.505723e+00 2.664732e+00 2.719072e+00 4.497428e+00 4.280784e+00 4.010696e+00 4.577805e+00 4.618246e+00 4.814599e+00 3.911478e+00 4.031807e+00 3.560572e+00 9.855363e-01 4.640149e-01 5.177367e-01 3.252124e-01 5.705848e-01 8.780307e-01 7.779155e-01 9.395522e-01 8.909131e-01 9.184321e-01 8.130025e-01 7.807215e-01 7.427673e-01 1.831399e-01
<GCONST> 1.314565e+02
<STATE> 3
<MEAN> 39
 8.393372e-01 4.871399e+00 -2.604768e+00 -1.366254e+00 -1.055575e+01 -1.005087e+01 -6.602184e+00 -1.182799e+01 -8.087191e+00 -5.534124e+00 6.675147e-01 -6.176132e-01 6.708985e+01 1.215569e-01 -1.249577e-01 1.044972e-01 -3.630049e-01 -6.535931e-01 1.710871e-01 3.414106e-01 1.240711e-01 2.234987e-01 5.520779e-01 4.901865e-01 2.549686e-01 3.495044e-02 -2.454572e-01 -2.072675e-01 -1.837429e-02 -1.270937e-02 4.060593e-01 2.258443e-01 1.128223e-01 2.948649e-01 2.629748e-01 2.140580e-01 -2.588355e-02 -6.077992e-02 -1.160060e-01
<VARIANCE> 39
 2.358020e+01 3.628207e+01 4.140400e+01 5.881347e+01 6.093386e+01 5.851075e+01 5.970398e+01 4.910165e+01 6.357365e+01 6.137320e+01 4.962321e+01 4.533066e+01 2.502668e+01 1.359634e+00 1.643023e+00 2.361903e+00 3.308333e+00 3.433644e+00 3.231781e+00 3.541802e+00 3.381985e+00 3.952561e+00 3.980667e+00 3.639290e+00 3.277332e+00 8.549244e-01 2.659788e-01 2.869226e-01 2.698898e-01 4.794880e-01 6.177961e-01 6.022603e-01 6.920403e-01 6.388753e-01 7.459505e-01 6.814939e-01 6.744897e-01 6.285315e-01 1.285738e-01
<GCONST> 1.244154e+02
<STATE> 4
<MEAN> 39
 8.105816e-01 4.552595e+00 -2.424689e+00 -2.183167e+00 -1.118567e+01 -9.463885e+00 -6.333766e+00 -1.140670e+01 -7.481646e+00 -4.221953e+00 1.468831e+00 -2.608650e-01 6.700359e+01 -1.736274e-01 -3.255699e-01 3.883440e-02 -3.620922e-01 1.207250e-01 4.983921e-01 4.277815e-01 5.308074e-01 5.173473e-01 7.580606e-01 3.406345e-01 3.141622e-02 -1.555458e-01 -1.319262e-01 -1.040689e-01 -2.349615e-02 4.148778e-02 3.371937e-01 1.006147e-01 4.371358e-02 1.941847e-01 1.174622e-01 5.607437e-02 -1.061947e-01 -1.021684e-01 -1.090549e-01
<VARIANCE> 39
 2.180401e+01 3.655598e+01 4.611117e+01 6.619550e+01 6.524743e+01 5.499810e+01 6.574537e+01 4.919081e+01 6.499242e+01 6.783217e+01 5.115403e+01 4.977548e+01 2.775266e+01 8.291881e-01 1.407485e+00 1.905866e+00 2.406990e+00 3.394126e+00 2.834788e+00 3.077268e+00 2.838795e+00 3.501457e+00 3.814563e+00 3.220639e+00 2.944158e+00 1.020829e+00 1.552034e-01 1.980690e-01 2.606691e-01 3.501014e-01 4.563741e-01 4.321181e-01 5.400129e-01 5.213096e-01 6.183416e-01 5.992566e-01 6.056188e-01 5.830621e-01 1.040362e-01
<GCONST> 1.201130e+02
<TRANSP> 5
 0.000000e+00 1.000000e+00 0.000000e+00 0.000000e+00 0.000000e+00
 0.000000e+00 3.194865e-01 6.805135e-01 0.000000e+00 0.000000e+00
 0.000000e+00 0.000000e+00 2.546751e-01 7.453249e-01 0.000000e+00
 0.000000e+00 0.000000e+00 0.000000e+00 4.188814e-01 5.811186e-01
 0.000000e+00 0.000000e+00 0.000000e+00 0.000000e+00 0.000000e+00
<ENDHMM>
~h "w"
<BEGINHMM>
<NUMSTATES> 5
<STATE> 2
<MEAN> 39
 4.596760e+00 5.704512e+00 -6.333544e+00 -1.323829e+01 -1.739851e+01 -6.683822e+00 2.718134e+00 -3.895150e+00 -3.834739e+00 -3.118587e+00 -2.699755e+00 -7.372099e-01 6.715479e+01 -3.169929e-02 -1.403462e+00 -1.223720e+00 -1.134270e+00 4.455557e-02 1.222829e+00 1.431611e+00 2.569276e-02 -4.484046e-01 1.550875e-01 4.886318e-01 6.228810e-01 9.973624e-01 -2.502798e-01 -2.785932e-01 1.332819e-01 5.243822e-01 6.414444e-01 1.302141e-01 -3.245710e-01 -2.074144e-01 5.137281e-03 9.689172e-02 1.793266e-01 -1.098665e-01 -5.632102e-03
<VARIANCE> 39
 9.529045e+00 4.227575e+01 3.476106e+01 6.974841e+01 6.719051e+01 5.127542e+01 6.980123e+01 6.547963e+01 4.546573e+01 4.944200e+01 4.890899e+01 4.020408e+01 2.600410e+01 7.932366e-01 3.526802e+00 1.864038e+00 3.229106e+00 5.517607e+00 4.346900e+00 5.084765e+00 4.940152e+00 3.926720e+00 3.677622e+00 4.226480e+00 3.838400e+00 1.576136e+00 1.090893e-01 4.044518e-01 3.279690e-01 5.719777e-01 9.495685e-01 9.784682e-01 1.093328e+00 8.156899e-01 8.839167e-01 7.123697e-01 7.752241e-01 7.927828e-01 1.888612e-01
<GCONST> 1.281390e+02
<STATE> 3
<MEAN> 39
 3.497700e+00 1.947081e+00 -8.536260e+00 -1.317639e+01 -1.374971e+01 -2.990118e+00 4.239250e+00 -5.534753e+00 -5.422768e+00 -2.776002e+00 -4.509956e-02 4.216355e-01 6.910728e+01 -4.787006e-01 -1.309821e+00 -5.239211e-01 3.617512e-01 1.336519e+00 8.041017e-01 -2.578568e-01 -5.860767e-01 1.714895e-01 6.957113e-01 6.862113e-01 -2.731304e-01 5.766871e-01 -1.487950e-01 1.853867e-01 3.689255e-01 5.349913e-01 1.223881e-01 -5.249555e-01 -5.406629e-01 9.957700e-02 3.548220e-01 6.482578e-02 -2.626477e-01 -3.312024e-01 -2.052877e-01
<VARIANCE> 39
 1.133350e+01 5.198362e+01 4.116085e+01 8.386758e+01 6.147322e+01 4.962186e+01 8.400550e+01 8.320795e+01 4.517505e+01 5.265435e+01 5.737928e+01 5.367253e+01 3.084177e+01 6.619388e-01 2.119256e+00 1.274166e+00 2.809016e+00 3.245531e+00 4.489863e+00 4.921667e+00 3.526417e+00 3.969076e+00 3.985319e+00 3.735979e+00 4.119341e+00 9.166833e-01 1.045465e-01 3.399336e-01 2.686697e-01 3.865791e-01 6.086230e-01 7.070215e-01 8.017659e-01 8.140270e-01 7.137334e-01 7.020633e-01 8.344011e-01 6.644083e-01 1.697645e-01
<GCONST> 1.249422e+02
<STATE> 4
<MEAN> 39
 2.743302e+00 3.807187e-02 -9.510306e+00 -1.276353e+01 -1.163758e+01 -2.427520e+00 3.072415e+00 -5.717731e+00 -4.528030e+00 -1.387041e+00 -2.259812e-01 -2.098773e+00 6.959743e+01 -5.078762e-01 -6.882979e-01 -2.794616e-02 8.037459e-01 1.022969e+00 -1.172796e-01 -6.633368e-01 -5.764086e-02 6.093311e-01 5.362232e-01 -2.688397e-02 -5.327461e-01 1.185300e-01 -4.224961e-02 2.210004e-01 2.282175e-01 1.987671e-01 -1.400364e-01 -3.580691e-01 -1.374679e-01 2.057756e-01 1.212162e-01 -9.228538e-02 -2.155385e-01 -3.190019e-02 -1.828905e-01
<VARIANCE> 39
 1.289255e+01 5.866659e+01 4.207726e+01 7.988706e+01 5.980779e+01 5.698849e+01 7.984078e+01 8.243155e+01 4.919616e+01 5.650518e+01 5.971859e+01 7.188831e+01 3.022235e+01 6.285573e-01 1.371655e+00 1.194956e+00 2.243251e+00 2.873072e+00 4.110614e+00 3.669981e+00 2.947547e+00 3.235736e+00 3.398363e+00 3.344075e+00 3.209860e+00 7.232314e-01 8.082813e-02 2.605549e-01 2.420388e-01 3.064736e-01 4.511570e-01 5.267009e-01 6.532595e-01 5.925003e-01 5.652993e-01 6.167932e-01 6.554012e-01 5.774019e-01 1.150102e-01
<GCONST> 1.201541e+02
<TRANSP> 5
 0.000000e+00 1.000000e+00 0.000000e+00 0.000000e+00 0.000000e+00
 0.000000e+00 6.097926e-01 3.902074e-01 0.000000e+00 0.000000e+00
 0.000000e+00 0.000000e+00 3.129981e-01 6.870019e-01 0.000000e+00
 0.000000e+00 0.000000e+00 0.000000e+00 4.918390e-01 5.081610e-01
 0.000000e+00 0.000000e+00 0.000000e+00 0.000000e+00 0.000000e+00
<ENDHMM>
~h "aa"
<BEGINHMM>
<NUMSTATES> 5
<STATE> 2
<MEAN> 39
 2.384189e+00 -6.461801e+00 -1.326466e+01 -1.493139e+01 -8.049601e+00 3.183156e+00 6.670172e+00 -5.899476e+00 -4.934074e+00 -5.406425e-01 -4.379461e+00 -6.207796e+00 7.384282e+01 -8.400095e-02 -4.311911e-01 -1.291144e-01 2.900264e-01 4.354401e-01 1.204126e-01 -1.823605e-01 -8.730416e-02 2.156481e-01 2.269313e-01 -2.249926e-01 -3.948532e-01 7.384709e-02 -4.298642e-02 2.505345e-01 1.522059e-01 1.677828e-01 -5.149170e-02 -2.835843e-01 -2.024487e-01 1.105430e-01 1.274823e-01 -5.836909e-02 2.787387e-02 8.935677e-02 -1.556526e-01
<VARIANCE> 39
 1.248807e+01 4.303055e+01 2.478510e+01 3.536885e+01 5.455153e+01 4.572864e+01 5.114911e+01 8.548441e+01 5.292773e+01 5.508828e+01 6.583923e+01 6.691215e+01 2.250953e+01 3.092141e-01 7.787843e-01 6.078824e-01 9.801573e-01 1.416386e+00 1.696789e+00 1.753849e+00 1.944443e+00 1.868204e+00 1.686965e+00 1.960490e+00 1.863683e+00 2.809521e-01 8.868474e-02 1.337535e-01 1.360174e-01 1.934697e-01 2.578371e-01 2.847362e-01 3.273031e-01 3.525757e-01 3.555048e-01 3.301777e-01 3.346824e-01 3.484594e-01 4.990527e-02
<GCONST> 1.016317e+02
<STATE> 3
<MEAN> 39
 2.145826e+00 -6.148514e+00 -1.269994e+01 -1.207388e+01 -6.376217e+00 1.297004e+00 4.223552e+00 -5.273255e+00 -1.912791e+00 2.660593e-01 -4.870283e+00 -7.602109e+00 7.281729e+01 -1.417032e-01 3.011645e-01 3.339887e-01 7.014245e-01 6.600832e-02 -8.542340e-01 -6.461875e-01 3.168007e-01 5.802406e-01 1.476731e-01 -3.626058e-02 -9.338244e-02 -3.027813e-01 -3.973860e-02 2.230355e-01 1.926463e-01 1.295332e-01 -9.269610e-02 -1.924796e-01 -1.186401e-01 2.258887e-02 -3.099012e-03 -4.277767e-02 1.208142e-01 1.764508e-01 -1.490215e-01
<VARIANCE> 39
 1.120310e+01 4.341172e+01 2.915240e+01 4.230101e+01 5.248306e+01 6.089890e+01 5.702298e+01 8.263385e+01 6.100310e+01 6.141405e+01 7.358876e+01 7.506265e+01 2.543679e+01 3.093981e-01 7.636635e-01 8.282337e-01 1.143337e+00 1.636391e+00 1.990512e+00 2.032806e+00 2.159180e+00 2.101675e+00 1.867779e+00 2.313432e+00 2.012179e+00 3.006842e-01 5.283225e-02 1.253029e-01 1.358527e-01 1.688019e-01 2.476999e-01 2.930164e-01 3.314115e-01 3.702672e-01 3.661717e-01 3.404855e-01 3.571768e-01 3.827017e-01 5.092596e-02
<GCONST> 1.038938e+02
<STATE> 4
<MEAN> 39
 4.787208e-01 -3.381932e+00 -9.847279e+00 -8.437520e+00 -6.041596e+00 -2.930674e+00 1.329424e+00 -3.129453e+00 6.671882e-02 1.001621e+00 -3.448560e+00 -6.283158e+00 6.914850e+01 -4.749408e-01 8.615302e-01 9.524031e-01 1.071441e+00 -4.955802e-02 -8.562704e-01 -6.754632e-01 3.153365e-01 2.672258e-01 -1.372366e-01 4.579611e-01 6.167189e-01 -1.097673e+00 -7.707525e-02 6.303053e-02 1.275387e-01 3.408755e-02 1.071834e-02 9.358434e-02 7.279134e-02 -7.830780e-02 -2.166193e-01 -1.274945e-01 1.283199e-01 1.253105e-01 -9.928700e-02
<VARIANCE> 39
 1.470873e+01 4.263615e+01 3.452460e+01 4.514943e+01 4.849650e+01 6.667664e+01 5.806218e+01 6.612006e+01 5.386236e+01 5.889520e+01 6.378725e+01 6.481908e+01 4.741113e+01 7.494642e-01 1.237891e+00 1.485338e+00 1.697747e+00 2.557353e+00 3.150255e+00 3.140248e+00 3.225670e+00 3.049625e+00 2.903358e+00 2.936812e+00 2.983312e+00 9.494219e-01 9.641945e-02 2.075497e-01 2.333687e-01 2.493841e-01 3.521245e-01 4.897929e-01 5.239553e-01 4.977951e-01 5.169912e-01 4.892989e-01 5.040469e-01 5.070021e-01 1.579234e-01
<GCONST> 1.171625e+02
<TRANSP> 5
 0.000000e+00 1.000000e+00 0.000000e+00 0.000000e+00 0.000000e+00
 0.000000e+00 7.866923e-01 2.133078e-01 0.000000e+00 0.000000e+00
 0.000000e+00 0.000000e+00 7.191591e-01 2.808408e-01 0.000000e+00
 0.000000e+00 0.000000e+00 0.000000e+00 6.813042e-01 3.186958e-01
 0.000000e+00 0.000000e+00 0.000000e+00 0.000000e+00 0.000000e+00
<ENDHMM>
~h "ae"
<BEGINHMM>
<NUMSTATES> 5
<STATE> 2
<MEAN> 39
 2.042874e+00 -7.997138e+00 -1.252263e+01 -1.096638e+01 -8.575223e+00 -1.805521e+00 2.546504e+00 -4.039873e+00 -6.490239e-01 1.375709e+00 -2.955969e+00 -7.532239e+00 7.408585e+01 -1.826961e-01 -2.665196e-01 3.230349e-01 4.240225e-01 -1.366805e-02 -7.870507e-01 -7.542599e-01 4.237667e-01 9.670534e-01 1.064523e-01 -5.711769e-01 -3.993086e-01 7.547727e-02 -3.636133e-02 1.713033e-01 1.886557e-01 2.106023e-01 -5.711527e-02 -3.165450e-01 -1.207825e-01 6.224754e-02 1.462236e-02 -1.283804e-01 4.614426e-02 2.256717e-01 -1.228883e-01
<VARIANCE> 39
 1.321639e+01 4.027211e+01 2.817185e+01 3.887017e+01 5.144406e+01 7.685457e+01 4.937831e+01 7.288398e+01 7.431949e+01 6.121027e+01 6.943658e+01 6.129893e+01 2.334792e+01 3.761690e-01 7.320479e-01 1.001523e+00 1.717674e+00 1.989045e+00 3.529474e+00 2.599311e+00 2.842039e+00 2.533216e+00 2.381914e+00 2.819736e+00 2.602820e+00 3.009350e-01 5.675229e-02 1.238889e-01 1.539376e-01 2.137959e-01 3.028556e-01 4.304985e-01 4.373390e-01 4.260034e-01 4.774420e-01 4.160674e-01 4.582155e-01 4.523859e-01 5.243395e-02
<GCONST> 1.089172e+02
<STATE> 3
<MEAN> 39
 9.026240e-01 -7.715687e+00 -9.381721e+00 -5.912349e+00 -9.962793e+00 -9.813836e+00 -2.288232e+00 -9.786852e-01 4.638041e+00 1.565094e+00 -4.803624e+00 -7.118038e+00 7.299816e+01 -2.713776e-01 6.229823e-01 1.137218e+00 1.085335e+00 -5.625234e-01 -1.650829e+00 -8.002772e-01 2.590207e-01 3.262328e-01 -5.202135e-01 1.558188e-01 8.511118e-01 -5.040138e-01 -3.381480e-02 2.277237e-01 1.516251e-01 -2.242611e-02 1.033040e-02 2.336644e-01 1.588343e-01 -2.121221e-01 -4.171219e-01 -1.332667e-01 2.300263e-01 2.038910e-01 -1.734767e-01
<VARIANCE> 39
 1.341893e+01 3.759610e+01 3.460040e+01 3.907770e+01 5.570347e+01 7.233038e+01 5.197203e+01 6.899271e+01 6.067316e+01 5.975230e+01 6.525914e+01 6.423211e+01 2.639233e+01 5.071773e-01 9.242601e-01 1.229282e+00 1.570736e+00 2.107717e+00 2.705731e+00 2.816560e+00 2.941792e+00 3.483371e+00 2.645043e+00 3.094910e+00 2.826464e+00 4.060075e-01 5.897295e-02 1.370320e-01 2.071410e-01 2.565713e-01 3.325320e-01 4.534210e-01 4.398280e-01 4.271713e-01 5.336441e-01 4.717664e-01 4.992021e-01 5.208148e-01 6.673256e-02
<GCONST> 1.118995e+02
<STATE> 4
<MEAN> 39
 -1.726619e+00 -3.399653e+00 -3.579777e+00 -2.357182e+00 -1.127644e+01 -1.367232e+01 -2.585742e+00 -1.035845e-02 2.360021e+00 -1.088344e+00 -3.046216e+00 -3.651265e+00 6.873533e+01 -3.618611e-01 7.292070e-01 7.606512e-01 5.635171e-01 2.917155e-02 -1.825559e-01 -7.310207e-02 -1.582012e-01 -4.060332e-01 -2.711554e-01 3.821604e-01 5.486473e-01 -8.737530e-01 9.661764e-04 -9.938143e-04 -1.379719e-01 -1.128167e-01 1.433883e-01 2.877292e-01 9.628823e-02 -5.424127e-02 -6.637307e-02 5.920105e-02 2.760585e-02 -8.303452e-02 -6.383059e-02
<VARIANCE> 39
 1.843073e+01 3.521652e+01 4.401774e+01 3.854765e+01 6.067843e+01 6.526837e+01 6.148064e+01 5.746081e+01 5.955001e+01 5.765453e+01 5.179199e+01 5.861977e+01 3.848299e+01 4.059385e-01 8.511407e-01 1.345430e+00 1.262709e+00 1.871032e+00 2.490917e+00 2.026088e+00 2.127442e+00 2.424678e+00 2.338011e+00 2.542799e+00 2.478882e+00 4.453481e-01 4.965216e-02 1.331935e-01 1.871411e-01 2.051727e-01 2.755972e-01 3.601848e-01 3.424284e-01 3.730910e-01 4.166275e-01 4.032658e-01 4.467798e-01 4.535666e-01 6.341298e-02
<GCONST> 1.083034e+02
<TRANSP> 5
 0.000000e+00 1.000000e+00 0.000000e+00 0.000000e+00 0.000000e+00
 0.000000e+00 8.172418e-01 1.827582e-01 0.000000e+00 0.000000e+00
 0.000000e+00 0.000000e+00 5.433283e-01 4.566716e-01 0.000000e+00
 0.000000e+00 0.000000e+00 0.000000e+00 7.846865e-01 2.153135e-01
 0.000000e+00 0.000000e+00 0.000000e+00 0.000000e+00 0.000000e+00
<ENDHMM>
~h "ai"
<BEGINHMM>
<NUMSTATES> 5
<STATE> 2
<MEAN> 39
 2.916487e-01 -5.841330e+00 -7.899892e+00 -7.121053e+00 -9.645563e+00 -9.761585e+00 -3.738037e+00 -5.620759e+00 2.320051e+00 2.439469e+00 -2.646215e+00 -5.216394e+00 7.423967e+01 -5.239823e-01 -3.061663e-01 1.617460e+00 1.843987e+00 -6.555906e-01 -2.691753e+00 -1.257860e+00 7.879628e-01 1.175483e+00 -7.223576e-01 -6.897491e-01 2.676775e-01 9.521898e-02 -5.243000e-02 4.931626e-01 4.603381e-01 2.380127e-02 -3.258823e-01 1.888174e-02 3.499855e-01 2.168310e-02 -6.317317e-01 -6.155215e-01 1.090678e-01 4.705386e-01 -3.071222e-01
<VARIANCE> 39
 1.337920e+01 4.396776e+01 5.575610e+01 6.423045e+01 5.435574e+01 1.076255e+02 6.517422e+01 8.410144e+01 6.126322e+01 9.168816e+01 7.957560e+01 8.506813e+01 2.358665e+01 5.368734e-01 1.692104e+00 2.765761e+00 2.565351e+00 2.951137e+00 4.667548e+00 5.250375e+00 4.829480e+00 6.014027e+00 6.233459e+00 5.029830e+00 4.363512e+00 6.124839e-01 1.033648e-01 2.562767e-01 4.633145e-01 5.393954e-01 5.223187e-01 1.089895e+00 9.451101e-01 1.003281e+00 1.167573e+00 1.338999e+00 1.179988e+00 8.728691e-01 8.742598e-02
<GCONST> 1.304824e+02
<STATE> 3
<MEAN> 39
 -9.450821e-01 -4.730501e+00 -2.521032e+00 -2.512021e+00 -1.272962e+01 -1.621968e+01 -5.269708e+00 -4.714386e+00 2.310155e+00 -1.723933e+00 -2.926535e+00 -2.148375e+00 7.357935e+01 -4.854065e-01 7.012231e-01 1.756115e+00 1.140302e+00 -9.427612e-01 -1.253076e+00 -1.086461e-01 -3.055412e-02 -6.817358e-01 -9.721497e-01 2.875891e-01 7.768368e-01 -4.449017e-01 5.504136e-02 2.781482e-01 -1.689046e-01 -2.663614e-01 1.990119e-01 6.394481e-01 2.563977e-01 -2.735639e-01 -4.179247e-01 1.599030e-01 2.512249e-01 -9.958446e-02 -2.198214e-01
<VARIANCE> 39
 1.472264e+01 4.433075e+01 7.506759e+01 6.379691e+01 6.527426e+01 8.367928e+01 6.508418e+01 6.465327e+01 7.052248e+01 8.153080e+01 6.495895e+01 7.306599e+01 2.036623e+01 3.997883e-01 1.225184e+00 2.372190e+00 1.812538e+00 2.625484e+00 3.813322e+00 3.050590e+00 4.263186e+00 4.817204e+00 4.620525e+00 4.785457e+00 3.474961e+00 5.145732e-01 7.626688e-02 2.004942e-01 3.477439e-01 3.052623e-01 4.673734e-01 6.651314e-01 6.297266e-01 7.151973e-01 9.063467e-01 9.428954e-01 8.455810e-01 7.171627e-01 7.230408e-02
<GCONST> 1.229084e+02
<STATE> 4
<MEAN> 39
 -2.544665e+00 -5.141404e-01 2.510233e+00 -7.364777e-01 -1.338585e+01 -1.628733e+01 -5.484582e+00 -6.191681e+00 -1.629467e+00 -4.284421e+00 -1.625120e+00 -1.992587e+00 7.016867e+01 -2.615264e-01 6.210061e-01 3.745759e-01 3.827643e-01 4.201613e-01 4.538102e-01 8.718291e-02 -5.517625e-02 -3.049037e-01 8.817472e-02 9.646748e-02 -3.275781e-02 -8.685039e-01 3.311771e-02 -5.482879e-02 -2.561428e-01 -1.228096e-01 2.563775e-01 2.867467e-01 -2.415946e-03 7.007859e-02 1.046742e-01 1.844067e-01 2.995831e-02 -6.469284e-02 -1.030687e-01
<VARIANCE> 39
 1.548586e+01 4.751888e+01 7.174384e+01 5.771892e+01 7.036549e+01 6.505752e+01 5.507165e+01 6.411577e+01 8.176613e+01 6.594360e+01 5.483698e+01 5.835752e+01 3.106983e+01 4.237313e-01 1.160141e+00 2.016929e+00 1.503070e+00 2.566222e+00 2.691375e+00 2.193307e+00 2.774645e+00 3.534115e+00 2.991493e+00 3.078657e+00 2.572427e+00 6.933559e-01 6.474511e-02 1.624425e-01 2.454164e-01 2.276228e-01 3.595105e-01 4.086501e-01 4.161649e-01 4.793419e-01 5.699604e-01 4.822907e-01 5.517944e-01 4.489328e-01 7.950548e-02
<GCONST> 1.153156e+02
<TRANSP> 5
 0.000000e+00 1.000000e+00 0.000000e+00 0.000000e+00 0.000000e+00
 0.000000e+00 6.141522e-01 3.858478e-01 0.000000e+00 0.000000e+00
 0.000000e+00 0.000000e+00 4.976609e-01 5.023392e-01 0.000000e+00
 0.000000e+00 0.000000e+00 0.000000e+00 7.850823e-01 2.149177e-01
 0.000000e+00 0.000000e+00 0.000000e+00 0.000000e+00 0.000000e+00
<ENDHMM>
~h "ao"
<BEGINHMM>
<NUMSTATES> 5
<STATE> 2
<MEAN> 39
 2.399888e+00 -4.550296e+00 -1.121902e+01 -1.959411e+01 -1.413621e+01 3.093206e+00 7.761295e+00 -4.088362e+00 -4.101649e+00 -5.881699e+00 -4.099022e+00 -3.286157e+00 7.477665e+01 1.273968e-01 3.532110e-01 9.498063e-02 -2.913386e-01 -5.424010e-01 -1.946554e-01 5.537905e-02 5.287439e-02 1.939211e-01 8.922626e-02 -1.333566e-01 8.373280e-02 -2.949108e-01 -1.485251e-02 1.500519e-01 6.005885e-02 5.168686e-02 -9.435456e-03 -1.323863e-01 -7.312082e-02 -9.246971e-04 4.026563e-02 2.852884e-02 -4.122068e-02 -1.172292e-02 -1.025648e-01
<VARIANCE> 39
 1.120278e+01 3.105336e+01 3.586111e+01 2.554654e+01 7.391163e+01 7.483507e+01 4.378317e+01 1.275194e+02 6.903611e+01 6.450550e+01 4.595695e+01 5.173362e+01 1.655803e+01 3.272077e-01 9.972426e-01 5.382593e-01 8.107482e-01 1.119900e+00 1.511499e+00 1.510663e+00 1.989622e+00 1.928769e+00 1.643543e+00 1.645815e+00 1.501307e+00 4.510098e-01 6.370420e-02 1.083729e-01 9.566727e-02 1.522591e-01 2.052905e-01 2.830572e-01 2.625256e-01 3.029598e-01 3.546161e-01 2.794281e-01 2.856579e-01 2.498691e-01 4.305744e-02
<GCONST> 9.883825e+01
<STATE> 3
<MEAN> 39
 3.920765e+00 2.205177e+00 -7.813654e+00 -2.123760e+01 -1.994999e+01 -3.616624e-01 6.810734e+00 -2.425936e+00 -1.990084e+00 -2.407010e+00 -5.967228e+00 -3.156866e+00 7.011994e+01 -8.064613e-03 8.669939e-01 3.059108e-01 1.674776e-01 -3.930502e-01 -7.470934e-01 -4.088246e-01 1.416494e-01 1.883280e-01 7.189758e-02 -1.396772e-01 -1.017412e-01 -6.437714e-01 -5.534605e-02 -1.576935e-02 9.666307e-03 1.414850e-01 1.410002e-01 -3.043979e-02 -9.045550e-02 1.411555e-02 3.064961e-03 -6.220395e-02 6.584805e-02 -2.913079e-03 -3.279455e-02
<VARIANCE> 39
 8.849248e+00 2.710160e+01 5.194651e+01 1.975601e+01 7.772565e+01 6.735280e+01 4.560082e+01 7.214127e+01 6.902051e+01 6.203264e+01 4.241415e+01 4.546286e+01 1.852440e+01 1.563781e-01 6.541480e-01 5.623395e-01 7.781532e-01 1.067287e+00 1.350565e+00 1.419803e+00 1.601951e+00 1.686036e+00 1.394858e+00 1.434021e+00 1.392166e+00 2.618953e-01 3.030560e-02 1.029208e-01 9.436880e-02 1.243923e-01 1.947118e-01 2.171533e-01 2.380022e-01 2.482361e-01 2.727120e-01 2.424712e-01 2.548181e-01 2.442736e-01 2.544599e-02
<GCONST> 9.251433e+01
<STATE> 4
<MEAN> 39
 -1.414846e-01 6.254541e+00 -5.567239e+00 -1.276044e+01 -1.290382e+01 -5.142016e+00 1.864312e+00 1.164722e-02 -7.053021e-01 -2.808964e+00 -4.301428e+00 -2.826940e+00 6.220119e+01 -5.090125e-01 -1.861182e-02 2.356970e-01 8.158014e-01 7.598708e-01 -1.894456e-02 -3.173237e-01 1.814207e-01 1.490440e-01 1.098513e-01 2.317588e-01 1.658194e-01 -6.326351e-01 -3.037357e-02 -8.385026e-02 -1.469380e-02 1.189880e-02 5.699537e-02 6.934262e-02 3.467980e-02 -1.282433e-02 4.204490e-03 3.179894e-02 3.650431e-02 3.421049e-02 2.160764e-02
<VARIANCE> 39
 1.943490e+01 2.872604e+01 3.089368e+01 4.688164e+01 7.559404e+01 4.062360e+01 4.259460e+01 3.427800e+01 3.755552e+01 5.248895e+01 3.089262e+01 3.535702e+01 3.551096e+01 3.241407e-01 6.932207e-01 6.394979e-01 1.085360e+00 1.510371e+00 1.618784e+00 1.425194e+00 1.683657e+00 1.978616e+00 1.917638e+00 1.787461e+00 1.863400e+00 2.419301e-01 4.057499e-02 8.199789e-02 9.722394e-02 1.563899e-01 1.991093e-01 2.352149e-01 2.225285e-01 2.868733e-01 3.543291e-01 3.325095e-01 3.040985e-01 3.218784e-01 2.121547e-02
<GCONST> 9.575720e+01
<TRANSP> 5
 0.000000e+00 1.000000e+00 0.000000e+00 0.000000e+00 0.000000e+00
 0.000000e+00 9.065478e-01 9.345224e-02 0.000000e+00 0.000000e+00
 0.000000e+00 0.000000e+00 8.051293e-01 1.948707e-01 0.000000e+00
 0.000000e+00 0.000000e+00 0.000000e+00 9.395865e-01 6.041349e-02
 0.000000e+00 0.000000e+00 0.000000e+00 0.000000e+00 0.000000e+00
<ENDHMM>
~h "au"
<BEGINHMM>
<NUMSTATES> 5
<STATE> 2
<MEAN> 39
 2.012014e+00 -3.580427e+00 -9.481022e+00 -9.616926e+00 -1.097602e+01 -7.149564e+00 -3.830420e+00 -7.384542e+00 -6.210868e-01 2.946818e+00 1.789127e+00 -4.845442e+00 7.326962e+01 1.279498e-01 7.375823e-01 2.172906e-01 4.208698e-01 -3.470424e-01 -3.701268e-01 -4.784022e-01 -7.960817e-01 -2.572563e-01 -3.921404e-01 3.798027e-01 3.970828e-01 -4.548133e-01 -9.614274e-02 3.010665e-01 1.800003e-01 1.739511e-01 2.064557e-01 3.555577e-02 -4.625225e-02 -3.628778e-02 -2.177538e-01 -3.675091e-01 -1.403680e-01 9.069908e-02 -2.449984e-01
<VARIANCE> 39
 9.294051e+00 3.853200e+01 2.713061e+01 4.547312e+01 4.475334e+01 5.523170e+01 6.699826e+01 6.752206e+01 7.405064e+01 7.432495e+01 6.355015e+01 8.847485e+01 2.313742e+01 3.753896e-01 1.492806e+00 1.003300e+00 1.418414e+00 1.651736e+00 2.775606e+00 2.863743e+00 3.430932e+00 3.607919e+00 3.426702e+00 2.868583e+00 2.496066e+00 6.042430e-01 1.107437e-01 1.844589e-01 1.893027e-01 2.482576e-01 3.126801e-01 4.475043e-01 5.227995e-01 5.954785e-01 6.187486e-01 5.786932e-01 4.993027e-01 4.997583e-01 6.382495e-02
<GCONST> 1.136068e+02
<STATE> 3
<MEAN> 39
 2.510560e+00 1.665276e-01 -7.860203e+00 -7.571317e+00 -1.127135e+01 -7.949417e+00 -4.910664e+00 -9.668383e+00 -1.857301e+00 6.380119e-01 1.838956e+00 -3.391948e+00 7.080352e+01 5.464642e-02 1.125519e+00 5.949106e-01 6.533911e-01 7.279120e-02 -1.933473e-01 -2.557070e-01 -4.416306e-01 -6.787250e-01 -1.039362e+00 -1.401369e-01 3.938500e-01 -8.074018e-01 -3.772208e-02 5.023366e-02 1.184254e-01 5.847301e-02 1.641694e-01 8.457479e-02 5.159579e-02 1.731019e-01 -8.708417e-02 -1.089347e-01 -1.298763e-01 -3.566789e-02 -1.106539e-01
<VARIANCE> 39
 8.631772e+00 4.596562e+01 2.775527e+01 4.753511e+01 4.345571e+01 6.352372e+01 6.995084e+01 7.292167e+01 8.588087e+01 7.866893e+01 6.320451e+01 8.240223e+01 2.362592e+01 2.575055e-01 9.256302e-01 8.622506e-01 1.361303e+00 1.589347e+00 2.458858e+00 2.336126e+00 3.382816e+00 3.236920e+00 3.455690e+00 2.935602e+00 2.695276e+00 4.045690e-01 4.807258e-02 1.545176e-01 1.465386e-01 2.217729e-01 2.749901e-01 3.858066e-01 4.170268e-01 5.529394e-01 6.101269e-01 5.631693e-01 4.788517e-01 4.762248e-01 4.727907e-02
<GCONST> 1.099411e+02
<STATE> 4
<MEAN> 39
 1.022198e+00 5.493334e+00 -3.694205e+00 -3.316701e+00 -7.914252e+00 -7.750499e+00 -5.584063e+00 -9.439523e+00 -4.801253e+00 -4.673918e+00 -4.014829e-01 -1.944719e+00 6.520372e+01 -2.794706e-01 3.943747e-01 4.566358e-01 4.646906e-01 5.064164e-01 1.722644e-01 1.315446e-01 2.801706e-01 -2.243407e-01 -4.297125e-01 -2.979401e-01 8.306221e-02 -7.061867e-01 -3.979929e-02 -1.154792e-01 -5.606204e-02 -5.949578e-02 3.784574e-02 6.160378e-02 5.248587e-02 7.458387e-02 7.570663e-02 1.149691e-01 2.334997e-02 2.738161e-03 2.983410e-02
<VARIANCE> 39
 1.265866e+01 4.240432e+01 2.824602e+01 4.226468e+01 4.730194e+01 5.774063e+01 6.120756e+01 5.555700e+01 6.926711e+01 6.146125e+01 4.647792e+01 4.931766e+01 3.691907e+01 3.226587e-01 9.567301e-01 8.169332e-01 1.158224e+00 1.496831e+00 1.863184e+00 1.930747e+00 2.357049e+00 2.415925e+00 2.522141e+00 2.121942e+00 2.182099e+00 3.382893e-01 4.276986e-02 1.084251e-01 1.277325e-01 1.809847e-01 2.539710e-01 2.826520e-01 2.989252e-01 3.885298e-01 3.823017e-01 3.979808e-01 3.379804e-01 3.496491e-01 3.499604e-02
<GCONST> 1.030616e+02
<TRANSP> 5
 0.000000e+00 1.000000e+00 0.000000e+00 0.000000e+00 0.000000e+00
 0.000000e+00 6.386952e-01 3.613048e-01 0.000000e+00 0.000000e+00
 0.000000e+00 0.000000e+00 6.498972e-01 3.501028e-01 0.000000e+00
 0.000000e+00 0.000000e+00 0.000000e+00 8.728182e-01 1.271817e-01
 0.000000e+00 0.000000e+00 0.000000e+00 0.000000e+00 0.000000e+00
<ENDHMM>
~h "ee"
<BEGINHMM>
<NUMSTATES> 5
<STATE> 2
<MEAN> 39
 -3.811789e+00 -7.743138e-01 6.777156e+00 -2.749538e+00 -2.145951e+01 -1.976240e+01 -5.175799e+00 -9.601124e+00 -7.749044e+00 -6.343070e+00 2.192650e+00 -1.267030e+00 7.538851e+01 2.233235e-02 -8.871863e-02 -4.739617e-02 -5.167941e-02 -2.867344e-02 -2.923846e-02 8.510098e-03 9.447268e-02 1.010758e-01 -6.830621e-02 4.489777e-02 -1.189436e-02 -1.065035e-01 -2.104933e-02 4.437269e-02 -2.985424e-02 2.110624e-02 1.135949e-01 5.969889e-02 4.105941e-02 4.832603e-02 2.472511e-02 -4.272515e-03 -5.530508e-02 -3.274629e-02 -7.182565e-02
<VARIANCE> 39
 8.890175e+00 2.334245e+01 4.373700e+01 5.334980e+01 5.132519e+01 5.481634e+01 3.799401e+01 5.204897e+01 3.444655e+01 4.784331e+01 6.325685e+01 8.654986e+01 8.837548e+00 1.300081e-01 4.128047e-01 4.392409e-01 6.080313e-01 9.640295e-01 8.354021e-01 9.775574e-01 9.208643e-01 9.596987e-01 1.016388e+00 1.182562e+00 1.050158e+00 1.901703e-01 3.527992e-02 7.379400e-02 8.324970e-02 1.112488e-01 1.999767e-01 1.794638e-01 1.989651e-01 1.872883e-01 1.904603e-01 1.982743e-01 2.101156e-01 1.892088e-01 3.202456e-02
<GCONST> 8.526611e+01
<STATE> 3
<MEAN> 39
 -2.529879e+00 -4.561204e-02 5.456151e+00 -1.730696e+00 -1.926423e+01 -1.875883e+01 -5.599353e+00 -7.117479e+00 -5.397552e+00 -7.345252e+00 -6.448153e-01 -1.305412e+00 7.220422e+01 1.476736e-01 3.744978e-01 -3.036768e-01 1.708644e-01 6.165736e-01 2.696941e-01 4.183932e-02 2.259275e-01 8.662330e-02 -1.478175e-01 -3.750052e-01 -2.378267e-01 -7.071943e-01 -2.459481e-02 8.228779e-02 -2.293001e-02 4.437070e-02 1.405048e-01 8.124881e-02 1.929500e-02 2.648830e-02 -4.520509e-02 1.830384e-02 -2.914853e-02 -3.737904e-02 -1.035818e-01
<VARIANCE> 39
 1.127001e+01 2.489090e+01 4.314540e+01 4.469355e+01 7.935518e+01 6.333466e+01 3.584603e+01 4.308845e+01 5.115389e+01 5.692558e+01 6.310413e+01 7.134998e+01 1.262989e+01 2.989999e-01 7.297639e-01 6.933230e-01 1.209626e+00 1.787504e+00 1.282901e+00 2.012876e+00 1.311184e+00 2.111734e+00 2.280089e+00 2.185619e+00 2.007156e+00 3.799717e-01 4.402437e-02 1.267850e-01 1.216608e-01 1.977181e-01 3.042978e-01 2.295278e-01 3.377846e-01 2.463838e-01 3.840624e-01 4.138725e-01 3.652049e-01 3.291625e-01 5.849852e-02
<GCONST> 1.009931e+02
<STATE> 4
<MEAN> 39
 -4.126065e+00 1.092094e+00 2.718156e+00 -1.024904e+00 -1.273121e+01 -1.450311e+01 -3.084915e+00 -4.435942e+00 -4.555718e+00 -6.230185e+00 -1.440569e+00 -1.180344e+00 6.538535e+01 -1.692735e-01 1.561273e-01 -3.878547e-01 1.491044e-01 9.875580e-01 7.263795e-01 1.470255e-01 3.993442e-01 2.799462e-01 2.236947e-01 -1.078188e-01 1.002303e-01 -8.774201e-01 -2.308778e-02 -5.166292e-02 -3.375066e-02 -2.534534e-02 3.055372e-02 3.815503e-02 -2.334519e-02 9.159785e-03 4.072635e-02 6.949379e-02 6.707792e-02 4.497141e-02 2.275653e-02
<VARIANCE> 39
 1.457437e+01 2.528796e+01 3.345388e+01 3.316015e+01 6.612460e+01 7.871980e+01 4.160878e+01 4.462746e+01 4.567345e+01 6.330367e+01 5.029432e+01 5.733255e+01 2.669464e+01 2.837980e-01 7.524247e-01 7.097048e-01 1.011491e+00 1.496921e+00 1.728526e+00 1.816672e+00 1.888109e+00 2.334129e+00 2.273370e+00 2.376358e+00 2.274206e+00 5.220934e-01 4.090914e-02 1.200952e-01 1.142503e-01 1.660945e-01 2.245341e-01 2.581077e-01 2.979168e-01 3.376379e-01 4.582789e-01 3.971018e-01 4.330877e-01 4.321560e-01 5.720768e-02
<GCONST> 1.022512e+02
<TRANSP> 5
 0.000000e+00 1.000000e+00 0.000000e+00 0.000000e+00 0.000000e+00
 0.000000e+00 9.325259e-01 6.747407e-02 0.000000e+00 0.000000e+00
 0.000000e+00 0.000000e+00 7.196397e-01 2.803604e-01 0.000000e+00
 0.000000e+00 0.000000e+00 0.000000e+00 8.717899e-01 1.282101e-01
 0.000000e+00 0.000000e+00 0.000000e+00 0.000000e+00 0.000000e+00
<ENDHMM>
~h "ei"
<BEGINHMM>
<NUMSTATES> 5
<STATE> 2
<MEAN> 39
 -2.889441e+00 -4.381838e+00 2.269862e+00 -4.351833e+00 -1.902733e+01 -1.926890e+01 -4.309216e+00 -2.291721e+00 -2.866645e+00 -7.050079e+00 4.907095e-01 -2.476550e+00 7.547850e+01 -1.138025e-01 5.765095e-01 7.460576e-01 2.914652e-01 -3.642670e-01 -6.807938e-02 -2.968460e-04 -7.919935e-01 -7.286843e-01 -6.870237e-02 3.903685e-01 8.781046e-02 -3.818209e-01 -2.249685e-03 1.144143e-01 6.710883e-03 6.708109e-02 1.179334e-01 1.116709e-01 2.791373e-02 -9.330995e-02 -4.932103e-02 -7.242368e-03 -9.338753e-02 -7.100254e-02 -1.055084e-01
<VARIANCE> 39
 8.935457e+00 2.808819e+01 5.141523e+01 5.339296e+01 5.065263e+01 7.299799e+01 4.399378e+01 6.527732e+01 6.520954e+01 6.738927e+01 5.509334e+01 6.898234e+01 1.228420e+01 1.762024e-01 5.768999e-01 6.988986e-01 8.629658e-01 1.133049e+00 1.311444e+00 1.322994e+00 1.841693e+00 1.299737e+00 1.793972e+00 1.518053e+00 1.823534e+00 2.614016e-01 3.467537e-02 8.274348e-02 1.127590e-01 1.583202e-01 1.726151e-01 2.007860e-01 2.526881e-01 2.754301e-01 2.189523e-01 2.723085e-01 2.428066e-01 2.795491e-01 3.232043e-02
<GCONST> 9.460705e+01
<STATE> 3
<MEAN> 39
 -3.987115e+00 2.924325e+00 9.610498e+00 -6.258029e-01 -1.954363e+01 -1.657594e+01 -2.928931e+00 -1.008371e+01 -8.630056e+00 -5.618149e+00 7.994866e-01 -2.217939e+00 7.083828e+01 -1.728191e-01 7.665342e-01 4.447240e-01 2.898284e-01 4.907140e-01 6.439970e-01 1.822912e-01 -4.808779e-01 -4.460867e-01 -9.981466e-02 -3.227704e-01 -3.430213e-01 -7.610132e-01 -5.358966e-03 -4.397084e-02 -1.103836e-01 -1.977392e-02 1.448828e-01 4.987689e-02 5.218375e-03 1.405380e-01 9.632932e-02 -6.143879e-04 -3.925558e-02 2.824057e-02 -4.503010e-02
<VARIANCE> 39
 1.014073e+01 2.279552e+01 4.221984e+01 5.223147e+01 4.943733e+01 7.362370e+01 3.051624e+01 4.687153e+01 5.340228e+01 6.484240e+01 4.482246e+01 5.846385e+01 1.353615e+01 1.627286e-01 4.179409e-01 7.058755e-01 8.723301e-01 1.116573e+00 1.180728e+00 1.074576e+00 1.507408e+00 1.268981e+00 1.434399e+00 1.443886e+00 1.426051e+00 2.131839e-01 2.768095e-02 6.301732e-02 1.130109e-01 1.377869e-01 1.891328e-01 2.076408e-01 1.930287e-01 2.511296e-01 2.049237e-01 2.566891e-01 2.261317e-01 2.390955e-01 1.881373e-02
<GCONST> 8.965855e+01
<STATE> 4
<MEAN> 39
 -5.841842e+00 5.137448e+00 6.614758e+00 1.329084e+00 -9.603634e+00 -8.453947e+00 -8.696417e-01 -8.268033e+00 -6.931481e+00 -5.498053e+00 -1.373942e+00 -3.057130e+00 6.331926e+01 -2.302041e-01 -7.598956e-02 -5.111257e-01 9.320079e-02 9.519920e-01 7.366038e-01 2.313652e-01 4.291110e-01 2.568380e-01 2.737742e-01 -7.466237e-02 1.497218e-01 -7.401865e-01 -1.822551e-02 -9.755093e-02 -7.747601e-02 -3.812515e-02 3.320519e-03 -4.089387e-03 1.642322e-02 8.680853e-02 6.234912e-02 6.180716e-02 6.150655e-02 4.092512e-02 2.250344e-02
<VARIANCE> 39
 1.021678e+01 3.206025e+01 6.124374e+01 2.658801e+01 6.935905e+01 5.424166e+01 3.645379e+01 5.210369e+01 4.480698e+01 4.650747e+01 3.273332e+01 4.222268e+01 2.522789e+01 2.350355e-01 6.491523e-01 9.245433e-01 9.021859e-01 1.635453e+00 1.416441e+00 1.626614e+00 2.186972e+00 1.647093e+00 1.789461e+00 1.725778e+00 1.648583e+00 3.496935e-01 4.130491e-02 9.346052e-02 1.311065e-01 1.377318e-01 2.648609e-01 2.459179e-01 3.089122e-01 3.734676e-01 2.708704e-01 3.052058e-01 2.970857e-01 2.935330e-01 3.210283e-02
<GCONST> 9.703758e+01
<TRANSP> 5
 0.000000e+00 1.000000e+00 0.000000e+00 0.000000e+00 0.000000e+00
 0.000000e+00 8.969663e-01 1.030337e-01 0.000000e+00 0.000000e+00
 0.000000e+00 0.000000e+00 8.270974e-01 1.729026e-01 0.000000e+00
 0.000000e+00 0.000000e+00 0.000000e+00 9.214290e-01 7.857098e-02
 0.000000e+00 0.000000e+00 0.000000e+00 0.000000e+00 0.000000e+00
<ENDHMM>
~h "ii"
<BEGINHMM>
<NUMSTATES> 5
<STATE> 2
<MEAN> 39
 -5.410319e+00 1.706951e+00 9.091706e+00 1.095952e+00 -1.836097e+01 -1.579175e+01 -4.413504e+00 -1.258624e+01 -9.378884e+00 -1.038787e+01 -1.504511e+00 -4.301200e+00 7.176471e+01 8.942282e-01 -9.817228e-03 -6.373914e-01 6.221221e-02 1.831905e-01 6.053218e-02 -2.946201e-01 -7.653585e-02 -8.246969e-02 7.676290e-02 3.696876e-02 1.357869e-01 -4.530462e-01 -2.502140e-01 7.421886e-02 -2.588653e-01 -2.224776e-01 6.706592e-01 5.215533e-01 1.476048e-01 2.917495e-01 1.102982e-01 1.918212e-01 -4.470838e-02 8.292615e-02 -2.277245e-01
<VARIANCE> 39
 1.374018e+01 3.418467e+01 4.863710e+01 5.290889e+01 6.614211e+01 5.825577e+01 4.996525e+01 5.506825e+01 4.539584e+01 4.828311e+01 4.362861e+01 6.534010e+01 2.128447e+01 1.185193e+00 1.071716e+00 2.003951e+00 1.543785e+00 4.060659e+00 3.324299e+00 2.734834e+00 2.828852e+00 2.167270e+00 2.225335e+00 2.181782e+00 2.126031e+00 6.804034e-01 2.062208e-01 2.550031e-01 3.559684e-01 3.675428e-01 6.156617e-01 6.644562e-01 5.896904e-01 6.081314e-01 5.365700e-01 4.914764e-01 4.357136e-01 4.409980e-01 8.868769e-02
<GCONST> 1.170009e+02
<STATE> 3
<MEAN> 39
 -2.564532e+00 3.950640e+00 6.725448e+00 -5.038524e-01 -1.335953e+01 -1.209953e+01 -5.695501e+00 -1.126399e+01 -9.957809e+00 -8.915258e+00 -2.326371e+00 -4.654778e+00 6.857448e+01 4.960895e-01 6.796975e-01 -5.584807e-01 -5.207906e-01 1.301532e+00 1.240569e+00 3.266588e-01 1.680571e-01 -4.858949e-01 8.026963e-02 -1.504280e-01 1.193781e-01 -8.867733e-01 -1.879705e-01 -2.315955e-02 7.859083e-02 -2.502713e-02 -1.098399e-01 3.317137e-02 2.718817e-01 -1.444848e-02 -3.073201e-03 -6.169815e-02 4.159424e-03 2.341892e-02 8.628247e-02
<VARIANCE> 39
 1.621019e+01 3.014521e+01 6.323360e+01 4.993254e+01 5.716295e+01 6.274878e+01 4.946054e+01 4.874955e+01 4.248270e+01 4.399560e+01 3.751522e+01 4.858260e+01 2.680899e+01 5.654802e-01 8.851486e-01 1.373910e+00 1.761375e+00 2.614942e+00 2.678556e+00 2.861263e+00 2.109120e+00 2.467768e+00 2.434528e+00 2.052044e+00 1.861905e+00 6.205512e-01 9.019310e-02 1.634500e-01 2.337801e-01 2.441895e-01 3.883100e-01 3.924789e-01 4.073303e-01 4.014916e-01 4.057980e-01 3.736922e-01 3.776217e-01 3.267110e-01 1.124250e-01
<GCONST> 1.098849e+02
<STATE> 4
<MEAN> 39
 -5.073537e+00 7.173901e+00 8.258817e+00 -1.302041e-01 -8.774623e+00 -9.723973e+00 -1.891945e+00 -1.081270e+01 -9.169048e+00 -6.848021e+00 -3.165348e+00 -4.187207e+00 6.558009e+01 -2.553612e-02 -7.606693e-02 -5.081140e-01 -7.871881e-03 5.368609e-01 4.738837e-01 2.710308e-01 3.143085e-01 1.795993e-01 8.844544e-02 -5.032422e-02 2.061841e-01 -4.586298e-01 -2.430370e-02 -1.192861e-01 -8.593420e-02 -4.652210e-02 -9.582147e-02 -1.810414e-02 1.523197e-02 2.186850e-02 1.010060e-01 6.997379e-02 1.716080e-02 6.466615e-04 8.290871e-02
<VARIANCE> 39
 2.257886e+01 2.845919e+01 6.541811e+01 4.398912e+01 4.819849e+01 5.397632e+01 4.284544e+01 5.072826e+01 3.795407e+01 3.810086e+01 3.565301e+01 4.742117e+01 3.337637e+01 2.920048e-01 6.267049e-01 8.423218e-01 9.041813e-01 1.211003e+00 1.302415e+00 1.440204e+00 1.532284e+00 1.723439e+00 1.628043e+00 1.709720e+00 1.594039e+00 2.933003e-01 4.476140e-02 1.100161e-01 1.469438e-01 1.659542e-01 2.427905e-01 2.278762e-01 2.697210e-01 2.644491e-01 3.223572e-01 3.033601e-01 3.337170e-01 2.934651e-01 6.427513e-02
<GCONST> 9.800191e+01
<TRANSP> 5
 0.000000e+00 1.000000e+00 0.000000e+00 0.000000e+00 0.000000e+00
 0.000000e+00 7.440695e-01 2.559306e-01 0.000000e+00 0.000000e+00
 0.000000e+00 0.000000e+00 5.589993e-01 4.410007e-01 0.000000e+00
 0.000000e+00 0.000000e+00 0.000000e+00 8.887003e-01 1.112997e-01
 0.000000e+00 0.000000e+00 0.000000e+00 0.000000e+00 0.000000e+00
<ENDHMM>
~h "oe"
<BEGINHMM>
<NUMSTATES> 5
<STATE> 2
<MEAN> 39
 1.288715e+00 -1.458523e+00 -5.679593e+00 -1.027917e+01 -1.384909e+01 -1.191823e+01 -7.855532e+00 -1.155468e+01 -3.075881e+00 -7.162216e-01 1.371293e+00 1.010050e+00 7.388199e+01 -4.468744e-01 -9.354560e-01 6.422802e-01 1.668941e+00 5.811920e-01 -1.518661e+00 -1.262686e+00 4.638826e-01 9.985376e-01 1.679685e-01 6.177800e-02 -1.431603e-01 2.212399e-01 -1.020187e-01 1.610770e-01 2.317774e-01 1.024488e-01 -7.338776e-02 -7.379528e-02 2.178386e-01 3.060921e-01 -1.277736e-02 -2.324160e-01 -1.815033e-01 -4.166287e-03 -1.900832e-01
<VARIANCE> 39
 1.405799e+01 3.838014e+01 4.832503e+01 6.749895e+01 5.720806e+01 7.341232e+01 6.903726e+01 6.121985e+01 7.571055e+01 7.467100e+01 7.182387e+01 5.791050e+01 1.636757e+01 5.430846e-01 1.661834e+00 2.100717e+00 2.783130e+00 3.341825e+00 4.423203e+00 5.733500e+00 5.213901e+00 5.590985e+00 6.074666e+00 5.598608e+00 4.769564e+00 8.897254e-01 1.104615e-01 2.757995e-01 2.836000e-01 5.032640e-01 6.792681e-01 8.850082e-01 1.098379e+00 9.223689e-01 1.235364e+00 1.204829e+00 1.073247e+00 1.033704e+00 8.903396e-02
<GCONST> 1.291148e+02
<STATE> 3
<MEAN> 39
 -1.059437e+00 -3.242463e+00 6.014645e-02 -1.573452e+00 -1.331276e+01 -1.985922e+01 -1.025934e+01 -6.064219e+00 -1.521410e-01 -3.747525e+00 -9.190671e-01 8.410490e-01 7.212457e+01 -4.280117e-01 5.711920e-01 8.649670e-01 7.266815e-01 5.541977e-02 -3.670325e-01 5.956271e-01 8.700940e-01 -3.833861e-01 -7.396212e-01 3.498092e-03 3.717841e-01 -1.058804e+00 9.607770e-03 1.797113e-01 -2.920189e-01 -2.749650e-01 1.856334e-01 5.252097e-01 1.197668e-01 -3.253911e-01 -1.156783e-01 3.482135e-01 2.497443e-01 -6.548873e-02 -2.120418e-01
<VARIANCE> 39
 1.304693e+01 2.821557e+01 5.412375e+01 4.882359e+01 5.645269e+01 5.714133e+01 4.748108e+01 4.823926e+01 4.526529e+01 7.194603e+01 6.301328e+01 3.639026e+01 2.442111e+01 4.514614e-01 1.110989e+00 1.732597e+00 1.650555e+00 2.632400e+00 3.615942e+00 2.992391e+00 3.319774e+00 3.283659e+00 3.226839e+00 3.479635e+00 2.700925e+00 1.419397e+00 8.256450e-02 1.925492e-01 2.585164e-01 2.812160e-01 4.192350e-01 5.038616e-01 5.282611e-01 5.905505e-01 6.302824e-01 6.280862e-01 5.775226e-01 5.199763e-01 1.228575e-01
<GCONST> 1.164542e+02
<STATE> 4
<MEAN> 39
 -3.916045e+00 6.019816e-01 1.208613e+00 -2.261162e-03 -1.043360e+01 -1.646091e+01 -5.713892e+00 -3.964828e+00 -2.117369e+00 -3.912514e+00 6.297982e-01 1.099852e+00 6.536256e+01 -5.049645e-01 2.673618e-01 -4.171282e-02 1.540767e-01 5.762930e-01 9.096369e-01 4.934541e-01 1.966781e-01 4.148452e-02 2.229352e-01 1.058787e-01 3.985167e-02 -9.396537e-01 -1.753226e-02 -8.979578e-02 -8.308462e-02 -6.549911e-02 5.872210e-02 1.135251e-01 -3.870813e-02 -9.223470e-03 7.053040e-02 5.027245e-02 -2.675520e-02 -2.071711e-02 9.846507e-02
<VARIANCE> 39
 1.662766e+01 2.592547e+01 3.465570e+01 3.270389e+01 5.036159e+01 5.815945e+01 5.409318e+01 4.623505e+01 4.300933e+01 5.129280e+01 3.994154e+01 3.462509e+01 3.977364e+01 4.055218e-01 9.768588e-01 1.007422e+00 1.090275e+00 1.726602e+00 2.315434e+00 1.734493e+00 1.846826e+00 2.036176e+00 2.133512e+00 2.107343e+00 1.859439e+00 8.816793e-01 6.898985e-02 1.510369e-01 1.670732e-01 1.830123e-01 2.960164e-01 3.363281e-01 3.045783e-01 3.688200e-01 3.856447e-01 3.833231e-01 3.785928e-01 3.735432e-01 1.326430e-01
<GCONST> 1.051912e+02
<TRANSP> 5
 0.000000e+00 1.000000e+00 0.000000e+00 0.000000e+00 0.000000e+00
 0.000000e+00 8.589837e-01 1.410163e-01 0.000000e+00 0.000000e+00
 0.000000e+00 0.000000e+00 6.635826e-01 3.364175e-01 0.000000e+00
 0.000000e+00 0.000000e+00 0.000000e+00 8.987949e-01 1.012051e-01
 0.000000e+00 0.000000e+00 0.000000e+00 0.000000e+00 0.000000e+00
<ENDHMM>
~h "oi"
<BEGINHMM>
<NUMSTATES> 5
<STATE> 2
<MEAN> 39
 1.741919e+00 9.023561e-01 -4.571249e+00 -8.911880e+00 -1.342398e+01 -1.120647e+01 -7.870195e+00 -1.298851e+01 -5.090000e+00 -4.914830e+00 7.167410e-01 1.289077e+00 7.214130e+01 -5.455230e-01 -6.455236e-01 8.515354e-01 1.956686e+00 5.400347e-01 -1.267807e+00 -8.578683e-01 4.323271e-02 2.350660e-01 -2.159515e-01 3.107749e-01 -4.401150e-01 6.313255e-02 -1.060715e-01 1.199569e-01 2.274094e-01 1.282075e-01 -6.044047e-02 -6.863297e-02 2.570206e-01 2.792117e-01 -2.817886e-02 -1.969695e-01 -1.754334e-01 -6.382401e-02 -1.265674e-01
<VARIANCE> 39
 1.591386e+01 3.552278e+01 5.214025e+01 1.075827e+02 6.903767e+01 1.020930e+02 7.566662e+01 5.880749e+01 6.785466e+01 7.202742e+01 6.950484e+01 7.226894e+01 1.411186e+01 5.405055e-01 1.670713e+00 3.552480e+00 5.191861e+00 4.906171e+00 7.379098e+00 7.088044e+00 5.854947e+00 6.570588e+00 7.274584e+00 7.142071e+00 5.319915e+00 6.106791e-01 1.018137e-01 2.806761e-01 4.933186e-01 9.735568e-01 1.056790e+00 1.499975e+00 1.427018e+00 1.136142e+00 1.413956e+00 1.426602e+00 1.383929e+00 1.200475e+00 6.204160e-02
<GCONST> 1.357947e+02
<STATE> 3
<MEAN> 39
 -2.344309e+00 4.946785e-01 3.960315e+00 2.540853e+00 -1.148129e+01 -1.716928e+01 -7.907809e+00 -1.017431e+01 -5.805982e+00 -8.794495e+00 -3.947973e-01 -8.543638e-01 7.050064e+01 -4.373336e-01 5.459912e-01 2.945579e-01 3.541619e-02 4.593764e-01 8.995966e-01 9.966207e-01 3.867562e-01 -4.269716e-01 -4.164152e-03 1.082034e-01 4.879456e-03 -7.447158e-01 7.115932e-02 8.834863e-02 -3.796033e-01 -4.261756e-01 1.383753e-01 4.578550e-01 2.924154e-02 -1.358080e-01 6.401543e-02 2.903668e-01 5.991731e-02 9.820699e-03 -7.766262e-02
<VARIANCE> 39
 1.322856e+01 2.797956e+01 6.511615e+01 5.115384e+01 9.149807e+01 7.448901e+01 5.030752e+01 5.696120e+01 7.020542e+01 6.517613e+01 5.696641e+01 6.015826e+01 1.796102e+01 4.830560e-01 1.133175e+00 4.131176e+00 3.445313e+00 5.107571e+00 6.069475e+00 3.956830e+00 3.744775e+00 3.956315e+00 5.248756e+00 3.776324e+00 3.271455e+00 3.211362e-01 6.668457e-02 1.959996e-01 2.975337e-01 4.350020e-01 8.308030e-01 8.776592e-01 8.446326e-01 7.798811e-01 7.802302e-01 9.673795e-01 7.660946e-01 6.828684e-01 3.783731e-02
<GCONST> 1.232208e+02
<STATE> 4
<MEAN> 39
 -4.085793e+00 3.114017e+00 4.304001e+00 1.215043e+00 -1.006925e+01 -1.207957e+01 -3.239898e+00 -8.750777e+00 -6.156635e+00 -7.219182e+00 -5.029237e-01 -1.917711e+00 6.511896e+01 -3.601937e-01 1.742651e-01 -2.577254e-01 -2.090450e-01 7.363160e-01 9.337451e-01 4.625128e-01 3.822219e-01 1.820720e-01 3.635015e-01 -1.329859e-01 1.020062e-01 -7.765144e-01 2.616450e-02 -7.819204e-02 -1.177232e-01 -4.665183e-02 3.066131e-02 -1.185251e-02 -6.650799e-02 7.675804e-02 1.076519e-01 4.712322e-02 -4.190747e-03 6.836690e-04 2.345766e-02
<VARIANCE> 39
 1.371511e+01 2.525675e+01 4.323137e+01 3.854486e+01 6.872967e+01 6.224537e+01 4.583654e+01 4.549400e+01 4.056884e+01 5.096404e+01 3.664073e+01 4.894503e+01 2.351566e+01 3.612613e-01 1.051091e+00 1.585715e+00 1.494646e+00 2.263718e+00 2.089187e+00 2.387793e+00 2.822112e+00 2.162880e+00 2.167467e+00 2.001279e+00 2.432869e+00 3.358307e-01 5.986116e-02 1.500505e-01 2.131613e-01 1.983969e-01 3.757838e-01 4.144649e-01 4.170976e-01 4.901946e-01 3.875784e-01 4.235840e-01 3.829276e-01 4.407641e-01 3.395458e-02
<GCONST> 1.063324e+02
<TRANSP> 5
 0.000000e+00 1.000000e+00 0.000000e+00 0.000000e+00 0.000000e+00
 0.000000e+00 8.836325e-01 1.163675e-01 0.000000e+00 0.000000e+00
 0.000000e+00 0.000000e+00 7.134026e-01 2.865974e-01 0.000000e+00
 0.000000e+00 0.000000e+00 0.000000e+00 8.938097e-01 1.061904e-01
 0.000000e+00 0.000000e+00 0.000000e+00 0.000000e+00 0.000000e+00
<ENDHMM>
~h "oo"
<BEGINHMM>
<NUMSTATES> 5
<STATE> 2
<MEAN> 39
 4.235851e+00 1.139828e+01 -1.863606e+00 -1.423023e+01 -2.095206e+01 -1.200580e+01 -3.969475e+00 -6.471465e+00 -9.650992e-01 -1.250057e+00 -5.281178e+00 -4.345160e+00 6.583857e+01 3.735757e-01 -1.352265e-01 -1.210376e-01 -1.898922e-01 -7.181619e-01 -1.846775e-02 5.291651e-01 -1.607373e-01 -4.789876e-01 -1.010404e-01 -1.026466e-03 7.478868e-02 2.033206e-01 -3.252181e-01 -3.868415e-01 -3.712210e-01 2.094308e-01 6.334746e-01 3.227824e-01 2.290645e-01 1.504663e-01 -1.396380e-01 -1.139054e-01 2.995661e-01 3.322380e-01 -6.190393e-02
<VARIANCE> 39
 7.575951e+00 2.528938e+01 2.765327e+01 3.208587e+01 4.421640e+01 3.874810e+01 4.904930e+01 4.831684e+01 3.918637e+01 6.628496e+01 3.386152e+01 3.730949e+01 1.560819e+01 7.555425e-01 1.431088e+00 1.210415e+00 1.389688e+00 3.499127e+00 2.109546e+00 3.363395e+00 2.632813e+00 2.783602e+00 2.628177e+00 2.637740e+00 2.430737e+00 4.444186e-01 1.737506e-01 3.036258e-01 2.652279e-01 3.145626e-01 6.175777e-01 4.261321e-01 5.816171e-01 5.013314e-01 5.541756e-01 4.888806e-01 6.064545e-01 5.134182e-01 5.789620e-02
<GCONST> 1.111894e+02
<STATE> 3
<MEAN> 39
 4.387064e+00 8.832129e+00 -4.572787e+00 -1.328255e+01 -1.952199e+01 -9.746312e+00 8.966961e-01 -5.991836e+00 -5.628181e+00 -4.841470e+00 -3.785809e+00 -2.602969e+00 6.688343e+01 4.153953e-02 -1.112414e+00 -1.086744e+00 1.071024e+00 1.828400e+00 4.383063e-01 2.370079e-01 -5.516143e-01 -1.566399e+00 -3.919793e-01 1.233655e+00 1.347861e+00 1.587586e-01 -1.517362e-01 -1.631424e-01 -2.917949e-02 5.514269e-01 9.050217e-01 -7.719137e-04 -6.816860e-01 -2.267115e-01 2.454801e-01 3.507885e-01 2.844420e-01 -1.273183e-02 -1.250483e-01
<VARIANCE> 39
 8.734984e+00 3.170645e+01 2.915120e+01 4.236334e+01 5.378165e+01 4.836014e+01 6.101511e+01 5.196866e+01 6.452760e+01 6.714705e+01 4.476784e+01 4.873495e+01 1.943019e+01 3.881799e-01 1.264668e+00 1.410952e+00 2.277246e+00 4.880406e+00 2.859205e+00 4.747145e+00 3.650985e+00 4.539353e+00 4.348761e+00 4.039297e+00 3.885599e+00 4.208150e-01 9.231979e-02 1.937339e-01 2.471830e-01 3.700448e-01 8.385658e-01 6.329362e-01 1.035164e+00 6.848726e-01 8.832795e-01 7.673620e-01 7.661802e-01 8.860468e-01 6.579936e-02
<GCONST> 1.192981e+02
<STATE> 4
<MEAN> 39
 3.310970e+00 7.080610e+00 -5.903685e+00 -9.083302e+00 -1.222112e+01 -9.148547e+00 -2.746506e+00 -7.298476e+00 -6.129173e+00 -2.704550e+00 5.793424e-01 5.326612e-01 6.561826e+01 -4.410121e-01 -9.950249e-01 -3.850504e-01 1.917753e+00 2.630737e+00 5.130905e-02 -1.285900e+00 -6.488086e-01 8.650880e-02 8.272781e-01 9.675567e-01 1.941982e-01 -2.184774e-01 -1.353224e-01 4.354797e-02 2.958229e-01 1.804306e-01 -1.707761e-01 -2.288255e-01 -2.342433e-01 7.476050e-02 4.774350e-01 2.486866e-01 -2.793469e-01 -4.456118e-01 -3.752240e-02
<VARIANCE> 39
 1.462276e+01 3.678936e+01 3.631989e+01 4.734581e+01 8.043662e+01 5.218890e+01 5.587151e+01 5.447522e+01 6.843200e+01 6.258741e+01 4.293603e+01 4.616762e+01 2.816853e+01 6.556529e-01 1.072662e+00 1.524301e+00 2.577644e+00 5.688661e+00 3.709252e+00 4.742570e+00 3.488774e+00 3.732713e+00 3.564883e+00 3.361281e+00 3.910908e+00 4.626725e-01 1.006743e-01 1.705299e-01 2.766806e-01 3.566511e-01 1.216317e+00 6.182945e-01 7.844064e-01 5.444606e-01 8.458666e-01 6.320201e-01 6.892483e-01 7.852271e-01 8.506445e-02
<GCONST> 1.211152e+02
<TRANSP> 5
 0.000000e+00 1.000000e+00 0.000000e+00 0.000000e+00 0.000000e+00
 0.000000e+00 7.591028e-01 2.408973e-01 0.000000e+00 0.000000e+00
 0.000000e+00 0.000000e+00 5.690458e-01 4.309541e-01 0.000000e+00
 0.000000e+00 0.000000e+00 0.000000e+00 6.618043e-01 3.381958e-01
 0.000000e+00 0.000000e+00 0.000000e+00 0.000000e+00 0.000000e+00
<ENDHMM>
~h "ou"
<BEGINHMM>
<NUMSTATES> 5
<STATE> 2
<MEAN> 39
 3.847574e+00 6.239992e+00 -6.336997e+00 -1.465612e+01 -1.676195e+01 -7.395742e+00 -7.114687e-01 -9.548007e+00 -6.564694e+00 -5.227764e+00 -5.772266e-01 1.503631e+00 7.003867e+01 2.009057e-02 2.792171e-01 1.269097e-01 4.876053e-01 8.887301e-02 -2.148485e-01 -4.115124e-01 -3.883585e-01 -3.688238e-01 -4.627000e-01 1.203627e-01 6.154550e-02 -2.787577e-01 -8.300142e-02 2.887252e-02 7.348214e-02 2.014331e-01 2.150283e-01 4.907755e-02 1.201225e-03 1.125788e-01 3.991340e-02 -4.861837e-02 -8.397430e-02 -7.634898e-02 -1.319900e-01
<VARIANCE> 39
 6.393940e+00 4.472467e+01 3.141126e+01 5.536584e+01 5.389993e+01 5.350240e+01 8.512406e+01 5.787764e+01 6.712160e+01 5.595813e+01 6.073595e+01 5.787955e+01 1.501934e+01 2.483431e-01 9.829844e-01 8.167823e-01 1.613900e+00 1.654635e+00 1.942555e+00 1.899780e+00 2.045267e+00 2.072107e+00 2.098684e+00 2.348867e+00 2.197007e+00 4.556980e-01 6.425361e-02 1.391668e-01 1.267155e-01 2.310165e-01 2.807705e-01 3.182395e-01 3.612252e-01 3.645540e-01 3.866553e-01 3.687679e-01 4.160381e-01 3.943553e-01 5.345961e-02
<GCONST> 1.047102e+02
<STATE> 3
<MEAN> 39
 3.414278e+00 9.037327e+00 -3.494327e+00 -1.083385e+01 -1.479829e+01 -7.928377e+00 -2.696862e+00 -1.015912e+01 -8.635895e+00 -6.860096e+00 -1.128372e+00 -9.465325e-02 6.760535e+01 -1.795788e-01 3.400376e-01 3.924055e-01 8.107181e-01 5.247837e-01 -1.267914e-01 -3.579029e-01 1.418916e-01 -1.321761e-01 -4.418416e-01 -2.391734e-01 -2.146566e-01 -5.657822e-01 -5.230806e-02 -3.058953e-02 1.806084e-02 1.441661e-02 7.840507e-02 5.380662e-02 2.492640e-02 6.664076e-02 6.491955e-02 3.562926e-02 -3.548975e-02 -1.527062e-02 -5.460326e-02
<VARIANCE> 39
 7.621699e+00 4.373909e+01 2.906118e+01 5.135338e+01 5.038026e+01 5.005856e+01 8.308065e+01 6.662902e+01 6.083692e+01 6.302604e+01 7.362473e+01 6.347875e+01 2.132080e+01 2.031837e-01 5.487171e-01 7.046486e-01 1.144989e+00 1.260602e+00 1.460296e+00 1.745303e+00 1.970354e+00 1.552177e+00 1.913393e+00 2.092642e+00 1.863979e+00 3.616430e-01 3.352598e-02 7.729427e-02 1.022959e-01 1.700266e-01 1.899180e-01 2.271821e-01 2.752109e-01 2.772151e-01 2.699251e-01 3.111214e-01 3.339683e-01 2.994362e-01 2.749630e-02
<GCONST> 9.777988e+01
<STATE> 4
<MEAN> 39
 -9.939729e-01 8.012269e+00 -1.339829e+00 -2.812345e+00 -6.106091e+00 -5.648128e+00 -4.137756e+00 -6.713660e+00 -5.353045e+00 -6.672339e+00 -2.784208e+00 -1.684992e+00 6.187024e+01 -4.820132e-01 -2.115225e-01 1.129558e-01 3.664468e-01 6.330211e-01 3.305320e-01 1.131826e-01 3.530889e-01 3.085230e-01 2.016970e-01 -1.581440e-02 -2.022028e-02 -5.663486e-01 -2.970772e-02 -6.650889e-02 -4.443502e-02 -6.209527e-02 -8.177193e-03 3.211305e-02 6.288578e-02 1.095936e-02 3.927265e-02 6.688617e-02 3.784397e-02 3.906471e-02 2.940657e-02
<VARIANCE> 39
 1.669189e+01 4.646920e+01 2.269513e+01 3.332321e+01 4.232799e+01 3.964487e+01 4.729100e+01 4.872437e+01 4.416422e+01 4.534916e+01 3.844442e+01 3.838337e+01 3.484881e+01 3.143180e-01 6.294860e-01 6.410380e-01 1.093274e+00 1.305819e+00 1.309568e+00 1.687435e+00 1.787399e+00 1.627669e+00 1.922475e+00 1.800097e+00 1.646807e+00 2.948993e-01 3.775945e-02 8.202472e-02 1.043365e-01 1.652694e-01 2.032652e-01 2.189755e-01 2.731643e-01 2.855945e-01 2.807762e-01 3.264839e-01 3.160092e-01 3.006058e-01 3.358123e-02
<GCONST> 9.561076e+01
<TRANSP> 5
 0.000000e+00 1.000000e+00 0.000000e+00 0.000000e+00 0.000000e+00
 0.000000e+00 8.145219e-01 1.854781e-01 0.000000e+00 0.000000e+00
 0.000000e+00 0.000000e+00 8.248717e-01 1.751283e-01 0.000000e+00
 0.000000e+00 0.000000e+00 0.000000e+00 9.214702e-01 7.852981e-02
 0.000000e+00 0.000000e+00 0.000000e+00 0.000000e+00 0.000000e+00
<ENDHMM>
~h "uu"
<BEGINHMM>
<NUMSTATES> 5
<STATE> 2
<MEAN> 39
 -2.336217e+00 2.558717e+00 -1.051126e+00 2.192355e-01 -6.080070e+00 -1.170994e+01 -8.426337e+00 -1.088782e+01 -4.528020e+00 -6.616199e+00 -3.271858e+00 -2.533942e+00 6.836542e+01 2.294695e+00 1.554896e+00 3.202707e-01 -5.570070e-01 -1.598521e+00 -9.225179e-01 -7.897031e-01 -1.435537e+00 -1.673419e+00 -1.162592e+00 -3.701337e-01 -4.862344e-02 2.277065e-01 -5.625699e-01 -1.869979e-01 -1.679905e-01 -3.318044e-01 -1.387961e-01 2.258495e-01 4.423799e-01 5.347883e-01 3.394917e-01 3.365529e-01 2.262422e-01 2.382368e-01 -5.863924e-02
<VARIANCE> 39
